0,1,2,3,4,5,6,7,8,9,10,11,12,13,14,15,16,17,18,19,20,21,22,23,24,25,26,27,28,29,30,31,32,33,34,35,36,37,38,39,40,41,42,43,44,45,46,47,48,49,50,51,52,53,54,55,56,57,58,59,60,61,62,63,64,65,66,67,68,69,70,71,72,73,74,75,76,77,78,79,80,81,82,83,84,85,86,87,88,89,90,91,92,93,94,95,96,97,98,99,100,101,102,103,104,105,106,107,108,109,110,111,112,113,114,115,116,117,118,119,120,121,122,123,124,125,126,127
0.14008717400374637,0.13475389543336758,0.3459250252276693,0.5578140688686233,0.2985357974263678,0.15633275839762617,-0.381755680774041,-0.774370986278081,-0.6389072938492819,0.1857063767131062,-0.5146673789538398,-0.9242044942024621,-0.23618688929988885,0.6536982339676056,0.6756163389657563,0.10305112405149575,-0.6685273959223468,0.6861300655546589,-0.9412854174961134,-0.9646442853489332,0.5189319066790403,-0.11311764515421019,0.7852422477690029,-0.49370098042649335,-0.6447039509739425,-0.0535770427795188,-0.44797193376038025,-0.5673719791023155,0.9566110246651187,0.4707058719888071,0.38332533972331206,-0.927206996576772,0.8596930774083011,0.6293213870250842,-0.8976539024092716,-0.7788805808128056,-0.5028037852533742,0.26922320528971455,0.21177235580806086,0.082872472697892,-0.23912808918150796,0.8907128237418889,0.23557591357091567,-0.5002702091201352,0.8928500597370108,0.34618257342852554,-0.27543003975536506,0.9526602020745911,-0.49024171195653365,0.786987027419183,0.31758201662604524,-0.03335805705537753,0.9709320636988215,0.59746344610907,0.6214747087839496,0.6298803707693641,0.639459447412094,-0.5259788048610419,0.5325471038321428,-0.8958662779572779,0.40288802970308035,0.5990059086209609,-0.12733786853429896,0.6764635874828058,0.40468119820267856,0.2952621922189469,0.3317619167856316,-0.001960324919744849,-0.34250169340029113,-0.6186399303009225,0.062078290408474235,0.2953274218520734,0.9170054966132919,-0.4927167673413597,-0.9386050281365581,-0.8866225302552553,-0.4314142571349717,-0.5814745457196118,0.5359115066108016,0.7630814337501237,0.989278351277832,0.4513486791519814,-0.8732144737208867,0.42844464874908716,-0.5298369773473877,0.9373822899139763,0.4931325556855328,-0.06696402171989413,-0.3662046845687781,-0.46791924641327265,0.34179761137356635,0.8356674292478607,0.6338009522128472,-0.7225768230696015,0.28308222171666464,0.3203675586673338,0.9921152543706366,0.7175565617761004,-0.5227620513641669,-0.22053674848007576,-0.04860847530949686,0.95983114155231,-0.6846761690212291,0.22149053727805001,0.5249652942738747,0.4372833833787477,-0.8559840509858996,-0.1538125361844791,-0.6137519761442329,0.2223428147890325,-0.3198053559254961,0.7456706853936084,-0.8486171186840377,-0.2744544986802513,-0.931911160356385,0.34600012599326524,0.18175107884508823,-0.8866867152410303,0.15011747398064235,-0.5284069200333787,-0.014576483349339364,-0.45448184314846496,-0.7637670826788887,0.8071698304456776,-0.7410770342144182,0.5371406882309984,0.4798588445238743,-0.017668467700876267
-0.0018128145020455122,0.0015769025776535273,-0.002922127954661846,0.0034861050080507994,0.0015503125032410026,-0.002267062198370695,-0.0005541002610698342,-0.0015766347059980035,0.0017596716061234474,0.00047533868928439915,-0.002032033633440733,0.000189925471204333,-0.0014385951217263937,-0.0025336716789752245,0.002350626280531287,-0.0028155026957392693,-0.00033193331910297275,0.0028835267294198275,0.0006493310793302953,-0.0003391531645320356,0.0009394247899763286,0.00037076082662679255,0.002406835788860917,-0.0032064609695225954,-3.191382347722538e-05,-0.002536209998652339,0.0018226518295705318,0.0018825456500053406,-0.002548402873799205,0.0014288416132330894,-0.0034030787646770477,0.0013187755830585957,-0.003666527569293976,0.002929813927039504,0.00314566888846457,-0.0018623912474140525,0.001237755292095244,0.0033406377770006657,-0.000566401518881321,0.0011248573428019881,-0.001411717152222991,0.0016968430718407035,0.002223794348537922,0.0015471118967980146,-0.0007678468246012926,-0.0019457628950476646,-0.0037501929327845573,0.0009535295539535582,-0.0027217138558626175,0.0018280595541000366,0.0038751468528062105,-0.0010984456166625023,-0.0006598387844860554,-0.0028958586044609547,0.002102936850860715,-0.003784793196246028,0.0013145114062353969,0.0002413323090877384,0.0004151507746428251,-0.001089294208213687,-0.000802854192443192,-0.002005289075896144,-0.0011738453758880496,-0.00047773486585356295,0.00035983629641123116,0.0020512747578322887,-0.002497683744877577,-0.0018399673281237483,0.00014570271014235914,0.002531766425818205,-0.0018156686564907432,-0.0016459323232993484,-0.0018609237158671021,0.003455644240602851,-0.003675762563943863,6.212948210304603e-05,4.906029516860144e-06,-0.00088034279178828,-0.0028275514487177134,-0.0023135363589972258,0.00047660048585385084,0.0012722098035737872,-0.0029533603228628635,-0.0006207604892551899,-0.00011512859055073932,0.0027961230371147394,0.003117180662229657,-0.00031054418650455773,-0.002156647155061364,0.0011828158749267459,0.0015785832656547427,-0.002951457165181637,-0.0032140740659087896,0.002845392096787691,0.0030035602394491434,0.003931902814656496,-0.0014797155745327473,0.000491224811412394,0.0016041398048400879,-0.0007391528342850506,0.00036462434218265116,0.003071790561079979,0.00033981981687247753,-3.886197373503819e-05,-0.0035892766900360584,0.002851342549547553,-0.0027224861551076174,-0.0022470070980489254,-0.0016618857625871897,0.0014904213603585958,-0.0023615481331944466,0.0039543816819787025,-0.0031210321467369795,-0.0005300067132338881,0.0036707138642668724,-0.001068375539034605,-0.001236711977981031,-0.002609920920804143,0.0034567927941679955,0.00023898034123703837,0.003797045210376382,-0.0013744368916377425,-0.0020192344672977924,0.0034780630376189947,0.003118591383099556,0.0016620258102193475,0.003021336393430829,0.0033801975660026073
0.002284166170284152,-0.0005698487511835992,0.001793830655515194,0.00012432060611899942,0.000373684597434476,0.0029045219998806715,-0.0007052023429423571,0.0009794773068279028,-0.00250091846100986,0.0024968732614070177,-0.001122908666729927,-0.00182306335773319,0.0028948020190000534,0.0029126303270459175,-0.0018827065359801054,-0.00264246785081923,0.0027615607250481844,0.001113825710490346,0.00021040751016698778,-0.0008017002255655825,-0.002658078446984291,0.002374726813286543,-0.002853927668184042,0.0020206510089337826,-0.0002134758251486346,-0.0014154998352751136,0.0012024487368762493,0.0013721103314310312,-0.002608093898743391,0.0011744537623599172,0.002346815774217248,0.003815729171037674,-0.00307653215713799,-0.0031246028374880552,0.001997891580685973,0.0007665735902264714,0.0011461720569059253,-0.0017278388841077685,-0.0023658673744648695,0.0005283168866299093,-0.003095535095781088,-0.0038886968977749348,-0.0023033779580146074,0.00022295358940027654,-0.0005437975050881505,-0.0035898976493626833,-0.0020544843282550573,0.0037316209636628628,-0.001756857498548925,-0.001752060721628368,-0.0013947152765467763,-0.0012182403588667512,-0.00145468779373914,0.000812517711892724,0.003384673036634922,-0.0018071307567879558,-0.0035597628448158503,0.0006997865275479853,0.0001363637566100806,-0.0008256139699369669,-0.0032576292287558317,-0.0009218171471729875,0.003755687503144145,-0.0034456998109817505,-0.003895334666594863,0.0006648128037340939,0.002576530212536454,0.0031368720810860395,0.0015478860586881638,-0.0012433227384462953,-0.0035092439502477646,0.0019824919290840626,0.003693975741043687,-0.0012207244290038943,-0.0028748733457177877,-0.00038968262379057705,0.0003425620379857719,0.0027395335491746664,-0.0025642146356403828,-0.002569863572716713,0.0035601186100393534,-0.0017386827385053039,-0.002433542627841234,0.001991480588912964,0.003814826486632228,-0.0011407311540096998,-0.0017579214181751013,-0.0028521737549453974,0.0011161541333422065,-0.0013012918643653393,-0.0003446552436798811,-0.00315402215346694,-0.0017524001887068152,-0.0018626049859449267,-0.003796950913965702,0.0015946188941597939,-0.0014345032395794988,-0.003111594822257757,0.002367328852415085,0.002023865468800068,-0.000969406682997942,-0.0015461904695257545,-0.00048240466276183724,-0.002071170601993799,0.0032388586550951004,-0.002548495540395379,0.003683483926579356,0.002572793746367097,-0.0005162861780263484,-0.000407921033911407,0.0012885590549558401,0.0033459728583693504,-0.0026049830485135317,-0.00296921469271183,0.002101361518725753,-0.0013939655618742108,-0.00299973227083683,0.0003038575523532927,0.0037089844699949026,-0.003132625948637724,0.0034945679362863302,-0.000912186224013567,-0.003727650037035346,0.001842837082222104,-0.0028854506090283394,0.002845081966370344,0.0033200818579643965,-0.0013317378470674157
0.0003834683739114553,-0.005565966945141554,-0.0033679387997835875,-0.0004033269069623202,0.004139373078942299,0.0005711701815016568,-2.2210933821043e-05,0.0024703098461031914,-0.0004420938203111291,0.0016123238019645214,-0.0013402772601693869,0.003744550282135606,0.0036343277897685766,0.0024590587709099054,0.0004286863259039819,0.0009495248086750507,0.0005730701377615333,0.000435516209108755,0.0027015581727027893,0.001560280448757112,0.0026964449789375067,0.0011899290839210153,-7.871412526583299e-05,0.004818431101739407,0.0004044563393108547,0.00190391403157264,0.0013774764956906438,-0.003603676101192832,-0.003989925142377615,-0.0015234063612297177,0.0025570502039045095,0.0034952752757817507,0.0007930700667202473,-0.00332993664778769,-0.0036358609795570374,-0.004148889798671007,0.0016011453699320555,0.003110907506197691,0.0019251200137659907,-0.001308727776631713,0.002932197879999876,-0.0022488513495773077,-0.0046234470792114735,0.0010059298947453499,-0.0025805640034377575,0.00448904512450099,-0.0031984022352844477,-0.0017407886916771531,-0.0027578806038945913,-0.0017107330495491624,-0.00047913624439388514,0.002227598801255226,0.0023119160905480385,-0.002048497088253498,0.0029933692421764135,0.0035182430874556303,-0.003658540779724717,-0.001102043897844851,-0.0021913337986916304,0.002273435704410076,0.0027571646496653557,0.002122440142557025,0.0006679609068669379,0.003044308163225651,-0.00030594749841839075,-0.0010782453464344144,0.0012797995004802942,-0.003048016456887126,0.0020800104830414057,-0.00020808678527828306,-0.00031778201810084283,-0.0016503969673067331,-0.002572983270511031,-0.0014010303420946002,0.0020886987913399935,0.0008058510138653219,-0.003548579290509224,0.0007430670666508377,-6.27132976660505e-05,-0.004838358145207167,-0.0008607879863120615,-0.0040915412828326225,0.0008437791839241982,-0.002056847559288144,0.004171757493168116,-0.001794479670934379,0.0013267056783661246,-0.0021467742044478655,0.003022650256752968,0.0047300588339567184,0.0038969917222857475,-0.0025042109191417694,0.004609065130352974,0.003662077710032463,-0.00257321959361434,-0.0013690830674022436,0.001874782145023346,-0.0012584907235577703,-0.0002903103595599532,-0.003973649814724922,-0.0015316377393901348,-0.0009108310914598405,0.0017040615202859044,-0.0005181007436476648,-0.0032002883963286877,0.0035452870652079582,-0.003200782695785165,-0.00202723266556859,-0.0026985234580934048,-0.0028613090980798006,0.00017135505913756788,0.0018094448605552316,0.001014462555758655,-0.0026850167196244,0.0037385658361017704,-0.003988555166870356,0.000826677365694195,-0.00351897394284606,-0.0010817841393873096,0.004357607569545507,-0.0019538612104952335,-0.0015893649542704225,-0.0017630151705816388,-0.0019556323532015085,0.0011611300287768245,-0.00013445540389511734,-0.003178877290338278,0.00020047667203471065
-0.0012545539066195488,0.002901611849665642,0.0010019965702667832,-0.0034314985387027264,0.000702513090800494,0.0014581492869183421,-0.002018492203205824,-0.003177751787006855,-0.0010230951011180878,0.002201399765908718,0.0033767358399927616,-0.0027769855223596096,0.0012086527422070503,-0.002067309571430087,-0.0008273316198028624,0.0037155039608478546,-0.002890551695600152,0.003884892910718918,-0.003078456735238433,-0.0007218229002319276,-0.00046891963575035334,0.002131517743691802,-0.002189680002629757,0.00012783895363099873,-0.002608126262202859,-0.0009664337267167866,0.001570256194099784,-0.0012942350003868341,0.000841560133267194,-0.00024126320204231888,-0.0011856146156787872,0.003061537863686681,0.0025884162168949842,-0.0006503268959932029,-0.0031388686038553715,0.0029689951334148645,-0.003558766096830368,-0.0035104253329336643,-0.0008476607035845518,0.0016048882389441133,-0.0012012446532025933,-0.003794359741732478,0.003513372503221035,0.001529431203380227,-0.0030259352643042803,-0.00024886560277082026,-0.0011643603211268783,-0.002568064024671912,0.003703726688399911,-0.0037226511631160975,-0.0006462112069129944,0.0015316610224545002,0.0012621122878044844,0.0027626114897429943,0.0014431588351726532,0.0015715513145551085,0.0032423757947981358,0.000493252242449671,0.002760190051048994,-0.002999977208673954,-0.0016547620762139559,-0.001778914243914187,-0.002826003124937415,-0.0016429981915280223,0.0023158479016274214,0.0007933721062727273,0.0016098283231258392,0.0015936624258756638,-0.0027365824207663536,-0.000507987686432898,0.002562151290476322,0.0022682189010083675,-0.0022793652024120092,-0.0013207102892920375,-0.002370514441281557,0.0019390769302845001,-0.0001513411698397249,0.0009577685268595815,-0.0023997838143259287,0.0025100798811763525,-0.0010596297215670347,0.0030272281728684902,-0.003524285275489092,-0.001247254665941,-0.0013713594526052475,0.002007105853408575,-0.0035519928205758333,0.001973736099898815,0.0018773747142404318,0.0032375913579016924,-0.0019442690536379814,-0.0007424025679938495,-0.0029413774609565735,0.0018624798394739628,0.0026516288053244352,0.0038931698072701693,-0.0035468251444399357,-0.0010102143278345466,-0.0028960814233869314,0.0008186624036170542,-0.0014905347488820553,-0.0019703928846865892,0.0028400348965078592,-0.0030585501808673143,-0.003521688049659133,0.0005595282418653369,0.0012639540946111083,-0.0025038360618054867,-0.000841190165374428,-0.0008497625240124762,-0.0002491140621714294,0.0006834796513430774,-0.0012316901702433825,0.0016351803205907345,-0.0003923330514226109,-0.002522388705983758,0.0034965304657816887,0.0002989191561937332,0.0015300390077754855,-0.0010927715338766575,-0.00039369272417388856,0.0038686636835336685,0.0022633231710642576,0.0008251933613792062,-0.0017810253193601966,0.000697696057613939,0.0002985465107485652,-0.0021324034314602613
-0.0037210448645055294,-0.00318218395113945,0.0030966505873948336,0.00015476856788154691,0.002084770705550909,0.0033567713107913733,-0.0024049554485827684,-0.0031945917289704084,0.0013133317697793245,0.0026254765689373016,0.0036679243203252554,-0.002251945436000824,0.0007626728038303554,0.003843100043013692,0.0012715047923848033,0.002780778566375375,0.0028746952302753925,0.002383765997365117,-0.0009655142785049975,0.0015629539266228676,-0.0016870396211743355,0.0039061575662344694,0.003674717154353857,0.0021024751476943493,-0.0034625157713890076,0.002262948779389262,-0.0005665517528541386,0.002007285365834832,0.002134795067831874,0.0024275777395814657,0.0027101440355181694,-0.0016539570642635226,-0.0015617097960785031,-0.0012897379929199815,-0.0029449695721268654,-0.0018304259283468127,0.003787340596318245,-0.0003039939620066434,0.0017818715423345566,-0.0014659117441624403,0.0004909994313493371,-0.0017395338509231806,-0.0029995746444910765,0.0011512257624417543,0.0004548605065792799,-0.0002196367859141901,-0.0006306763971224427,0.003493269206956029,-0.003140249289572239,-0.00039663005736656487,-0.003539369208738208,-0.0010508756386116147,-0.0010985692497342825,-0.003510610666126013,0.0016541139921173453,-0.0013950486900284886,0.0005888171726837754,0.0009928529616445303,0.00039096182445064187,0.0008177945273928344,-0.0015876487595960498,-0.0018422772409394383,-0.002661529229953885,-0.0010406123474240303,0.0004058432241436094,-0.0023310191463679075,0.0028572294395416975,-0.0036977697163820267,-0.0031981582287698984,-0.0011314339935779572,-0.002471099840477109,-0.0024779941886663437,0.0017324627842754126,-0.0016655829967930913,-0.0010882248170673847,-0.002783692441880703,0.0023211664520204067,0.0037479244638234377,0.0008041216060519218,-0.0032609417103230953,-0.0038886694237589836,0.0009279943187721074,-0.003621865762397647,0.0011161715956404805,-0.00015415172674693167,-0.0028048567473888397,-0.0017710257088765502,-6.043524535925826e-06,-0.0014575994573533535,0.0036250867415219545,0.001897440874017775,0.000127900144434534,0.003097723936662078,0.0028511148411780596,-0.0022049215622246265,-0.0022313182707875967,-0.0004368919471744448,-0.0036685841623693705,0.0023056366480886936,0.0017331900307908654,-0.0032612537033855915,-0.003548723878338933,-0.002693918300792575,0.0037278260570019484,0.0017936592921614647,-0.0036378486547619104,-0.0004721411387436092,0.0014267852529883385,0.003333126427605748,5.685105861630291e-05,0.0036811716854572296,0.0008492508786730468,0.0006812887149862945,0.003508812515065074,0.0025935224257409573,-0.0013558634091168642,0.0036578986328095198,-0.001532473717816174,-0.001326070399954915,0.0017033311305567622,0.00018109302618540823,0.0004829278914257884,-0.0037645455449819565,-0.0009213534067384899,0.0006742921541444957,-0.0035932515747845173,0.0017855322221294045,0.0008070909534581006
1.9950739442720078e-05,0.0031107505783438683,-0.001466455403715372,0.0037509582471102476,0.002614624798297882,0.0034002771135419607,0.0013891481794416904,0.002848502714186907,-0.0021345329005271196,-0.0030747978016734123,-0.0008721280028112233,2.2415646526496857e-05,0.002283884212374687,-0.0009888185886666179,-0.001471737981773913,-0.003374000545591116,0.001849392894655466,7.559391087852418e-05,0.0031887751538306475,0.0007155631319619715,0.0029693744145333767,-0.002190098399296403,0.0013008755631744862,-0.0016642112750560045,0.0015771774342283607,-0.003619781229645014,-0.003318078350275755,-8.926379814511165e-05,0.0032649943605065346,0.00024065325851552188,-0.0011769334087148309,-0.001499742385931313,0.003530730726197362,0.0013353105168789625,0.0006412891088984907,0.002841623965650797,0.0029772729612886906,0.0007895280723460019,-0.0025628162547945976,0.003214755794033408,0.0004235584638081491,0.0021594392601400614,-0.0005057613016106188,-0.002679745201021433,-0.0031056194566190243,0.0019160422962158918,0.002024480141699314,-0.0004373903793748468,-0.002898435341194272,0.0018731177551671863,-0.0022139735519886017,-7.516287587350234e-05,0.0019845233764499426,0.0013716776156798005,-3.908977760147536e-06,0.0005315549205988646,-0.00036327127600088716,0.0010515577159821987,0.0004108820576220751,-0.0009146113879978657,0.003946848213672638,0.00013226200826466084,0.001608600257895887,0.0017661892343312502,-0.0009223539382219315,0.0019914857111871243,0.000629971269518137,0.0030153782572597265,0.00023868793505243957,0.0013647209852933884,0.0037447332870215178,4.9579648475628346e-05,0.0024518088903278112,0.0019120749784633517,-0.00022504724620375782,-0.0010793412802740932,0.0028523073997348547,0.0027938797138631344,-0.0020708045922219753,0.0021605687215924263,0.0022949965205043554,0.002900493796914816,-0.0021002471912652254,-0.0013916997704654932,0.001349413301795721,0.002416986273601651,0.003358260029926896,-0.0029933215118944645,0.0009139565518125892,-0.0025370835792273283,-0.0010051095159724355,0.0026059322990477085,-0.0008476180373691022,0.0032009289134293795,-0.0003439909778535366,-0.0023469917941838503,-0.0026291199028491974,-0.002669165376573801,-0.0015864670276641846,0.003594755893573165,-0.0033369867596775293,0.0018101281020790339,-0.0032936381176114082,-0.00027874691295437515,-0.0027543019969016314,-0.0011939064133912325,-0.00010838106391020119,0.0016877654707059264,-0.002071699360385537,0.001646684599108994,0.0009018212440423667,0.0026704599149525166,-0.0004471717111300677,0.0020186740439385176,0.002845563692972064,0.003801317885518074,0.0010980588849633932,-0.001873921835795045,0.0002458039380144328,0.0033404440619051456,0.0017456823261454701,-0.0002011507749557495,-0.0021763979457318783,-0.003170816460624337,-0.001962136710062623,-0.0024439783301204443,-0.0023637667763978243,0.002606624038890004
0.0025328174233436584,-0.0005647412035614252,0.0030796644277870655,0.0035527318250387907,0.0019940391648560762,-0.0021795094944536686,0.0031155068427324295,-0.0037738829851150513,-0.0009800373809412122,0.002571118762716651,0.0016969484277069569,-0.0006168095860630274,-0.002557584084570408,-0.002261136891320348,-0.0038084995467215776,-0.002674275077879429,-0.0002910536131821573,-0.0032993562053889036,-0.0006091287359595299,0.0030556449200958014,-0.0014513391070067883,0.001757367979735136,0.0009316104697063565,-0.001765635097399354,-0.0038325274363160133,0.001819924684241414,0.0015565782086923718,0.000871160882525146,3.49368856404908e-05,0.0010177005315199494,0.002678173827007413,0.0023279068991541862,0.00039327185368165374,0.0035161259584128857,0.0010073415469378233,-0.0024446253664791584,0.0009503825567662716,0.0038164162542670965,-0.000398674892494455,0.0011392299784347415,-0.0030514204408973455,0.0018259243806824088,-0.003415487240999937,0.0031514009460806847,-0.002612532814964652,-0.0013069971464574337,0.003008901374414563,-0.0025143579114228487,0.0025786287151277065,-1.6610727470833808e-05,0.0002886511501856148,-0.0009109306847676635,-0.0025359157007187605,-0.0008014719351194799,0.0007287035696208477,0.00023942325788084418,0.0022358756978064775,6.368883623508736e-05,0.0024782216642051935,6.559952453244478e-05,-0.0007603717385791242,0.001669030636548996,-0.00234755571000278,-0.002911466173827648,-0.000396879855543375,-0.0036148098297417164,0.0009225080139003694,-0.0013826380018144846,-0.002834554761648178,-0.0039175827987492085,-0.0018010244239121675,0.00132553034927696,-0.0008942776476033032,-0.00020613189553841949,0.0023652929812669754,0.0004997532814741135,0.0035115061327815056,0.002935009077191353,-0.003464263863861561,-0.0020890531595796347,0.0005377681227400899,-0.0005412182072177529,-0.0027641314081847668,0.00301599083468318,0.0018484486499801278,0.0038692208472639322,-0.002494871150702238,0.00014801131328567863,-0.0006277724169194698,-0.0026100247632712126,0.001896017580293119,-0.00012060489098075777,-0.0005921870470046997,-0.0005437972140498459,0.002304252702742815,-0.0032042860984802246,-0.0019417800940573215,0.0023927248548716307,-0.003592374036088586,-0.0006382113788276911,-0.0024409042671322823,-0.002433951012790203,-0.00013895175652578473,-0.002577507169917226,-0.0017320059705525637,0.0029948786832392216,0.002615518867969513,-0.003875057678669691,-0.0032833663281053305,0.0024627684615552425,0.002009932417422533,0.00314928381703794,0.0004947248380631208,-0.00392542639747262,0.0037819240242242813,0.0016230068868026137,0.003403471317142248,-0.0002866292779799551,-0.002429070882499218,0.00256410613656044,-0.0031034015119075775,-0.0021515872795134783,0.0009024518076330423,-0.0037864495534449816,-0.0035618203692138195,0.0012315163621678948,0.0003794617368839681,0.00330133899115026
-0.003054094035178423,-0.00354779209010303,-0.0010940157808363438,0.0008458517258986831,-0.0013634664937853813,-0.0036147870123386383,0.0031393093522638083,0.0021801996044814587,0.0019926081877201796,0.003804245963692665,-0.0011673993431031704,-0.001838093507103622,-0.0029952547047287226,-0.003404733259230852,-0.0030320854857563972,0.00276413606479764,-0.0003978618187829852,0.0007972415187396109,0.00043452519457787275,0.001379840774461627,0.004011977929621935,0.002337690908461809,0.0013477671891450882,0.0006643800297752023,0.0014422152889892459,0.002883504144847393,0.0005718039465136826,-0.002779982518404722,0.0015261697117239237,-0.0034639155492186546,0.0037712990306317806,-3.090535392402671e-05,-0.0006523897754959762,0.003105711191892624,0.0037211317103356123,0.0029025860130786896,-0.0001092953170882538,-0.00016287695325445384,0.002216893481090665,0.0014236116549000144,-0.0018169117392972112,0.001506042550317943,-0.0010814147535711527,-0.0008521307026967406,-0.0006635227473452687,6.216564361238852e-05,-0.0011449470184743404,0.0012572419364005327,0.0010352781973779202,-0.002769265789538622,-0.0012981140753254294,0.003942583221942186,-0.0030549783259630203,-0.0018697213381528854,-0.0037372370716184378,-0.0009346297010779381,0.00014993063814472407,0.0006587973330169916,0.0015506817726418376,-0.0004564968403428793,-5.079757465864532e-05,0.0001957995700649917,0.0028583647217601538,0.0005183285684324801,-0.0014003509422764182,0.001982437213882804,-0.0019956035539507866,-0.0036205926444381475,-0.0005188919603824615,-0.0036614788696169853,-0.0015981224132701755,0.0019673777278512716,-0.0024426395539194345,-0.00035594747168943286,-0.00045101920841261744,-0.0011111729545518756,0.00012073470861651003,0.002298581413924694,0.0006831234786659479,-0.0008317888714373112,0.0015596162993460894,-0.0035831567365676165,-0.0023928459268063307,-0.0010603630216792226,0.0024960266891866922,-0.0029733816627413034,-0.003953101579099894,-0.002550081815570593,-0.00041068490827456117,-0.001443065470084548,-0.0017763450741767883,-0.0023518509697169065,0.0022921613417565823,0.0008545057498849928,-0.0015009657945483923,0.0038750628009438515,-0.0034258905798196793,-0.0029629888013005257,0.000737107708118856,-0.000978505820967257,-0.0027048869524151087,0.0007507667760364711,0.0007367008947767317,0.0016966244438663125,-0.002200019545853138,-0.0021660563070327044,-0.0020122630521655083,-0.0012264864053577185,-0.0033946875482797623,0.0021260869689285755,0.003417188534513116,-0.00018428933981340379,-0.0009733292972669005,0.0003139688342344016,0.0039298743940889835,-0.0010934853926301003,-0.0010844124481081963,0.002350287511944771,-0.0010794542031362653,-0.00016663232236169279,-0.003231853013858199,-0.0022174224723130465,0.0004285961913410574,-0.0005979877314530313,-0.0011735290754586458,0.0019281987333670259,0.0006735030328854918,0.0018897762056440115
0.0028663878329098225,-0.0010769410291686654,0.003811073023825884,-0.0022806173656135798,-0.0022822986356914043,0.0006208060076460242,0.00026950330357067287,0.00012358899402897805,0.0011029678862541914,0.0011745269875973463,0.0020045910496264696,-0.003783246036618948,0.0013979764189571142,0.0025420438032597303,-0.0021191195119172335,0.002147957682609558,0.001990011427551508,0.001030967105180025,0.0024073291569948196,0.0026111784391105175,0.0031569323036819696,0.0032488524448126554,0.001994116697460413,-0.0008112862124107778,0.0009745743591338396,-0.002782332245260477,-0.0009638896444812417,-0.0009822743013501167,-0.0034794483799487352,-0.002306276233866811,-0.0023206446785479784,-2.972530637634918e-05,-0.0017414247849956155,0.0007922456716187298,0.0038653260562568903,0.0020529029425233603,-0.002332511590793729,0.0003987274831160903,-0.00204086652956903,-8.701998012838885e-05,-0.0003323287528473884,-0.0020201904699206352,-0.002332163043320179,0.0027451012283563614,0.0016301589785143733,0.0014292342821136117,0.0003033402608707547,0.0004073610180057585,-0.0009591275011189282,-0.0018529968801885843,-0.003156492952257395,0.003610532497987151,0.001726145506836474,-0.0020267667714506388,-0.00215448928065598,0.0017537148669362068,-0.0007470050477422774,0.003722519613802433,-0.0020986227318644524,0.0010475157760083675,0.001223143539391458,0.0038454425521194935,0.003543489845469594,0.00031300936825573444,0.003258832497522235,-0.0005370828439481556,-0.001988088944926858,0.0032449965365231037,-0.003119910601526499,-0.0008235732093453407,-0.00033164123306050897,0.0014569940976798534,-0.0007087509147822857,-0.002648282330483198,-0.0021544480696320534,0.001558347954414785,-0.002664848929271102,-0.0007889129919931293,0.0021837938111275434,0.0026490292511880398,0.002534070983529091,-0.001664601149968803,-0.0012484743492677808,-0.0036265298258513212,-0.003731985343620181,-0.0008793798624537885,0.0020204714965075254,-0.003959511872380972,-0.0017234731931239367,-0.0023595092352479696,0.0016656736843287945,-0.000869429437443614,0.0029070982709527016,0.001393627724610269,-0.002293027937412262,0.0012469582725316286,-0.003613718319684267,0.0038548095617443323,0.0026074396446347237,0.0018215477466583252,0.0014011512976139784,-0.0018936601700261235,0.003466348396614194,0.003565411549061537,-0.002755513647571206,0.0036648493260145187,0.003886786289513111,0.003491545096039772,-0.0009683796670287848,0.00038708149804733694,-0.0034681304823607206,-0.0015078424476087093,0.0019662980921566486,-0.0027785233687609434,0.0027031090576201677,0.002510660793632269,0.0023072559852153063,-0.000466912635602057,0.002097560092806816,-0.0013861991465091705,0.00010828618542291224,-0.0010326227638870478,0.002727978629991412,-0.0023262491449713707,0.0026334228459745646,0.00019715602684300393,-0.001294223009608686,0.002982775215059519
-0.0021441311109811068,0.0004842673079110682,0.0038339628372341394,-0.0012203854275867343,-0.003688204800710082,0.0012933039106428623,0.003241198603063822,-0.003004013327881694,-0.0038047509733587503,-0.0007873980794101954,-0.0018981366883963346,-0.0015642426442354918,0.002036913763731718,-0.0020374758169054985,0.0026884046383202076,-0.0009915241971611977,0.0005956565146334469,0.0007295974064618349,-0.0010974634205922484,-0.0011487816227599978,-0.003734059166163206,0.0034030505921691656,-0.00295743509195745,0.0012261512456461787,-0.0009475421975366771,-0.00019782983872573823,0.003868760308250785,-0.0013884252402931452,-0.00023804049124009907,-0.002033085795119405,0.002623483771458268,0.002723182085901499,0.002717383671551943,-0.00012536809663288295,-0.0024448467884212732,-0.003047891426831484,0.0037664680276066065,-0.003529955632984638,0.003844363847747445,-0.00017611704242881387,0.0034950748085975647,0.0002890996402129531,-0.0027584778144955635,-0.0001322891330346465,-0.0020860997028648853,-0.0005358171183615923,-0.001585374353453517,0.002242428483441472,0.0035169445909559727,-0.002935166470706463,-0.0016118158819153905,-0.003066003555431962,-0.002000977983698249,0.0033092298544943333,0.00153441505972296,0.002792720915749669,0.0036535407416522503,0.0008818372734822333,0.0025784848257899284,-0.002874727128073573,-0.0012264325050637126,0.003218672703951597,0.0034210309386253357,0.0023432946763932705,-0.0030331816524267197,0.0016698252875357866,-0.0026678794529289007,-0.0027470795903354883,-0.0012763278791680932,0.00026826810790225863,5.626015263260342e-05,-0.0037217517383396626,0.0008841589442454278,0.0008646564092487097,0.0019143978133797646,-0.0020516642834991217,-0.001346328528597951,-0.003544799517840147,-0.0013789089862257242,-0.004121726844459772,0.000775325926952064,0.0034070026595145464,-0.003030764637514949,0.002106732688844204,0.003776177065446973,0.00010228515020571649,-0.0027623558416962624,6.483862671302631e-05,-0.0027495340909808874,-0.0034245834685862064,0.002808941761031747,-0.0006175519665703177,-0.0002947928151115775,-0.002435303758829832,-0.0027399163227528334,0.003491004928946495,0.0034245550632476807,-0.0009804407600313425,-0.0032194943632930517,0.0028969459235668182,-0.0016054845182225108,-0.0025739241391420364,0.0010458907345309854,-0.0033513957168906927,-0.001304648001678288,0.0028886785730719566,0.0017464464763179421,-0.0036211113911122084,-0.0024736097548156977,0.0037566195242106915,-0.002663139719516039,0.0027576610445976257,-0.0033263294026255608,-0.001776507357135415,-0.0015331037575379014,-0.0026003483217209578,7.788075890857726e-05,0.0003592581197153777,0.0016830782406032085,0.0020122912246733904,0.0026940442621707916,0.0037310742773115635,0.001569263287819922,0.0009099122253246605,-0.0032496624626219273,0.0008640556479804218,-0.003169119590893388,-0.003716205945238471
0.0005118788685649633,0.0010704284068197012,-0.0005825953558087349,0.0007014552247710526,0.003522992366924882,-0.0004660907434299588,0.0034869005903601646,-0.0032029463909566402,0.0007408559904433787,0.001863317214883864,-0.0024927626363933086,0.001510246773250401,0.003188046859577298,0.0005470770411193371,-0.0009785444708541036,0.0026724666822701693,0.0024755746126174927,0.002221444621682167,0.0028425029013305902,-0.001533279661089182,0.00047541415551677346,-0.0011084029683843255,-0.0012434852542355657,0.0011725852964445949,0.0007521374500356615,0.0007232605712488294,0.002190918894484639,0.003300205571576953,0.0030596822034567595,-0.0005131060024723411,-0.0016861922340467572,0.0012416369281709194,0.0037100198678672314,-0.0023186022881418467,-0.0005073267966508865,-0.0018287788843736053,-0.0009044531616382301,0.0011922739213332534,-0.0036889533512294292,0.001258673844859004,-0.0014738678000867367,0.002216384280472994,-0.0007923832745291293,0.0017098437529057264,0.0027860926929861307,0.00043656432535499334,0.0013472913997247815,0.000986445345915854,-0.001352035324089229,0.0019831459503620863,0.0014213843969628215,0.003147934563457966,0.0019358462886884809,-0.0014068667078390718,0.0015209518605843186,-0.003169361036270857,-0.0031312170904129744,0.0009639302152208984,0.0013875000877305865,-0.0018221515929326415,0.003452281467616558,0.0027317048516124487,0.0028852985706180334,0.0014272048138082027,-0.0033447665628045797,0.00020837070769630373,-0.00012044001778122038,0.001638398738577962,0.0013020194601267576,-0.00358028756454587,-0.00010822206968441606,0.00045682332711294293,0.0020496926736086607,0.0037462126929312944,-0.001506934524513781,0.0020521359983831644,0.003795180469751358,-0.00248182681389153,0.0008543443400412798,-0.00032719309092499316,0.001347242039628327,-0.0018947389908134937,0.002296655671671033,0.0003387902397662401,0.001986629795283079,0.0014058700762689114,-0.0004883487708866596,0.00361397466622293,-0.0030824937857687473,0.0013942349469289184,0.0026713968254625797,0.0008195683476515114,-0.0013302761362865567,-0.0009262392413802445,0.0011299109319224954,0.003566055791452527,-0.00027376602520234883,-0.0037904682103544474,-0.004022195935249329,4.4949203584110364e-05,-0.000598302052821964,-0.003041076473891735,0.0041705840267241,0.003449029056355357,-0.0022438373416662216,-0.0027992650866508484,0.0016809710068628192,0.003835721407085657,-0.0002064414438791573,0.00128265586681664,-0.00240074354223907,0.0005903684068471193,0.002872386947274208,-0.0009314239723607898,-0.0029217074625194073,-0.002948713256046176,-0.0015793255297467113,0.0004238327674102038,0.0029570136684924364,-0.0010800899472087622,0.0011284754145890474,0.000831358483992517,-0.0036544394679367542,-0.001959567191079259,0.0005022009718231857,0.001991147641092539,0.0029711814131587744,0.002117220079526305
0.0032647247426211834,-0.001575721544213593,-0.0018121637403964996,0.0038388425018638372,0.000870589807163924,0.0027454944793134928,-0.0028433443512767553,0.0014862336684018373,0.0025396577548235655,0.0001656207168707624,-0.0022848451044410467,-0.003850591368973255,0.003361491719260812,-0.0004961546510457993,0.0029306041542440653,-0.002320184139534831,0.003229416674003005,-0.0010625787544995546,0.0027533620595932007,0.002923141699284315,0.0026193608064204454,0.0033614228013902903,0.0025887791998684406,-0.0009980798931792378,0.0015427323523908854,-0.001356022316031158,0.0012037367559969425,-0.002550389850512147,-0.003946611657738686,-0.0013199455570429564,0.0024800351820886135,-0.003392251208424568,-0.0029440843500196934,0.0029190233908593655,0.0009897543350234628,0.003598663490265608,0.0027925996109843254,-0.0013291516806930304,-0.001811660942621529,0.0016061911592260003,-0.003053774358704686,0.003816374344751239,-0.0008487738086842,-0.0033337173517793417,0.000602985848672688,-0.0011230700183659792,0.0015514424303546548,-0.0005785131361335516,0.001878098351880908,0.001378237851895392,-0.00020792981376871467,-0.002233292208984494,0.000157447750098072,0.0013074069283902645,0.000752269581425935,-4.852908386965282e-05,0.0017357163596898317,-0.0011379121569916606,0.0036951862275600433,0.0010341479210183024,0.0011069276370108128,-0.0020572878420352936,-0.002588838804513216,0.0014386428520083427,-0.0025114398449659348,-0.001429943135008216,6.528248923132196e-05,0.0029453225433826447,-0.0017022459069266915,-0.0032374653965234756,-0.002152000553905964,-0.00046229930012486875,0.0030703998636454344,-0.002844643546268344,0.0032981790136545897,0.001644102274440229,0.0018922925228253007,-0.00012299732770770788,0.0018811709014698863,0.0009936457499861717,-0.003515003016218543,-0.0016582703683525324,0.00045787706039845943,0.0037394289392977953,0.0020054189953953028,-0.0011819868814200163,-0.0019005407812073827,0.0027207217644900084,-0.0003504013584461063,-8.40463508211542e-06,0.0033813840709626675,-0.003025301266461611,-9.130471880780533e-05,-0.0032379820477217436,0.003053527558222413,-0.0016468014800921082,-0.00374472513794899,0.0005717058083973825,-0.003887142986059189,-0.0006900084554217756,-0.0011480979155749083,-0.0039044711738824844,-2.202791438321583e-05,0.0030510106589645147,0.0036963927559554577,-0.00038819940527901053,-0.00039530868525616825,-0.0030250048730522394,-0.0023391570430248976,0.0006007662741467357,0.0014060058165341616,-0.003297979012131691,-0.0013250531628727913,0.0010642347624525428,-0.00047192638157866895,0.001800368307158351,0.0009841009741649032,-0.0006358636892400682,0.0003469904768280685,0.0029695515986531973,-0.0010914189042523503,-0.001914853579364717,-0.0026518115773797035,-0.0028378257993608713,0.000462567200884223,-0.0038440015632659197,0.00030312404851429164,-0.0009225535322912037
0.0013875437434762716,-0.0005034609348513186,-0.0032692337408661842,0.00017008492432069033,-0.0035076758358627558,-0.00012126878573326394,-0.0011109899496659636,-0.0027108804788440466,-0.002596647711470723,-0.001393672777339816,-0.0015188344987109303,-0.001591868232935667,0.0005858649383299053,0.0014752296265214682,-0.0032154270447790623,-0.0026004507672041655,0.0015778231900185347,-0.0002851150929927826,-0.0002871312899515033,0.0016405980568379164,0.0012320209061726928,-0.0023182297591120005,0.0016656243242323399,0.0006713058101013303,0.003505671862512827,-0.0005227673100307584,-0.00215705344453454,0.0031960797496140003,0.002920780796557665,-0.0016749318456277251,0.003104701405391097,-0.00010315888357581571,0.00020780412887688726,0.0006525958306156099,-0.0005332458531484008,-0.002539004199206829,-0.0008949701441451907,-0.0008957637473940849,0.001515232608653605,-0.0031773897353559732,-0.000791030062828213,-0.0030319795478135347,-0.0019167186692357063,-6.396387470886111e-05,-0.0015256638871505857,-0.00023514674103353173,0.00037006408092565835,-0.0016089307609945536,-0.003857963252812624,-0.001533424947410822,0.003726343857124448,-0.0014030084712430835,0.0005221529281698167,-0.002488185651600361,0.0003629654529504478,0.0007468159892596304,-0.0012379852123558521,-0.0017369718989357352,-0.003421137575060129,-0.0033514515962451696,0.0017130059422925115,0.001468523871153593,-0.0035580769181251526,-9.306173888035119e-05,-0.0023540330585092306,0.00015156962035689503,0.0022981655783951283,-0.0025157141499221325,0.001567754428833723,-0.0037945567164570093,0.0004215837107039988,0.0014847031561657786,-0.0016829813830554485,0.0010661468841135502,-0.002272601006552577,0.0036796967033296824,-0.0029361872002482414,-0.0037215775810182095,-0.0009896444389596581,-0.0009631557040847838,-0.00205252505838871,-0.0026236691046506166,-0.0031187667045742273,-0.0004113630566280335,-0.003821627702564001,-0.0021614190191030502,-0.002619942184537649,0.001106339623220265,-0.0019289329648017883,-0.0005996522959321737,-0.0006341522675938904,0.0017686736537143588,-7.488852588721784e-06,-0.003478897735476494,-0.0026051111053675413,0.0010343234753236175,-0.0034051560796797276,-0.0009139819303527474,0.00017361450591124594,0.0029813123401254416,0.001554963644593954,0.002490210346877575,0.0026411579456180334,0.0026140466798096895,-0.001226132269948721,-0.002147145103663206,-0.0028638639487326145,0.003268849803134799,0.00046994767035357654,0.000913214695174247,0.00011382295633666217,0.0038029809948056936,-0.0013193467166274786,-0.00015597330639138818,0.002781475428491831,0.0035332064144313335,-0.003979749511927366,-0.003009802894666791,0.00014488259330391884,0.004008671268820763,-0.0029113255441188812,0.0013618717202916741,-0.0017313039861619473,0.0018418851541355252,-0.0007155495695769787,0.0032739927992224693,0.003233014838770032,-0.003251639660447836
0.003751280950382352,-0.0012656701728701591,0.0023527969606220722,0.0021119986195117235,0.0016876400914043188,0.0022389129735529423,0.003463869448751211,0.0027269439306110144,0.0027623295318335295,0.0007053228328004479,-0.0009531818213872612,-0.001659083180129528,0.001092494698241353,-0.0015171258710324764,0.0008331271819770336,-0.002156355883926153,0.001376316649839282,-0.0006773876375518739,-0.0007322403253056109,-0.0022243792191147804,0.0029935557395219803,-0.002702734898775816,0.0032745571807026863,-0.0026387067046016455,0.002412776229903102,-0.003914999309927225,0.0009501297026872635,0.0029146219603717327,0.002676847157999873,-0.0013430147664621472,0.001263697980903089,0.0023209648206830025,0.0009229563875123858,0.0009241010411642492,0.0037933140993118286,0.001640726812183857,2.295427657372784e-05,0.0005042371340095997,2.176121597585734e-05,0.0013268990442156792,0.001657608663663268,-0.0029063154943287373,0.0038095253985375166,-0.003505249507725239,0.0025579065550118685,-0.0018392703495919704,-0.0029629420023411512,0.003829078981652856,0.0006795729859732091,-0.0009094225824810565,0.0010683415457606316,0.0027142467442899942,-0.0001470945426262915,0.0038887085393071175,-0.0024125848431140184,0.002738725394010544,0.0032091361936181784,-0.0033148499205708504,-0.0016319183632731438,0.001866126200184226,0.003336244961246848,0.0027681677602231503,-0.0037563422229140997,-0.0017192279919981956,-0.0027830000035464764,0.003029052633792162,-0.0007961065857671201,-0.0005456817452795804,-0.0011542452266439795,0.0008038647938519716,-0.0008345769019797444,-0.0032513339538127184,-0.0017381560755893588,0.0011592678492888808,0.003753394354134798,-0.002974498551338911,-0.003234559902921319,0.0020123955328017473,-0.001974000595510006,-0.000618104066234082,-0.0034375623799860477,0.0016251846682280302,-0.0032978372182697058,8.452490146737546e-05,-0.0019339750288054347,0.001741008018143475,-0.0037737288512289524,0.002151909749954939,0.001884443685412407,-0.003137376857921481,-0.0015576629666611552,0.0006612227880395949,0.003252971451729536,0.0008802703232504427,0.0028163890819996595,0.0010680552804842591,-0.0015628403052687645,-0.0017812283476814628,0.0015548504889011383,0.0016051616985350847,0.0035849413834512234,0.00015607272507622838,-0.0035932736936956644,-0.00042024889262393117,-0.00218821014277637,-0.0005754905287176371,-0.001901117735542357,-0.003118707798421383,-0.0019964762032032013,-0.0001763835025485605,0.0024458745028823614,-0.002309397328644991,0.0031477187294512987,0.00016953921294771135,-9.209480595018249e-06,-0.001414541038684547,0.0021641256753355265,-0.00044642650755122304,0.0033484462182968855,-0.0009161725174635649,0.00029554570210166276,-0.0013690371997654438,0.00014266716607380658,-0.0003037945425603539,0.0011978058610111475,0.0032838727347552776,0.0005219131708145142,0.003331072861328721
0.0031750996131449938,-0.0023549706675112247,-0.000545505085028708,0.0017723178025335073,-0.002217772649601102,-0.0023913129698485136,0.0037119302432984114,-0.0023076904471963644,-0.0015720623778179288,-0.0015391302295029163,0.0014957493403926492,0.002137097530066967,-0.0008693162817507982,-0.0035451578442007303,0.0009772595949470997,0.0027820602990686893,0.0019677213858813047,-0.0006316189537756145,0.00045705234515480697,0.00044030457502231,0.001035097986459732,-0.002613530494272709,0.003252956783398986,0.0005364625249058008,0.0013826340436935425,-0.002672746079042554,0.0010718778939917684,0.0003905635967385024,0.003621079958975315,-0.001430870732292533,0.003683540504425764,-0.0021220280323177576,0.0020627533085644245,-0.0033212294802069664,-0.003661325667053461,-0.00010922687943093479,0.002861596178263426,0.0020157773979008198,-0.00385660189203918,0.0017827929696068168,0.0015728435246273875,0.0008819784852676094,-0.00029134165379218757,-0.0029201742727309465,-0.0011486527509987354,0.001786316861398518,0.0008508370956405997,0.0029901801608502865,-0.0004778376023750752,0.0022372123785316944,0.0009960731258615851,0.003543616971001029,-0.0025230455212295055,-0.00011133008956676349,-4.613394048647024e-05,0.0031139208003878593,0.0016899568727239966,-0.003368241945281625,0.00089237280189991,0.002894795034080744,-0.0031558473128825426,0.0038759319577366114,-0.0038691279478371143,0.00020445865811780095,0.0008789797429926693,-0.003704749746248126,-0.0020124127622693777,-0.0005197431892156601,-0.002205475000664592,0.002513997023925185,-0.0037808443885296583,0.0021394717041403055,0.002726738341152668,-0.0015678020427003503,-0.003529458772391081,0.0018064380856230855,0.00015094931586645544,0.001943746698088944,-0.0009654377354308963,0.0013326524058356881,0.00035621083225123584,0.0038452502340078354,0.0016547578852623701,-0.0010972425807267427,0.0021306145936250687,0.0029132014606148005,0.002562904730439186,-0.0007828610250726342,0.0005784906097687781,0.0019653472118079662,-0.0037471363320946693,0.0006340986001305282,0.0003627333207987249,-0.0033722161315381527,-0.0011021075770258904,-0.0028903281781822443,-0.0013689763145521283,0.0005341856740415096,0.0025027035735547543,-0.0004101125232409686,-7.614534115418792e-05,-0.0028702509589493275,0.0014693649718537927,0.0033689280971884727,-0.0028639293741434813,-0.0032055319752544165,0.0027352224569767714,-0.0037888367660343647,-0.001140620093792677,-0.003308793529868126,0.0014730707043781877,-0.003528121393173933,-0.0031694332137703896,-0.0025542040821164846,0.0029337555170059204,0.0029630076605826616,0.0017837326740846038,-0.0037690927274525166,0.0021878296975046396,-0.0018763467669487,-0.0038877292536199093,-0.00289792288094759,0.0030225487425923347,-0.00173258688300848,-0.003579760203137994,0.0004130762827116996,-0.003063316224142909,-0.0038058001082390547
0.0035590266343206167,-6.985709478612989e-05,0.0004368878435343504,-0.0036422235425561666,-0.0005423045950010419,-0.001964060589671135,0.0032126549631357193,-0.0019240238470956683,-0.002987276529893279,-0.0007925017271190882,0.0009183952352032065,-0.0034902857150882483,-0.0036428633611649275,0.0014391787117347121,0.0010878872126340866,-0.0014728199457749724,-0.003740738844498992,0.00038578241947107017,0.0017713396809995174,-0.0019863066263496876,-0.0037374442908912897,-0.0013888331595808268,0.0012822598218917847,0.003753586206585169,-5.8204062952427194e-05,-0.0032937226351350546,0.0039141252636909485,-0.0032614015508443117,-0.0015813364880159497,-0.003531105350703001,0.0020983475260436535,0.003791044931858778,0.0024594480637460947,-0.0009358004899695516,-0.0010262923315167427,0.0026421011425554752,0.0008498623501509428,-0.0009288667934015393,0.003913914784789085,-0.0018440022831782699,-0.003696975065395236,-6.725305138388649e-05,3.129573815385811e-05,-0.0011411778395995498,-0.003742215456441045,0.003772041527554393,0.00045955166569910944,0.0021782414987683296,-0.0012653488665819168,-0.0019217549124732614,-4.524907490122132e-05,0.0017498339293524623,0.0027504474855959415,0.0032369105610996485,0.0006110043032094836,-0.002604797249659896,-0.0008411568705923855,0.0018321685492992401,-0.0029411399737000465,0.002780129434540868,0.0011690999381244183,-0.0031437526922672987,0.0036333336029201746,-0.0002881778636947274,-0.00189580034930259,0.00046494262642227113,-0.0009793874341994524,-0.0035739762242883444,-0.002943214261904359,0.0033474937081336975,0.000729106948710978,0.003702788380905986,0.0006298172520473599,0.0015473465900868177,0.002401038073003292,-0.0019552363082766533,-0.00241422769613564,7.980537338880822e-05,-0.001937832566909492,0.00028224600828252733,-0.0014551148051396012,0.002469867467880249,0.0013034333242103457,-0.003658057190477848,-0.0017410848522558808,-0.0012008438352495432,-0.0024207907263189554,-0.0006353432545438409,0.0006143072387203574,0.0027485000900924206,-0.0021989985834807158,-0.0019219284877181053,-0.0019359703874215484,-0.0021429299376904964,0.0007926221587695181,0.0003993322607129812,-0.0024413259234279394,-0.0005874771159142256,0.001336660934612155,6.358798418659717e-05,0.002118856180459261,-0.0023907958529889584,-0.0007176502840593457,-0.0015604423824697733,0.0007005706429481506,0.00137158518191427,0.003727568779140711,0.003233588533475995,0.0022667183075100183,-0.001838966622017324,0.0021994176786392927,-0.0020957686938345432,0.0016375969862565398,0.001889915089122951,0.0027798765804618597,-0.0013181734830141068,0.0005594335380010307,0.00018159473256673664,0.0032074335031211376,0.0013465131632983685,0.0023151675704866648,0.0030736089684069157,-0.003468373091891408,0.002328038215637207,-0.0033995413687080145,0.0007709937635809183,-0.003807057160884142,-0.0030631935223937035
0.0017914820928126574,0.0026465377304702997,-0.0034058461897075176,-0.0028365799225866795,0.001591764041222632,-0.0030116629786789417,-0.003717382438480854,0.00013160734670236707,0.003345424309372902,0.003687614342197776,0.0019766823388636112,0.003551085712388158,0.0008716615848243237,-0.0008616225095465779,0.0007469267584383488,0.0011076823575422168,1.4346032912726514e-05,-0.00361019023694098,-0.0034002631437033415,-0.0016901810886338353,-0.0013797912979498506,-0.0005784559762105346,0.003333868458867073,0.002871318720281124,-0.001573757966980338,-0.0012220708886161447,0.003987717907875776,-0.0012746098218485713,0.0026534534990787506,0.003136988962069154,0.001678205095231533,0.0005416697240434587,-0.0002828603610396385,-0.0019878933671861887,0.0006360406405292451,-0.0019725123420357704,-0.00364802498370409,0.0036068521440029144,-0.003843956394121051,0.0024878617841750383,-0.0025775658432394266,-0.0002076328091789037,0.0006852825754322112,0.00358345964923501,-0.0030829650349915028,0.0021527023054659367,-0.0005786449764855206,-0.002361200749874115,-0.0029521130491048098,-0.0009796388912945986,0.00378405605442822,-0.0018625721568241715,-0.0030919958371669054,-0.00034384895116090775,-0.001105431467294693,0.0017342445207759738,-0.002915400080382824,-0.0034688008017838,-0.001458084094338119,0.002546977251768112,-4.022495704703033e-05,0.0014304484939202666,0.002514329506084323,0.003026599995791912,0.0035972637124359608,-0.003087103134021163,0.0013820677995681763,-0.0025110531132668257,0.0006658219499513507,0.0017982344143092632,0.0036341343075037003,-0.00277996645309031,-0.0005292452406138182,0.0035696085542440414,0.0006535500288009644,-0.003414484905079007,0.002260112902149558,0.0030290670692920685,0.001157296821475029,-0.0014128988841548562,-0.0026730760000646114,0.0006827808683738112,0.002042885171249509,-0.00110556127037853,8.155811519827694e-05,0.002328920876607299,-0.00023817246255930513,-0.0024463594891130924,0.003423342714086175,-0.0019144536927342415,-0.002714798552915454,-0.0027777468785643578,0.0017140170093625784,0.0014438405632972717,0.003564048558473587,0.003344648750498891,0.001845254679210484,-0.0016190249007195234,0.0021180612966418266,0.0013924099039286375,0.0038111156318336725,0.0025077348109334707,-0.0007028423133306205,0.0026799151673913,-0.0024741804227232933,-0.002332421950995922,-0.0006994212744757533,-0.0037744096480309963,-0.003607672406360507,-0.001205091131851077,-0.0011240513995289803,0.003454080782830715,-0.0004287432529963553,-0.0021385077852755785,0.002055926015600562,0.0008508824976161122,-0.003243981162086129,-0.00014479682431556284,-0.0024613416753709316,-0.0012984115164726973,0.002482242416590452,0.0030897860415279865,-0.00150899903383106,0.0009976018918678164,0.002470829291269183,-0.001458465470932424,-0.002872802782803774,0.0023448383435606956
-0.0018815575167536736,0.00036125569022260606,-0.0023648252245038748,0.0028964364901185036,-0.0027913637459278107,0.0021510969381779432,-0.002376668155193329,-0.0011884922860190272,-0.0017709695966914296,-0.003541221609339118,0.002189071848988533,0.0027253678999841213,0.001631536870263517,-0.0028903891798108816,0.002492806874215603,-0.002966240979731083,-0.0022268802858889103,-0.0027101561427116394,0.001309953979216516,-0.002548195654526353,-0.0035966644063591957,0.0035387335810810328,0.00380106084048748,-0.0034609269350767136,0.0024045868776738644,-0.0008515964727848768,0.003158904379233718,0.0009088493534363806,0.002786163939163089,-0.0031340487767010927,-0.0006736720097251236,0.0006055659032426775,-0.00018893003289122134,-0.002969685010612011,0.0010853143176063895,-0.002258693566545844,-0.001292339526116848,-0.0022140766959637403,0.0014257975853979588,0.003304226091131568,-0.00024947847123257816,-0.0026418480556458235,-0.0021764307748526335,0.0004886931856162846,0.0009837038815021515,0.0029730508103966713,0.0027921278961002827,0.0028317857068032026,-0.002216135384514928,0.0027358427178114653,-0.0017710975371301174,-0.0004849346587434411,-0.0025800010189414024,-0.0036044977605342865,0.0017888318980112672,-0.0030334654729813337,0.003717185463756323,0.0007329404470510781,-0.00040768308099359274,0.003901954274624586,-0.0007678829715587199,-0.00022341005387715995,0.002816086634993553,-0.002947730477899313,0.0010945606045424938,0.0021246466785669327,0.0015468753408640623,-0.002652105875313282,-0.0012771936599165201,-0.0032688193023204803,0.0027721149381250143,-0.002177685732021928,0.001450789044611156,0.0009066491620615125,0.0018808734603226185,0.0013245685258880258,0.0008106199675239623,-0.000786410819273442,0.002839284483343363,0.0003573650901671499,-0.0018954073311761022,-0.0029204953461885452,-0.0010789950611069798,-0.003950678743422031,-0.002473254222422838,-0.0028923361096531153,-0.0014051393372938037,-0.002563303569331765,-0.0019772364757955074,0.000278466526651755,-0.002049171132966876,0.0003629536076914519,-0.0011502500856295228,-0.0036903314758092165,-0.0009064958430826664,-0.0010708144400268793,-0.003684369381517172,0.002392682945355773,-0.003688765224069357,-0.0017181376460939646,-0.0011868382571265101,-0.0016833789413794875,-0.0026639329735189676,0.0023286764044314623,0.0003200273204129189,0.0035896687768399715,-0.0006404467858374119,-0.0026064312551170588,0.00030120910378172994,0.0031325488816946745,-0.001823804690502584,-0.003143759910017252,-0.0017404697136953473,0.0025580753572285175,-0.0006645830580964684,0.0027313055470585823,-0.0015666960971429944,-0.0023872407618910074,0.003849263768643141,0.0025537272449582815,-0.003021964570507407,0.002493469277396798,0.0015504141338169575,0.002565010217949748,0.0014193173265084624,-0.003124644747003913,-0.002636511577293277,-0.0014532989589497447
0.0035856293980032206,-0.00263840239495039,-0.0023732276167720556,-0.003393651684746146,-0.0010349961230531335,-0.003515479853376746,0.002061828039586544,0.0021814932115375996,-0.0018935631960630417,0.002657016972079873,-0.0004219287075102329,0.00048807819257490337,0.0011200679000467062,0.0027417915407568216,-0.000498873763717711,0.00381025904789567,0.002284912159666419,0.00048701316700316966,-0.0007079166825860739,0.002306264592334628,-0.0003126335213892162,0.0012243762612342834,-0.0024429629556834698,-0.0010735820978879929,-0.0018908241763710976,0.003781665116548538,0.002725254977121949,-0.0014081379631534219,0.0006259062211029232,0.0005925445584580302,-0.0015099055599421263,6.117377779446542e-05,-0.0028261838015168905,0.0010882742935791612,-0.0006672388408333063,-0.00010008554090745747,0.0037902970798313618,-0.001414839643985033,-0.0016660256078466773,-0.003582914359867573,-0.0027815133798867464,0.0008865232230164111,-0.00023753698042128235,0.0028990209102630615,0.0014666749630123377,-0.0017433508764952421,0.0027024615556001663,0.00038194129592739046,-0.0029711483512073755,0.0022030100226402283,-2.6613925001583993e-05,-0.0022216893266886473,0.0005236246506683528,0.0018119390588253736,-0.0007369454251602292,-0.003842356614768505,9.861848229775205e-05,0.0015907470369711518,0.0025559065397828817,0.0025010493118315935,7.624194404343143e-05,-0.0024387622252106667,0.002234751358628273,-0.0036965489853173494,0.0006802436546422541,-0.0001573779882164672,0.0008050788310356438,-0.0007869084947742522,-0.0007737605483271182,0.0018387559102848172,-0.0003057636204175651,0.0038409577682614326,0.0006018758867867291,-0.001157992286607623,-0.003104764735326171,-0.0011130364146083593,0.002903771586716175,0.0005659233429469168,0.0016248028259724379,-0.003021018113940954,0.0029293487314134836,0.0014557646354660392,0.0004887173417955637,-0.0006824716692790389,-0.0014703534543514252,-0.003396922256797552,0.0021655226591974497,-0.002138456329703331,-0.003417806001380086,0.0009860325371846557,0.00017933498020283878,-0.002477214904502034,-0.0009871037909761071,-0.0005653304397128522,0.0024128768127411604,-0.0029910870362073183,0.0014810861321166158,-0.0014270321698859334,-0.000824655988253653,-0.000831135839689523,0.00024677393957972527,0.003609572071582079,-0.0034098715987056494,-0.002902519190683961,0.0002745727833826095,-0.0003175541351083666,0.003090605838224292,-0.0027220321353524923,-0.0025539682246744633,0.0038411407731473446,0.001734058721922338,-0.001516249030828476,0.0007474784506484866,-0.0012458418495953083,0.0018472386291250587,0.0019647192675620317,0.0014311290578916669,0.001353984116576612,0.0017255675047636032,-0.0014478533994406462,0.0013000242179259658,0.0017442662501707673,0.0004645232402253896,-0.0024510775692760944,0.000764126016292721,0.0017370448913425207,0.0014563631266355515,0.00028634793125092983
0.0014731489354744554,-0.002804496791213751,0.002116002142429352,-0.0033598330337554216,0.0037261308170855045,0.000982155674137175,0.0030765808187425137,-0.0016647758893668652,-0.0015981398755684495,-0.001682380447164178,7.426603406202048e-05,-5.6706635405134875e-06,0.0010790788801386952,-0.0037882381584495306,0.0018914296524599195,-0.0024899342097342014,0.0023114485666155815,-0.0020846580155193806,-0.002341099549084902,-0.0021669117268174887,-0.0022654924541711807,0.002254560822620988,-0.0007817663135938346,-0.003260374069213867,0.0009075566777028143,0.0017006390262395144,0.0018497970886528492,-0.002906229579821229,-0.0007683720905333757,-0.0009823772124946117,-0.0032715697307139635,0.0010536486515775323,-0.002826689975336194,-0.0035324704367667437,-0.0033988049253821373,0.003394846571609378,-0.0036585608031600714,0.0032424344681203365,-0.0023055407218635082,0.00045588103239424527,0.0007079232018440962,-0.0018573879497125745,0.0001141097818617709,0.0031166435219347477,0.0017528543248772621,0.001466598710976541,-0.0008220723830163479,-0.0035762195475399494,0.0020836598705500364,-0.0035856966860592365,-0.0015202357899397612,0.0006755656795576215,0.0032584425061941147,0.003657802939414978,-0.00020645020413212478,-0.0031151031143963337,-0.003822371130809188,0.0024046830367296934,0.0005007782019674778,0.0021520194131881,0.0014979999978095293,-0.0031089596450328827,0.0011330207344144583,0.002821984700858593,0.0007305880426429212,0.0004553306207526475,-0.0029609957709908485,7.366073259618133e-05,-0.002623059321194887,-0.0006611602730117738,-0.0005074371001683176,0.0029008053243160248,-0.0029326342046260834,-0.002868116833269596,-0.0007614839123561978,0.0021897200495004654,0.0033230790868401527,-0.00324746104888618,-0.0019055920420214534,0.0012942799367010593,-0.0033842262346297503,-0.0008240619208663702,-0.003400710877031088,-0.0019477534806355834,-0.003018507268279791,0.0038601013366132975,0.0027238812763243914,0.00012082153261872008,0.0017565099988132715,0.0027388613671064377,-0.0016932020662352443,-0.003697697538882494,0.0006715564522892237,-0.001660677487961948,-0.0028082423377782106,-0.0002936004020739347,-0.0037877513095736504,0.002982727950438857,0.003731261705979705,-0.001489007379859686,0.0006296646315604448,-0.002350092865526676,-0.002532572252675891,-0.0030860647093504667,-0.00046422553714364767,0.0006548392120748758,0.0034355248790234327,-0.0010329126380383968,0.0018410581396892667,-4.899159830529243e-05,-0.002230237703770399,-0.0011640697484835982,0.000467684178147465,-0.0001740426232572645,0.002057756995782256,0.0013757438864558935,-0.0016577980713918805,0.003839765442535281,-0.00150714919436723,0.004021273460239172,0.0019237252417951822,-0.00024712763843126595,0.0013519913190975785,0.0036614076234400272,0.0013690243940800428,-0.003550127614289522,0.002839505672454834,-0.0019495149608701468
-0.001502285827882588,-0.0031282089184969664,-0.002364426152780652,-0.001915819593705237,-0.003170975251123309,-0.002609949791803956,-0.001591548672877252,0.0037353637162595987,-0.0038309625815600157,0.002900727791711688,-0.002865040674805641,-0.002257998799905181,0.002660425379872322,0.0034517019521445036,0.0028384155593812466,4.4550226448336616e-05,-0.0035455592442303896,0.0021603440400213003,0.0030875708907842636,-0.00027002222486771643,0.002139919437468052,-0.0017382599180564284,0.002532410668209195,-0.003852918976917863,-0.0034560333006083965,0.0037545652594417334,-0.002113780938088894,0.00012989719107281417,-0.003010976128280163,-0.0020478772930800915,0.002880382351577282,-0.0020869404543191195,-0.0014884201809763908,-0.001855710637755692,-0.0031254596542567015,-0.0035682343877851963,0.0038874081801623106,0.00023766160302329808,0.002360573038458824,-0.0029671185184270144,-0.0012709901202470064,0.0001273797097383067,0.003503441344946623,-0.00029228575294837356,-0.0011629071086645126,-0.0028432440012693405,0.0026662496384233236,-0.0019197390647605062,-0.00010537800699239597,0.00016265001613646746,-0.0016985522815957665,0.0031889439560472965,-0.001422395696863532,-0.0018819631077349186,-0.0035836498718708754,0.0012560690520331264,0.003353952197358012,0.0018178054597228765,0.0010910227429121733,0.0003295455826446414,0.0036929664202034473,0.0016508885892108083,0.0018789470195770264,0.0028426649514585733,0.00368747697211802,-0.002068999921903014,0.00031752532231621444,-0.00374926277436316,-0.0009236600017175078,-0.002363252453505993,0.00306516420096159,0.00141720671672374,-0.00020473047334235162,-0.0018078989814966917,0.00015223519585561007,0.00202634884044528,-0.0036967804189771414,0.000479945883853361,0.003207157365977764,-0.0010553395841270685,-0.001268912572413683,-0.0025821421295404434,0.0019025561632588506,0.0010416764998808503,-4.310087751946412e-05,-0.0027295267209410667,1.1441405149525963e-05,0.003749350318685174,-0.002582784276455641,0.0013729734346270561,-0.002955587347969413,0.0015488093486055732,-0.00048506283201277256,-0.0031922715716063976,-0.0019717218820005655,0.0009301434038206935,0.0037126378156244755,0.00019559863721951842,0.002937688957899809,-0.0011010003508999944,0.003216405399143696,-0.0005301081691868603,-0.0006258042412810028,-0.0027164272032678127,0.002396564930677414,-0.0008208235958591104,0.0010680923005566,-0.0025354777462780476,0.000672412570565939,-0.0006969974492676556,0.0015161626506596804,-0.0038368389941751957,-0.0008624686161056161,-0.0013192890910431743,0.0028365757316350937,0.0015177682507783175,0.003465477144345641,0.0020028315484523773,0.00038337893784046173,0.00020545969891827554,0.001892740372568369,0.0035164542496204376,-0.0032673021778464317,0.0008161615114659071,-0.0029165796004235744,-0.002235984895378351,0.0012517976574599743,-0.0001839756587287411
-0.0006643099477514625,-0.002871753415092826,0.003827956272289157,2.8905556973768398e-05,-0.003543150844052434,0.0006377702811732888,0.0005314411828294396,0.0028793097008019686,-0.0005918496754020452,-0.0026440289802849293,-0.0016379866283386946,-0.0014540525153279305,0.00046299590030685067,0.002984290709719062,-0.0010681170970201492,0.0038371053524315357,-0.0031133999582380056,0.0014266383368521929,0.0004481506475713104,-0.00016147486167028546,0.0012037985725328326,0.004210369195789099,0.0005137096741236746,0.001847534324042499,-0.0020734332501888275,0.0005748163675889373,0.0024169774260371923,-0.0012102678883820772,-0.0014477190561592579,-0.0018005312886089087,0.002114192582666874,-0.0036457504611462355,-0.0019289578776806593,0.0006370307528413832,-0.0033333576284348965,-0.0011842877138406038,-0.0012508566724136472,0.003827268024906516,-0.003701080335304141,0.0024298152420669794,0.001474877935834229,0.0009358376846648753,-0.001402939553372562,-0.003921911586076021,0.0025005333591252565,-0.003140948247164488,-0.0028934681322425604,0.0017291053663939238,-0.0018341090762987733,0.0007233945070765913,-0.0008003442198969424,0.003831731155514717,-0.0021277843043208122,-0.0010002704802900553,0.0026770946569740772,0.0034950522240251303,0.0011798656778410077,-0.003776322118937969,-0.000701851153280586,-0.0023691272363066673,-0.000432211731094867,0.0017748080426827073,-0.003319353563711047,-0.000598781043663621,0.0023260756861418486,-0.00047915303730405867,-0.0027159072924405336,-0.0028102677315473557,-0.0019258334068581462,0.0017134200315922499,0.002909640781581402,-0.00031752962968312204,0.0023636657278984785,-0.001880620256997645,0.0035847884137183428,-0.002256295643746853,0.000634197611361742,-0.002183513715863228,-0.0021112989634275436,-0.0014392759185284376,0.001018540933728218,-0.00014740102051291615,-0.00017083498823922127,-0.00409793620929122,-0.002399727003648877,-0.0016721722204238176,0.0010453705908730626,-0.0015410329215228558,0.0021579226013273,-0.00031605715048499405,0.00012715448974631727,0.0022042873315513134,0.0010301880538463593,-0.0014293045969679952,-0.002299599815160036,0.0033171705435961485,-0.0038951453752815723,0.0018602184718474746,6.689783913316205e-05,6.90871020196937e-05,-0.002010984579101205,-0.003997035324573517,0.0018627002136781812,-0.003166214330121875,4.199426621198654e-05,-0.0017475166823714972,0.0011713213752955198,-0.0006263526156544685,0.002450876636430621,0.0010129997972398996,0.0018015025416389108,-0.0012385632144287229,-0.0013458631001412868,-0.001993214013054967,-0.0003431911754887551,0.003524541622027755,0.0013038559118285775,-0.0015315646305680275,0.0036044640000909567,0.0015129566891118884,-0.0023395747411996126,-0.0007041003555059433,-0.0013355700066313148,-0.0010947126429527998,0.001993071986362338,0.0032670123036950827,0.000954216520767659,0.0022511733695864677
0.0024728807620704174,0.0007234032382257283,0.0012899276334792376,-0.0023391686845570803,-0.003020132426172495,-0.0026172848884016275,-0.0026274099946022034,-0.002247156808152795,-0.002899014623835683,0.0008393165189772844,0.00029207978514023125,-0.0013348604552447796,0.003695150138810277,-0.0018812110647559166,-0.00035212645889259875,-0.0028260601684451103,-0.0004932808806188405,-0.002435499569401145,-0.003576151793822646,-0.0023398364428430796,-0.00018242662190459669,0.0006089364178478718,-0.0038971430622041225,-0.003031951142475009,0.0020105321891605854,-0.0021424146834760904,0.0014552141074091196,0.003672037273645401,0.003546220948919654,0.0004845047078561038,0.0037341772112995386,0.0008561472641304135,-0.0030750867445021868,0.0012936703860759735,-0.003620847361162305,-0.0016752845840528607,0.0027708373963832855,-0.0012503645848482847,0.003379819681867957,0.0011566218454390764,0.0010782151948660612,-0.002877148101106286,0.001919633592478931,0.0011470228200778365,0.0006180547061376274,0.0008023944101296365,0.0014105465961620212,0.0016384519403800368,-0.00041986332507804036,0.00010976153862429783,0.003191412892192602,0.0024161061737686396,0.0030991623643785715,0.002300055930390954,0.002148448722437024,0.003921556286513805,0.0019271104829385877,-5.016247814637609e-05,0.00030589342350140214,-6.401368591468781e-05,0.0029023056849837303,-0.0009170636767521501,-0.0036663261707872152,-0.0027173133566975594,0.0003813525545410812,0.001799182966351509,-0.0038338173180818558,-0.0010360616724938154,-0.0029298081062734127,-0.0007195193902589381,0.0019490262493491173,-0.0036571945529431105,-0.0011031203903257847,-0.002285146387293935,-0.0017403982346877456,-0.0037248251028358936,-0.0006903214962221682,-0.0010924771195277572,0.0012426418252289295,0.001947714714333415,-0.0018062037415802479,-0.003093443112447858,0.0022980289068073034,-0.002201732248067856,0.0023758355528116226,0.003130935598164797,-0.0031547031830996275,-0.001159100909717381,-0.0020707380026578903,0.0018204667139798403,0.0002923763240687549,-0.0014338314067572355,-0.0015728994039818645,-0.0003863608872052282,-0.0030243294313549995,0.0036078677512705326,-0.002601315500214696,-0.0014523681020364165,0.003817861434072256,0.0011430577142164111,-0.0017342731589451432,-0.0022835880517959595,0.0015710333827883005,0.003365000244230032,-0.001802452839910984,-0.003294622292742133,0.0011465497082099319,0.0014405420515686274,0.003686577547341585,-0.003956220578402281,-0.0030570034869015217,-0.001748258713632822,-0.00010563042451394722,0.000956632022280246,0.001061728922650218,-8.164851897163317e-05,0.0011653286637738347,-0.0020944438874721527,0.0013156376080587506,0.0038719603326171637,-0.0022782948799431324,-0.0031134141609072685,-0.0013849360402673483,0.0037537228781729937,-0.0032622036524116993,0.0013096968177706003,-0.00039396408828906715,-0.0005299602053128183
-0.0036521712318062782,-0.0038225981406867504,-0.002022765576839447,0.002221390837803483,-0.003228327026590705,0.0003596881579142064,0.0026885266415774822,0.001365013886243105,-0.003086832584813237,0.0027270193677395582,-0.0019416894065216184,0.0011405128752812743,-0.0036358314100652933,-0.0028639622032642365,0.002853932324796915,0.002539868000894785,-0.0036820366512984037,0.003174261888489127,0.0016961212968453765,0.0038220251444727182,-0.000567300827242434,0.0019422542536631227,0.002572576981037855,0.0008998699486255646,0.0018764284905046225,0.0004819073947146535,0.002867622533813119,-0.0026354596484452486,-0.00013547594426199794,0.0021080663427710533,0.0021220576018095016,0.00124447513371706,0.0021285456605255604,-0.0037014137487858534,-0.00022446973889600486,0.003662214381620288,-0.0017325547523796558,0.0030684301164001226,-0.0017104075523093343,0.0014246292412281036,-0.003440180094912648,0.0019925471860915422,-0.0014194708783179522,0.0016996348276734352,0.0016609284793958068,0.0038373039569705725,0.00014501858095172793,0.001646781456656754,0.0016519326018169522,-0.0017906080465763807,-0.0029162964783608913,-0.0038399870973080397,-0.00210832548327744,-0.00029884654213674366,0.00212042941711843,0.002852598438039422,-0.0008629918447695673,0.003481070976704359,-9.97341048787348e-05,-0.00016861814947333187,-0.0008995230309665203,-0.0029723364859819412,-0.0032509448938071728,-0.003245391184464097,-0.0004418106400407851,-0.0028931277338415384,-0.0014472288312390447,0.003111491212621331,-0.0001043123920680955,-0.002335632685571909,-0.0018630087142810225,-0.002659175544977188,-0.0017866325797513127,-0.003252386813983321,0.0032729702070355415,-0.0034140623174607754,0.00014524103607982397,0.001109741278924048,0.003412354737520218,-0.0006199733470566571,-0.003359879832714796,0.0019467573147267103,0.0019405214115977287,-0.0013475556625053287,0.0013778251595795155,0.0004917550832033157,-0.003732413752004504,-0.0032806331291794777,0.0009115152060985565,0.0009754700004123151,-0.0016374331898987293,-0.003656319109722972,0.0017115076771005988,0.00021683843806385994,0.003360802074894309,-0.0012575677828863263,0.0009721206733956933,-0.0010757602285593748,-0.0020696481224149466,0.0017014436889439821,0.00019333155069034547,-0.0003975664731115103,0.0033009361941367388,0.0033740801736712456,-0.0037696214858442545,0.0023115661460906267,0.0031446071807295084,-0.0015665598912164569,0.0012425921158865094,-0.002502571791410446,-0.002294637029990554,-0.0016371067613363266,-0.0037420722655951977,0.0004775557026732713,-9.764815331436694e-05,-0.0008854803163558245,-0.0025139767676591873,0.0017342212377116084,-0.0015668084379285574,-0.00028642674442380667,-0.0006584468646906316,-0.0039106812328100204,0.003217760007828474,0.0001506338594481349,0.0008830076549202204,0.001457210979424417,0.003323653247207403,0.0031161289662122726
0.0023100723046809435,-0.0008277769666165113,-9.197122562909499e-05,-0.003899917472153902,-0.0026612202636897564,-0.00038834146107546985,0.0001287462655454874,-0.0028762745205312967,-0.0007897275499999523,0.0026298966258764267,-0.002631725277751684,0.0011929471511393785,-0.001973893027752638,0.0015016405377537012,-0.0006838381523266435,-0.0002536697138566524,-0.002817515516653657,-0.0002883293491322547,0.0005884029669687152,0.0027513476088643074,-0.0011324255028739572,-0.0009471795638091862,-0.0017864786786958575,-0.002619690727442503,0.0029376172460615635,-0.002923940308392048,0.003872521221637726,0.0010833925334736705,-0.0036608853843063116,-0.0001181583502329886,-0.00091151351807639,0.0023080650717020035,0.0035864764358848333,1.2444361097152523e-08,0.00011211496166652068,0.00023943661653902382,0.0010206176666542888,0.0001592464977875352,0.00325405178591609,-0.0002625958586577326,0.0036604406777769327,-0.0008557061664760113,0.003144479589536786,0.0003883757453877479,-0.0006732016336172819,0.004044375382363796,0.0016086630057543516,-0.0012669677380472422,0.0011415645712986588,0.0033894311636686325,0.00243202643468976,0.003986367490142584,3.1699135433882475e-05,0.0012420943239703774,-0.00264624017290771,0.0011505890870466828,0.0025208923034369946,-0.0034978108014911413,-0.0009103393531404436,0.0022105113603174686,-0.0010800109012052417,0.0030058594420552254,0.0016039848560467362,0.0012525212951004505,-0.0009749926975928247,0.0004345316265244037,-0.003337134374305606,-0.0032927505671977997,0.00244197272695601,0.0015152780106291175,0.0016205657739192247,0.0031319677364081144,-0.003682943759486079,-0.003125927411019802,0.0028829064685851336,-0.0008641391177661717,-0.0007534957840107381,-0.0020806656684726477,-0.0015659329947084188,-0.004099935758858919,0.002144858008250594,-0.0032135816290974617,0.0019817035645246506,4.5785265683662146e-05,0.0005441086832433939,0.001701903180219233,0.0007796365534886718,-3.439771717239637e-06,0.002697970950976014,0.0007883478538133204,-0.000958489952608943,-0.0013173826737329364,0.000842104316689074,0.0033589524682611227,-0.0024648031685501337,0.0002723298966884613,-0.0002736165188252926,0.0013945538084954023,-0.00047561299288645387,-0.0039138817228376865,-0.0035343533381819725,0.0017311370465904474,0.0021539449226111174,0.001093392726033926,-0.003531849477440119,0.002294351812452078,0.0028871120885014534,-0.0024690537247806787,-0.0004827201773878187,0.001590647385455668,-0.0005075833760201931,0.003963964991271496,-0.001985332230105996,-0.001826877472922206,-0.0013354724505916238,-0.002556075341999531,0.0010696385288611054,0.002886019414290786,-0.000717631250154227,-0.0022103560622781515,0.0033442263957113028,-0.0038456975016742945,-0.001339981914497912,-0.002620768966153264,-0.0002946256136056036,0.00026054074987769127,-0.0032741145696491003,0.00027395153301768005
0.0007314626127481461,-0.004212372936308384,-0.0010569659061729908,0.0032021175138652325,-0.0022437742445617914,-0.00208990927785635,-0.0012286864221096039,0.0009242798550985754,-0.0035731878597289324,0.0008521589916199446,-0.00013542363012675196,-0.0011301350314170122,-0.0031460535246878862,0.003178441897034645,0.0018440713174641132,-0.002723781391978264,0.001666567288339138,-0.001044583972543478,0.00020579870033543557,-0.0033701176289469004,-0.0022653008345514536,-0.0015208719996735454,0.00037267582956701517,0.0034271609038114548,-0.0017670458182692528,-4.5439992391038686e-05,0.003740003565326333,0.0025386058259755373,0.0011924688005819917,-0.0011961045674979687,0.0012364319991320372,0.0036838834639638662,-0.00275395717471838,0.0015043924795463681,-0.0009057711577042937,0.00020031708118040115,-0.0022328761406242847,0.0008526481105946004,0.0029726254288107157,0.0012399350525811315,0.0012278415961191058,0.002433548681437969,-0.001746812486089766,0.002891944255679846,-0.00031692825723439455,0.0018661937210708857,-0.0029062544927001,-0.0021693669259548187,-0.0017783030634745955,-0.001453168224543333,0.002902302425354719,0.0003513796837069094,0.0017888281727209687,-0.003586141625419259,0.0022089972626417875,0.0030095360707491636,-0.0020931551698595285,0.002188946818932891,-0.001923875417560339,0.004117281176149845,0.0010353552643209696,0.000574241450522095,-0.00047711271326988935,-0.0006166515522636473,-0.0006534005515277386,0.0011712673585861921,0.001656402018852532,-0.00016381086606997997,0.0010704131564125419,0.00020500842947512865,-0.002074992749840021,0.0005350329447537661,-0.003407457610592246,0.001980813918635249,0.0024513625539839268,0.0015228480333462358,-0.003146597882732749,-0.001968992408365011,-9.890236833598465e-05,0.0026744059287011623,-0.0011773139704018831,0.0022290616761893034,4.600611646310426e-06,0.0011161514557898045,-0.0034931297414004803,-0.001717021339572966,-0.0038975218776613474,-0.0032234645914286375,0.003522728104144335,0.0033308432903140783,-0.0012278861831873655,-0.0026663141325116158,-0.003028268925845623,0.0022991334553807974,0.00024115497944876552,0.0024633880238980055,0.0027500742580741644,0.0022232942283153534,-0.0016838553128764033,0.0007154176710173488,0.0036886874586343765,0.0023414986208081245,-0.002552843652665615,0.0029940924141556025,0.0029352703131735325,-0.000626397377345711,-0.0034346214961260557,0.002148263156414032,0.0033303883392363787,-0.0011567841283977032,0.0004435877490323037,-0.003667871467769146,-0.0030217499006539583,-0.0022812355309724808,0.0037716596852988005,-0.001269823289476335,-0.001822611317038536,0.0013864695793017745,-0.0003114353457931429,0.004165804013609886,-0.0026013038586825132,-0.0001805384090403095,0.0007362603209912777,0.0028804237954318523,-0.0008271418046206236,-0.0037322917487472296,-0.003456824691966176,-0.0004591498873196542
-0.0027641616761684418,-0.003594418289139867,-0.002206249628216028,0.0020022913813591003,-0.0018866290338337421,-0.0012064799666404724,0.0009669216815382242,-0.0007062462973408401,-0.003213364165276289,-0.003000081516802311,0.003449584823101759,0.002307197777554393,0.002253824844956398,0.00018249585991725326,-0.00018274328613188118,-0.0014629506040364504,-0.0012913664104416966,-0.00264837802387774,0.003943680785596371,-0.0015139167662709951,0.0024878019466996193,0.0031515269074589014,-0.0021773127373307943,0.0014237762661650777,0.0012341897236183286,0.0035372499842196703,0.004068577662110329,-0.0005575078539550304,0.003588801948353648,-0.0003868331841658801,5.457633278638241e-07,0.0003785646113101393,-0.0008088512113317847,-0.0003004494938068092,0.0023924459237605333,0.0022299576085060835,-0.001731522032059729,-0.001505643012933433,0.0006403051665984094,0.002341093495488167,-0.0027341635432094336,-0.00035310309613123536,-0.0004433323338162154,0.0015164149226620793,0.0033721548970788717,-0.0011684491764754057,0.00010797295544762164,0.00046267040306702256,-0.00022455402358900756,-0.0034873024560511112,-0.0022580851800739765,0.0027861595153808594,0.00153126020450145,6.239512731553987e-05,0.0021913645323365927,0.002555438317358494,-0.002103610662743449,-0.000245713978074491,-0.000514413055498153,-0.002819865709170699,0.0005322699435055256,-0.0022575820330530405,-0.0011306623928248882,0.0017002590466290712,-0.002772514708340168,-0.0022178611252456903,0.0020656560081988573,-0.003683069022372365,-0.001494955737143755,-0.002842510584741831,0.0017951462650671601,-0.003092521335929632,-0.0036150524392724037,-0.002827456220984459,0.0015839965781196952,-0.0034681251272559166,-0.001986060757189989,-0.000542215071618557,-0.001273981761187315,0.003273384878411889,0.0038710942026227713,-0.0011840172810479999,2.5040621039806865e-05,0.0030232975259423256,0.0034782809671014547,0.0022259270772337914,0.001886942540295422,-0.0027992730028927326,0.0009956042049452662,0.0006705199484713376,-0.0027254093438386917,-0.0003856048278976232,0.001266766688786447,-0.0027488195337355137,0.0023347700480371714,0.0009989299578592181,-0.003632084233686328,0.0004226252203807235,0.0007610793691128492,-0.003136569168418646,0.0033375404309481382,-0.0011698374291881919,0.0021427692845463753,-0.0020853097084909678,-0.0027437559328973293,-0.003151474054902792,0.00109742465429008,0.001035020686686039,0.00208296999335289,0.003004835220053792,0.0009622517973184586,-0.0026293720584362745,0.002069610171020031,-0.0006607081741094589,-0.0028170745354145765,0.0016071904683485627,0.0022256404627114534,-0.0016338943969458342,0.00042741469223983586,-0.0012469937792047858,3.9035105146467686e-05,0.0011454095365479589,0.0032034977339208126,-0.0023533364292234182,-0.00234041316434741,0.0022352596279233694,-0.0004302120942156762,-0.0026659080758690834
0.0022826548665761948,-0.0023987996391952038,0.003259259508922696,0.0014817578485235572,0.0023070890456438065,0.003157793078571558,-0.0038562777917832136,0.0021971575915813446,0.0024723329115659,-0.0037460741586983204,0.0033178741578012705,-0.0013409681851044297,-0.003241603495553136,-0.0012599844485521317,-0.0010363521287217736,-0.0014528316678479314,-0.002591633005067706,-0.0025897661689668894,-0.0007593966438435018,0.0015124529600143433,-0.00047319920849986374,-0.003009513020515442,-0.002329848473891616,-0.001808975706808269,0.003765346482396126,0.0023412962909787893,0.0004535021143965423,-0.0013063647784292698,-0.0019680699333548546,0.0026170762721449137,0.003022652119398117,-0.0027850198093801737,-0.00081894506001845,0.003088949481025338,-0.003872527275234461,0.00200519897043705,-0.0017369177658110857,-0.0009843579027801752,0.0008429241715930402,-0.0008226570207625628,-0.0029031161684542894,0.0004684946616180241,0.0010537877678871155,-9.406009485246614e-05,0.001919142552651465,0.0015736846253275871,-0.0009749516611918807,-0.0028701508417725563,0.0029788974206894636,-0.0022506071254611015,1.8819693650584668e-05,-0.0031812128145247698,-0.000966210791375488,0.002825810806825757,0.002261014422401786,-0.001581053831614554,0.002935249824076891,0.0021385238505899906,-0.0033423679415136576,0.00042336733895353973,0.00323078827932477,-0.0009628228726796806,0.0002223632181994617,-0.002311703283339739,6.202837539603934e-05,0.000896158569958061,0.0022776792757213116,0.00372070400044322,0.0016656803200021386,0.0020076807122677565,-0.003052229294553399,-0.0008485837606713176,0.002578713931143284,-0.0006927531794644892,0.0005308169638738036,0.0036260229535400867,-0.001317000831477344,-0.002087084809318185,-0.003234146861359477,-0.0024192440323531628,0.0016921889036893845,-0.003404035698622465,0.0007221869891509414,0.000714023073669523,-0.001598990522325039,0.003627556376159191,-0.002224491909146309,-0.0006742049008607864,0.00010795745765790343,0.00096020387718454,0.00026265569613315165,0.001232622191309929,0.000569676049053669,-0.0010995737975463271,-0.0011170683428645134,0.00035349203972145915,-0.003194615012034774,-0.003443721914663911,0.0006463296012952924,-0.003308165119960904,0.0014850758016109467,0.002994813257828355,-0.0020958413369953632,-0.0034242914989590645,-0.003440815256908536,-0.0016686266753822565,-0.00183411396574229,0.0032586390152573586,-0.0031404050532728434,0.003642973955720663,0.002749138046056032,-0.0004944860120303929,-0.0013421067269518971,0.0009510637610219419,-0.0007324997568503022,-0.0009750177268870175,-0.0019653483759611845,-0.0017575857928022742,0.003192154224961996,-0.0019097040640190244,0.0006602169014513493,2.0001727534690872e-05,0.003343632211908698,0.001444745808839798,-0.001874732319265604,0.00023264002811629325,0.001257601659744978,0.002381962491199374
0.0034308929461985826,-0.0007477652980014682,-0.0004364768392406404,0.0013662890996783972,0.0011150260688737035,-0.002884837333112955,0.002207465935498476,-0.0015234372112900019,-0.0007042821380309761,-0.001962850335985422,-0.002497212029993534,0.0013108518905937672,0.0018894616514444351,0.0018018855480477214,-0.0024983324110507965,-0.003680211491882801,0.0024110295344144106,-0.0035125508438795805,-6.049110379535705e-05,-0.002382592996582389,0.0028246298898011446,0.0014840755611658096,0.0017059996025636792,0.001502886414527893,-0.0028857714496552944,-0.0029954607598483562,-0.0003451964585110545,0.003114862833172083,0.0015637526521459222,-0.0010107801062986255,0.002930067013949156,0.001748153823427856,-0.0025348267517983913,-0.0019450243562459946,-0.002672410337254405,5.843389226356521e-05,0.00021214541629888117,0.0007897941977716982,0.0033268306870013475,-0.0028328809421509504,-0.002687299158424139,-0.0004454408772289753,-0.0006011617952026427,-0.00013587551075033844,0.0027821878902614117,0.002792744431644678,-0.003755446756258607,-0.0012630620039999485,-0.0021489528007805347,0.001208229805342853,0.003725774586200714,-0.00310326530598104,0.002941395388916135,-0.0037866230122745037,0.002513115992769599,0.001986750401556492,-0.003912316169589758,-0.00010612887126626447,0.0010576079366728663,0.00124955247156322,0.0015900027938187122,0.0004506048862822354,0.00024183318600989878,-0.0037601087242364883,0.002997236093506217,0.0018654947634786367,-0.0027914599049836397,-0.0020311535336077213,-0.00042741867946460843,0.0034671786706894636,0.003413410857319832,0.0009652596199885011,-0.0015305789420381188,0.0001003088109428063,-0.003036066424101591,0.0007039392949081957,0.0009213284938596189,-0.0022840932942926884,-0.00011326963431201875,0.003173180390149355,-0.0005851108580827713,0.00013525347458198667,-0.0032208154443651438,-0.0037223503459244967,0.0021101990714669228,-0.00038391927955672145,-0.0001285485632251948,0.0013975402107462287,-0.003934864886105061,0.0008734515868127346,0.003866249928250909,-0.001759832608513534,0.0002607218630146235,0.0020768900867551565,-0.0008952422067523003,-2.564847591202124e-06,0.0018664832459762692,-0.002206824952736497,-0.0019639329984784126,0.0037011054810136557,0.0030782052781432867,-0.0027001090347766876,-0.0019513368606567383,0.0015648066764697433,0.0008957863901741803,0.0029254090040922165,-0.003125110175460577,0.00376261118799448,0.003173639765009284,-0.002810101490467787,0.001199945341795683,-0.0017365178791806102,0.001872824039310217,0.0019044613000005484,0.0034467189107090235,0.003598098875954747,0.0011350841959938407,0.0007124742842279375,0.0007239120895974338,0.0017594846431165934,9.038104326464236e-05,-0.0026538337115198374,-0.0015555761056020856,-0.0027522153686732054,-0.0006608793628402054,-0.0012191873975098133,0.0002771813014987856,-0.002278577769175172
-0.0010486746905371547,-0.00300322356633842,-0.0016634541098028421,0.0030305630061775446,-0.00283930916339159,0.0015173829160630703,-0.001677483320236206,0.002998418640345335,0.0028201784007251263,0.0019898181781172752,0.0026131782215088606,0.0034815624821931124,-0.0032803111243993044,0.0002556582330726087,0.002855559578165412,0.002529294230043888,0.002621645340695977,0.0032922218088060617,-0.0036836513318121433,0.00021968979854136705,-0.0007830968243069947,-0.0002796162443701178,-0.003456342266872525,-0.002057848032563925,-0.0006703152903355658,0.0019935215823352337,0.004101862665265799,-0.003074686275795102,0.0014721232000738382,0.002693023532629013,0.0031745817977935076,-0.003229000838473439,-0.002244191011413932,-0.0027555839624255896,-0.0005019079544581473,-0.0026046677958220243,-0.0012381536653265357,0.0011986666359007359,0.0025539849884808064,0.0028950138948857784,0.0010012338170781732,-0.00119072909001261,0.0029260434675961733,-3.283223486505449e-05,0.002183639444410801,-0.0021836180239915848,0.0006233620224520564,0.0028257679659873247,0.00217672111466527,0.001665224670432508,-0.0007035690359771252,-0.002376533579081297,-0.0035279772710055113,0.0028632425237447023,0.0010450789704918861,0.00012596794113051146,0.0028022241313010454,0.0028099077753722668,-0.002987228101119399,-0.0023557906970381737,0.0006173216970637441,-0.0012713478645309806,0.003545990912243724,-0.0018173705320805311,-0.001667203032411635,0.0033126086927950382,0.0028739613480865955,-0.0027841145638376474,0.001504909130744636,-0.0010989459697157145,-0.0005206698551774025,-0.00035422079963609576,0.0021134905982762575,0.002071956405416131,-0.00031308786128647625,-0.002735873218625784,-0.00013455920270644128,0.0002807330747600645,0.0006654388271272182,-0.0010593764018267393,0.0022917401511222124,-0.0008942954591475427,-0.0026728021912276745,0.002807722659781575,0.0019771030638366938,0.0017434972105547786,-0.002638298086822033,-0.0012084187474101782,-0.0006951115792617202,-0.0030289317946881056,0.0008743285434320569,0.0025570213329046965,0.004005851224064827,0.0011126354802399874,-0.0033959674183279276,-0.0019570146687328815,0.002461363561451435,0.0020167455077171326,-0.0010796829592436552,-0.0036602451000362635,0.0008597321575507522,0.003245820291340351,-0.0031957225874066353,0.0031502931378781796,0.0015515453414991498,-0.0019899087492376566,0.0009166108211502433,0.0019468569662421942,-0.004038509447127581,0.0025195470079779625,0.002801523543894291,-0.003397216321900487,0.001901968033052981,-0.0018466702895238996,-0.001966705545783043,0.0006901139277033508,0.0006799129187129438,-0.0008695370052009821,0.0027102415915578604,-0.0032406572718173265,-0.0007615645881742239,-0.003220879239961505,0.0021289451979100704,0.0036769311409443617,-0.0030943620949983597,-0.000690436630975455,0.0014010025188326836,-0.00025137534248642623
0.001358197769150138,0.0035546268336474895,-0.0010045256931334734,0.0012200099881738424,-0.0013824703637510538,-0.0033106617629528046,0.0009651243453845382,-0.00011905508290510625,-0.0018608731916174293,-0.002356835873797536,-0.0032481802627444267,-0.0002066726447083056,0.0037648307625204325,0.002141327364370227,0.0005850055022165179,-0.0013658624375239015,0.0037392808590084314,0.0037886640056967735,-0.0030901795253157616,3.713852493092418e-05,0.00016876640438567847,0.0018964085029438138,0.0017194616375491023,0.0003525555075611919,0.0029852285515516996,-0.001803130842745304,-0.0015313733601942658,0.002413339214399457,0.0015958748990669847,0.0017739225877448916,-0.003512308932840824,-0.0011539418483152986,-0.0027835636865347624,0.00017317806486971676,-0.0012902197195217013,0.003675882937386632,-0.0033495891839265823,-0.002082224003970623,0.0024647514801472425,-0.0017069285968318582,-9.463649621466175e-05,0.00021361572726164013,-0.00015937276475597173,0.002277351450175047,0.002128652995452285,-0.0033784089609980583,-0.0034436462447047234,0.0012839274713769555,0.003104950301349163,0.00028404861222952604,0.0001674945087870583,-0.0010933737503364682,0.0030435877852141857,-0.0025748563930392265,-0.002603189554065466,0.002046475186944008,-0.0037601322401314974,0.00219114706851542,-0.001434492995031178,-1.789108500815928e-05,0.002823893679305911,0.003230493515729904,-0.0007707048789598048,0.0008004456758499146,-0.0026166816242039204,0.00032978563103824854,-0.0004678988771047443,-0.0025629419833421707,0.003053064690902829,-0.0018202238716185093,-0.0017893168842419982,-0.00040248443838208914,0.0009441993315704167,-0.0038763259071856737,-0.0017834394238889217,0.0003824580053333193,0.00318888109177351,-0.0013417263980954885,-0.00023398053599521518,-0.00021289671713020653,0.0014752782881259918,0.0009226366528309882,-0.0027345477137714624,0.00014281786570791155,-0.0025250082835555077,0.003084571799263358,0.002554812701418996,0.0037714254576712847,0.0010531949810683727,-0.0036644889041781425,-0.0019750366918742657,0.0014678210718557239,0.002335943980142474,3.963444760302082e-05,-0.0021993645932525396,-0.001414372120052576,0.0003714564663823694,-0.0016766558401286602,-0.0009203740628436208,-0.000492377788759768,0.0012108463561162353,0.0020448220893740654,-0.00017135613597929478,-0.0006735629867762327,0.00038890092400833964,-0.00100887066219002,0.0024345216806977987,-0.0004887916147708893,0.0011863975087180734,0.0037921720650047064,0.001390166929922998,0.0014885517302900553,0.0023963383864611387,-0.0013860620092600584,0.0026119332760572433,-0.0025343140587210655,-0.0010017878375947475,-0.002762275980785489,-0.002957773394882679,-0.0011424972908571362,-0.0031065659131854773,0.002197590656578541,0.002100997371599078,0.002203133888542652,-0.003242362290620804,-0.0025581519585102797,-0.0005778828635811806,0.0011971095809713006
0.0011296214070171118,0.002845153911039233,-0.0016823478508740664,0.0009467883501201868,-0.0004300959117244929,-0.0009246894042007625,0.0010774376569315791,-0.0034914843272417784,-0.0027065640315413475,0.00014933335478417575,0.0015617688186466694,0.0037124850787222385,-0.00016173499170690775,-0.0029592844657599926,0.0014417343772947788,0.0017973945941776037,-0.0016527920961380005,-0.001386844553053379,0.003025225130841136,0.0032515772618353367,-0.0036694013979285955,-0.003329052124172449,0.0010521893855184317,-0.0009327176376245916,-0.0009611268760636449,0.0030811536125838757,-0.0004982294049113989,0.0012597165768966079,-0.0010403081541880965,-0.0007442914647981524,-0.0037147952243685722,0.00012035311374347657,0.0003730087191797793,-0.000656654592603445,0.0026440012734383345,-0.0027776930946856737,0.0023418075870722532,0.000680827593896538,-3.239031138946302e-05,0.0009618220501579344,0.0002147043269360438,0.0036275966558605433,0.001067991484887898,0.002005715388804674,-0.0024182572960853577,-0.0017821372020989656,0.0001968686847249046,0.0013199473032727838,-0.0012532919645309448,-0.0012888789642602205,0.0011530593037605286,-0.0004975363262929022,-0.0010025642113760114,0.002633483149111271,0.0020180577412247658,-0.002126079984009266,-0.0014814087189733982,-0.002070366172119975,0.0008141694706864655,0.0020853900350630283,-0.0013620852259919047,0.0017906691646203399,-0.0017939192475751042,0.001425273367203772,-0.0016645656432956457,-1.0338960692024557e-06,0.0008317597676068544,0.0012835324741899967,-0.0033740599174052477,-0.003740658750757575,0.0027738537173718214,0.0018689987482503057,0.002393245231360197,-0.0019516923930495977,0.002694623079150915,-0.0004929208080284297,0.0035405918024480343,0.001135004684329033,0.001118685700930655,-0.0023151314817368984,0.0019460704643279314,-0.0038598948158323765,0.002648258814588189,-0.0017403127858415246,-0.00348251243121922,-2.4347196813323535e-05,-0.002254995284602046,-0.002617091406136751,0.0013033740688115358,-0.0006811183411628008,0.0004834778083022684,0.002983755897730589,-0.0005662578041665256,-0.0021654001902788877,0.0031639235094189644,0.002555408049374819,-0.0036123411264270544,-0.003576767398044467,-0.0019335176330059767,0.0021320476662367582,-0.00011699418246280402,0.0004816631553694606,0.0020927428267896175,-0.0005875396891497076,0.001667859498411417,0.001878759590908885,4.60559967905283e-05,-0.0025836308486759663,0.0022166750859469175,0.0018898634007200599,0.0015340299578383565,-0.002687585074454546,-0.0031167578417807817,0.002298151608556509,0.001527796732261777,0.0027486253529787064,-0.0009765454451553524,-0.0025312299840152264,-0.00046704441774636507,0.0021017459221184254,0.0028956804890185595,0.0019071220885962248,-0.0014940508408471942,-0.0028552040457725525,0.0028539099730551243,0.0016107875853776932,-0.0024845150765031576,0.001054568332619965
0.0020599449053406715,0.0008267740486189723,0.002396391471847892,0.0018938211724162102,0.0026728236116468906,-0.000823501730337739,-0.002670226851478219,0.0014731768751516938,-0.000654094445053488,-0.001628482830710709,-0.0007045108359307051,-0.0028915791772305965,-0.0037712594494223595,-0.0023778092581778765,0.0009863097220659256,0.0032755958382040262,-0.003515111282467842,-0.0009440978174097836,0.0007566653657704592,-0.0017556315287947655,0.0033966712653636932,0.0019084664527326822,-0.003292172448709607,-0.001917381538078189,-0.0013691185740754008,-8.810332656139508e-05,0.0027730020228773355,0.002523549599573016,0.0014047535369172692,0.0013162388931959867,-0.003400892484933138,-0.003793407464399934,-0.0021064523607492447,-0.0018661955837160349,0.0019892423879355192,0.0008175481343641877,0.0006422600708901882,0.0020791967399418354,-0.0030295897740870714,0.002056365367025137,0.0007071405998431146,0.0005040652467869222,-0.003399318316951394,0.0009924006881192327,0.0021233365405350924,-0.0028146174736320972,0.0007796016870997846,0.003223321633413434,-0.0028308217879384756,-0.0011320195626467466,-0.0030062831938266754,0.0009735231869854033,-6.38999481452629e-05,-6.941747415112332e-05,-0.001735994010232389,0.0018781176768243313,0.0023615341633558273,0.0015323357656598091,0.0015138719463720918,0.0007080499199219048,0.002029897179454565,0.0011766396928578615,-0.001636030850932002,0.0018563860794529319,-0.0008839669753797352,-0.0031674294732511044,0.00022008914675097913,0.0002441106626065448,-0.002466829726472497,-0.0016734817763790488,-0.0036654709838330746,0.001820020261220634,-0.0015657760668545961,-0.0029703807085752487,-0.0016471502603963017,-0.0016987314447760582,-0.0018033456290140748,0.0007091087172739208,0.0006080865277908742,0.00013893438153900206,-0.0032811688724905252,0.003112120321020484,0.0008871608879417181,0.0006902237073518336,-0.0037492832634598017,-0.0010327943600714207,-0.003359120571985841,-0.001975072780624032,-0.0007148980512283742,-0.002236123662441969,0.003392147598788142,0.0011787846451625228,-0.0036476198583841324,-0.0022406585048884153,-0.0020458342041820288,0.001049634302034974,-0.000802796334028244,-0.0005467006121762097,-0.00390278990380466,-0.0012545686913654208,-0.003215402364730835,-0.0002490967744961381,0.001049377373419702,0.0024045687168836594,-0.0034430939704179764,-0.0026808693073689938,0.0025795854162424803,-0.001973856007680297,0.002427275525406003,-0.0022261017002165318,0.0009195981547236443,-0.0015574963763356209,7.66638113418594e-05,-0.0031984425149858,0.0013684158911928535,-0.003276408649981022,-0.001485610962845385,0.0016224220162257552,0.002998196054250002,0.003332803025841713,0.0025706817395985126,-0.0007556949276477098,-0.001679202658124268,-0.0038743652403354645,0.0033203517086803913,-0.00297697726637125,0.0006826803437434137,0.000752743158955127
-0.0023132471833378077,-0.002175376983359456,-0.001012433203868568,-0.0016530946595594287,-0.0014372587902471423,-0.0034570491407066584,0.0009450307697989047,-0.002984768245369196,0.000459689850686118,0.003870931454002857,0.002035025740042329,-0.0009738514781929553,-0.0007962766685523093,-0.002713322639465332,-0.002890643198043108,-0.0004073462332598865,0.0017822071677073836,0.003350968472659588,-0.00288105895742774,-0.0037784953601658344,-0.0036644984502345324,0.0033183761406689882,0.0037485992070287466,-0.002913515781983733,0.00180794857442379,0.000180204413481988,0.003790016984567046,-0.0007528387359343469,0.0020155387464910746,-0.0006007421761751175,0.0035519388038665056,0.0014475258067250252,-0.002951702568680048,0.003515762509778142,-0.002747422084212303,-0.003791342256590724,-0.002775099128484726,-0.0015270382864400744,0.0030815606005489826,0.0028428242076188326,0.0007267057080753148,-0.0013462287606671453,0.0022738513071089983,-0.002116188406944275,0.0026869389694184065,-0.0013475955929607153,0.0024415766820311546,-4.1195849917130545e-05,-0.0034116499591618776,0.001184759777970612,-0.0004555997729767114,0.0006851173238828778,-0.0034039427991956472,0.0030769172590225935,0.003605859586969018,0.003061057534068823,0.0024497583508491516,-0.0026162005960941315,-0.0004999146331101656,0.000966544437687844,-9.501319436822087e-05,-0.003122915280982852,0.002556593855842948,-0.0006266914424486458,-0.002384170424193144,0.002376835560426116,0.0023547974415123463,0.0014824639074504375,-0.0012363591231405735,0.0021927382331341505,0.0013693403452634811,0.0014642480527982116,0.002828133525326848,-0.0035260876175016165,0.002983357524499297,0.0033960072323679924,0.0030980848241597414,-0.00022768978669773787,0.0007582219550386071,-0.0024264228995889425,0.0032212904188781977,-0.0008869800949469209,0.002692130161449313,-1.5885148968663998e-05,0.0007243919535540044,-0.00013374291302170604,0.00257366755977273,0.001983690308406949,-0.00036399165401235223,0.0010150430025532842,-0.0014608973870053887,9.392896754434332e-05,0.0038501375820487738,0.003385860240086913,0.0016489749541506171,0.0020570592023432255,-0.0027221140917390585,-0.0004272882069926709,-0.0021026823669672012,0.002393517177551985,0.0034031355753540993,0.0011836913181468844,0.0016086742980405688,0.002057767705991864,-0.002464446472004056,-0.00011480267130536959,-0.0032283090986311436,0.0016785580664873123,0.0038418781477957964,-0.0020403070375323296,-1.4120702871878166e-05,0.0013860056642442942,0.0026597280520945787,-0.002148908795788884,-0.0033734049648046494,-0.003631891682744026,0.0018713679164648056,0.002100018784403801,-0.0007557833450846374,-0.0014981792774051428,-0.002819149289280176,-0.0016398844309151173,0.0013800293672829866,0.0005573288071900606,0.002111257752403617,0.002088741632178426,0.0026096070650964975,0.0015077674761414528
