0,1,2,3,4,5,6,7,8,9,10,11,12,13,14,15,16,17,18,19,20,21,22,23,24,25,26,27,28,29,30,31,32,33,34,35,36,37,38,39,40,41,42,43,44,45,46,47,48,49,50,51,52,53,54,55,56,57,58,59,60,61,62,63,64,65,66,67,68,69,70,71,72,73,74,75,76,77,78,79,80,81,82,83,84,85,86,87,88,89,90,91,92,93,94,95,96,97,98,99,100,101,102,103,104,105,106,107,108,109,110,111,112,113,114,115,116,117,118,119,120,121,122,123,124,125,126,127
0.30348086698208854,0.9639730827262818,-0.10644355568085517,-0.7940563782449244,0.8722901582804174,-0.9678147268836681,0.2100639996958349,-0.4557701786787598,-0.7936122483211718,-0.7950007058639876,0.6072030651560398,-0.3314142486755025,-0.22162122507958593,-0.45175418945612944,0.855422689168732,-0.4699767328428719,0.7281246148547951,0.7347662686180696,0.6137014055620116,-0.9008675277566105,-0.27096305754488914,0.5963045088475531,-0.7515976654764087,-0.288817400917845,-0.7012606336900833,0.7983326725063955,-0.14257000850799684,0.3362248289696832,0.5309912057649493,-0.7591377028795381,0.8778279878629198,-0.452369583062888,-0.41392442843358124,-0.5758467675064272,-0.7652502180263987,0.2679430382881245,-0.43812935136039544,-0.6101949756421787,-0.9607943289941108,0.08885710354609655,0.6953046928807705,-0.6079333932757247,-0.49816999974305487,0.8647376000108891,0.8191347820817718,-0.16385449897168525,0.5071301066463358,0.01232535209368013,0.70312695364111,-0.5228900262338545,0.7091408026943953,0.3862768237188552,-0.48794942856563206,0.5356419222687785,0.08680678136492159,-0.17811072332365185,0.22057833321287723,0.18972482169082738,0.5410790705514532,0.8558727530904748,-0.5489056871607889,0.6054431634499733,-0.8760127179698369,0.7235850240013757,-0.7781602417375,0.8231972636021441,0.09530070213263597,-0.9596791136054841,-0.7578534456892689,0.7418554994108753,0.294297376065795,0.4199963880173547,0.18349732594428692,-0.11334068837379352,-0.3939166497740232,-0.4892199133429467,0.696440848542689,-0.5591625613104307,0.9410263399799623,0.3914173357433379,-0.5622937989289891,-0.018083463145446732,0.4786484004702156,0.09087732754323774,0.9251044777212138,-0.15533904294388146,-0.1069195525122999,-0.09889601638445633,-0.5009058480056499,0.5426838393316922,-0.13447618483867863,-0.29234081681221613,-0.4049201379069505,0.9696505406927636,0.22369138733685734,0.8143959699033829,-0.869308703548791,0.15027950825800884,0.12436575238637859,-0.4690718176433408,0.1489637742972174,0.5321389758463893,-0.5276023181680505,0.3004436613181678,0.05869058684763018,-0.15570534164783734,0.8626636404751329,0.4587458169512,0.29454023841163623,-0.1261774338219197,-0.877131484618267,0.025823555026652567,0.63286086853484,-0.6911120518527296,0.07128069047348151,0.12941814320000478,-0.35451690584749707,-0.5633786166700925,0.8076820676922472,0.15407198676808997,-0.3434624062242482,-0.4765845944122262,0.2986350556367552,0.8281916247153094,0.10249341751737107,0.5291137660841241,-0.6828303269277001,0.20765490546533583
0.003412817604839802,0.0009249519207514822,-0.0011262899497523904,-0.0016355406260117888,-0.0013549727154895663,0.0025986558757722378,-0.002911402378231287,-0.0013939205091446638,-0.003629279090091586,0.0013742493465542793,-0.002776773413643241,-0.001711890334263444,0.0015686940168961883,0.0006963580381125212,0.0023276444990187883,-0.0015831738710403442,-0.003229748923331499,-0.0020731373224407434,-6.586971721844748e-05,0.0005493939970619977,-0.0015699788928031921,-0.001891612890176475,-0.0033355315681546926,-0.001545046572573483,-0.000694095331709832,0.003786791581660509,-0.0012010886566713452,-0.0032395042944699526,-0.0028327698819339275,-0.0033829922322183847,-9.568672976456583e-05,0.0008116293465718627,-0.0029983841814100742,0.001890628132969141,0.0014433678006753325,-0.002314611803740263,-0.002025012392550707,0.0033148489892482758,0.0003782115236390382,-0.00226785521954298,0.0012021806323900819,0.0023430061992257833,-0.002361809369176626,0.0033633201383054256,-0.0038620790001004934,-0.0033017012756317854,-0.002550584962591529,-0.0034950950648635626,-0.00045264410437084734,0.0022873436100780964,0.0023277243599295616,0.003491031238809228,-0.0032453984022140503,0.0029724363703280687,-0.002626646775752306,0.00037951048579998314,0.0012719955993816257,0.002169701037928462,-0.00293493433855474,0.0011001973180100322,0.00033873264328576624,0.0008558734552934766,0.001772622112184763,-0.002355341799557209,-0.0027896095998585224,-0.000922336068470031,0.003242544597014785,-2.2744718080502935e-05,-0.0017461947863921523,0.0031722942367196083,0.0014544635778293014,0.0014534966321662068,0.0003493195690680295,0.00040530008845962584,0.0030994906555861235,0.002958252327516675,-0.0023328959941864014,0.00235611479729414,-0.001404180540703237,-0.002808461431413889,0.0033120603766292334,0.0032919340301305056,-0.0017741145566105843,0.002625054446980357,-0.0020412453450262547,0.00028363236924633384,0.002885788679122925,0.0032273302786052227,-0.0039861868135631084,0.001455193618312478,0.00022925017401576042,0.0030278973281383514,0.0023114588111639023,0.0034609069116413593,0.00016631287871859968,-0.0003900498559232801,-0.002738396404311061,-0.002027812646701932,-0.003560211043804884,0.0018984271446242929,-0.0003594321315176785,-0.0014422065578401089,-0.0016493233852088451,-0.0033285855315625668,-0.0019821019377559423,0.0022487249225378036,0.0017752391286194324,-0.0007560215308330953,-0.0038260617293417454,-0.0022380615118891,-0.00010103921522386372,0.00044343480840325356,0.0025555307511240244,0.0024840475525707006,-0.0024356439244002104,-0.002935227006673813,-0.003388485871255398,-0.0021551994141191244,-0.00022334694222081453,0.0030058110132813454,8.226892532547936e-06,0.0003968553792219609,0.003309782827273011,-0.0017651303205639124,-0.002941697370260954,-0.0029716184362769127,0.0003354509826749563,-0.0005103858420625329
-0.0004712110967375338,-0.0025653839111328125,0.0038035770412534475,-0.0036906066816300154,0.0016047991812229156,0.003216097829863429,0.0030170364771038294,0.0028055491857230663,-0.0018601996125653386,0.003282043617218733,-0.0009715608321130276,0.00021969176304992288,-0.0020529991015791893,0.003920497372746468,-0.003371494822204113,0.002639476675540209,0.0007299715653061867,0.0014638782013207674,0.0016936069587245584,0.00022284945589490235,0.0021058584097772837,-4.227017780067399e-05,0.0005909416940994561,0.00346781755797565,-0.0033814706839621067,-0.0003483238979242742,-0.0030114834662526846,-5.177582352189347e-05,-0.003952221944928169,-0.0034393903333693743,-0.003516268450766802,-0.002718696603551507,-0.002820695750415325,0.002900258172303438,-0.0025798745919018984,0.003160799853503704,0.0024041016586124897,-0.0006805731682106853,0.00040516682201996446,-0.002305823378264904,-0.0005615397240035236,0.0037094152066856623,-0.0009345840662717819,-0.0023156863171607256,0.0004382354090921581,0.0009606893872842193,-0.0036083869636058807,-4.3112017010571435e-05,0.0011640661396086216,0.0025645550340414047,-0.0019487576792016625,-0.0028162221424281597,-0.0023344343062490225,0.00207075965590775,0.0032400761265307665,0.001433435594663024,0.0036163446493446827,0.0009798920946195722,0.0033498210832476616,0.0011138861300423741,0.0002235505817225203,0.0036506049800664186,-0.0018549537053331733,0.0030717498157173395,-0.0035584564320743084,-0.003774642711505294,-0.0023518262896686792,-0.00043495732825249434,0.0034125333186239004,0.0020018594805151224,0.0003365375741850585,0.001961543457582593,-0.00015068142965901643,4.664451989810914e-05,0.00047632711357437074,-0.0032450093422085047,-0.0018608631798997521,-0.0005835093907080591,0.0014817372430115938,0.003898762632161379,-0.0037878258153796196,0.0009392285719513893,-0.0014018828514963388,-0.0012884977040812373,0.002705598948523402,-0.0010772773530334234,-0.0019150400767102838,0.004004549700766802,0.00273657264187932,0.0017059851670637727,0.002626013709232211,0.0006993433344177902,0.0014607897028326988,0.00375696481205523,-0.0030902151484042406,-0.003617191920056939,0.0008850156445987523,0.0015179141191765666,-0.003889626357704401,-0.0006100571481510997,0.001801874372176826,-0.0023722562473267317,0.0003739716194104403,-0.0025770599022507668,0.0017235259292647243,0.003185507608577609,-0.0006337040103971958,-0.002351486822590232,-0.0017364450031891465,0.0021959918085485697,0.0013643300626426935,0.0021077729761600494,-0.0006842159200459719,-0.0037188606802374125,-0.001670150668360293,-0.0021663818042725325,-0.0014648952055722475,0.0010044124210253358,-0.0027671537827700377,-0.001104750786907971,-0.0015592037234455347,-0.000494066160172224,0.0019113080343231559,-0.003270169487223029,-0.0019613683689385653,-0.003537300042808056,-0.00393845746293664,0.0016922109061852098
0.0014518375974148512,0.0011066118022426963,-0.0015357125084847212,0.002154208719730377,-0.002980118151754141,0.0019226338481530547,-0.00037850730586797,0.001965931383892894,-0.0036313668824732304,0.0032434465829283,0.003031979314982891,0.0009985176147893071,-0.002669950481504202,-0.0017329294933006167,-0.0027395691722631454,0.001282238750718534,0.00043284957064315677,-0.0008762514917179942,0.00334818079136312,-0.000642709550447762,0.0003219568752683699,-0.0018507821951061487,0.0026402331423014402,0.001873624511063099,0.0007773991674184799,0.0021199972834438086,-0.002169000683352351,-0.0022605631966143847,0.0033117036800831556,0.003316983813419938,0.0033433097414672375,-0.003948743920773268,-0.0008298663888126612,0.0003121709742117673,-0.0034335285890847445,-0.001931047416292131,-0.0006886415067128837,0.002960560377687216,-0.003058230970054865,-0.003166936570778489,-0.0013676051748916507,0.003335445886477828,-0.00367000512778759,0.0006722182733938098,0.0023100795224308968,0.0015218532644212246,0.0032085548155009747,-0.002492512110620737,0.003563079284504056,-0.001759240636602044,0.0035817762836813927,-0.003265254432335496,0.0035439457278698683,0.00272138649597764,0.0034228574950248003,-0.0009035218390636146,0.002152741886675358,-0.0027830793987959623,0.002926746616140008,0.0026192355435341597,0.0006667724810540676,-0.003703704569488764,0.0024738360662013292,-0.003256238764151931,0.002769316313788295,-0.00020055202185176313,0.0026573026552796364,0.0024092276580631733,0.0014670456293970346,0.0009211038704961538,0.002709022955968976,0.0036231803242117167,-0.0013716593384742737,0.0013754477258771658,-0.0011631551897153258,-0.0017588607734069228,0.002500406466424465,-0.0004803007759619504,0.003461984684690833,0.00040413462556898594,0.0016088777920231223,0.000831221288535744,-0.0011730071855708957,-0.00031279196264222264,0.001051544095389545,-0.0004331790842115879,0.0005578825948759913,0.0034793210215866566,0.0032107490114867687,-0.003443158697336912,0.002721891738474369,0.002657500095665455,-0.004088812507688999,-0.001143863657489419,0.003794243326410651,-0.0004658744437620044,-0.0005135337123647332,-0.000453554472187534,-0.0038693000096827745,0.00013987647253088653,0.0019449464743956923,0.0018075824482366443,-0.0012788745807483792,0.0025031438563019037,0.0036065413150936365,-0.0006972691626287997,-0.0034548798575997353,0.004112423397600651,-0.001811138354241848,-0.0011408692225813866,0.0033276358153671026,-0.0008625009213574231,0.0017186900367960334,-0.001786738634109497,0.002624761313199997,6.445212784456089e-05,-0.004144549835473299,-0.0030024624429643154,-0.0009740440873429179,0.0028249516617506742,-0.0004930030554533005,0.0038090699817985296,-0.003174168523401022,0.00045310379937291145,-0.002824427094310522,-0.0028737259563058615,0.00019964997773058712,0.00203346973285079
0.0008763314690440893,-0.001478163176216185,-0.0012380820699036121,0.0006015859544277191,-0.0008789099520072341,0.0015110314125195146,-0.00024909179774113,-0.002538009313866496,-0.0030135393608361483,-0.0019430596148595214,0.0003238612844143063,0.001999832922592759,-0.0032076556235551834,0.0025260564871132374,0.0019902524072676897,0.0003378884866833687,0.0005957240937277675,0.0012087912764400244,-0.0005774201126769185,0.0006840653368271887,0.00011935317161260173,-0.002427738392725587,0.0007897706818766892,-0.0022415523417294025,-0.0032184957526624203,0.003006573533639312,-0.0011387678096070886,0.0005205628694966435,0.0009155828738585114,0.0028160654474049807,-0.0013662667479366064,-0.00045995452092029154,-0.0005134980310685933,-0.003165383590385318,-0.0010560048976913095,-0.003379259491339326,0.0019190841121599078,-2.1284655304043554e-05,0.0019162028329446912,-0.002623993903398514,-0.0024786863941699266,-0.0036615764256566763,0.0010328461648896337,0.0003529825189616531,0.0019667898304760456,0.0021781492978334427,-0.0008220471208915114,0.0020732043776661158,-0.0036021603737026453,0.0035788496024906635,0.0026371944695711136,-0.0017506331205368042,-0.00044492713641375303,-0.0036963503807783127,0.0025221805553883314,-0.0029257675632834435,-0.0008730441331863403,-0.003721314249560237,-0.003685383126139641,-0.0015351675683632493,0.001209339825436473,0.0037814141251146793,-0.0008964991429820657,-0.0020861674565821886,-0.001496807555668056,0.003603382268920541,-0.003032384440302849,-0.0030613637063652277,0.0027303104288876057,-0.0028926939703524113,-0.0032213078811764717,0.0017368150874972343,-0.0031090283300727606,0.0027934734243899584,0.0023530663456767797,-0.00027529284125193954,0.0011320365592837334,-0.0010236131493002176,-0.0022182862740010023,-0.00029068259755149484,0.002417786279693246,-0.0013831275282427669,-0.003780027851462364,0.002078258665278554,-0.00013300342834554613,-0.000530859106220305,0.0008578124106861651,-0.0008747606771066785,0.0037263398990035057,-0.0035090711899101734,-0.0009996817680075765,-0.0027733005117625,0.0015297210775315762,0.0026797472964972258,0.0029094424098730087,-0.0021926830522716045,-0.0011713241692632437,-0.0026714324485510588,0.0012338425731286407,-0.002190602943301201,0.00155458296649158,0.0038845522794872522,-0.0005885943537577987,0.0033877461683005095,0.002753869164735079,-0.0012910880614072084,0.0025929880794137716,-0.0003480047744233161,-0.002872643293812871,-0.00022218620870262384,-0.001367892255075276,-0.0036940036807209253,0.00030674334266223013,0.00017905364802572876,0.0012080153683200479,0.002819804707542062,-0.0030525936745107174,0.002881142310798168,0.0006114396965131164,0.0010423389030620456,0.003904154524207115,0.002373922150582075,-0.0011635947739705443,0.0019779468420892954,-0.0028338173869997263,0.0019093385199084878,-0.0006405283929780126,0.0024782507680356503
-0.002899416722357273,6.129794928710908e-05,0.0036453362554311752,0.003051505656912923,0.0016958683263510466,0.000359680678229779,-0.002664719009771943,0.002895308192819357,0.00019846443319693208,0.003631731029599905,1.2276277630007826e-05,-0.0009115033317357302,0.0013205679133534431,0.0006306575960479677,0.0006756549119018018,-0.0021925754845142365,-0.002006539609283209,0.00038070365553721786,0.00044580758549273014,-0.0027054676320403814,0.0034307148307561874,-0.001225089654326439,-0.002507005352526903,0.0015096856513991952,0.003220687620341778,-0.0028357987757772207,-0.0034080122131854296,-0.0007484671659767628,0.001498949946835637,-0.002234823303297162,0.000931980786845088,-0.0024356069043278694,-0.0032498002983629704,0.0036244012881070375,0.0038082238752394915,-0.0029085332062095404,0.0028112526051700115,-0.0007963957032188773,-0.0026143656577914953,0.0016623541014268994,-0.0011462890543043613,-0.0023496896028518677,0.002529270015656948,-0.0030531950760632753,0.0036929964553564787,0.0006021938752382994,0.00014456178178079426,0.003471350995823741,-0.0038511911407113075,-0.0005169423529878259,0.0005489848554134369,-0.00316411885432899,-0.0011725552612915635,-0.002828693948686123,0.003236891934648156,0.0003427035117056221,-0.0032171837519854307,0.0027786879800260067,0.0008548438781872392,0.003938072361052036,0.002410495188087225,-0.0007239712867885828,0.0036873589269816875,0.0025152626913040876,0.0002700806362554431,-0.0016604270786046982,0.0025774389505386353,-0.003501768223941326,0.0014107722090557218,-0.0005804944667033851,-0.0006896047270856798,-0.002628358080983162,-0.0028114246670156717,0.0005607407074421644,-0.003540682140737772,-0.0026949739549309015,-0.0009462051093578339,0.0014893317129462957,-0.0027989246882498264,-0.002433480927720666,-0.0011802086373791099,0.0018120418535545468,0.0036356213968247175,0.0001645821175770834,-0.0022206169087439775,0.0033911047503352165,-0.001449973788112402,0.003959315363317728,0.003519129939377308,-0.0026859559584409,0.0013875130098313093,0.0023042960092425346,-0.004204883705824614,0.00241361977532506,0.0027582477778196335,0.0037497994489967823,-0.00252315541729331,-0.003702492918819189,-0.0013814453268423676,0.0010468113468959928,-0.0003609556588344276,0.0006164430524222553,0.0019675567746162415,-0.0008933712379075587,-0.0015509417280554771,0.0015360383549705148,-0.0008098616381175816,0.002374224364757538,0.0037632547318935394,0.0007638812530785799,-0.002947516506537795,-0.001244232291355729,0.0011831969022750854,0.0021644816733896732,-0.000705147220287472,-0.002946516266092658,-0.003882485907524824,0.0037359700072556734,0.0015222550136968493,0.0019123406382277608,-0.0033296525944024324,-0.002061029663309455,0.002263881266117096,0.0013117449125275016,-0.001232554786838591,-0.0014953522477298975,-0.0023787878453731537,-0.0024716907646507025
-0.003213639138266444,0.0002338393678655848,0.002429522108286619,-0.0018749893642961979,0.003642901312559843,0.00367415277287364,-0.002702099271118641,0.0008242723415605724,-0.003813108429312706,-0.0019533601589500904,-0.0031238256487995386,0.0037132680881768465,-0.00154095736797899,-0.002913891803473234,0.0029334179125726223,-1.4702549378853291e-05,0.0032461322844028473,-0.0022219144739210606,-0.002272272715345025,0.00287430128082633,-0.0036653410643339157,-0.0011484132846817374,0.003144532907754183,0.003254022216424346,-0.0036028497852385044,-0.00023842650989536196,-0.003686215728521347,0.0003494750999379903,0.0010465870145708323,0.0022536178585141897,-0.0026028971187770367,-0.0012742681428790092,0.003042754950001836,-0.002163541968911886,-0.0005386162083595991,-0.0022867468651384115,0.003023144556209445,-0.0021293440368026495,-0.0007910853601060808,-0.0029030980076640844,0.003941249568015337,-0.0021773071493953466,0.003673787461593747,-0.0023071765899658203,-0.0010624750284478068,0.0010301911970600486,2.310100353497546e-05,-0.0015430955681949854,-0.00012368620082270354,-0.0032692160457372665,-0.00011743781215045601,-0.0031388483475893736,-0.0009485387126915157,0.0034462660551071167,-0.0006178881740197539,-0.0035538591910153627,0.0019188526785001159,2.37761178141227e-05,0.0009556726436130702,0.002798904664814472,-0.003497337456792593,0.002231970429420471,0.0004388359666336328,0.002178322523832321,0.0001852681889431551,-0.0027897744439542294,0.002578191692009568,0.001844376209191978,-0.003558624070137739,-0.0027253921143710613,-0.002794631291180849,0.00318806036375463,-0.0035320355091243982,-0.0020848296117037535,0.00018770477618090808,-0.001820133882574737,-0.0038377309683710337,-0.0037249031011015177,0.0025095355231314898,0.0015800372930243611,0.003486215602606535,0.0020123757421970367,-0.0023268091026693583,0.0026979262474924326,0.0013372031971812248,-0.0005904206773266196,0.0007907938561402261,0.002640379825606942,0.0009518595179542899,-0.001675212406553328,0.0017283848719671369,-0.0005177066195756197,-0.004112045280635357,0.0027780646923929453,0.0014468217268586159,0.0017625063192099333,-0.0010939936619251966,-0.003313347464427352,-0.002181980526074767,-0.000549358781427145,-0.0029261824674904346,0.0028396339621394873,0.0011776015162467957,-0.002565605565905571,-0.0008380012586712837,-0.001857310300692916,-0.0013222080888226628,0.001274336944334209,-0.0008142092265188694,-0.0012572193518280983,-0.000370399298844859,0.0028873577248305082,0.0024199315812438726,0.0015207247342914343,-0.002903793938457966,-0.0006504113553091884,-0.0010226322337985039,0.0030193328857421875,0.0013052498688921332,-0.0001158982704509981,-0.0011545860907062888,-0.0024858186952769756,0.0017962196143344045,-0.0022417157888412476,-0.0032375382725149393,-0.003540156874805689,0.0014499793760478497,-0.0019300731364637613
0.0027052201330661774,0.0030065993778407574,-0.0020247153006494045,-0.0010237545939162374,-0.0010514790192246437,0.0032075662165880203,-0.003848274704068899,-0.0015725658740848303,0.0008350462885573506,-0.002937315497547388,-0.0030901357531547546,-0.0014176960103213787,-0.003868327708914876,-0.0020820896606892347,-0.0014155054232105613,0.00265477760694921,-0.0025125890970230103,-0.0036032439675182104,-0.0013571101007983088,0.00010102472879225388,-0.0008789568673819304,0.0014056487707421184,-0.0028135881293565035,0.0007581779500469565,0.0012772574555128813,0.003133331658318639,0.0003594389418140054,0.0016551895532757044,-0.002561704721301794,-1.1834576071123593e-05,-0.0015968147199600935,-0.003470348659902811,-0.0004015744780190289,0.002236020751297474,-0.00013053194561507553,0.0033330225851386786,0.0012125419452786446,-0.00404823524877429,-0.003950649872422218,0.0030039858538657427,-0.001600187737494707,0.0031749336048960686,-0.0007754378020763397,-0.00048145055188797414,0.0013961335644125938,-0.0011957366950809956,-0.0006678902427665889,-0.0036923731677234173,0.0024900613352656364,0.0021475087851285934,-0.00045571563532575965,0.003381524235010147,-0.0004148530133534223,0.0031850822269916534,0.0015956700081005692,-0.0024610385298728943,0.00035762181505560875,-0.00386605691164732,0.0017055568750947714,0.0012502704048529267,-0.002786538563668728,-0.003993225283920765,-0.00011622159217949957,0.0007008987013250589,0.00292062945663929,-0.0033933701924979687,0.0014681421453133225,-0.00016474579751957208,-0.00207437458448112,0.002540433080866933,0.00032188434852287173,-0.0022318155970424414,0.0016293820226565003,-0.0007925292011350393,-0.0013408949598670006,-0.0030059011187404394,0.0025297370739281178,-0.003545211860910058,-0.001342262257821858,0.003547176020219922,0.002501820679754019,0.0016892194980755448,-0.0006480455049313605,0.002985250437632203,0.0018974546110257506,-0.0010225987061858177,-0.00011647478095255792,0.0028732032515108585,-0.00046594059676863253,0.002547389827668667,1.2633756341529079e-05,0.0010040679480880499,-0.0013564395485445857,-0.0026578919496387243,0.0002892653283197433,0.0017013378674164414,-0.0015488214557990432,-0.00352375116199255,0.0020604634191840887,-0.00032713435939513147,0.002372652990743518,0.0015800491673871875,-0.0012162484927102923,0.0019774683751165867,0.0036997843999415636,-0.0022511514835059643,-0.000724600744433701,0.003515637945383787,-0.0031700930558145046,0.0033857848029583693,0.003101540496572852,-0.0009085782221518457,-0.001795432879589498,-0.003182274755090475,-0.0026486231945455074,0.0005859694792889059,-0.00033090487704612315,0.0038760800380259752,0.00046657491475343704,-0.0006614334415644407,0.00017493954510428011,-0.00010191500768996775,-0.0015135480789467692,0.0005809917929582298,0.001186746172606945,0.003730605123564601,-0.0016600096132606268,0.0037141679786145687
-0.0005488261813297868,-0.0019768846686929464,-0.0027494344394654036,-0.0035173071082681417,0.00016946122923400253,0.0025137579068541527,-0.0024388195015490055,-0.0035676422994583845,0.0009118407033383846,0.002074906602501869,-0.0021712733432650566,-0.0017603462329134345,0.0006882264278829098,0.0012432780349627137,-0.0027833934873342514,-0.001509986468590796,0.002577712293714285,0.001342550152912736,-0.003053558524698019,0.0030151745304465294,-0.0035042879171669483,-0.00312676839530468,-0.0008016449282877147,-0.0005951854400336742,-0.0006445636972784996,0.0038773806300014257,0.0018348493613302708,-0.0036974314134567976,-6.17785844951868e-05,0.0024966939818114042,0.0032085352577269077,0.0013668967876583338,0.0018261702498421073,0.001485202694311738,-0.0034273266792297363,0.0026713607367128134,-0.0018264335813000798,-0.0017344291554763913,-0.0035889388527721167,-0.0027294429019093513,0.0026923567056655884,0.00026392473955638707,0.0031593984458595514,0.0016569094732403755,-0.0020437396597117186,-0.0036610157694667578,0.002394396346062422,0.0036588681396096945,8.124047781166155e-06,0.0014218626311048865,0.003783638821914792,-0.0028346667531877756,-0.00026059153606183827,-0.001119860797189176,-0.0023729377426207066,0.0026759463362395763,0.0013782714959234,-0.0034684219863265753,0.0034032566472887993,-0.0011466462165117264,0.0022765668109059334,-0.0012195572489872575,0.00023056047211866826,0.0024797050282359123,-0.0004295247490517795,0.0030634833965450525,0.00019710900960490108,-0.002795862266793847,0.002090418478474021,-0.0032709725201129913,0.002118812408298254,-0.003621626878157258,-0.0038913979660719633,0.0007589806918986142,0.0011211017845198512,-0.0031799792777746916,0.0005245235515758395,-0.0013563751708716154,-0.0029823449440300465,-0.0026471440214663744,-0.002386846812441945,-0.0015249541029334068,0.001124247326515615,0.0005637580761685967,-0.002751682884991169,-0.002570098266005516,-9.245662658941001e-05,0.001984546659514308,2.8508824470918626e-05,-7.513014679716434e-06,0.0003723011177498847,0.0011408631689846516,0.0023555338848382235,0.00315074622631073,0.001370113343000412,0.0011969670886173844,-0.002403383143246174,-0.0035961372777819633,-0.0028259516693651676,-0.0018361939582973719,0.0017913286574184895,0.0004681616264861077,0.0012364642461761832,-0.0018602674826979637,0.0026837452314794064,-0.0004582885012496263,0.0025019897148013115,0.0040633296594023705,-7.907208782853559e-06,-0.0023183743469417095,-0.003025948768481612,0.0005908385501243174,0.00014097544772084802,-8.458270895062014e-05,-0.0023326014634221792,0.002189416205510497,-0.0031922031193971634,-0.001980946632102132,0.002054380252957344,-0.0029100768733769655,-0.0010051426943391562,-0.0017922314582392573,-0.0014286611694842577,-0.0015247452538460493,0.0012241333024576306,0.00011900864774361253,0.0013501258799806237,0.0016082488000392914
0.0018934624968096614,-0.0012063912581652403,-0.003627220867201686,0.0026384652592241764,0.0020383610390126705,0.0013346885098144412,-0.0029981876723468304,-0.0024572405964136124,-0.0016056582098826766,-0.0010892145801335573,-0.0028841900639235973,-0.00024949369253590703,-0.0002428889274597168,0.003606013488024473,-0.00014962108980398625,0.0008027624571695924,-0.003032995853573084,-0.002349182963371277,-0.003860817290842533,0.001080622780136764,0.001768781105056405,-0.0037836492992937565,0.0010675478260964155,-0.0022681299597024918,-0.0016093580052256584,-0.0018896498950198293,0.001628601341508329,-0.0020742493215948343,0.002349777612835169,-0.0019050773698836565,0.003432946978136897,0.0019456197042018175,0.0022989080753177404,-0.0006630492862313986,0.003503223182633519,-0.0012448261259123683,-0.0031741796992719173,0.000428889092290774,0.0033927089534699917,-0.002159185940399766,0.0032999031245708466,0.00011273042764514685,0.0030090620275586843,-0.0002055494551314041,-0.0007982580573298037,0.0012834382941946387,-0.00129115569870919,0.002057816134765744,0.0027221408672630787,0.0025675788056105375,0.0009453037055209279,-0.00022255156363826245,0.0015270919539034367,-0.002612631767988205,-0.003353206440806389,0.0018400703556835651,-0.0035330546088516712,-0.0014153040247038007,0.002156648086383939,2.854696322174277e-05,0.0010870739351958036,0.0021389194298535585,0.002497114008292556,-0.001208024681545794,0.0008435796480625868,0.0027288643177598715,-0.0012189130065962672,-0.0014604051830247045,0.003301684046164155,0.0015769521705806255,-0.001651241909712553,-0.0018293451284989715,0.0008627600618638098,0.0025284874718636274,-0.0025335955433547497,-0.00030117089045234025,-0.000334773154463619,0.0007344156038016081,-0.0007214254583232105,-0.00123509275726974,-0.003652758663520217,0.0007495485479012132,-0.0005257056327536702,0.0025325706228613853,-0.003032461740076542,0.0035125953145325184,-0.0004977058852091432,0.003139178268611431,-0.0037401518784463406,-0.0034008873626589775,0.0031872717663645744,0.0034280966501682997,0.0007754581747576594,-0.0038843387737870216,-0.0004988048458471894,0.0032854988239705563,0.0026712496764957905,0.002371261129155755,0.0026986266020685434,-0.003622652729973197,-0.0028645803686231375,-0.001578227267600596,0.0011648951331153512,-0.0033409008756279945,0.0017895641503855586,-0.000812786165624857,0.0020417319610714912,0.002943705301731825,0.003475214820355177,0.0023188123013824224,0.003155485261231661,0.002433674642816186,-0.003067323938012123,-0.0015129628591239452,-0.0014086209703236818,0.0034928019158542156,-0.0022892775014042854,-0.003285101382061839,0.0016526697436347604,0.003341838950291276,-0.003616908797994256,-0.0007119824294932187,-0.0016043198993429542,0.0012424365850165486,0.0007051489665172994,0.0034624175168573856,-0.0034766942262649536,-5.923594130763377e-07
-0.0020655919797718525,0.0008835128392092884,0.0030259890481829643,0.003770462004467845,0.0022298507392406464,0.003833968425169587,0.0007270961650647223,0.003079886082559824,-0.0024587090592831373,-0.0034615236800163984,0.0035825136583298445,-0.0010143436957150698,1.527894528408069e-05,-0.0030098643619567156,0.0013174215564504266,-0.003532474860548973,-0.0014092507772147655,0.0003016132104676217,-0.0017064146231859922,-0.003714142134413123,-0.0036205535288900137,0.003761113155633211,-0.0028735357336699963,0.0030664957594126463,0.00025972179719246924,-0.0003667269484139979,0.0009334358619526029,0.002399301854893565,-0.00010250620834995061,-0.0015278022037819028,-0.0037107362877577543,0.0012738010846078396,0.0009873395320028067,0.0023580521810799837,-0.001181054045446217,-0.001278317766264081,-0.002333738375455141,0.0023824821691960096,0.0005707546952180564,0.0004491977160796523,0.003302547847852111,-0.0012843740405514836,-0.002682511694729328,-0.0014600699068978429,0.0023436942137777805,0.0038124187849462032,0.0016144667752087116,-0.00107484869658947,0.00018507626373320818,0.0012695123441517353,0.0007396708242595196,-0.0032455213367938995,-0.0027916685212403536,0.00273036933504045,-0.00012774221249856055,-0.0010677973041310906,0.002632196294143796,0.0024181765038520098,0.0002768866834230721,-0.0033894057851284742,0.0001547160354675725,-0.0030869042966514826,-0.0020590920466929674,0.0038824263028800488,-0.002521153073757887,-0.0032481702510267496,0.0023545518051832914,-0.0035507939755916595,0.000296708254609257,0.0035260762088000774,-0.003551085013896227,0.0026614340022206306,-0.0014348633121699095,-0.00047499273205175996,-0.0022236250806599855,0.0035311710089445114,0.0024832519702613354,-0.0010253549553453922,0.002953041810542345,-0.002494511194527149,-0.0019106414401903749,0.001114759361371398,-0.0012388871982693672,-0.0014545358717441559,-0.00046208917046897113,-0.0035089608281850815,0.00269816885702312,-3.4408072679070756e-05,0.0004746956692542881,-0.0005159467691555619,-0.0025793651584535837,-0.0007830830872990191,-0.00200862530618906,0.003418066306039691,-0.0019199870293959975,-0.0009833562653511763,-0.0027102534659206867,-0.0030105500482022762,0.003020396688953042,-0.0027018780820071697,-0.0027528952341526747,-0.002710051601752639,-0.0029860360082238913,-0.0036443404387682676,0.003282671794295311,-0.0012832226930186152,0.001405764021910727,-0.0025971364229917526,0.0015067424392327666,0.00105913239531219,-0.002290883334353566,-0.0033824064303189516,0.003459716448560357,-0.001610488398000598,-0.001145350281149149,-0.002689920598641038,-0.00021923909662291408,0.004050154704600573,-0.0005404300754889846,-0.002214133506640792,0.0017556899692863226,0.0009516757563687861,0.0027663984801620245,-0.002422014018520713,-0.003184041241183877,-0.0012454510433599353,0.0017349120462313294,-0.0027963044121861458
-0.0012568306410685182,-0.0010626438306644559,0.002860165201127529,-0.0016576331108808517,0.000961374375037849,0.002160389209166169,0.0035172621719539165,0.0030888698529452085,0.0011624709004536271,-0.0036623156629502773,0.0026469326112419367,0.0005656772409565747,-0.0012214136077091098,-0.003154425648972392,-0.002610765863209963,-0.0002882197732105851,0.001178863225504756,-0.0030999542213976383,-0.00032513265614397824,-0.001482251100242138,-0.0007358533912338316,-0.0008966345340013504,0.0036676889285445213,0.0013953637098893523,-0.0018897262634709477,0.0036520089488476515,-0.00032017240300774574,-0.002545311814174056,0.0020635409746319056,-0.001162771601229906,-0.0035823225043714046,-0.0027837934903800488,0.0010774037800729275,-0.0030054503586143255,0.0025767425540834665,0.0022905198857188225,0.002476494526490569,0.003330108243972063,-0.0027360825333744287,0.0021935144905000925,0.0031962664797902107,-0.00024912640219554305,0.0031629984732717276,0.0036969464272260666,0.0005791885196231306,-0.0004448982945177704,-0.0028880778700113297,0.0036640679463744164,0.002653224626556039,-0.0038948142901062965,-0.002209652215242386,0.002666182117536664,0.00022639559756498784,0.0005799796781502664,-0.002999562304466963,0.0016577872447669506,0.00128645240329206,-0.00034354833769612014,-0.002668659668415785,-0.0033197186421602964,-0.0008592670201323926,0.0026414499152451754,0.0032955650240182877,-0.0002648833324201405,-0.0019226704025641084,0.003794220043346286,-0.0016862342599779367,0.0036644272040575743,0.0014295432483777404,-0.003416517050936818,-0.0007960473303683102,-0.00018232438014820218,-0.0022658021189272404,-0.0018709428841248155,-0.003508718451485038,-0.0027981619350612164,-0.0013625386636704206,0.003517040517181158,0.0018137109000235796,0.0013137436471879482,0.00011960130359511822,0.0021200673654675484,0.0006993126007728279,-0.0020033293403685093,-0.0023782378993928432,-0.000993208377622068,-0.0032268427312374115,0.0015610319096595049,-3.482908505247906e-05,-0.002366640605032444,0.0022729276679456234,-0.0028160824440419674,-0.0008529755868948996,-0.002571549266576767,-0.0026483924593776464,0.0015385305741801858,-0.00039794601616449654,-0.0009427107870578766,-0.003958079498261213,0.0016759837744757533,0.00021117836877238005,0.0025913200806826353,-0.0014988146722316742,-0.0004216191009618342,-0.0007328664651140571,-0.0020342739298939705,-0.0035932876635342836,-0.0023841913789510727,0.0001997455401578918,-0.0008585175964981318,-0.002960637677460909,-0.0028467944357544184,-0.0009798172395676374,0.0008653249242343009,-0.002483165357261896,-0.002849375596269965,-0.0032462088856846094,-0.001890716259367764,-0.0019298334373161197,-0.002422663616016507,0.0037286875303834677,-0.0009560419712215662,-0.0021819956600666046,-0.0001538281503599137,-0.0010935903992503881,-0.003422675421461463,-0.00044577918015420437,0.003274626564234495
0.0022728759795427322,-0.001093102851882577,-0.0033887955360114574,-0.0013612140901386738,-0.0017234308179467916,-0.0007843057392165065,0.0037573387380689383,-0.003344134660437703,0.0036356633063405752,-0.0028901107143610716,0.0012724644038826227,0.003454032354056835,-0.0027884598821401596,-0.0004378025478217751,-0.0021062735468149185,-0.0012953170808032155,-0.003879809519276023,0.0008725732332095504,0.0031690255273133516,-0.0004474742745514959,-0.0007318776333704591,0.0010498634073883295,0.0017201865557581186,0.002597577404230833,-0.002150079235434532,0.0030564337503165007,-0.002752478700131178,-0.003774997079744935,0.0030833955388516188,-0.0029172480572015047,0.00202749646268785,0.0018191103590652347,-0.0008595766848884523,-0.0014653329271823168,-0.003902254393324256,-0.0009437782573513687,0.0006285122944973409,-0.002749710576608777,-0.0009001789148896933,-0.0024661330971866846,0.0010977850761264563,0.0018021120922639966,0.0038509992882609367,-0.00044721210724674165,-0.003746861359104514,-0.003053640015423298,-0.0014465543208643794,-0.0015652304282411933,0.0007517571211792529,-0.0034809496719390154,0.0018746837740764022,-0.0005308609106577933,-0.0017135469242930412,-0.00297678355127573,0.0013859490863978863,-0.0010578809306025505,0.0004456937313079834,-0.003660924267023802,0.003872995264828205,0.0031912759877741337,0.0022096482571214437,-0.002168498234823346,-0.003424963681027293,8.847822027746588e-05,0.0002452559710945934,0.00028546698740683496,0.0023369877599179745,-0.0034979181364178658,-0.0022388999350368977,0.0021445557940751314,-0.002879914129152894,-0.0017507841112092137,-0.0010100139770656824,0.0011439858935773373,-0.0021280066575855017,0.0010386731009930372,0.0005595621769316494,-0.0008129768539220095,-0.0018697798950597644,-0.0010649360483512282,0.0032846638932824135,0.001979764783754945,0.0018083506729453802,-0.003669269382953644,0.002173521788790822,-6.145388033473864e-05,0.0020836745388805866,0.00024294955073855817,-0.00127594661898911,0.003366895252838731,-0.0011635940754786134,-0.0036934830714017153,0.0035264000762254,-0.0023478283546864986,0.0036503323353827,-0.0024449496995657682,0.002643392188474536,0.0010765984188765287,-0.001795155112631619,-0.0031029682140797377,-0.0001911121216835454,-0.0014063195558264852,-0.0002844841801561415,0.0036087871994823217,-0.0020133894868195057,0.00016589612641837448,-0.0022867259103804827,0.002666841959580779,0.0020575891248881817,-0.002491749357432127,0.0002914452343247831,0.0010491679422557354,3.8476864574477077e-05,-0.002755118999630213,-0.0030388268642127514,0.002356304321438074,5.01158538099844e-05,0.0004752258537337184,-0.002518618479371071,-0.0005649008671753109,-6.236822082428262e-05,-0.00373984407633543,-0.001525063649751246,0.0016114776954054832,-0.002183628734201193,0.00017624354222789407,0.00032789132092148066,0.0005344952805899084
-0.0004960089572705328,0.005482746288180351,-0.0021507712081074715,-0.0026255652774125338,-0.000953118724282831,0.0005910390173085034,0.0004438232572283596,0.0007032611756585538,-0.0003124611102975905,0.00013159932859707624,0.003832760965451598,-8.320539927808568e-05,-0.003669836325570941,0.0016357068670913577,-7.261650171130896e-05,0.00034336093813180923,0.0010348435025662184,0.0008821793599054217,0.0013320347061380744,0.001025747274979949,0.002531500766053796,0.004200320225208998,-0.0004258242843206972,-0.000681792851537466,-0.002530422993004322,-0.0028922774363309145,-0.0010860838228836656,-0.00016980015789158642,-0.0040916274301707745,-0.004507665988057852,0.0010494195157662034,-0.00011702420306392014,-0.004322317894548178,-0.002349613467231393,-0.0034661341924220324,-0.004422067664563656,-2.7423628125688992e-05,-0.0014220118755474687,-0.002320991363376379,-0.0006134258001111448,-0.001787737593986094,-0.0024044562596827745,0.002671672496944666,0.0009795905789360404,0.0005435809725895524,0.003118970198556781,0.0009187451214529574,-0.00024769006995484233,0.0015769641613587737,-0.0018145308131352067,0.001507825800217688,-0.0030121728777885437,-0.0018324017291888595,-0.0019516627071425319,-0.0009377560927532613,-0.00042868414311669767,-0.0014027957804501057,-0.005792800337076187,-0.0018000708660110831,-0.0027784525882452726,0.0025424377527087927,-0.0033524991013109684,-0.0014564716257154942,-0.0009327071020379663,-0.004123596008867025,-0.001989354146644473,0.001077772001735866,0.002915682503953576,-0.003095242427662015,0.005949743092060089,0.0019802269525825977,0.0015396667877212167,-0.003842557081952691,8.897636143956333e-05,-0.0021916108671575785,-1.667619358158845e-06,-0.0026769887190312147,-0.0011068444000557065,-0.004037022590637207,-0.0017167928162962198,-0.0009206627728417516,-0.0023373581934720278,-0.0012343812268227339,0.003400166518986225,-0.0011286565568298101,-0.00018203894433099777,-0.0023443337995558977,-0.0009699799120426178,0.0025131895672529936,0.0021346579305827618,0.004791416227817535,-0.0005409511504694819,-0.004647218622267246,-0.0034622077364474535,0.0019015518482774496,0.002139871707186103,0.0035899486392736435,-0.0026469286531209946,-0.0019066567765548825,0.0033972477540373802,-0.0030080932192504406,0.0020958478562533855,0.003461795160546899,0.0015862961299717426,-0.002043088199570775,0.0034499482717365026,0.001850056927651167,-0.0017004974652081728,0.004443025216460228,0.002702438971027732,0.0008135204552672803,-0.0010949884308502078,0.0029714370612055063,0.0025225419085472822,0.00047854086733423173,-0.002799005014821887,-0.00239959335885942,0.0018456977559253573,0.001833322923630476,-0.0019170342711731791,0.004938144702464342,0.0029116475488990545,-0.0014967010356485844,0.002088910434395075,-0.0006021891022101045,0.0016378602012991905,-0.002683396218344569,-0.0005675242282450199
0.002499951049685478,0.0022325795143842697,0.0021574832499027252,-0.0012634709710255265,0.0034764069132506847,-0.0035090281162410975,-0.002544083632528782,0.0013004569336771965,0.002853675279766321,-0.0024281300138682127,0.0018036147812381387,-0.000581386499106884,-0.0027435366064310074,0.004006095230579376,0.003405248746275902,-0.002899648156017065,-0.0026073723565787077,-0.0020292969420552254,-9.22183389775455e-05,0.0038612019270658493,0.0033657250460237265,0.0024077945854514837,-0.002091542351990938,-0.004047886934131384,-0.0034622366074472666,-0.0007873772410675883,0.003725477959960699,-0.003252809401601553,0.0013994817854836583,-0.004871063400059938,-0.0006889038486406207,0.003247838467359543,-0.0005206448840908706,-0.0021116025745868683,0.0018356171203777194,0.000715960341040045,-0.0028968791011720896,-0.004473566077649593,0.0005618216819129884,-0.0011404771357774734,-0.00034171881270594895,0.00022076393361203372,0.0005796841578558087,0.0007019645418040454,-0.0028930380940437317,-0.0004837281594518572,-2.9410814022412524e-05,0.0004222834832035005,-0.0025552716106176376,-9.357753879157826e-05,-0.0027324387338012457,0.003420119872316718,-0.0007654325454495847,-0.0011222545290365815,-0.004522962961345911,-0.001878065406344831,-0.0010051559656858444,-0.001969739096239209,-0.0036284890957176685,0.0017271938268095255,-0.00024187930102925748,0.0009197122999466956,0.0007449418772011995,0.003131814068183303,-0.0003510938840918243,0.003688575467094779,-0.0014588386984542012,-0.0018441167194396257,-0.003188611473888159,0.0018337712390348315,0.0028436288703233004,-0.001191920368000865,0.00017540100088808686,-0.00276994239538908,0.0004292104276828468,0.0018512976821511984,-0.0008874692721292377,0.003357992274686694,-0.0006689986912533641,0.003985284361988306,7.921205542515963e-05,0.0011074139038100839,-0.000940619152970612,0.0023691514506936073,-0.002793635008856654,0.002833811566233635,-0.0002518714463803917,0.0045882705599069595,-0.002916530007496476,0.001995160710066557,-0.002122879959642887,0.0020609977655112743,0.003145792754366994,0.0024622497148811817,-0.002798333764076233,-0.002640035469084978,-0.0004540866066236049,0.001319508533924818,0.00218669674359262,0.0020010138396173716,0.0015752868494018912,-0.001737765851430595,-0.003587461542338133,0.0011320686899125576,0.0016074584564194083,0.0031740067061036825,-0.0030335811898112297,0.004351303447037935,-0.001954029779881239,-0.001957468455657363,-0.003457714570686221,0.0010180675890296698,-0.0004256548418197781,-0.0007897083996795118,0.001630190177820623,-0.0028424293268471956,-0.0012120616156607866,-0.0001804263301892206,-0.0003779182443395257,0.0022829752415418625,0.00205343309789896,-0.0030544938053935766,-0.0031666667200624943,0.00282655144110322,0.002544189803302288,0.0017440083902329206,0.0033086263574659824,-0.0030316903721541166
0.0030087134800851345,-0.001985951792448759,0.00038232232327573,-0.0002201633615186438,0.0008698712917976081,0.0029634584207087755,-0.0014028045115992427,-0.001731816679239273,-0.0033188043162226677,-0.0013583526015281677,-0.0037303143180906773,-0.0006979734753258526,0.0012727872235700488,-0.00030971801606938243,-0.0031316219829022884,0.0011894217459484935,0.0004569227749016136,0.0012969339732080698,0.002209905767813325,0.0014213210670277476,0.001313449116423726,0.0024078863207250834,-0.0016697340179234743,0.001507239998318255,-0.0030618677847087383,-0.0002398266806267202,0.0024018476251512766,0.00018690784054342657,0.00034461397444829345,0.0025707045570015907,-0.0006116936565376818,-0.0033269396517425776,-0.0004654826771002263,-0.0023792956490069628,-0.0038172288332134485,-0.003838114906102419,-0.002252266276627779,4.495336543186568e-05,-0.0006081361207179725,0.0006284632254391909,0.000294412748189643,0.001820818055421114,-0.0034459815360605717,-0.0009859269484877586,0.0022179624065756798,-0.0009985411306843162,0.0009666571859270334,-0.002345665358006954,0.0034565685782581568,0.00380677985958755,-0.002176886424422264,0.0004680260317400098,-0.0029780676122754812,0.0009201450156979263,-0.00020198577840346843,-0.0005981558351777494,-8.048159361351281e-05,0.0009732015896588564,-0.0005523355212062597,0.0005162819288671017,0.000516544037964195,-0.002436229959130287,0.0028824307955801487,-0.003573429537937045,-0.00141716911457479,0.0030882626306265593,-0.0016952246660366654,0.003730479860678315,-0.002337433397769928,-0.0015922083985060453,0.0035301221068948507,0.002333151875063777,0.0035807709209620953,0.0013820030726492405,-0.0014619280118495226,0.0005015532369725406,-0.0012630578130483627,0.0008828314021229744,-0.003394198836758733,-0.0012912302045151591,0.0009880984434857965,-0.002258309395983815,-0.003804688109084964,0.003234738716855645,0.0016167087014764547,-0.0005863600526936352,0.003558845492079854,0.002259607659652829,0.0016807946376502514,-0.0013403785414993763,0.0031622499227523804,0.0011946293525397778,0.0024064138997346163,0.002784421667456627,0.0018376220250502229,-0.0012301797978579998,-0.0007081899675540626,0.000953896262217313,-0.00013849942479282618,-0.003607493592426181,-0.0006602933863177896,0.0013981424272060394,0.0021050143986940384,0.0002402399986749515,0.003996808081865311,-0.0020999680273234844,-0.00036002727574668825,0.001975678838789463,0.0017356747994199395,0.002260627457872033,-0.00244765542447567,-0.0016029978869482875,-0.002700608689337969,-0.0015177031746134162,0.003767681308090687,-0.0007213451317511499,0.003506380831822753,-0.00020173360826447606,-0.0010927844559773803,-0.0023855185136198997,-0.0028909279499202967,0.002483724383637309,0.002873156452551484,0.003129990305751562,0.0025534650776535273,-0.0036698023322969675,0.0007769641233608127,-0.0008554963860660791
-0.000555380480363965,-0.0032626318279653788,-0.001794676762074232,-0.0026183035224676132,-0.00024875914095900953,0.0033145942725241184,-0.000667806074488908,0.000480027956655249,-0.0010536842746660113,-4.337426435085945e-05,-0.0001400592300342396,0.0013401954201981425,0.002490994520485401,0.003562936559319496,-0.002438573632389307,-0.001589074614457786,-0.0033215642906725407,-6.0579321143450215e-05,0.00020252559625077993,-0.0024016054812818766,-0.0033098345156759024,0.0014339733170345426,0.0035864158999174833,-0.00047119101509451866,-0.0029308015946298838,-0.0017713994020596147,-0.003685025731101632,0.0031576345209032297,-0.003030058927834034,0.0023372198920696974,0.00169355608522892,-0.0011875490890815854,0.002331963274627924,-0.003649756545200944,0.003049182938411832,-0.003025372512638569,0.0037064296193420887,0.0018432432552799582,0.0032714337576180696,-0.0034174281172454357,-0.0005761550273746252,0.002079771598801017,0.001784085645340383,-0.0014612417435273528,0.00042304725502617657,0.0038574710488319397,-0.002080259844660759,-0.0019078823970630765,0.003311925334855914,-0.0018653012812137604,-0.0019380430458113551,0.00125044584274292,-0.003093957668170333,-0.0006601338973268867,0.0036440505646169186,0.003584803780540824,-0.0015475352993234992,-0.004075241275131702,0.002207544632256031,-0.0014699723105877638,0.0008387939305976033,-0.001183683518320322,0.0019841715693473816,0.003079053247347474,0.0035693456884473562,0.002788719953969121,0.00019555223116185516,0.000691307766828686,0.001534055918455124,0.0021287580020725727,-0.003582020290195942,-0.0005446081631816924,0.001080371905118227,0.0016605787677690387,-0.0028913146816194057,0.00026965237339027226,-0.0012715340126305819,0.0037398117128759623,-0.0025951589923352003,0.0028173993341624737,-0.003426393261179328,-0.001716594211757183,-0.00047540548257529736,0.0014571734936907887,-0.0006268284050747752,0.0036509474739432335,0.0002775272005237639,-0.00019348712521605194,-0.004025446716696024,2.9443590392475016e-06,0.001825357205234468,-0.0018628116231411695,-0.002138096373528242,-0.0005552050424739718,-0.0001441267813788727,-0.0021045771427452564,0.0030697740148752928,-0.001723117777146399,0.0029741027392446995,0.001081035821698606,0.0018628401448950171,0.0013702475698664784,0.0006689948495477438,-0.00035179598489776254,-0.002884160727262497,-0.0038469189312309027,0.0026756019797176123,0.0024143587797880173,0.0011601613368839025,-0.0024693140294402838,0.002567463554441929,0.0029766743537038565,-0.0037730750627815723,0.0007732347003184259,-0.0018050114158540964,0.0010023594368249178,0.0005052555352449417,0.0034289825707674026,-0.0007631280459463596,0.0006655592587776482,-1.2289749065530486e-05,0.0006069580558687449,0.003383380826562643,-0.002643295330926776,0.0021435681264847517,0.0010502452496439219,0.0031544207595288754,0.0018776882207021117
0.0034295169170945883,-0.0011574547970667481,-0.00020945316646248102,0.0004556423518806696,0.0011574411764740944,-0.0033599799498915672,-0.0007825622451491654,-0.0033591899555176497,0.003299694275483489,0.004021784290671349,-0.001082973089069128,-0.0017825657268986106,-0.0009619744378142059,0.0026384370867162943,0.002490921411663294,-0.0026680410373955965,-0.0034949202090501785,0.0019799380097538233,0.0013515630271285772,-0.0032689485233277082,-0.003046482801437378,0.002334198448807001,0.003824141575023532,0.0012717337813228369,-0.002580695552751422,-0.0010540371295064688,0.0021147618535906076,-0.001668559736572206,-0.003476221114397049,0.001290782354772091,-0.002974164206534624,0.001219771453179419,-0.0011054928181692958,-0.0011965500889346004,-0.0020378411281853914,-0.0009060734300874174,0.003496752120554447,-0.0015904090832918882,0.0016153017058968544,-0.002162477932870388,0.002504975302144885,0.003472029697149992,-0.0010081174550577998,-0.0028882515616714954,-0.00230426830239594,-0.0007259080302901566,-0.0008211868116632104,0.0024012350477278233,0.0034452052786946297,0.0012193421134725213,-0.000947639171499759,0.001831889501772821,0.0037812625523656607,0.002539893379434943,0.0029074379708617926,0.0019501553615555167,-0.0010746438056230545,-0.001435606274753809,-0.0004037249891553074,-0.001948462100699544,-0.0029574697837233543,-0.003698907094076276,0.003811280708760023,-0.0027012547943741083,-0.003896001260727644,-0.0019726089667528868,-0.0005089810001663864,-0.00015474575047846884,-0.0003767540620174259,-0.00037870355299673975,-0.002744225552305579,0.0021030001807957888,-0.003025925951078534,0.0010265891905874014,0.001386691234074533,0.0015548050869256258,-0.002081318525597453,-0.0020664031617343426,-0.0005830668960697949,0.001095393905416131,-0.0021546967327594757,-0.0014712533447891474,-0.0010786494240164757,-0.0029604018200188875,-0.0025321587454527617,-0.0006132826092652977,0.0029407069087028503,0.0004112738242838532,-0.003124859184026718,0.0024981352034956217,-0.0010756505653262138,-0.0023565473966300488,-0.00391971692442894,-0.001484380103647709,0.0033952598460018635,-0.003017897019162774,-0.0025710267946124077,0.0006057035061530769,0.003524486208334565,0.0025446140207350254,0.00047931246808730066,0.0001188210808322765,-0.0011647418141365051,-0.0027262947987765074,-0.0014920687535777688,-0.0035118970554322004,-0.0006532077095471323,-0.0008497092640027404,0.0021803900599479675,0.0008719469187781215,0.0037497750017791986,-0.003093255218118429,-0.002702796133235097,0.004008806776255369,0.0012486643390730023,0.001338616362772882,0.002414473332464695,-0.0006828504847362638,-0.003962331917136908,-0.003201297949999571,-0.0002367863926338032,0.0005993759259581566,-0.0005822660168632865,0.001501202816143632,-0.0014454008778557181,-0.0037554444279521704,0.003564981510862708,0.002128982450813055
-0.0023127482272684574,0.003073290688917041,-0.0034993162844330072,-0.0019099171040579677,0.00027512566884979606,0.002711015287786722,0.0036280895583331585,-0.0014955969527363777,-0.003178542712703347,0.003508239984512329,-0.000703771598637104,0.0010123238898813725,0.0011359434574842453,0.0025784282479435205,0.003542676568031311,0.0017458373913541436,-0.0028151862788945436,-0.00298529420979321,0.0005031116306781769,-0.0025714742951095104,-0.00019640324171632528,-0.0015542347682639956,0.003232424147427082,0.0014251744141802192,0.003374143736436963,0.003325447905808687,-0.0010461254278197885,-0.002013526624068618,0.003200210863724351,-0.003300258656963706,-0.003074050648137927,-0.0019515339517965913,0.003049917286261916,-0.0027454739902168512,0.0035584194120019674,-0.00213070772588253,0.003669689642265439,-0.003408466000109911,0.002848537638783455,0.003142518689855933,0.003987455274909735,-0.00035499539808370173,-0.0018166895024478436,0.0034853233955800533,0.0035157499369233847,-0.003592153312638402,0.0001874319277703762,0.0031055465806275606,-0.003293605986982584,0.0022916642483323812,0.0013046438107267022,0.0025815048720687628,0.0028469630051404238,0.0032040898222476244,-0.0018938052235171199,-0.0018868976039811969,-9.574793512001634e-05,-0.0027302741073071957,0.0035758852027356625,-0.001959520159289241,-0.002803958486765623,0.0023746408987790346,0.0008866308489814401,0.0021332630421966314,-0.003929709084331989,0.001089695724658668,-0.0036008781753480434,0.0018326456192880869,0.0006366817397065461,0.0025573186576366425,-0.0007231247727759182,0.0009098064620047808,-0.002691450994461775,0.003637608140707016,0.00081096455687657,-0.0005400083609856665,-0.0018415995873510838,-0.0030273825395852327,-0.0009982844348996878,-0.0007458378677256405,-0.0025961853098124266,0.0037504551000893116,0.0015560875181108713,0.0031712062191218138,-0.0024996211286634207,-0.001893666572868824,-0.001030490966513753,-0.0033516783732920885,-0.003171044634655118,0.0007100671646185219,-0.0032763623166829348,-0.003089925739914179,0.0028984046075493097,0.0021255132742226124,-0.003078128444030881,0.0007882342324592173,-0.0010458511533215642,-0.0015011552022770047,-0.0027665807865560055,0.003685282776132226,-0.0012695640325546265,-0.003804821288213134,2.4485126459694584e-07,0.0002180746232625097,-0.000649427471216768,0.0031490421388298273,-0.0013061247300356627,-0.0006012123194523156,6.489994120784104e-05,0.0007208845927380025,0.0002934450167231262,0.0033771470189094543,0.002054962096735835,-0.0008970270864665508,0.003599548013880849,7.741854642517865e-05,0.0022848311346024275,-0.001484088716097176,0.0026793992146849632,-0.0011118223192170262,0.0011456519132480025,-0.00010909023694694042,-0.0023918384686112404,0.0016581910895183682,0.002515301574021578,-0.003281023120507598,-0.0012522093020379543,0.002870810218155384
-0.0004975319025106728,0.0035400267224758863,-0.0037919217720627785,-0.002188335405662656,-0.0022913930006325245,0.0023997293319553137,0.0015416229143738747,0.0010705998865887523,0.002431148197501898,-4.056764009874314e-05,-0.000438241841038689,0.0009348397143185139,-0.0008960116538219154,0.0004607397422660142,-0.0007423451752401888,0.0011310410918667912,0.0006364493165165186,0.002486477605998516,0.003333364613354206,0.00033217648160643876,-0.002728388411924243,-0.0018824462313205004,-0.0002466791484039277,0.0018440659623593092,-0.0006263143732212484,0.0013075482565909624,-0.001157841645181179,0.003051363630220294,0.0030671043787151575,0.0032218401320278645,-0.000520742847584188,-0.0015842535067349672,0.0034298691898584366,0.0017314455471932888,-0.0034541874192655087,0.0032660216093063354,0.0030384152196347713,-0.002491855528205633,-0.0025032926350831985,0.002913006581366062,-0.0026429593563079834,-0.0006998229655437171,-0.0018163048662245274,0.002651812508702278,-0.001507986686192453,0.0018932888051494956,0.00039580289740115404,0.002595052821561694,-0.003642919473350048,0.0034764688462018967,0.0018036587862297893,-0.00036145467311143875,-0.002387723885476589,0.0030727474950253963,0.0034373803064227104,0.0031312161590903997,-0.0035855669993907213,-0.0021814594510942698,0.002591351279988885,-0.0034424629993736744,0.0019609984010457993,-0.0031028881203383207,0.0017624133033677936,9.430503996554762e-05,-0.0028446970973163843,-0.0033743754029273987,-0.0015002330765128136,0.0035246023908257484,-0.0029322851914912462,-0.001292055705562234,0.0002050460607279092,0.0030349926091730595,0.0018002790166065097,0.0003084460913669318,-0.00015073032409418374,-0.0016491094138473272,-0.003351390827447176,0.0015637833857908845,0.00046890354133211076,-0.002146444283425808,0.0034205561969429255,0.001884611789137125,0.0032946565188467503,-0.0032845984678715467,0.0034594996832311153,0.003062429605051875,-0.0032646197360008955,0.0010398552985861897,0.0013589350273832679,-0.0006351612391881645,0.001956211868673563,0.0016479562036693096,-0.00397823192179203,-0.0013343187747523189,-0.003458649618551135,-0.002518654568120837,-0.0014322259230539203,0.00026297473232261837,0.002350201830267906,0.0027254049200564623,-0.0018546618521213531,0.0028816971462219954,-0.00046888223732821643,-0.0009259946527890861,-0.0022431290708482265,-0.003194832243025303,-0.0030423200223594904,-0.003168867202475667,-0.0031391368247568607,0.003179540392011404,0.0024730893783271313,0.0018092856043949723,-0.0006289716111496091,-0.002339279046282172,-0.002139514544978738,-0.0018168395617976785,-0.0014411765150725842,0.000274845864623785,0.0013012683484703302,0.0004031546413898468,0.001707867020741105,-0.0035898045171052217,-0.0013125694822520018,-0.0035025442484766245,0.0007187119917944074,0.0023265397176146507,-0.0020386583637446165,0.003395471489056945
0.0024575702846050262,0.0020220645237714052,0.003285737242549658,0.0007900316268205643,-0.0007416095468215644,-0.0001636083034100011,-0.0035221190191805363,0.003567491890862584,-0.00014602066949009895,0.003286343067884445,-0.0016279617557302117,0.0030255380552262068,0.0012401597341522574,0.0014436322962865233,0.0016476118471473455,0.0030671388376504183,-0.002905212575569749,-0.001567603787407279,-0.0005961543065495789,0.0009482094319537282,0.002377094002440572,-0.003291201312094927,-0.003305905731394887,0.002679087920114398,0.003608155995607376,-0.0026366375386714935,0.0001785490894690156,-0.003169134259223938,-0.0007209708564914763,-0.0011766866082325578,-0.0014643608592450619,0.002050283830612898,-0.0024566929787397385,-0.0029732368420809507,0.001057100249454379,0.0029802178032696247,0.002286442555487156,0.0021299959626048803,0.0027504267636686563,0.0014700390165671706,-0.0015333208721131086,0.00395414000377059,-0.0001740486768539995,-0.0040210881270468235,-0.0003030940133612603,-0.0008034065831452608,-0.0008332064026035368,-0.003568582935258746,-0.0014773041475564241,-0.00266258860938251,0.0022554860915988684,-0.0014290647814050317,-1.6529163985978812e-05,-0.0018082266906276345,-0.0017049534944817424,0.0007466304232366383,0.003459945088252425,-0.00020800891797989607,-0.003042791038751602,-0.002671720227226615,-0.0012126481160521507,0.001043805736117065,0.0009758986998349428,-0.0008341445936821401,-0.0015735247870907187,-0.0020095854997634888,-0.0023168297484517097,-0.0026462560053914785,-0.002246317220851779,0.0019753712695091963,0.0036591519601643085,-0.003909374587237835,-0.002351759234443307,0.0036475015804171562,0.0028822338208556175,0.002930035348981619,0.00272739096544683,0.0020031204912811518,-0.002577118342742324,0.0026388089172542095,0.002646692330017686,0.0007715282845310867,-0.0024414684157818556,0.0001510114670963958,-0.002489089732989669,0.0009832418290898204,0.0036599519662559032,0.0017912274925038218,0.00011834820179501548,0.0017252737889066339,0.003001295728608966,0.0038667418994009495,-0.0012867507757619023,-0.002760985866189003,-0.0012842920841649175,0.0032858867198228836,-0.003672800026834011,0.00196930137462914,0.0011842965614050627,-0.0030017008539289236,0.0023721957113593817,0.0005388633580878377,0.0008448832668364048,-0.0038330373354256153,-0.0004393350100144744,0.00147860252764076,-0.0009510723757557571,-0.0029289042577147484,0.0019551157020032406,-0.0011771011631935835,-0.002231842838227749,-0.0029645501635968685,-0.0037344717420637608,-0.000497210887260735,0.0008942016866058111,0.002198698464781046,0.0018615456065163016,0.00014429133443627506,0.001164530753158033,-0.000979735399596393,0.002557099796831608,0.002335867378860712,0.003407434793189168,0.0018842584686353803,-0.0013162012910470366,0.0012387881288304925,0.0012556678848341107,0.0030405446887016296
-0.003469982650130987,-0.0017085120780393481,0.00048034481005743146,-0.0037463295739144087,-0.00022488397371489555,0.0032499334774911404,0.00312009803019464,-0.0038281776942312717,0.0022332114167511463,-0.0011526599992066622,0.0016289579216390848,-0.0006382698775269091,0.0008661284809932113,0.0011003842810168862,0.00012533996778074652,0.0031243679113686085,-0.002654885873198509,0.003036649664863944,0.001666271942667663,-0.0028513569850474596,0.0013417729642242193,-0.0032477332279086113,0.0011415374465286732,-0.0033962558954954147,0.0010136219207197428,0.0036607994697988033,0.0031781448051333427,0.0007454860024154186,-0.0008445325656794012,0.0027518717106431723,0.001118165790103376,-0.0007562940008938313,0.0014923503622412682,0.002830122597515583,0.0038104583509266376,0.0024544766638427973,-0.0003570079570636153,0.003580364165827632,-0.003351798513904214,0.0015568584203720093,-0.002514969790354371,-0.001542916288599372,-0.0036553707905113697,0.002576676197350025,-0.0036505262833088636,-0.002234257059171796,-0.0035895616747438908,0.0005363470409065485,0.0017218273133039474,-0.0028451760299503803,0.0012558946618810296,0.003881945740431547,0.002259073546156287,-0.0037741379346698523,9.524826964479871e-06,0.0034921637270599604,-0.003880616743117571,0.0010005362564697862,0.001721108565106988,-0.0034003702457994223,0.0005839418154209852,-0.0008224667399190366,0.0013027747627347708,0.0018243883969262242,0.0031639921944588423,-0.0021624292712658644,-0.0016568825813010335,-0.0005013119080103934,0.000957193726208061,-0.002596068661659956,0.0016358778811991215,-0.0004979978548362851,0.001737726153805852,0.002112342743203044,-0.0022802420426160097,-0.0032381585333496332,-0.00315727642737329,0.0030155163258314133,-0.00042107104673050344,-0.0003672407183330506,0.003081968054175377,-0.0016811664681881666,-0.0017836702754721045,-0.0023113181814551353,0.0028779644053429365,-0.003727313131093979,0.0036441052798181772,0.0036780887749046087,-0.001072242739610374,0.00358922709710896,-0.0008158657001331449,6.026549817761406e-05,0.0013001281768083572,-0.0010716175893321633,0.0029758037999272346,-0.0031125489622354507,0.0011645598569884896,0.0003037524875253439,0.0018123274203389883,-0.000969773915130645,-0.0028440512251108885,-0.0013761920854449272,5.2061728638364e-05,0.0004014337609987706,0.0005874664639122784,0.0004502190859057009,-0.00229756161570549,-0.0007177856750786304,-0.002909495495259762,0.002232085447758436,0.00368783762678504,-0.0006719780503772199,-0.0009242824162356555,-0.003777644829824567,0.0016334170941263437,-0.0030317511409521103,-0.0007379610324278474,-0.0002927380264736712,0.003058062866330147,0.0006692825700156391,0.0021235595922917128,-0.00232609361410141,0.0017319092294201255,-0.00012457024422474205,-0.0014518866082653403,0.0037923315539956093,-0.00014358015323523432,-0.0013798422878608108
-0.0029777248855680227,0.002585934242233634,0.0035368979442864656,-0.0008777131442911923,0.0022306027822196484,-0.0010207485174760222,-0.0005445010610856116,-0.0017268565716221929,-0.0032266140915453434,-0.0032522771507501602,-0.0030186199583113194,0.0016909973928704858,0.0022105935495346785,-0.00037307621096260846,0.0024685037788003683,1.6864343706401996e-05,-0.0021153392735868692,0.0028374497778713703,-0.0015449499478563666,-0.0010469022672623396,-0.001402897178195417,0.0037603331729769707,-0.0013763726456090808,0.0002928782196249813,0.0012970095267519355,0.0022259624674916267,-0.0035601009149104357,0.002369325840845704,-0.002850205870345235,0.0026939420495182276,-0.0017413926543667912,-0.0031489196699112654,0.0003848290361929685,0.0027871893253177404,0.003667679149657488,-0.0014119319384917617,-0.001137966406531632,-0.0004370665701571852,0.001139780506491661,-0.001722894492559135,-0.0011191001394763589,-0.0018620867049321532,0.003175084013491869,-0.0018790937028825283,0.0016258079558610916,-0.003767150454223156,0.0010209536412730813,-0.003911932464689016,0.0030106042977422476,0.0023348431568592787,-0.0009521004976704717,0.003121441463008523,0.0011604278115555644,-0.003359805792570114,0.0008242236217483878,-0.0005431020981632173,0.000513231148943305,0.001052876003086567,0.0004819568421225995,0.001757036312483251,-0.002093480434268713,0.0028775930404663086,-0.00049095373833552,0.0021088621579110622,-0.0023685023188591003,-0.0004577734798658639,0.001252511516213417,-0.0023046028800308704,-0.0016317926347255707,0.00215162243694067,-0.0016016463050618768,-0.00020206750195939094,0.00041867478284984827,0.0013904419029131532,-0.0014701825566589832,-0.0023994306102395058,-0.0020412399899214506,0.002428691601380706,0.00029750404064543545,0.004019704647362232,0.00037535285810008645,0.003365329932421446,0.0011931519256904721,0.0017155456589534879,-0.003033677116036415,0.0010694025550037622,-0.0033065746538341045,0.001102828304283321,-0.001772449817508459,0.0018973934929817915,0.003169754520058632,0.003816005075350404,-0.0027019428089261055,-0.0032170636113733053,-0.001055064843967557,0.0010960043873637915,-0.002129197586327791,-0.0015146502992138267,0.003379418281838298,-0.002534164348617196,-0.0009708172874525189,-0.002320612780749798,-0.003403225215151906,-0.0028687932062894106,0.002904079854488373,0.0021436323877424,0.0019542910158634186,0.0015693038003519177,0.0036373783368617296,-0.0028301263228058815,0.0006904773181304336,0.0029883207753300667,-0.0005084029980935156,-0.0026564886793494225,0.0017706985818222165,0.0027047842741012573,0.003486220957711339,-0.001738348975777626,-0.0025525789242237806,-0.0025088030379265547,-0.00024549910449422896,-0.0023698678705841303,-0.0033999327570199966,0.0010051258141174912,-0.0032199325505644083,-0.002667556516826153,0.0006733956979587674,4.1351275285705924e-05
0.0007657918031327426,0.0024527364876121283,0.0014637173153460026,0.0011817719787359238,-0.00022329189232550561,-0.002137246076017618,0.003260798519477248,0.0009470822406001389,0.0037171083968132734,0.0016502619255334139,-0.00034235877683386207,-0.0026642028242349625,-0.0005469225579872727,-0.0013212098274379969,-0.0031159743666648865,-0.002039645565673709,-0.0010837794980034232,-0.0016699937405064702,-0.0006531737744808197,-0.002536420477554202,0.0033641294576227665,-0.0028958325274288654,0.003795958822593093,-0.0010892266873270273,-0.0009317573858425021,0.0012291553430259228,0.0028142519295215607,0.0022075194865465164,-0.001755981589667499,0.002008293755352497,0.0005170924705453217,0.0034370513167232275,0.00027585687348619103,0.002013368997722864,0.0031282424461096525,-0.003495348384603858,-0.003155485726892948,-0.002585857640951872,0.0003487786161713302,0.002289525931701064,0.0036798559594899416,-0.0023295863065868616,-0.0008435226627625525,-0.0011590190697461367,0.0007810993120074272,-0.002711820648983121,-9.446870535612106e-05,0.000703495170455426,-0.0010883662616834044,-0.00021652319992426783,-0.003157383296638727,-0.002253960585221648,-0.0020847234409302473,-0.0025159118231385946,-0.0006606202805414796,-0.0013991417363286018,0.002415113151073456,0.00226950622163713,0.002424028003588319,0.002799919107928872,-0.0005136021645739675,0.0030395297799259424,-6.367984315147623e-05,-0.003280236851423979,0.0005322397919371724,0.003556152805685997,-0.0008573562372475863,-9.579485049471259e-05,0.0032454689498990774,-0.001857738010585308,-0.0026030540466308594,-0.002130313776433468,-0.00025245684082619846,-0.0018344107083976269,-0.0037554355803877115,-0.0021302474197000265,-0.0020356792956590652,-0.003763647051528096,0.0037458008155226707,0.002538507804274559,0.002148569794371724,0.0005713202990591526,-0.0010728336637839675,-0.0026291704270988703,0.003832996590062976,0.0018120578024536371,-0.002735476940870285,0.0038926228880882263,-0.0008852063911035657,-0.002524390583857894,-0.0017806721152737737,-0.002936080563813448,0.0019031853880733252,-0.002249493496492505,0.0035425692331045866,-0.0011126870522275567,-0.002420742530375719,0.0022900470066815615,-0.0034952471032738686,0.0013814819976687431,-0.00087776780128479,-0.003309947904199362,0.0031438034493476152,-0.002568385796621442,-0.0022683958522975445,-0.003722879569977522,-0.0002477059606462717,0.000394031114410609,0.0005169179057702422,-0.0015381169505417347,0.00013411423424258828,0.00032157113309949636,-0.0018990213284268975,-0.0030963514000177383,-0.0004720773722510785,0.0016913507133722305,0.001711712684482336,-0.00017189419304486364,0.002411837689578533,-0.0027965540066361427,0.0027009248733520508,0.0023274675477296114,-0.0032997261732816696,0.0007204883149825037,0.0009577047894708812,0.0035266675986349583,0.0019943134393543005,0.0028498154133558273
0.0017489673336967826,-0.0009000579011626542,0.0030788257718086243,0.0009945905767381191,0.002461379859596491,-0.000996696762740612,0.0005928613245487213,-0.003017803654074669,-0.0014578718692064285,-0.0026569801848381758,-0.0009782126871868968,-0.0029075108468532562,-0.0006917777936905622,-0.0006915901321917772,0.0034525496885180473,-0.0029703916516155005,0.0009970582323148847,-0.0008788699633441865,0.0031875057611614466,0.002228599041700363,0.00271073286421597,-0.0027974459808319807,0.001956721767783165,-1.5494802937610075e-05,0.0004397605371195823,8.659651211928576e-05,0.0033240169286727905,-0.0014692555414512753,0.00027013130602426827,0.001621051924303174,-0.0038777373265475035,0.0021008518524467945,-0.003543369472026825,-0.0025107061956077814,-0.002886977046728134,-0.0032238326966762543,0.0008693681447766721,0.0008482421399094164,-0.001750054769217968,-0.0005854576011188328,-0.0005061377305537462,0.00098125240765512,0.0023834279272705317,0.003599036019295454,-0.0028984302189201117,0.0021303894463926554,-0.0003643866803031415,-0.0031142428051680326,-0.0021090202499181032,-0.0035958902444690466,0.0023061558604240417,0.0002655312418937683,-0.002832612721249461,-0.0036639252211898565,0.001585477963089943,-0.0014830633299425244,-0.002553188009187579,0.0007207641028799117,-0.0035027966368943453,-0.002972387708723545,-0.0014361501671373844,-0.003054142463952303,-0.0032933272887021303,0.0023964685387909412,0.001850561355240643,-0.002468155464157462,-0.002908267080783844,-0.0039526838809251785,0.0005476564983837306,-0.0007280948339030147,0.0002963806036859751,0.0019027598900720477,0.0005615190602838993,0.00028537079924717546,0.0014202259480953217,0.001090725651010871,-0.0011580083519220352,0.0005710312980227172,0.0025527351535856724,-0.0015988853992894292,0.0017828886630013585,-0.0027275895699858665,-0.0014813975431025028,-0.002802623435854912,-0.0032875146716833115,0.002065917244181037,-0.0030101852025836706,0.0012371176853775978,-0.0038006023969501257,0.002117887604981661,-0.0034712671767920256,0.003682797309011221,-0.0037518844474107027,-0.0035723152104765177,-0.0003719032392837107,-0.0021564296912401915,-0.002855982631444931,0.0010396316647529602,-0.0006866834009997547,0.002038685604929924,-0.002799564739689231,-0.0011785620590671897,0.0027002841234207153,0.003164039459079504,-0.0009746105642989278,-0.00025449084932915866,0.0005177256534807384,0.00022569615975953639,0.0026399230118840933,-0.0011242503533139825,6.382749415934086e-05,-0.002547189360484481,0.003256194991990924,0.0015612037386745214,-0.0005594093236140907,0.0035615437664091587,0.0019355918047949672,0.0016048634424805641,0.00035415994352661073,0.0024475769605487585,-0.0019647034350782633,0.0034927171654999256,0.0019860167521983385,0.0005146343028172851,-0.002635160693898797,0.002740072086453438,-0.0022673190105706453,0.00042383119580335915
0.002894231816753745,-0.0030795966740697622,-0.0001135234342655167,-0.002298900159075856,-0.001971557969227433,-0.00315667106769979,-0.00028542798827402294,-0.0034164052922278643,8.039203385123983e-05,0.0023562381975352764,-0.002171327592805028,0.0037670331075787544,-0.00030289750429801643,0.0007110610604286194,-0.0022137255873531103,0.0014699480962008238,0.002224791795015335,0.0015536554856225848,0.0007347852806560695,-0.0016376981511712074,0.00242786668241024,0.00353458384051919,-0.0006338764214888215,0.0012472361559048295,0.0011822512606158853,-0.002369205467402935,-0.00014724147331435233,-0.00205785664729774,-0.002343658125028014,-0.0011403700336813927,-0.0025488033425062895,0.0014523925492540002,0.0016529542626813054,0.0020179683342576027,-0.0010562671814113855,-0.0023748723324388266,-0.0006293857586570084,-0.0027930629439651966,-0.0017230979865416884,-0.0019979113712906837,0.004019744694232941,0.0010531990556046367,0.0024729857686907053,-0.0026952067855745554,-0.0011491036275401711,-0.002203739248216152,0.0008288930403068662,-0.003601411124691367,-0.0023312752600759268,0.0021682640071958303,0.004297197796404362,-0.00022252919734455645,0.0004490175924729556,-0.003720714710652828,0.002511960919946432,-4.2807459976756945e-05,0.0029049981385469437,-0.001861416851170361,-0.0038048438727855682,-0.0032220929861068726,0.0013089486164972186,-0.003502790816128254,0.0032202922739088535,0.0037826390471309423,-0.0018608537502586842,-0.0033266611862927675,-0.0018202513456344604,-0.002810823265463114,7.319320866372436e-05,0.001614376320503652,-0.004039204679429531,0.003003503428772092,-0.002292551565915346,-0.0030297748744487762,0.0016445701476186514,-0.0001745257613947615,0.001407430856488645,-0.001790278241969645,-0.001207634573802352,-0.0034946259111166,-0.002280977088958025,0.001863954239524901,-0.003448749892413616,7.705062307650223e-05,-0.0008583621238358319,0.002109797205775976,-0.000561272434424609,0.003751350101083517,-0.0037593652959913015,-0.0037140012718737125,-0.0026031883899122477,0.0017832331359386444,0.0022872413974255323,0.0009656284237280488,0.002212142338976264,-0.00017793531878851354,0.0035843176301568747,-0.002734774025157094,0.0012716777855530381,0.0034935788717120886,-0.0032323207706212997,-0.0023820227943360806,-0.001836023642681539,0.0012746888678520918,-0.0025795395486056805,0.0016868937527760863,0.0017339140176773071,0.003528352128341794,0.0033723798114806414,0.0031652492471039295,-8.169931243173778e-05,-0.0027806709986180067,-0.0017384393140673637,0.0030413225758820772,-0.0007986040436662734,0.001953722909092903,-0.00011540042032720521,0.00425940053537488,-0.0020654438994824886,0.0010200653923675418,0.0018852186622098088,-0.0019590198062360287,-0.003239438170567155,0.002360028214752674,-0.0016666288720443845,-0.0008013182086870074,-0.001785748521797359,-0.00023805268574506044
-0.0030495079699903727,-0.002327850554138422,-0.002408534986898303,0.0022513163276016712,-0.00045900000259280205,-0.0032022614032030106,0.0019509387202560902,0.0006819948903284967,0.0025351045187562704,-0.0004115441406611353,0.0026171926874667406,0.003283755388110876,0.00025169277796521783,-0.0017467932775616646,0.0029890963342040777,-0.0014667499344795942,0.0004751609521917999,0.0025125867687165737,-0.00309390714392066,-0.0003535616269800812,0.0015225537354126573,0.002347200643271208,0.0018705697730183601,0.0006846058531664312,-0.0014395079342648387,-0.0006468294886872172,-0.0035489818546921015,-0.0009915613336488605,-0.0007261675782501698,-0.0015253036981448531,-0.00037663712282665074,-0.0034201431553810835,0.0008395650656893849,-0.0017077152151614428,-0.002653267467394471,-0.0034880409948527813,-0.0029637611005455256,0.0025393550749868155,-0.00035967706935480237,-0.0036826927680522203,0.0013150727609172463,0.003564227605238557,0.000545079936273396,0.0010550941806286573,-0.0009800392435863614,-0.0012185379164293408,-0.0011725060176104307,-0.0009161914349533617,-0.0019082368817180395,0.0012265872210264206,-0.00021190510597079992,0.0015196057502180338,-0.0001539527584100142,0.0012305849231779575,-0.00013546000991482288,0.0006468329229392111,-0.003601791337132454,0.00016470978152938187,0.000890894909389317,0.002272282727062702,0.0038051586598157883,-0.0017287558875977993,0.0034746776800602674,0.001996066886931658,-0.000965678074862808,-0.002872841665521264,-0.0013038490433245897,0.003277667798101902,0.0035422539804130793,-0.00039636704605072737,-0.003263560589402914,0.000868368661031127,-0.0029001703951507807,-0.0037016132846474648,0.003881695680320263,0.0032836906611919403,-0.002762410556897521,-0.0030511650256812572,0.002650287002325058,-0.002090240130200982,-0.0004010443517472595,0.0035092176403850317,-0.0011188051430508494,-0.0023666536435484886,-0.0017543267458677292,-0.000968759530223906,0.002578129991889,0.0008942281128838658,0.0025087837129831314,-0.0021869840566068888,-0.0022715379018336535,2.7043201043852605e-05,-0.003249980742111802,0.0006514060078188777,0.003591625951230526,-0.002146879443898797,-0.00020829586719628423,-0.0006711690220981836,-0.0035493664909154177,0.0015148905804380774,-0.0012425779132172465,0.001939686480909586,-0.0010591238969936967,0.0031125033274292946,-0.002609100891277194,-0.0033568323124200106,0.0037555706221610308,-0.0032539742533117533,0.003098745597526431,0.0010693228105083108,-0.0005940046976320446,-0.003902413882315159,0.0010127925779670477,-0.002051101066172123,-0.00020861616940237582,0.0027792302425950766,-0.003769118105992675,-0.001308473409153521,-0.0029181353747844696,-0.0014090072363615036,-0.0018318926449865103,-0.0015122874174267054,-0.0037382415030151606,-0.001501035992987454,-0.003258774522691965,0.0016221784753724933,-0.003090818412601948,0.0024101929739117622
-0.0004112448659725487,-0.0008011165191419423,0.0041291313245892525,0.00045869292807765305,0.0025596919003874063,-0.00031354237580671906,-0.002645554719492793,-9.875073737930506e-05,-0.001678399508818984,-0.002810871694236994,0.002691622357815504,0.0019253891659900546,0.00043867487693205476,0.0027765901759266853,0.0023446001578122377,0.003547975094988942,0.003053746186196804,-0.001625485485419631,3.5976478102384135e-05,-0.002119239419698715,0.0024868648033589125,0.001107400399632752,0.0024769222363829613,0.00010152769391424954,-0.001780238701030612,-0.0023895082995295525,0.0006386801251210272,0.0016046924283728004,-0.0024589679669588804,0.00019554754544515163,0.0003741555265150964,-0.001470254035666585,0.0019668499007821083,0.0009717701468616724,0.0015024429885670543,-0.0009789663599804044,0.0010374184930697083,0.0003288793086539954,0.0036261766217648983,0.0014107528841122985,0.002453259192407131,-0.0029996091034263372,-0.0017855276819318533,-0.0009185688104480505,0.002319866791367531,0.002896519610658288,0.00023051277094054967,-0.0016361448215320706,-0.0010553364409133792,-0.0016611976316198707,0.001517763244919479,0.0022952775470912457,0.0018669994315132499,-0.0027230829000473022,-0.0029646947514265776,0.001481358427554369,-0.0016533355228602886,-0.0010969777358695865,8.310939301736653e-05,-0.0008761449716985226,-0.0012791809858754277,0.0002512918144930154,-0.00037770430208183825,0.0040466743521392345,-0.0013686137972399592,-1.7910791939357296e-05,-0.0007851507398299873,0.000756834342610091,0.0009374262299388647,-0.0007920986390672624,0.0006538431043736637,-0.00254756398499012,0.001622642739675939,0.002203573239967227,-0.00018345379794482142,0.0022170080337673426,0.001166195492260158,-0.004059602972120047,-0.0009724462870508432,-0.0014871415914967656,-0.0015067585045471787,-0.0023624044843018055,-0.003274881048128009,-0.0020547134336084127,0.0037872223183512688,0.0022058936301618814,-0.00024515725090168417,0.004173325840383768,9.785407746676356e-05,0.0027908203192055225,-0.002015728270635009,0.001793805044144392,-0.0014581509167328477,0.003775770077481866,0.0014298229943960905,-0.0010808809893205762,-0.0018603280186653137,0.0009712944156490266,0.0033040186390280724,-0.0028279812540858984,0.0009894445538520813,0.0019490070408210158,-0.0031239083036780357,0.0005940571427345276,0.0035789492540061474,0.003424506401643157,-0.002109046559780836,-0.000109574590169359,0.00046085534268058836,0.0019764432217925787,-0.0024137278087437153,0.003149939002469182,0.0002447717124596238,-0.0024189590476453304,-0.0014234012924134731,0.0028481348417699337,-0.0005956777604296803,-0.0011710204416885972,-0.00017280207248404622,0.0002885546418838203,-0.0016864078352227807,-0.0035048658028244972,0.0016402284381911159,0.00038281476008705795,-0.00037638837238773704,-0.0033421150874346495,-0.002317005069926381,-0.0033137230202555656
-0.003006061539053917,0.0039780656807124615,0.003607311053201556,0.0015853147488087416,-3.358570393174887e-05,-0.0028054360300302505,-0.0035042560193687677,-0.0005619059666059911,0.0034222526010125875,-0.0024607826489955187,0.0027983635663986206,-0.0018356948858126998,0.0019511189311742783,0.0023262344766408205,-0.0027407051529735327,-0.00017208502686116844,-0.002029296476393938,0.0027432453352957964,0.0030176574364304543,-0.003550445195287466,0.0012004774762317538,-0.0018040366703644395,0.0015938181895762682,-0.00039648503297939897,0.0006361117120832205,-0.000795976200606674,0.0036655038129538298,0.0037617278285324574,-0.003084087511524558,0.0002718975010793656,-3.131218545604497e-05,-0.003674187930300832,0.0025249056052416563,-0.0005279244505800307,0.001853661728091538,-0.0021534685511142015,0.0037630307488143444,-0.00013537600170820951,0.0006542906048707664,0.0016100630164146423,0.00288595212623477,-0.0035476384218782187,0.0014189161593094468,-0.0011290046386420727,0.003285430371761322,0.0034018747974187136,0.0030463198199868202,-0.0008718037861399353,-0.0035651051439344883,0.0009629678097553551,-0.0011003065155819058,-0.0028560778591781855,-0.00037855160189792514,0.0033417795784771442,0.001985014881938696,0.0017602045554667711,-0.0006109498208388686,-0.0007987263961695135,-0.0017835849430412054,-0.0037491514813154936,-0.0008979575941339135,-0.002875624457374215,-0.0010641614207997918,-0.002339653205126524,0.0003309396270196885,-0.0004910873831249774,0.0024891956709325314,-0.0010993753094226122,0.0022186452988535166,0.002397795906290412,0.0004456514725461602,0.0036315033212304115,0.0011645517079159617,-0.0004893355653621256,0.0034994385205209255,0.0012418604455888271,0.002597563900053501,0.001535793417133391,0.003675929270684719,-9.281041275244206e-05,0.003710358403623104,0.002548147225752473,-0.0008764020749367774,-0.003028503153473139,0.0013333902461454272,-0.002770684426650405,0.0005209816736169159,0.0022845955099910498,-0.0030861706472933292,0.002228847239166498,0.0030998371075838804,-0.00044509145664051175,0.003069308353587985,-0.00023566989693790674,0.0002807124110404402,-0.002908458234742284,-3.596771421143785e-05,0.0020161436405032873,0.0032344250939786434,0.0005496339872479439,0.0016342896269634366,0.0033535759430378675,0.0015624298248440027,0.0027425740845501423,0.00045691843843087554,-0.002482043579220772,-0.003733297809958458,-0.0028905866201967,-0.0031658827792853117,-0.0005052300984971225,-0.001457649515941739,0.003267555497586727,-0.0001815441355574876,-0.0011120398994535208,0.0005645774072036147,-0.0035329870879650116,-0.001367802731692791,0.0014129518531262875,-0.002734545851126313,-0.00017354659212287515,-0.0021713462192565203,0.0014784960076212883,0.0012878947891294956,-0.00030549729126505554,-0.002821427071467042,0.0001435362355550751,-0.0019898221362382174,0.0023561243433505297
0.0023413626477122307,0.0029182862490415573,0.0019656289368867874,0.00325373956002295,0.001293566427193582,0.0037654517218470573,0.00031317517277784646,0.002122835721820593,-0.0027539797592908144,0.0012441702419891953,0.0016881029587239027,0.0004364759079180658,0.0020417917985469103,-0.0028987431433051825,-0.002659072633832693,-0.00347596756182611,-0.0007686076569370925,0.0017679909942671657,-0.003382663941010833,-0.0007755873375572264,-0.001928365440107882,0.003161435015499592,0.0002942605933640152,-0.002886991947889328,0.000504841620568186,0.0015977575676515698,0.0022978060878813267,-0.00023327750386670232,0.0030628906097263098,-0.0027514479588717222,0.001601573545485735,-0.0029863310046494007,0.0029855454340577126,0.00012974791752640158,0.0026749279350042343,-0.0009266043780371547,0.001985427923500538,-0.003789497073739767,0.0032218890264630318,0.0005128579796291888,-0.002104880753904581,0.0019383264007046819,-0.0015519328881055117,0.0007298693526536226,-0.0020207816269248724,0.002111394191160798,-0.0006320036482065916,-0.003525392385199666,-0.0019746418111026287,0.001989452401176095,0.0029037564527243376,0.002653643488883972,-0.0020251304376870394,-0.003782627172768116,0.0038592161145061255,0.0006047402275726199,-0.0015151533298194408,0.002431298140436411,-0.00198856508359313,-0.0009388791513629258,0.002708492800593376,-0.002962609753012657,0.0023686198983341455,-0.0014788665575906634,-0.0008609857177361846,-0.00045382147072814405,0.00014461005048360676,0.0029522054828703403,-0.001199084334075451,0.001103417482227087,0.0009308483568020165,0.002309691859409213,-0.002098492346704006,0.0013728594640269876,-0.0033452194184064865,0.003091852180659771,0.0016054825391620398,-0.0002150240179616958,-0.0029923359397798777,0.002868415554985404,0.0031958254985511303,0.002796278102323413,0.0006450227228924632,0.00150441809091717,-0.0020657461136579514,-0.003392575541511178,-0.002267509698867798,-0.0026720212772488594,-0.0006935176206752658,0.003665202297270298,0.001055047963745892,-0.0015192402061074972,0.0005239575984887779,-0.0014059105888009071,-0.0010257313260808587,0.0033888777252286673,-0.003645342541858554,-0.001613006228581071,0.00327505124732852,-0.0014176625991240144,-0.003325988072901964,-0.003678919980302453,0.0029267019126564264,0.0015817922540009022,0.0006387113826349378,0.001528615248389542,-0.00018792717310134321,-0.0037089725956320763,-0.0022359362337738276,-0.0021725320257246494,-0.0014782570069655776,0.0038380585610866547,0.003148766467347741,-0.003809794085100293,0.0010280912974849343,-0.0018373263301327825,-0.0017629521898925304,-0.0036312341690063477,-0.002203637035563588,-0.003427806543186307,-0.0013847630470991135,-0.0002668929228093475,0.0014587221667170525,0.002474549226462841,-0.003398376051336527,-0.0035941365640610456,-0.0031399638392031193,0.003130776109173894
0.001612628810107708,0.002019577892497182,-0.001225764979608357,0.0035610594786703587,-0.0006729295710101724,0.002817540429532528,-0.00046791069325990975,0.0020430907607078552,0.0025144703686237335,0.0005039050010964274,-0.0029964649584144354,-0.002715416019782424,0.00011387753329472616,-0.0027612883131951094,0.0036720617208629847,0.0033152103424072266,-0.00015886932669673115,-0.0016694966470822692,-0.0012938494328409433,0.0033560339361429214,0.0007620734977535903,-0.0003202696971129626,0.0035037745255976915,0.0007348305662162602,-0.0016500760102644563,-0.001965558622032404,0.0028651212342083454,-0.002002204302698374,-0.0010895153973251581,-0.0033410179894417524,0.0005410095327533782,0.00019418037845753133,-0.002676001749932766,-0.0010030065895989537,-0.0009292929316870868,-0.0007446956005878747,0.0006554663996212184,-0.0003263132239226252,0.002310148673132062,1.1195746083103586e-05,0.0008248468511737883,-0.0015148167731240392,-0.001713242381811142,-0.0007680157432332635,6.187767576193437e-05,0.000301549443975091,-0.0033742098603397608,0.0017912761541083455,0.0005445342976599932,0.002526727505028248,0.0013939933851361275,0.00018533582624513656,0.0013586044078692794,-0.000276083592325449,0.0010347653878852725,0.0015387332532554865,-0.0010132180759683251,-0.0006955087301321328,-0.003229712136089802,-0.0033671222627162933,0.0024790766183286905,0.0016388457734137774,0.002289565047249198,-0.0008965788874775171,-0.002508849836885929,0.0009536809520795941,0.003012976376339793,0.0024264450185000896,-0.0029951303731650114,0.00158941769041121,-0.003160895314067602,-0.0024126104544848204,0.0028575207106769085,-0.0007347370265051723,0.0021913391537964344,-0.001691567711532116,-0.0016990785952657461,-0.003817632794380188,-0.0012574041029438376,0.0006174379959702492,-0.0012291669845581055,0.0012518473668023944,0.003330649109557271,9.809259790927172e-05,-0.002878038212656975,-0.0014119362458586693,0.0002698709722608328,0.0005164884496480227,0.0016585418488830328,-0.0029688666108995676,-0.0018851851345971227,-0.00041059739305637777,0.0020215322729200125,-0.0036907936446368694,0.0037779626436531544,0.0002603257307782769,-0.002244378440082073,-0.0024601356126368046,0.0018216011812910438,0.000916896213311702,-0.0033023864962160587,-7.480731437681243e-05,0.0016498756594955921,0.0020188414491713047,0.0015594330616295338,0.00039520254358649254,-0.0008817983325570822,0.0012934886617586017,0.0015487902564927936,-0.0024024455342441797,-0.0025300481356680393,0.0037877580616623163,0.0013493531150743365,-0.000354378396878019,0.0031631970778107643,0.0002655229764059186,0.0014658367726951838,0.0009596715681254864,0.0031640822999179363,0.0008068013121373951,0.0008034440688788891,0.003395604668185115,-0.0017290267860516906,-0.003278665943071246,0.002620687009766698,0.003444608999416232,0.0037011713720858097,0.0010296503314748406
0.001414341852068901,-0.002199980430305004,0.0013845895882695913,-0.0006390355993062258,-0.003709630109369755,-0.00081448262790218,0.0031559180933982134,0.0035347414668649435,0.0026803987566381693,-0.0018635480664670467,-0.003629131941124797,0.002806456759572029,0.0031646904535591602,-0.0028713936917483807,0.0031013586558401585,0.00023617087572347373,0.003384650219231844,0.0009232617449015379,-0.0035400132182985544,0.003930162638425827,0.001205500215291977,-0.0031108995899558067,-0.0024491006042808294,0.002101683523505926,0.0024464866146445274,0.0006607378018088639,-0.000769131351262331,0.002567400224506855,-0.0016413589473813772,-0.0008185332990251482,-0.0016985408728942275,-0.002698901342228055,-0.002391038229689002,-0.0016933353617787361,0.0018902727169916034,-0.001258087228052318,0.0032928003929555416,-0.0014734980650246143,0.0036251808051019907,-0.0020778418984264135,0.0010908797848969698,0.0033980587031692266,-0.0016884191427379847,-0.00042473486973904073,-0.002439614152535796,-0.0013825575588271022,-0.0033899988047778606,-0.003064738353714347,8.515527588315308e-05,0.0002915846125688404,-0.002890342613682151,-0.0004786127246916294,-0.003406198462471366,-6.222689989954233e-05,-0.0031775604002177715,0.0033128189388662577,-0.001406484516337514,0.0003104732313659042,-0.002315238816663623,-0.0013009387766942382,0.0030570810195058584,0.003337761154398322,-0.0011639384320005774,-0.0014829823048785329,0.0029165116138756275,-0.0009258722420781851,-0.0036303293891251087,-0.0027053968515247107,-0.0015018550911918283,0.0008711287518963218,-0.0017572063952684402,0.0028452472761273384,0.0008633811376057565,0.0007790044182911515,0.002640088554471731,-0.000810363853815943,-0.0009894258109852672,-0.0014298807363957167,0.0027143184561282396,0.0017140094423666596,0.001215853146277368,-0.00304723484441638,-0.002380605321377516,0.0010910573182627559,0.003284263191744685,-0.0019386124331504107,-0.0008808175334706903,0.001553315669298172,0.0034253792837262154,0.0006254010368138552,0.0006914078257977962,0.003412005491554737,-0.0037480448372662067,-0.0033312260638922453,0.003883646335452795,2.0043558834004216e-05,0.0026282300241291523,-0.003713382175192237,0.003075808985158801,0.002030524192377925,0.002792593790218234,-0.0023426662664860487,0.001833595335483551,0.0033462352585047483,0.0039007675368338823,0.0010028117103502154,-0.0025282150600105524,0.002132665365934372,-0.0005901865079067647,-0.002958458149805665,-0.0033728282433003187,-0.002537128049880266,5.3078394557815045e-05,-0.002130450215190649,-0.0019993851892650127,-0.0014691930264234543,0.003346703015267849,0.002595429541543126,-0.0009693697211332619,-0.001279050367884338,-0.0029945436399430037,0.002449096878990531,0.0029601682908833027,0.0018453766824677587,0.0024492887314409018,-0.00028596603078767657,-0.0016340315341949463,-0.0029167106840759516
0.002505943411961198,-0.0014559640549123287,0.0014973570359870791,0.00012722551764454693,-0.0017089154571294785,0.0011895064963027835,0.00037000709562562406,0.0026911308523267508,0.002025895519182086,-0.003338590729981661,-0.001639547641389072,-0.0018526418134570122,0.002997185569256544,-0.0035527502186596394,0.0030562891624867916,-0.0029091513715684414,0.0017475653439760208,-0.003584739286452532,0.0014104840811342,-0.0005225869244895875,0.001129366341046989,-0.003133747959509492,0.0014689419185742736,-0.0017069715540856123,0.003418647451326251,0.0010011583799496293,0.001632321858778596,0.0007044984376989305,0.0028083990328013897,0.002280729589983821,-0.00018430301861371845,0.003495754674077034,0.0027836961671710014,0.0004946808330714703,-0.002968218643218279,-0.001930354512296617,-0.0005830090376548469,-0.0037684624549001455,0.0021158361341804266,0.003548316191881895,8.932546188589185e-05,0.00037946534575894475,-0.00012938155850861222,0.0022430727258324623,0.0001050844366545789,0.0011951338965445757,-0.0020175764802843332,0.00327544123865664,0.0008692500414326787,6.097988080000505e-05,0.004180870484560728,0.002048941794782877,0.0005303547368384898,0.0013389532687142491,0.000464119017124176,0.0007459065527655184,-0.00033671536948531866,-0.0011756825260818005,-0.0006316130748018622,-0.0009024788159877062,-0.002929090289399028,-0.0012446389300748706,0.0026698738802224398,-0.0029152703937143087,0.0031151704024523497,0.00014012728934176266,-0.0027295539621263742,0.0018546271603554487,-0.00387656781822443,-4.233292565913871e-05,0.0017955007497221231,-0.0011393041349947453,-0.0021918457932770252,-0.0019703356083482504,0.0016645744908601046,-0.002323500346392393,-0.0031910722609609365,0.0011068998137488961,0.0029691944364458323,-6.978019519010559e-05,0.0017061061225831509,0.0038071880117058754,-0.0009568090899847448,-0.0013494304148480296,0.003632041160017252,-0.0012852475047111511,-0.001018958748318255,-0.001674736151471734,0.0022850895766168833,-0.002034208970144391,0.001209403038956225,0.0026594626251608133,-0.0025029496755450964,1.6658243112033233e-05,0.00031803984893485904,0.00020569660409819335,-0.00037033771513961256,0.0033018726389855146,0.003475294914096594,0.001602993463166058,-0.00042548924102447927,-0.003275469643995166,0.0018173186108469963,0.002259582979604602,0.0007530151633545756,0.0029680710285902023,0.0001280724973184988,0.0007187796290963888,-0.002325402805581689,0.003932276275008917,0.0010889474069699645,0.0011374281020835042,-0.001834552502259612,0.0008612592937424779,0.001835862174630165,-0.0037498038727790117,-0.004191654268652201,-0.0001969115255633369,-0.0037363318260759115,0.0038008668925613165,-0.002866201102733612,0.0005748050753027201,0.002252003410831094,-0.003716910257935524,-5.647142097586766e-05,0.00041329514351673424,0.002653380623087287,-0.000564650516025722
-0.0010570372687652707,0.0005965839955024421,-0.0024106106720864773,-0.0008136449032463133,0.003658242989331484,0.0004436283779796213,0.0030351870227605104,-0.0008095044177025557,-0.003617645939812064,-0.00032605076557956636,0.0009741241810843349,-0.0008555837557651103,-0.00023682684695813805,-0.0037680522073060274,-0.002949562855064869,-6.825099990237504e-05,0.0012818931136280298,0.0021268585696816444,0.002037891885265708,-0.0009020380675792694,-0.0035225956235080957,0.0031425245106220245,-0.0008608305943198502,0.0030917315743863583,-0.0020404099486768246,0.0012807018356397748,-0.0013517572078853846,-0.00035368272801861167,-0.0021556003484874964,0.0001453264703741297,-0.002212901832535863,0.000753569882363081,0.0001470655988669023,0.0033198618330061436,-0.0028363587334752083,-0.0012409188784658909,0.0012957516591995955,0.0022484674118459225,-0.0015994688728824258,0.0006051376112736762,-0.0031039214227348566,-0.0030858414247632027,-0.003378944005817175,-0.003374400082975626,-0.002342537511140108,0.0016320613212883472,-0.0016582210082560778,0.0037539638578891754,-0.0025283328723162413,0.0021226343233138323,0.0025080398190766573,-0.0014630845980718732,0.002671613125130534,0.003251476213335991,0.002919146092608571,-0.0020830826833844185,0.0033564986661076546,0.0010723477462306619,0.0028061876073479652,0.002860827138647437,0.0024327111896127462,0.0020679214503616095,-0.0030834467615932226,0.001706702751107514,0.0012981315376237035,-0.0023225238546729088,-0.0016956801991909742,0.001613627653568983,-0.0036653082352131605,0.002587264170870185,-0.0017799977213144302,0.00044082789099775255,0.00046213288442231715,0.0016281467396765947,0.0014792414149269462,-0.003305428195744753,-0.002865827176719904,0.003413240658119321,-0.0018579399911686778,0.003229793393984437,-0.0036379180382937193,0.0037811454385519028,-0.0038716450799256563,0.003793357638642192,0.0013579828664660454,0.0009549185633659363,-0.0026299094315618277,0.001577938674017787,-0.002580735832452774,-0.0030663451179862022,-0.002369591733440757,-0.0037751120980829,6.18551712250337e-05,-0.0013900221092626452,-0.0035659288987517357,-0.0004029492265544832,0.001975958701223135,0.0024710276629775763,-0.0028939086478203535,-0.003236589953303337,-0.0018782207043841481,1.5777502994751558e-05,0.0019867802038788795,0.0039000732358545065,-0.0003211730800103396,0.0013123040553182364,0.001375779276713729,0.003402333939447999,-0.002362774219363928,0.0007690897327847779,0.0032838790211826563,0.003082266077399254,-2.888233939302154e-05,-0.001145746442489326,0.0017003596294671297,-0.0009949246887117624,-0.0036403026897460222,-0.0031039013992995024,0.0005971365026198328,0.0021857265383005142,-8.100218110485002e-05,0.0019096231553703547,0.0038889129646122456,0.0038716630078852177,-0.00208869157359004,-0.0017654122784733772,-0.003695779712870717,-0.0006274753832258284
-0.0036126291379332542,0.0011483965208753943,0.0012513463152572513,9.994377251132391e-06,-0.0003148917749058455,0.0001108303404180333,0.002010750351473689,-0.0015690505970269442,-0.0032322918996214867,0.0003522240440361202,3.848008418572135e-05,-0.0010396911529824138,0.00033830152824521065,0.0031466300133615732,-0.001069280900992453,-0.002511753933504224,-0.0034959802869707346,-0.0002179888979298994,-0.0015214447630569339,0.0024080080911517143,0.003724748734384775,-0.0020957288797944784,0.00339205632917583,-0.000540300679858774,-0.0033387888688594103,8.46067487145774e-05,0.001212962786667049,8.270199759863317e-05,-0.00218942086212337,-0.002863188274204731,0.0017843694658949971,0.0021917454432696104,-0.002140238182619214,0.0025525661185383797,-0.0037618863862007856,0.0025065625086426735,-0.0003007706254720688,0.002473633037880063,-0.0035489981528371572,0.0020860335789620876,0.0026026004925370216,-0.0017387834377586842,-0.0036319089122116566,0.0014430989976972342,0.0014409464783966541,-0.0004881687636952847,-0.0038386783562600613,0.0011964286677539349,-0.0011911503970623016,0.0015251270961016417,-9.882142330752686e-05,0.0023894531186670065,-0.0026300877798348665,0.0017815516330301762,-0.0014354970771819353,-0.000619135913439095,-0.0001668649638304487,0.0027503182645887136,-0.0029469700530171394,-0.0004970844020135701,0.002956824377179146,-0.0010370684321969748,0.003624629694968462,-0.001388469710946083,-0.0026949092280119658,-0.0037606488913297653,-0.0003107952361460775,-0.0015967088984325528,3.8765741919633e-05,0.0034792120568454266,0.0019131643930450082,-0.0026369879487901926,-0.0008256523869931698,0.003442505607381463,-0.002162757096812129,0.0017268669325858355,-0.0015086008934304118,0.0031580617651343346,-0.0004268534539733082,-0.0017351919086650014,0.003757663071155548,-0.003816077718511224,-0.001018334412947297,-0.0028411755338311195,-0.002560611115768552,0.00027690338902175426,0.0014455219497904181,0.0004861853376496583,-2.8699569156742655e-05,-0.0010584500851109624,0.002305050613358617,0.0005361733492463827,-0.0038639064878225327,0.0016637983499094844,-0.0021531160455197096,0.0016258906107395887,-0.0004729642241727561,-0.003659753128886223,0.0033679683692753315,0.00016459233302157372,0.001664562034420669,0.002344624139368534,0.0004520420916378498,-0.001967447344213724,-0.003189654555171728,0.00012854936358053237,0.002382272621616721,-0.0022219938691705465,-0.002720645861700177,-0.0023778730537742376,0.0018246492836624384,0.0015808978350833058,0.0031372294761240482,-0.0010168711887672544,0.0006520333117805421,-0.0032158009707927704,-0.0011636930285021663,-7.827387162251398e-05,0.003257566364482045,0.0008515688241459429,-0.0017371454741805792,0.002415744122117758,0.003636961570009589,0.0006599118933081627,0.003015571739524603,0.0027694622986018658,-0.0012413692893460393,-0.002099471166729927
