0,1,2,3,4,5,6,7,8,9,10,11,12,13,14,15,16,17,18,19,20,21,22,23,24,25,26,27,28,29,30,31,32,33,34,35,36,37,38,39,40,41,42,43,44,45,46,47,48,49,50,51,52,53,54,55,56,57,58,59,60,61,62,63,64,65,66,67,68,69,70,71,72,73,74,75,76,77,78,79,80,81,82,83,84,85,86,87,88,89,90,91,92,93,94,95,96,97,98,99,100,101,102,103,104,105,106,107,108,109,110,111,112,113,114,115,116,117,118,119,120,121,122,123,124,125,126,127
-0.15573940550241705,-0.47060614530936484,0.05345722060251701,-0.5985393957402645,-0.5151119465869809,0.43309353419527574,0.3289157796719422,0.992744554557712,-0.6693510531070972,-0.506578279798221,-0.9878684725868063,-0.6185077567409081,-0.3821906832785651,-0.021195841888891787,-0.5913921999485114,0.33868792062299446,0.30574859178843594,0.5076946011861025,-0.3908215480617545,-0.6841317980152346,-0.9667245631849499,0.6797340088810231,-0.9168187765345801,-0.5046992995049857,-0.7819472680028929,0.6885577794872066,0.7546381375825204,-0.46689989320225855,-0.18211659638519961,-0.1453371562449015,0.5592946824117182,0.5349537779623883,-0.2614692135419523,-0.5718613127712795,-0.8709588331883928,-0.9804331784307865,0.7937476642370633,-0.2655825081705794,-0.062170963120867784,-0.9644443214692973,-0.39227874032599797,-0.055055135761455265,-0.09700473457411074,0.006452774492478275,0.5894058522609886,0.08148673794964334,0.8133141118017384,-0.4860983585843195,-0.8015603465528289,0.07072585360479255,-0.728397435184823,0.4227014616625753,-0.5698977822320896,0.5935740570535926,0.2653945643173641,-0.8679052112469958,-0.33842202690418155,-0.2956295498594832,0.2561642144721852,0.048059022638582194,0.9508160877139671,-0.5009662210636348,0.7845671742553428,-0.9019044404149024,0.7904572102691156,-0.9338350555202004,-0.513459333608351,-0.7592712197969675,0.3663575661437508,-0.10115035355368573,-0.949558029893147,-0.7625708940995959,0.2570352101904929,0.9100748132887111,-0.23842653087817678,0.7009404028037323,0.04423586490261955,0.6275920594632904,0.6761747428469917,0.03608659586675711,-0.03338019175363138,-0.6881915999135269,-0.18834373249569492,-0.36771523191516753,-0.7199818970395984,-0.44240704725398605,-0.9707458434256102,-0.3752789674070707,0.7233892570370939,-0.38329660677919275,-0.0763161472875622,-0.0845697739757778,0.4860343630633792,-0.8851784587858913,0.8023923879626318,0.7900908344645896,-0.5107930798142346,0.16739558284671152,0.21762065638184103,0.17086790264616236,0.3710536806663367,0.3638074622739065,0.6789442343401741,0.4792359302018183,-0.0096222289368193,0.6033474978734854,0.35070026989785674,-0.8069252209997864,-0.901292459848706,-0.159293124111636,0.5511334713445486,-0.11891848252927484,-0.19029138205171625,0.9713915436228482,-0.13880810369829422,-0.18278828086086496,-0.6495540365185208,0.26767227351293044,-0.5549382345870628,0.42059320002384726,0.5644741862169069,0.08710068369639457,0.530582402471018,-0.5031013390287953,-0.9741158229361047,-0.3671799004135494,-0.7331171012320228,0.3033044466729724
-0.0037702356930822134,-0.0039002681151032448,0.004984823055565357,-0.005291459616273642,-0.0034024168271571398,-0.00023579332628287375,-0.00234872754663229,-0.0002838751534000039,-0.0028084642253816128,-0.0041083600372076035,-0.0035211092326790094,-0.004304068628698587,-0.0035186316817998886,0.0013243877328932285,-0.001651183469220996,0.006789084989577532,0.008168202824890614,0.00400896230712533,0.002601837506517768,-0.0016755101969465613,-0.004280686378479004,-0.005477164406329393,0.00030769474687986076,-0.0019250320037826896,0.0012273651082068682,-0.00019674634677357972,0.007256689015775919,0.006940958555787802,-0.0014348491095006466,-0.003030778607353568,-0.007691975217312574,0.005549242254346609,0.001571286702528596,-0.006355583667755127,0.0043855877593159676,-0.006453265901654959,-0.006858982611447573,-0.001267415820620954,0.00017373081936966628,-0.003058664733543992,0.006695640739053488,-0.00137921585701406,0.002215472050011158,-0.004557119216769934,-0.00407408969476819,-0.0028822727035731077,-0.005638133734464645,-0.005791052710264921,-0.0038210758939385414,0.0018443913431838155,-0.0024633000139147043,-0.0002861809334717691,-0.0015560609754174948,0.006062031723558903,-0.0030496034305542707,-0.00020349222177173942,-0.006747863255441189,0.0059388079680502415,0.0021154156420379877,0.0012814224464818835,0.0009558870224282146,0.003951346501708031,0.0038360250182449818,-0.0026355343870818615,-0.00014232733519747853,-0.00039725148235447705,0.0016839122399687767,5.622945900540799e-05,0.0028240985702723265,-0.001897794776596129,-0.00399004528298974,-0.00036343795363791287,0.0004226412856951356,-0.004118632059544325,-0.0041901529766619205,0.002793173538520932,-0.0010522354859858751,-0.0021408451721072197,0.0007654436631128192,-0.005681216716766357,0.0018477883422747254,-0.004125298000872135,-0.0012419410049915314,-0.00015644548693671823,-0.002225882140919566,-0.004165932070463896,0.0011470838217064738,-0.004043568857014179,-0.007645387668162584,-0.0006170744891278446,0.004122231155633926,-2.3180124117061496e-05,0.00299754086881876,-0.002298356033861637,-0.0005168455536477268,0.0019540744833648205,0.004762986674904823,0.00043236775672994554,-1.603402415639721e-05,-0.006428329274058342,-0.0009375871159136295,0.000828595133498311,-0.002789716934785247,0.0010144318221136928,-0.0006553946295753121,-0.0006523680058307946,0.005633770953863859,0.0025380817241966724,-0.002006287919357419,-0.00275228638201952,-0.0038271588273346424,0.002069086767733097,-0.0007444494403898716,-0.002157410606741905,0.0034884302876889706,0.0020625207107514143,-0.0048980494029819965,0.0009943557670339942,-0.0030898803379386663,0.0005800686194561422,0.0009356093360111117,0.002481374889612198,0.003915010020136833,-0.0004395563737489283,-0.004050747491419315,0.006101617589592934,0.0015449047787114978,-0.002317690057680011
-0.016699204221367836,-0.0001786497450666502,0.03920867666602135,-0.014264491386711597,-0.02611316740512848,-0.022808073088526726,-0.0070851328782737255,0.0017186406766995788,-0.020947501063346863,-0.06604954600334167,-0.019147265702486038,-0.014494836330413818,0.0038019120693206787,-0.009105788543820381,-0.02474057860672474,0.03756109997630119,0.05401858687400818,0.012803059071302414,0.004151628818362951,-0.027491679415106773,-0.010786849074065685,-0.059154074639081955,-0.014179838821291924,0.012629572302103043,0.016568414866924286,-0.011741847731173038,0.05611402168869972,0.05363377183675766,0.015095168724656105,-0.019616618752479553,-0.057184550911188126,0.022994346916675568,0.020700061693787575,-0.023283308371901512,0.02062508650124073,-0.022893276065587997,-0.037502605468034744,0.007695052307099104,0.00555469049140811,0.003033396787941456,0.038667626678943634,-0.012759431265294552,0.0033598989248275757,-0.00877279881387949,-0.00403877766802907,-0.03137357532978058,-0.03320975601673126,-0.0157566349953413,-0.029008446261286736,0.007011326961219311,-0.011870091781020164,-0.010201566852629185,-0.019020946696400642,0.030570141971111298,0.0012082977918908,0.023586908355355263,-0.034331079572439194,0.037133801728487015,0.00873397197574377,0.027930451557040215,0.010026121512055397,0.02010568417608738,0.020102083683013916,0.0046264114789664745,0.018512502312660217,-0.02069486491382122,0.03723539039492607,-0.019148312509059906,-0.0028842806350439787,-0.011559005826711655,-0.024549001827836037,0.014061369001865387,0.023426970466971397,-0.030970219522714615,-0.026442360132932663,0.030212368816137314,-0.019189948216080666,0.0009021584410220385,0.039273012429475784,-0.027127206325531006,0.017239630222320557,-0.014929241500794888,0.019838647916913033,0.01831001043319702,-0.03736976906657219,-0.023810893297195435,0.025349361822009087,-0.03356045112013817,-0.030528027564287186,-0.010108854621648788,0.023977667093276978,-0.004581197630614042,0.0026349369436502457,-0.0037354754749685526,-0.008863948285579681,0.013736790977418423,0.02159908227622509,-0.01501268520951271,0.019884144887328148,-0.051498107612133026,-0.044233519583940506,-0.007963346317410469,-0.003830163273960352,-0.008696400560438633,0.008443279191851616,0.027841933071613312,0.029036296531558037,-0.012174505740404129,-0.017803359776735306,-0.03409920632839203,-0.009349717758595943,-0.0032591018825769424,0.013498781248927116,-0.00016060179041232914,0.038379501551389694,0.02556069940328598,-0.02583429403603077,0.03771723061800003,-0.01534685492515564,0.0026992252096533775,0.023081056773662567,-0.0010043244110420346,0.03204909339547157,-0.01070503331720829,-0.034377895295619965,0.055298008024692535,0.02924336865544319,0.004197224508970976
-0.0019502878421917558,-0.0017798376502469182,0.003895038738846779,-0.003844462102279067,0.000551509321667254,-0.002781778806820512,-0.004364946391433477,-0.0023535045329481363,0.0008915939833968878,-0.005803931504487991,-0.0018445481546223164,0.0009742419351823628,-0.0021651790011674166,0.002892717020586133,-9.105142817134038e-05,-0.0005588283529505134,-0.000345780688803643,0.0016332771629095078,0.0011011535534635186,-0.0048943180590868,-0.003914282191544771,-0.00034228281583637,-0.0025753825902938843,0.0008794477907940745,0.0012347636511549354,0.002288602292537689,0.0016379322623834014,0.0017567622708156705,0.0016640708781778812,-0.0017922889674082398,-0.005723472218960524,0.001346663455478847,0.0036733350716531277,-0.004090769216418266,-0.0004097474447917193,-0.005077226087450981,0.0002551160578150302,-0.0018753258045762777,0.002827866468578577,0.002649260452017188,0.005560573656111956,0.0019970654975622892,-0.001778025645762682,-0.002857675775885582,-0.0018025321187451482,-0.0054690237157046795,-0.004764402750879526,8.8825989223551e-05,-0.001025948440656066,-0.003407800570130348,0.0008346209651790559,-0.00348241301253438,0.0002779418136924505,0.0035476640332490206,0.0029220511205494404,-0.00216082064434886,-0.0037334521766752005,0.0003588385588955134,0.00046034157276153564,0.0034319234546273947,-0.0028448014054447412,0.0021038022823631763,0.0023292386904358864,-0.00028926387312822044,-0.0011287780944257975,-0.0022159384097903967,0.000901262741535902,-0.002242413116618991,0.0012735406635329127,-0.0002639982558321208,-0.0031861704774200916,-0.00021025697060395032,-0.0010707303881645203,0.0017258493462577462,-0.0016451446572318673,0.004892703611403704,-0.0012402900028973818,-0.0013905970845371485,0.0050400663167238235,0.0011001769453287125,0.0004914999008178711,-0.0032290101516991854,0.004150750581175089,0.002595494268462062,-0.0015670768916606903,0.0019227929878979921,0.005073182284832001,-0.0008175314869731665,0.0009991166880354285,-0.0037973392754793167,-0.0003564794023986906,-0.0025509875267744064,0.0027638187166303396,-0.0012945822672918439,-0.004094199743121862,0.003794834017753601,0.005132199730724096,-0.00029405212262645364,0.0012850118800997734,-0.0016363445902243257,0.0012090025702491403,0.000868609466124326,-0.00314117013476789,0.0003593388246372342,0.0034630128648132086,0.0003519624297041446,-0.0018436146201565862,-0.002369907218962908,-0.0007565044215880334,-0.004066749941557646,0.0024262762162834406,-0.0005697705782949924,0.003104378469288349,-0.0036824424751102924,-0.0005195324192754924,0.0008629661751911044,-0.0017050011083483696,0.002203345065936446,-0.0030172618571668863,0.0038593839854002,0.004417172633111477,0.0009849541820585728,6.83222824591212e-05,0.0003663984243758023,-0.005823146551847458,0.002238714601844549,0.0049943518824875355,-0.0021614907309412956
-0.0057962872087955475,0.0009018934797495604,0.009562053717672825,-0.006966115906834602,-0.010883046314120293,-0.003333322238177061,-0.0029621876310557127,-0.0021747678983956575,-0.008289487101137638,-0.02325308881700039,-0.007415902800858021,-0.0036471588537096977,-0.0018627835670486093,-0.004137677140533924,-0.008715346455574036,0.011975813657045364,0.020318390801548958,0.005288347136229277,0.00207579811103642,-0.006402515806257725,-0.001062949770130217,-0.020447591319680214,-0.002089144429191947,0.005842635873705149,0.006506928708404303,-0.001986269373446703,0.020114591345191002,0.01460904348641634,0.0022080072667449713,-0.008621926419436932,-0.01918528415262699,0.006045057438313961,0.009604203514754772,-0.004302380606532097,0.009156933054327965,-0.007042969577014446,-0.008910530246794224,0.002423051977530122,0.0022144715767353773,0.005497949197888374,0.01605459488928318,-0.0019205983262509108,0.003548095002770424,-0.003572928486391902,-0.0003739458916243166,-0.01284068450331688,-0.010155594907701015,-0.0045962645672261715,-0.006838112138211727,0.0047822329215705395,-0.0028071629349142313,-0.002761579817160964,-0.007094426546245813,0.009455022402107716,-0.0018762442050501704,0.005876625422388315,-0.012789186090230942,0.01372346468269825,0.0023307676892727613,0.009088689461350441,-0.0010122053790837526,0.003775430377572775,0.005696900654584169,0.00353741436265409,0.006646877154707909,-0.009338181465864182,0.00991788599640131,-0.006682732608169317,-0.0036285489331930876,-0.005415712017565966,-0.009585300460457802,0.004065784625709057,0.006360751111060381,-0.011336730793118477,-0.008408225141465664,0.010174079798161983,-0.00936480239033699,-0.0024220070336014032,0.011875711381435394,-0.005958613473922014,0.005713474936783314,-0.0038845506496727467,0.006835669279098511,0.003618226619437337,-0.012748760171234608,-0.01197455357760191,0.010541016235947609,-0.011771808378398418,-0.015258987434208393,-0.006747721694409847,0.010031871497631073,0.0015698736533522606,0.0001767222274793312,0.0017858408391475677,-0.004439511336386204,0.007938684895634651,0.009503050707280636,-0.006233879830688238,0.005484496708959341,-0.018982375040650368,-0.013423630967736244,-0.005191964562982321,-0.004055320750921965,-0.001275053946301341,0.003795573255047202,0.007272767834365368,0.00808167364448309,8.153793169185519e-05,-0.008443058468401432,-0.008888117037713528,-0.004115897696465254,0.003966596443206072,0.004224137868732214,0.0009984930511564016,0.015176315791904926,0.005792195908725262,-0.004612389486283064,0.014519034884870052,-0.007611706852912903,0.0028866298962384462,0.007847912609577179,-0.0026229717768728733,0.013595478609204292,-5.322435754351318e-05,-0.014154797419905663,0.019576894119381905,0.009803648106753826,0.0022854346316307783
0.0021507369820028543,-0.002090544905513525,0.004346830304712057,-0.002520146081224084,-0.0007073290762491524,-0.002698499709367752,-0.001605536206625402,0.0028424484189599752,0.0009077055146917701,-0.007216024212539196,-0.00027952066739089787,-0.004497757647186518,-0.0011846430134028196,-0.0021697296760976315,0.0021937440615147352,0.002442130818963051,0.005086155142635107,0.0009393596556037664,0.00010062399815069512,-0.004290832672268152,0.002951554488390684,-0.0045032799243927,-0.002075854456052184,0.00040682131657376885,-0.00023174234956968576,-0.0003755138022825122,0.0020498791709542274,0.005994223523885012,0.001914412365294993,0.001450726413168013,-4.5442884584190324e-05,0.0012907055206596851,0.002451197011396289,-0.0012610208941623569,-0.001864525955170393,-0.00338369351811707,-0.005574895069003105,-0.0028218028601258993,-0.00277081155218184,0.003893572138622403,0.0013331094523891807,-0.0030977020505815744,-0.00045345723628997803,-0.004186509642750025,0.0007156769861467183,0.0008786481339484453,-0.001309529528953135,-0.00480301771312952,0.0020950620528310537,0.0027915986720472574,-0.0036170727107673883,-0.004557759966701269,-0.000721405609510839,-0.0013081105425953865,0.0029321499168872833,0.0021496345289051533,0.001755043282173574,0.005372626706957817,0.003885511541739106,0.003614300163462758,0.0019969320856034756,-0.0005001610261388123,0.0010611946927383542,0.00015573693963233382,9.128820238402113e-05,-6.02170912316069e-05,0.001844882033765316,0.002225596457719803,0.003565589664503932,0.0010009288089349866,0.0004717847623396665,0.001696176826953888,-0.0008481171680614352,-0.0004661730781663209,-0.0052452958188951015,0.0016477395547553897,0.001861571567133069,0.0026455982588231564,-0.001471036346629262,-0.001327742706052959,0.0007397635490633547,0.0005509258480742574,0.0008889251621440053,0.0028444621711969376,-0.004918816965073347,-0.004683632403612137,0.0028024723287671804,-0.003571226028725505,-0.0055338297970592976,0.0010295971296727657,0.0030775554478168488,-0.0019881275948137045,-0.0004288895579520613,-0.002463140757754445,-0.0016637645894661546,-0.0020959910470992327,0.0033127632923424244,-0.0016374989645555615,0.0029200478456914425,-0.0019187909783795476,-0.0028129220008850098,-0.0037131309509277344,0.0033594861160963774,-0.003220562357455492,-0.003112918697297573,0.002480903174728155,0.004861867055296898,-0.0020521003752946854,0.0021190980914980173,-0.005337099079042673,0.0005003364640288055,0.0018537192372605205,0.0021691250149160624,-0.002588306786492467,0.0038254917599260807,0.0022529277484863997,4.032387369079515e-05,0.0019714462105184793,-0.004516866058111191,0.003805610816925764,0.004683807026594877,-0.0029544781427830458,0.003798018442466855,-0.0038040350191295147,-0.0012148544192314148,0.006539065390825272,-0.001281343400478363,-0.00223992089740932
-0.004580643959343433,-0.0002691938425414264,0.005360238719731569,-0.0018829598557204008,-0.002653182949870825,-0.00511547364294529,0.0005569317145273089,0.004044955596327782,0.0001286875194637105,-0.010764651000499725,-0.00273400591686368,-0.005910451523959637,-0.002985346829518676,-0.000474326079711318,-0.005652306135743856,0.003600257681682706,0.00711924908682704,-0.0016872896812856197,0.003353069070726633,-0.004304553847759962,-0.002903621643781662,-0.009164589457213879,-0.00399506650865078,0.002391533460468054,0.006343805696815252,0.0004072782467119396,0.0055855815298855305,0.005308185238391161,0.005298242904245853,-0.004490244202315807,-0.012216434814035892,0.00598908681422472,0.006031488999724388,-0.005811984650790691,-0.0005089882761240005,-0.006339892745018005,-0.0076192449778318405,-0.00021607393864542246,-0.001057776971720159,-0.001179844606667757,0.009704850614070892,-0.00420178659260273,-0.0005658583249896765,0.0007600813987664878,0.0023942801635712385,-0.001544652390293777,-0.005366731435060501,-0.005438364110887051,-0.0012681169901043177,0.00010812709660967812,-0.00450561149045825,0.0012154757278040051,-0.001449909177608788,0.003937568981200457,0.0037226914428174496,0.0004929241258651018,-0.00519798556342721,0.001962952548637986,0.0008971804054453969,0.003755496582016349,-0.0003229400608688593,0.0010229781037196517,0.003190761897712946,0.0005844784318469465,0.0002831663005053997,-0.0022425365168601274,0.007880454882979393,-0.0036736319307237864,0.0018007890321314335,0.0011826951522380114,-0.0026225668843835592,0.0006401414866559207,0.0068269819021224976,-0.007015413139015436,-0.006799386348575354,0.005623684264719486,-0.00513380765914917,-0.0018742767861112952,0.005841169506311417,-0.0029245817568153143,-0.0005665785283781588,-0.004819764290004969,0.0025451690889894962,0.003173134522512555,-0.00895741768181324,-0.0026496772188693285,0.0018109851516783237,-0.005051810294389725,-0.004359215032309294,0.0013432122068479657,0.002655035350471735,-0.0026706987991929054,0.0015205162344500422,0.003198763821274042,-0.004016625229269266,0.0020439967047423124,0.0045586214400827885,-0.0021653464064002037,0.0028351738583296537,-0.004541143774986267,-0.0051100729033350945,0.0009501355234533548,0.0005232858238741755,-0.0038662906736135483,0.003691411344334483,0.0064035081304609776,0.008238846436142921,9.021220466820523e-05,-0.005312316585332155,-0.0013444292126223445,-0.00012160866754129529,-0.0017915702192112803,0.004020615480840206,7.356313290074468e-05,0.0028494640719145536,0.003969806712120771,-0.0004472278233151883,0.002749768318608403,-0.0016428829403594136,-0.0009111397666856647,0.0045483107678592205,-0.00043801337596960366,0.008378510363399982,0.000795027066487819,-0.0014813343295827508,0.010713959112763405,0.007119377609342337,-0.002263058442622423
0.0016945957904681563,-0.002566790906712413,-0.0005245403153821826,-0.0037323851138353348,0.0029155982192605734,-0.003657886991277337,-0.0037963606882840395,-0.0034975926391780376,0.0020482114050537348,0.0012554014101624489,-0.001378444256260991,0.0008124305168166757,0.0022492087446153164,-0.0019231194164603949,0.0020901751704514027,-0.0015064405743032694,0.004797346889972687,0.003910479135811329,-0.0034065621439367533,2.3853763195802458e-06,0.0030034955125302076,0.0005534691736102104,0.0027909926138818264,0.0038134041242301464,-0.00291771674528718,-0.0006737131043337286,0.0006632853182964027,3.125035436823964e-05,-0.0007376280263997614,0.0016567320562899113,0.0009585971129126847,0.004258688539266586,-0.0010090006981045008,-0.0024254329036921263,-0.003253196831792593,0.001158257364295423,0.002453650115057826,0.00345633365213871,-0.0034803440794348717,0.00098507571965456,0.000198342400835827,-0.0010196174262091517,0.0036274492740631104,-0.0025091052521020174,0.003588154213503003,-0.004684360697865486,-0.0035863188095390797,-0.0012036075349897146,-0.004373466596007347,-0.0007234288495965302,-0.000145550278830342,0.0024386956356465816,-0.00047376786824315786,0.0009638081537559628,-0.0019459602190181613,0.0032669473439455032,-0.0025821614544838667,-0.002151517430320382,0.0009550183895044029,0.0006131535628810525,0.0033986372873187065,0.0014835356269031763,-0.0015095092821866274,0.0036302499938756227,-0.0031333868391811848,-0.0031369018834084272,-0.0017432337626814842,-0.0038322878535836935,0.003313058987259865,-0.00247526029124856,0.001984063070267439,0.0012770312605425715,2.8886657673865557e-05,-0.0025633275508880615,1.4733065654581878e-05,-0.0008990706992335618,0.001959241693839431,0.000668843393214047,-7.689491758355871e-05,-0.0031629824079573154,0.001628872356377542,0.0011240356834605336,0.003130731638520956,-0.0012213619193062186,-0.002463245065882802,-0.0002944655134342611,2.9430198992486112e-05,-0.004196552559733391,-0.00029198822448961437,0.0012038593413308263,0.0012471231166273355,0.00032224232563748956,0.0007619917159900069,0.0018155447905883193,0.003221591003239155,-0.0028990227729082108,-0.0004990532179363072,-0.0004930580034852028,-0.0033288300037384033,-0.0026371534913778305,-0.00025776622351258993,0.0011779079213738441,-0.0015849766787141562,-0.0012504170881584287,0.0010085934773087502,0.004124730359762907,-0.0005929609178565443,-0.0007292503723874688,0.0013452632119879127,-0.003978142514824867,0.002900628140196204,-0.0029397786129266024,-0.0030195293948054314,-0.0014193382812663913,-0.0018335352651774883,-0.0005743957008235157,-0.00023143706494010985,0.0029109844472259283,0.0029642912559211254,0.0026172890793532133,0.003365617711097002,0.00293095619417727,0.001432756194844842,0.003178736660629511,-0.002297136466950178,0.0013020571786910295,0.0003855812537949532,0.001782034756615758
-0.0016877433517947793,0.0021779322996735573,-0.0007847227971069515,-0.00042048393515869975,-0.002298549748957157,0.0023208577185869217,0.0024531621020287275,0.0020074904896318913,0.0013081260258331895,0.0004235406231600791,0.0034754276275634766,0.0009165169904008508,-0.0015501356683671474,-0.00322449067607522,0.0031196034979075193,0.0023327034432440996,0.0043671405874192715,-0.0006699191289953887,0.0038080988451838493,0.003081667236983776,-0.0024987792130559683,0.0021278548520058393,-0.002966390224173665,0.0027212281711399555,-0.0005198365543037653,-0.0009885517647489905,-0.0002062604617094621,0.0013744266470894217,0.0032022336963564157,0.0017636861884966493,-0.005139526445418596,0.003710422432050109,0.0036501367576420307,0.0004152421315666288,0.002352877054363489,-0.0028363715391606092,0.002904342720285058,0.0020668702200055122,-0.0010749052744358778,0.0009434293024241924,-0.0005063198041170835,0.003487924113869667,-0.0013218087842687964,-0.0003635529428720474,-0.002231929451227188,-0.002796001499518752,0.003029455663636327,0.00013734379899688065,-0.002106747357174754,-0.0022027886006981134,-0.0023155773524194956,0.0033822350669652224,-0.003608729224652052,-0.00010646098962752149,0.002453595632687211,-0.0010985743720084429,-0.0021176098380237818,0.003377862274646759,0.0005208211950957775,0.003444184083491564,0.0008533812360838056,-0.0015879785642027855,0.0008403970277868211,0.0009802443673834205,0.00046138293691910803,6.201615178724751e-05,0.0037982275243848562,-0.00420824158936739,0.0006727396976202726,-9.17583893169649e-05,0.000719395000487566,-0.0023803706280887127,0.004003237932920456,0.00014526123413816094,0.0029761812184005976,0.0024964273907244205,0.001854176982305944,-0.0022441830951720476,-0.0009447051561437547,-0.00037795101525262,-0.003252368653193116,0.0013362541794776917,0.0033932209480553865,0.000653361261356622,-0.0027583492919802666,-0.0005827674176543951,0.001940217218361795,-0.00019117389456368983,-0.0026606519240885973,0.0016310669016093016,0.0019916321616619825,-0.0013054236769676208,-0.0009249484864994884,0.0033478785771876574,0.003373370273038745,0.0006878420826978981,0.0018128968076780438,0.002011289820075035,0.0035920932423323393,0.002413911512121558,-0.004197136498987675,-0.0005163255264051259,0.0008929520845413208,-0.0037224912084639072,-0.0030666047241538763,-0.0026309883687645197,0.0026443172246217728,-0.004104957450181246,-0.0020760365296155214,-0.0006983368657529354,-0.0029375459998846054,0.0023447603452950716,0.003464912297204137,0.0015831365017220378,0.003466622205451131,-0.00011865124542964622,0.0010998784564435482,0.000336463883286342,-0.003236965974792838,0.0006506808567792177,0.002705122111365199,0.003488221438601613,0.0027822901029139757,0.0012433548690751195,-0.004197152331471443,0.0032605519518256187,-0.0021926513873040676,0.0031171448063105345
-0.0006970406393520534,-0.002227545715868473,0.010831639170646667,-0.006050440948456526,-0.011371627449989319,-0.005113313905894756,0.0011498767416924238,0.0034972992725670338,-0.003026216523721814,-0.015732547268271446,-0.005212339572608471,-0.00210580718703568,0.004012695048004389,-0.004087419714778662,-0.007265187334269285,0.008175856433808804,0.014305002056062222,0.004375169053673744,0.00014789473789278418,-0.009428741410374641,-0.0066290730610489845,-0.01730343885719776,-0.006260247901082039,0.00010742938320618123,0.0036331943701952696,-0.006509482394903898,0.01808479242026806,0.012918136082589626,0.006578659638762474,-0.008910836651921272,-0.012083681300282478,0.00891956128180027,0.004099885001778603,-0.009409348480403423,0.00715990224853158,-0.008019411005079746,-0.0072319586761295795,0.003269830020144582,0.005364157259464264,0.00441464688628912,0.00817385595291853,-0.0061902571469545364,0.0009185295784845948,-0.0002545927418395877,-0.004222997929900885,-0.011055825278162956,-0.011700275354087353,-0.004678057972341776,-0.010120514780282974,0.0026999281253665686,-0.0035036527551710606,-0.005539709702134132,-0.004179898649454117,0.009972551837563515,-0.0017590121133252978,0.005083747208118439,-0.013239416293799877,0.009042144753038883,0.0015554053243249655,0.005532542709261179,0.0017506314907222986,0.003797536948695779,0.007247511763125658,0.0011959057301282883,0.001865336555056274,-0.006990912836045027,0.006130668334662914,-0.0047912513837218285,-0.0005026136059314013,0.00120032939594239,-0.007806575857102871,0.007246838416904211,0.00513566704466939,-0.009042700752615929,-0.0040394095703959465,0.012446599081158638,-0.0072172400541603565,-0.0030564661137759686,0.0090022636577487,-0.009495547041296959,0.005573719274252653,-0.006316689774394035,0.008116360753774643,0.002889951691031456,-0.008318587206304073,-0.00995574239641428,0.00478538079187274,-0.007114096079021692,-0.009350156411528587,-0.002684264909476042,0.009620576165616512,0.0018950687954202294,0.0028834319673478603,0.0023409263230860233,-0.0019660803955048323,0.003737230086699128,0.0018972908146679401,-0.007793376222252846,0.004090392962098122,-0.014566920697689056,-0.012075641192495823,0.0011383198434486985,0.0011459790403023362,0.0009806386660784483,0.004313265439122915,0.008117745630443096,0.00910695269703865,-0.002913661068305373,-0.0073439208790659904,-0.009924267418682575,-0.004578407853841782,-0.0020598648115992546,0.004350357688963413,-0.0002708971733227372,0.011260400526225567,0.007193800527602434,-0.007314981892704964,0.008930006064474583,-0.0030904088634997606,-0.002056805184110999,0.005586202722042799,0.00016660567780490965,0.007619084324687719,-0.002206279430538416,-0.01285500917583704,0.015569223091006279,0.010574117302894592,0.0008445396088063717
-0.00047165522119030356,0.0006444515893235803,0.006811609957367182,-0.0024786496069282293,-0.0027498232666403055,-0.004427701234817505,0.0015144969802349806,-0.00017210286750923842,-0.005263248924165964,-0.005669736303389072,-0.002176464069634676,-0.0004883463261649013,-0.0006474321708083153,-0.003939422778785229,-0.0027666506357491016,0.0018425087910145521,0.008291786536574364,0.004345416557043791,-0.0024244969245046377,-0.006042530760169029,-0.0022531417198479176,-0.00991907250136137,0.001275388291105628,0.001060706446878612,0.005741124972701073,-0.00036744604585692286,0.0031023062765598297,0.007973765954375267,0.0032168549951165915,0.0011973290238529444,-0.006072753109037876,-0.0013202582485973835,0.0022701038978993893,-0.005685456562787294,3.425520844757557e-05,-0.0024716879706829786,-0.001840307842940092,-0.003264643019065261,-0.001165904221124947,0.0022253980860114098,0.00277338526211679,0.0021758622024208307,0.0034422033932060003,-0.0020442840177565813,-0.0037921180482953787,-0.005517124198377132,-0.007555711083114147,-0.005725565366446972,-0.006362450309097767,-0.003294360591098666,-0.002568681724369526,-0.004893575329333544,-0.004345164634287357,0.005375980399549007,0.0006793261272832751,0.005605723708868027,-0.0021384302526712418,0.005589951295405626,0.0043317461386322975,0.0003264059196226299,0.0006354053039103746,0.0021594578865915537,0.0021065138280391693,0.0007180219399742782,-2.7561731258174405e-05,-0.001175598008558154,0.0022805018816143274,-0.00635146489366889,0.0017617607954889536,0.0010691460920497775,-0.0051802475936710835,-0.0015881314175203443,0.005000482313334942,-0.006088905036449432,2.1529376681428403e-07,0.005760048050433397,-0.0036541775334626436,-0.000531202822457999,0.001808434259146452,-0.004622205626219511,-0.0008459108648821712,0.0011711124097928405,0.0036802610848098993,0.002355792559683323,-0.0027511920779943466,-0.002112457063049078,0.00129621010273695,-0.005854175426065922,-0.003841651137918234,-0.0008014316554181278,-0.00062465580413118,0.002427783329039812,0.0008606379851698875,0.002707372885197401,-0.00331050343811512,0.00025404937332496047,-0.001217688200995326,4.20367723563686e-05,0.0039521632716059685,-0.004624865483492613,-0.0018717454513534904,0.002386444713920355,-0.002516187261790037,-0.004052545875310898,-0.0005965003510937095,0.004927458241581917,-0.00012350759061519057,-0.0010069520212709904,-0.004488894250243902,-0.00670361565425992,-0.0011708057718351483,0.0014141448773443699,-0.0003767739690374583,0.002580881118774414,0.0011959546245634556,0.005190568510442972,-0.0022814138792455196,0.00749565614387393,-0.005079180002212524,0.0011237969156354666,-0.0013285564491525292,-0.0022631031461060047,0.001081953989341855,0.0018413298530504107,-0.0015814868966117501,0.007023143116384745,0.004796198569238186,-0.0011207357747480273
-0.0016175161581486464,-0.0019490565173327923,-0.000734206463675946,0.0004666236345656216,0.002500629983842373,0.002939124358817935,-0.001512134913355112,0.0020869614090770483,-0.001752672716975212,-0.0006943945772945881,0.0004986519925296307,0.003003224963322282,-0.0037688042502850294,-0.003688278840854764,-0.00018156309670303017,0.0013773986138403416,0.0013940561329945922,-0.001754684024490416,-0.0032157425303012133,0.0021267100237309933,0.0025997627526521683,-0.004622857552021742,0.0016415910795331001,0.003487501759082079,-0.0019119704375043511,-0.0008154110400937498,-0.0013484334340319037,0.005156187806278467,0.002522202907130122,0.001113953534513712,-0.0010743038728833199,0.0012870724312961102,0.0021834855433553457,-6.847678014310077e-05,0.0020926008000969887,0.0013756899861618876,-0.002392237074673176,0.0028185690753161907,0.0010047669056802988,0.0014368328265845776,0.0018632321152836084,-0.003721904708072543,-0.0019931572023779154,-0.0012942265020683408,-0.002393509494140744,-0.002982711186632514,0.0015550669049844146,0.0008679894381202757,-0.000717072980478406,0.0005016702343709767,-0.0012114410055801272,0.0021870972122997046,-0.0029570788610726595,-0.0002864668786060065,-0.0009484296897426248,-7.986800483195111e-05,0.000759757065679878,0.003440887900069356,-0.002636208664625883,0.0003434547397773713,0.0022062184289097786,0.0010339290602132678,0.0025592553429305553,0.002838996471837163,0.0006220859941095114,-0.0036202154587954283,0.00395242590457201,0.002457443857565522,0.002178595634177327,-0.0022236306685954332,0.0011580209247767925,-0.002496320754289627,-0.0023704697377979755,-0.004812689032405615,0.0019152549793943763,-0.0019978524651378393,0.00031072410638444126,0.0010745894396677613,-0.0011641931487247348,0.00048516009701415896,0.0005565429455600679,-0.0024910003412514925,0.0015815742081031203,0.0024641037452965975,-3.045937319257064e-06,0.0023686932399868965,0.0012322597904130816,0.0022697164677083492,-0.002475891262292862,-0.0011476754443719983,-0.0010424864012748003,0.0025013412814587355,-0.003369926940649748,-0.0004076495242770761,-0.004125725943595171,-0.0005780875217169523,0.0004375558055471629,0.0010550090810284019,-0.0013647695304825902,-0.00269818096421659,0.0008838185458444059,-0.0023945521097630262,-0.0020274692215025425,-0.003128937678411603,-0.0009495986741967499,-4.746091872220859e-05,0.00480592530220747,-0.002249613869935274,0.0011267820373177528,8.22825386421755e-05,0.0015073056565597653,-0.0013071895809844136,-0.002957690507173538,-0.000385372550226748,0.0049196104519069195,0.004567744676023722,-0.002921896521002054,0.005410220939666033,-0.0001769939553923905,0.001974468119442463,0.003519581165164709,0.0018011181382462382,0.0038077111821621656,-0.00400623120367527,-0.004792650230228901,0.005158576183021069,0.0022910546977072954,0.0023270815145224333
0.0012462700251489878,0.00013585446868091822,-0.0019813450053334236,0.0017868580762296915,-0.0032553113996982574,-0.00016067049000412226,0.0012010413920506835,-0.001044203992933035,0.0030011453200131655,0.001324792392551899,0.0016799054574221373,-0.001552956528030336,-0.00025855781859718263,-0.004095492418855429,0.0005413946346379817,-0.00018069607904180884,-0.0015119671588763595,0.0028177958447486162,0.0025112470611929893,-0.0038403321523219347,0.0017495366046205163,0.0017677114810794592,-0.0008346937247551978,-0.00270861922763288,-0.0027749722357839346,0.0007180965621955693,0.003581633558496833,-0.0025088239926844835,0.0031341691501438618,0.001419795211404562,-0.0038027705159038305,-0.00206010858528316,0.0028399985749274492,-0.00015336945944000036,0.0028675829526036978,-0.0016241143457591534,0.0028356348630040884,0.0014802080113440752,-0.0010420040925964713,0.0035970101598650217,0.0005876706563867629,-0.001226569525897503,0.0005035177455283701,-0.002661499660462141,-0.000208378754905425,-0.004654930904507637,-0.004294448997825384,-0.0023240549489855766,0.0015359113458544016,0.0009651249856688082,-0.0022717155516147614,0.0005952661740593612,0.0030056883115321398,-0.0002761474170256406,-0.0033436117228120565,0.0011058339150622487,-0.00411316379904747,0.00308256596326828,0.0038346797227859497,-0.00041611643973737955,-0.0028874967247247696,-0.0022670000325888395,0.0013123215176165104,0.0007740079890936613,-0.0005812631570734084,-0.003983282949775457,-0.0012551011750474572,-0.003120995359495282,-0.0035210533533245325,-3.9251248381333426e-05,0.0019242404960095882,-0.0020919961389154196,-0.00211670552380383,-0.002044461201876402,9.99550029519014e-05,0.0016293879598379135,-0.00033012728090398014,-0.002530657686293125,0.00424801092594862,-0.0029724929481744766,-0.0017216926207765937,-0.003918452188372612,-0.0010818225564435124,0.001358734560199082,-0.0028951799031347036,0.0029729108791798353,0.0003235322656109929,-0.0027035789098590612,0.0018492063973098993,-0.00011074254871346056,0.002044642809778452,0.0002768290869425982,0.0035093508195132017,0.003220424521714449,0.000497354893013835,-0.0014494346687570214,0.003975765313953161,0.00024454668164253235,-0.0013474865118041635,-0.0045801312662661076,0.0026479382067918777,0.0016710818745195866,-0.0005051881307736039,0.0015770989703014493,-0.002607868053019047,3.387194010429084e-05,-0.002302636858075857,-0.00018785762949846685,0.002335374942049384,-0.00181580928619951,-0.002132643945515156,0.001302744378335774,-0.0011963241267949343,-0.001655801897868514,0.004341872408986092,0.0044350530952215195,-0.0008396058692596853,-0.002451227745041251,-0.002617341000586748,-0.001960059627890587,0.0022959159687161446,0.0013113884488120675,0.0014898631488904357,-0.0014696040889248252,-0.0016071591526269913,0.004739886615425348,0.0009491248638369143,-0.0005936021916568279
-0.012444336898624897,-0.002220677211880684,0.02126665972173214,-0.006867201998829842,-0.016134530305862427,-0.012075008824467659,-0.00895356759428978,0.0016987900016829371,-0.011647265404462814,-0.03759675472974777,-0.011061268858611584,-0.012422055937349796,0.004552365280687809,-0.009053843095898628,-0.017112037166953087,0.018106387928128242,0.03187889978289604,0.012560848146677017,0.002681208774447441,-0.016700148582458496,-0.010727454908192158,-0.03468995541334152,-0.009511600248515606,0.007944324985146523,0.01224822923541069,-0.0024705335963517427,0.039257850497961044,0.032608434557914734,0.0074199712835252285,-0.014408822171390057,-0.03536173328757286,0.01456561591476202,0.011941484175622463,-0.011388697661459446,0.008174896240234375,-0.01565607450902462,-0.020628703758120537,0.005749656818807125,0.005737580358982086,-0.0005686891381628811,0.026958998292684555,-0.006036534905433655,0.0027578268200159073,-0.007710668724030256,-0.0037847557105123997,-0.021695220842957497,-0.022211922332644463,-0.007854885421693325,-0.01578766666352749,0.0004935158649459481,-0.008344301953911781,-0.007866562344133854,-0.010774010792374611,0.013574572280049324,-0.001829626620747149,0.013401990756392479,-0.02117977850139141,0.023412810638546944,0.00493649672716856,0.016016686335206032,0.006282965652644634,0.013233521953225136,0.013006150722503662,0.003914177883416414,0.010618533939123154,-0.013790750876069069,0.02158481627702713,-0.01251340564340353,-0.002322553424164653,-0.0014650935772806406,-0.016331655904650688,0.0074536241590976715,0.017279960215091705,-0.013372392393648624,-0.01313730701804161,0.02341858670115471,-0.0068430532701313496,0.004301265347748995,0.027483109384775162,-0.011942898854613304,0.012016568332910538,-0.006815179251134396,0.007581247948110104,0.008956334553658962,-0.01875215768814087,-0.015484882518649101,0.016041604802012444,-0.021194757893681526,-0.017619028687477112,-0.010395524092018604,0.01541226264089346,-0.002638124627992511,-0.0026195470709353685,0.0020176582038402557,-0.0066819703206419945,0.011650941334664822,0.014404404908418655,-0.00968200620263815,0.012501240707933903,-0.03375375270843506,-0.02132055163383484,-0.003581057069823146,-0.005782449152320623,-0.0013254008954390883,0.006930720992386341,0.019066283479332924,0.017481515184044838,-0.00761097576469183,-0.010153123177587986,-0.0173463337123394,-0.008907858282327652,0.0017792098224163055,0.006330213043838739,-0.001832393230870366,0.020065627992153168,0.010194904170930386,-0.012455372139811516,0.026690777391195297,-0.009481918066740036,-0.002785056596621871,0.007824198342859745,-0.0049282703548669815,0.01522773876786232,-0.005481273867189884,-0.01711481809616089,0.030014166608452797,0.016808804124593735,0.004125398583710194
-0.00411248579621315,-0.003040843876078725,0.002417993964627385,-0.0011075518559664488,-0.00437558488920331,-0.0038323448970913887,0.0025152217131108046,-0.000546339200809598,0.0030614305287599564,-0.0047044213861227036,-0.0002789258724078536,-0.0030107502825558186,-0.003378038527444005,-0.003914026077836752,-0.0026899506337940693,0.004304214380681515,0.001303739147260785,0.00022267093299888074,0.0007214390207082033,-0.0030840705148875713,-0.0018016838002949953,-0.003905884688720107,-0.00033047242322936654,-0.0012126890942454338,-0.0009247440029866993,-0.002362031489610672,-0.001350521924905479,0.0028350618667900562,0.0027419361285865307,-0.00267532910220325,0.0011192124802619219,-0.0029898560605943203,0.0032521707471460104,0.0014014567714184523,0.003984255716204643,0.0020587663166224957,0.0030142616014927626,-0.002503385068848729,-0.0006565903895534575,-0.0018139625899493694,0.0018306522397324443,-0.0015505743212997913,0.002914658049121499,0.0028153483290225267,-0.0015128139639273286,0.002851790515705943,0.0011116476962342858,-0.004105833824723959,0.0005144907045178115,0.0010259319096803665,-0.0035883127711713314,0.002272221026942134,0.000333096191752702,0.003531169146299362,0.0004436046292539686,0.0010328222997486591,0.003024969482794404,-0.0030169091187417507,-0.0028985124081373215,0.004406458232551813,-0.0017287054797634482,-0.00016722938744351268,-0.0005927305901423097,0.003577182302251458,-0.0008505180012434721,-0.002971579087898135,-0.0009533408447168767,-3.503224070300348e-05,-0.0037855335976928473,-0.004040034022182226,0.00015504068869631737,7.866353553254157e-05,-0.000999896670691669,-0.002136029303073883,0.00218368717469275,-0.0025082745123654604,0.0018751221941784024,0.002235075691714883,-0.0021674337331205606,0.0009799988474696875,0.0014740702463313937,-0.001504681073129177,-0.003062615869566798,0.0020850126165896654,0.0010203095152974129,-0.002934535965323448,-0.0017771562561392784,0.0018131299875676632,0.0010174637427553535,-0.004137872252613306,0.0018032941734418273,-0.002274749567732215,-0.0016831703251227736,0.0010932666482403874,0.002671644324436784,0.001215586205944419,0.0039394209161400795,-0.0037447961512953043,0.001725403475575149,-0.004295297898352146,-0.0027650268748402596,-0.00018943203031085432,0.0006500169984064996,-0.003968584351241589,-0.0007780863670632243,0.0016519674099981785,-0.002556541934609413,0.0020435855258256197,0.0021092609968036413,-0.0016881474293768406,0.0018958194414153695,0.0020709214732050896,0.0009354749927297235,-0.0016683012945577502,-0.0008588783675804734,0.0011514860671013594,-0.0011807502014562488,0.0010098633356392384,-0.00218412303365767,0.0026274612173438072,-0.001893271110020578,0.0010057511972263455,-0.0015180526534095407,-0.0017687601502984762,-0.0022740510758012533,-0.0015540721360594034,0.0002937179524451494,0.0018560844473540783
-0.001213415409438312,-0.001966574927791953,0.0004997515352442861,-0.001519080949947238,-0.00428161071613431,-0.002012308221310377,-0.0018820029217749834,0.003086220007389784,-0.005011632572859526,-0.005411734338849783,-0.004426657687872648,-0.00479207094758749,-0.0016558293718844652,-0.004858445841819048,0.001423611305654049,0.0033973550889641047,0.0032233449164777994,0.004164903424680233,0.0010399019811302423,-0.004476763773709536,0.0003135808219667524,-0.004743567667901516,0.000940792728215456,0.0033865016885101795,0.0019897150341421366,-0.0032669466454535723,0.005595273803919554,0.007498359773308039,0.005097969435155392,0.00048802458331920207,-0.009045938961207867,-0.0007271497743204236,0.0008735274313949049,0.0014407241251319647,0.0009492112440057099,-0.004997653421014547,-0.0036791746970266104,-0.0029867312405258417,-0.0028566571418195963,0.0008078636601567268,0.004130363464355469,0.0007874610600993037,0.0029507142025977373,-0.0015741214156150818,-0.001274071866646409,-0.0016252922359853983,-0.003957162145525217,-0.0031467543449252844,0.00019955323659814894,0.000982485944405198,-0.0034900205209851265,-0.003997634164988995,-0.002394051756709814,0.0044489153660833836,0.0007788970833644271,-0.000679920834954828,-0.005273574031889439,0.0032569430768489838,0.0007867393433116376,-0.0013677290407940745,-0.001671022386290133,0.004837288521230221,-0.0010415539145469666,0.003373407293111086,-0.001423659035935998,0.000737339723855257,0.0012657307088375092,0.00018758642545435578,-0.003522612154483795,-0.0023368841502815485,-0.003978377673774958,0.003978257533162832,0.0010152951581403613,-0.00025139827630482614,-0.00486456835642457,0.001002347213216126,0.0001307921193074435,-0.0025516580790281296,0.003642929485067725,0.00046885752817615867,-0.0012137118028476834,-0.0027712953742593527,0.004213362000882626,0.0006858730339445174,-0.0006597695755772293,0.001175858429633081,0.0012581790797412395,-0.0014397494960576296,-0.0037180762737989426,-0.0031413896940648556,-0.0012352624908089638,-0.0038338350132107735,-0.0029583796858787537,0.002501441165804863,-0.0006053736433386803,-0.0026023222599178553,0.003804535139352083,-0.0052658915519714355,0.003363068215548992,-0.0010439506731927395,-0.006501634139567614,0.0008012648904696107,0.003035346046090126,-0.003925822209566832,-0.0013013824354857206,0.0016099991044029593,0.001541094039566815,-0.001287691411562264,0.0009974337881430984,-0.004391229245811701,0.002424192149192095,-0.002734424313530326,-0.000474693690193817,0.0018465331522747874,0.0018389230826869607,0.0023217089474201202,-0.004081926308572292,0.0051358528435230255,0.0004997721407562494,-0.0024307610001415014,0.003573522437363863,0.0011087760794907808,0.0023934380151331425,0.00162310351151973,-0.004983909893780947,0.007093403488397598,0.003480085637420416,-0.0005963831790722907
-0.0008763860678300261,0.00304301711730659,0.0033639573957771063,-0.00288496445864439,-0.001887937425635755,0.0007238496909849346,-0.002470580395311117,-0.0007810560637153685,-0.001131631899625063,-0.0021303731482475996,0.0014454909833148122,0.0024961524177342653,0.0010802906472235918,-0.0009111094987019897,-0.0009521264000795782,-0.0022400678135454655,-0.0011140709975734353,0.0030924140010029078,-0.0016828258521854877,-0.00407765619456768,-0.0020936736837029457,-0.000849915377330035,-0.0026553741190582514,2.1716368792112917e-05,0.0023588482290506363,-0.0019992059096693993,-0.001905085751786828,-0.0028790473006665707,0.001448649913072586,-0.003385946387425065,-0.004098828416317701,0.0007266954053193331,-0.00014112099597696215,-0.001664809649810195,0.0005933987558819354,-0.0027667274698615074,0.00017796203610487282,-0.0008436737698502839,-8.213326509576291e-05,0.0010232420172542334,-0.001430002273991704,0.0010064863599836826,0.0013418087037280202,0.001999468309804797,-0.0024674073792994022,0.0034977863542735577,-0.003130496246740222,-0.002957137767225504,0.0011539836414158344,0.0006185852689668536,-0.003960879053920507,-0.0014842095552012324,0.0023465699050575495,-0.0033472951035946608,-0.0012784679420292377,0.002198723377659917,-0.002117001451551914,-0.0004243231669533998,-0.0019378794822841883,-0.00031689301249571145,0.0024381440598517656,-0.0021152773406356573,-0.0017796113388612866,-0.00022761461150366813,-0.0032526375725865364,0.0032504010014235973,-0.0024855767842382193,0.0024958602152764797,0.0019425414502620697,0.0010702573927119374,-0.0006482035969384015,-0.0015449309721589088,-0.0031583388336002827,0.0023131463676691055,-0.001412991783581674,0.0013923748629167676,0.0014254482230171561,-0.0021051394287496805,0.0009314435883425176,-0.0002882884000428021,-0.003373099258169532,0.0006781218689866364,-0.003200822975486517,0.0014665672788396478,0.002201611176133156,-0.0034279755782335997,0.0023825487587600946,-0.002662993734702468,-0.0002449922321829945,0.0028389915823936462,0.001907437457703054,0.0011301171034574509,-0.0006694094045087695,0.0007634820649400353,0.003016819478943944,0.002297488274052739,0.00042591392411850393,-0.0013605934800580144,0.001151682692579925,0.0012225329410284758,0.002216193126514554,-0.003258186625316739,0.0018368656747043133,0.0005651441751979291,-0.0009370058542117476,-0.001667677890509367,0.0020744558423757553,-0.0016832362161949277,-0.0031529588159173727,-0.0025132661685347557,-0.00334006710909307,-0.0009067424689419568,0.0031618503853678703,-0.003023112891241908,0.0030965283513069153,-0.0005803701933473349,0.003197398968040943,-0.0018034058157354593,-0.0033916865941137075,0.003101724898442626,0.0014315086882561445,0.00033619021996855736,2.2018130039214157e-05,0.002133589005097747,0.0004656104138121009,-0.0029841014184057713,-0.0023774337023496628,-0.0022414529230445623
-0.003682877169921994,-0.0007473364239558578,0.005441831890493631,0.0021192897111177444,-0.0026224947068840265,0.0007008875836618245,-0.003864465979859233,-0.002939902013167739,-0.003646423574537039,-0.001390953199006617,0.0015254545724019408,0.0022390771191567183,-0.003161874832585454,0.0011972078355029225,0.0013069340493530035,0.0013638538075610995,0.006041179411113262,0.003443267894908786,5.3020765335531905e-05,-0.004082972649484873,-0.00418345769867301,-0.002300759544596076,0.00184921536128968,-0.0030960384756326675,0.0006523370975628495,0.0007628784514963627,0.006315260194242001,0.004650077782571316,0.0028266608715057373,0.0026395535096526146,-0.005517980549484491,0.002027611481025815,-0.00041863348451443017,0.0007272635702975094,0.0042728460393846035,-0.0033022111747413874,-0.0009578541503287852,-0.0032747765071690083,-0.0016795714618638158,0.0008542262949049473,0.002775239059701562,-0.003998022526502609,-0.0012046456104144454,0.0020939193200320005,0.0028375464025884867,-0.002316535683348775,-0.0002591133234091103,0.0027024445589631796,0.00017330718401353806,0.0005099624395370483,-0.002996329218149185,0.0021661147475242615,-0.00015342172991950065,0.004772465210407972,0.00020397997286636382,0.0005246559157967567,-0.0005640375893563032,-0.0011184916365891695,0.0015017609111964703,-0.001028768951073289,0.004252740181982517,0.0011824077228084207,0.0023398969788104296,-0.0022708855103701353,-0.001845412771217525,0.00017568586918059736,0.0004655431257560849,-0.002143869176506996,-0.00217430735938251,0.0013963318197056651,-0.003383719827979803,-0.0001929059362737462,-0.0015527091454714537,0.0012036964762955904,-0.0014834512257948518,0.0038049924187362194,-0.0029550676699727774,0.0008864461560733616,-5.6897781178122386e-05,0.001686228672042489,0.003068244084715843,-0.0005414229235611856,-0.0008781106444075704,-0.000939143355935812,-0.0023248414508998394,-0.003752382704988122,-0.0024197346065193415,0.0013387243961915374,-0.0011338784825056791,0.0008139736019074917,0.0028078004252165556,-0.0037637597415596247,-0.0016702996799722314,-0.003887776518240571,0.001444083172827959,0.00421903794631362,0.004190580919384956,-0.00020629623031709343,0.004003616981208324,-0.003990997094660997,0.001447211136110127,0.0018601528136059642,0.0015340258833020926,-0.003934211563318968,0.003953089471906424,0.0009285485721193254,-0.00011556445679161698,0.00039425812428817153,-8.322516805492342e-06,0.0012693980243057013,0.0032322073820978403,-0.0035849744454026222,-0.0005920857656747103,0.000251393677899614,0.0012402146821841598,0.004139193799346685,0.0022376126144081354,0.003896302543580532,-0.004042879678308964,0.0012374416692182422,0.0025710538029670715,-0.001363691408187151,0.0009969068923965096,-0.0010742282029241323,-1.6665850125718862e-05,0.006842569448053837,-0.0005151619552634656,-0.0012920742155984044
-0.0007749132346361876,-0.003982544876635075,0.004567567724734545,0.0016201704274863005,-0.002526597585529089,-0.0025646041613072157,-0.002509297803044319,-0.0025530008133500814,-0.0032767406664788723,-0.003983666654676199,-0.00024305090482812375,-0.0012042444432154298,-0.0020680902525782585,0.0009548497619107366,0.0005297156749293208,0.0005903405835852027,0.00927520077675581,0.0003971574769821018,0.002621028572320938,0.0003052143147215247,0.0007004254730418324,-0.006081252824515104,-0.0010654613142833114,-0.002801330527290702,-0.0015549251111224294,-0.003987562842667103,0.006780265364795923,0.004899909254163504,-0.0017418917268514633,-0.003579326206818223,-0.005178428720682859,-0.0006110829417593777,0.0014007383724674582,-0.00557995168492198,-0.0006056329002603889,-0.006601326167583466,-0.00570620596408844,-0.002041472354903817,0.004611765965819359,0.00027376998332329094,0.002654812764376402,0.0023448767606168985,0.003598639275878668,-0.0014900361420586705,-0.003660307265818119,-0.005781300365924835,-0.0055033257231116295,0.0009801771957427263,-0.003914044238626957,0.0041635544039309025,-0.0016877187881618738,-0.0029876597691327333,-0.005071436520665884,0.004069210030138493,0.0011500022374093533,0.004999145865440369,-0.0022086603567004204,0.005434414837509394,0.002356761833652854,0.006126388441771269,-0.0024624450597912073,-0.00036438993993215263,0.0027675465680658817,0.002673089737072587,0.003410879522562027,-0.005461453925818205,0.005379599519073963,-0.002391895279288292,-0.0034168241545557976,0.0027195527218282223,-0.00354245794005692,0.002235502703115344,0.00350438361056149,-0.0009193143341690302,-0.003528924658894539,0.004982971120625734,-0.0028790340293198824,0.0005145202740095556,0.0046040997840464115,-0.0018435646779835224,0.004337616264820099,-0.0030517145060002804,0.005591953173279762,0.0010221030097454786,-0.005721007939428091,-0.002451997948810458,0.002514968626201153,-0.0038966876454651356,-0.0034573678858578205,-0.005074618384242058,0.0004308442585170269,0.0008047545561566949,-0.002481690375134349,7.561196252936497e-05,0.001398940454237163,0.0009559863829053938,9.93919384200126e-05,-0.0007300841389223933,0.001838254858739674,-0.006642444059252739,-0.005141512956470251,-0.002275009173899889,0.0033662477508187294,0.002917346777394414,0.0038008298724889755,0.0028584226965904236,-6.601268250960857e-05,-0.0014367630938068032,-0.003539551282301545,-0.0013495383318513632,-0.0037821298465132713,0.00040778028778731823,-0.0005493655917234719,0.003578411415219307,0.006642634980380535,0.00038907979615032673,-0.00025712951901368797,0.006566936150193214,-0.0027703968808054924,0.0006782048149034381,0.0016353350365534425,-0.0034108806867152452,0.0065195756033062935,-0.0029663494788110256,-0.006782041862607002,0.007323260419070721,0.003880064934492111,-0.00026679670554585755
0.0008028316660784185,-0.0024960979353636503,0.00036528948112390935,-0.0010255191009491682,0.0017165832687169313,0.0018915131222456694,-0.0007339091971516609,0.0035512393806129694,0.0014812586596235633,4.128268483327702e-05,0.000922169943805784,-0.0017260094173252583,0.0027391985058784485,0.003150526899844408,-0.0004928189446218312,0.002047200221568346,0.0015563205815851688,-0.0006996879237703979,-0.0017213334795087576,-0.0019163392717018723,-0.002549938391894102,-0.000958810152951628,0.0027886671014130116,0.0013019912876188755,0.0034294589422643185,-0.0015784446150064468,0.006579266395419836,0.004647310357540846,-0.001986585557460785,0.0008710450492799282,-0.005014265887439251,0.002740969182923436,0.004593746270984411,-0.00023676174168940634,-0.0018693060846999288,-0.0024880680721253157,-0.00035360551555640996,0.00341972173191607,0.0013336754636839032,0.0006258591311052442,-0.0007854156428948045,0.00025518343318253756,-0.0004391379188746214,0.0030145070049911737,0.0030592160765081644,-0.004652786999940872,-0.0030812809709459543,0.0019400280434638262,-0.00461822422221303,-0.0021072705276310444,-0.0005405860720202327,-0.00445458572357893,-0.0020050748717039824,-0.0009063915931619704,-0.0028797441627830267,0.0019793750252574682,-0.0038974289782345295,1.4794221897318494e-05,0.002150563523173332,0.005249697249382734,0.0003164854715578258,-0.0011294472496956587,0.002785797230899334,-0.003027457045391202,-0.00013841118197888136,0.0027862435672432184,0.00375410751439631,-0.0015457742847502232,-0.0029649739153683186,-0.00029729001107625663,0.00032548559829592705,0.003816288663074374,-0.0014066556468605995,-3.488458241918124e-05,-0.0022864253260195255,0.00506309699267149,-0.00018032704247161746,-0.0016064598457887769,0.004986078478395939,-0.0028687536250799894,-0.0010820116149261594,0.0015077781863510609,1.0950404430332128e-05,0.0033141060266643763,-0.004049772396683693,-0.003483809530735016,-0.001719529158435762,0.00047307106433436275,-0.005332908593118191,-0.00429054768756032,0.003362390911206603,-0.0006365326116792858,0.0029535817448049784,0.0009965890785679221,-0.003908620215952396,-0.002056485041975975,0.0019782453309744596,-0.004162761848419905,0.00028186896815896034,-0.0027134919073432684,-0.002466802950948477,0.001529842964373529,0.0019685423467308283,-0.0016432683914899826,-0.0030691875144839287,0.005274615250527859,-0.00046461925376206636,-0.00030675946618430316,-0.0006753130001015961,-0.0027004885487258434,-0.00368070718832314,0.00037796853575855494,-0.002083246363326907,0.0013905445812270045,-6.758141535101458e-05,7.742716115899384e-05,0.002250707009807229,0.0022372121457010508,-5.258534292806871e-05,0.002072626492008567,0.0045000109821558,0.001579231466166675,0.001410756609402597,-0.000410006643505767,0.00013757757551502436,0.003941550385206938,-5.30862707819324e-05,-0.0033635590225458145
-0.004341375082731247,0.003124293638393283,0.0008433567709289491,0.002216033171862364,-0.0008168300846591592,9.293585026171058e-05,-0.0018218889599666,0.0013043330982327461,-0.0007859834586270154,-0.005363446194678545,-0.004161757882684469,-0.0048820446245372295,-0.0014181638834998012,-0.0002438667434034869,-0.0019855936989188194,0.0016276640817523003,0.005440631415694952,0.0016357515705749393,0.001631421153433621,-0.0031269853934645653,-0.003699155058711767,-0.007622275501489639,-0.004325751215219498,-0.0010749505599960685,0.0004002289497293532,-0.003584969090297818,0.0004072862502653152,6.029298674548045e-05,-0.0023855329491198063,-0.0019283249275758862,-0.0028672274202108383,0.0018749786540865898,0.004961612168699503,-0.0030658794566988945,-0.00039692348218522966,-0.0030787927098572254,-0.0024961482267826796,-4.661152161133941e-06,0.0020252326503396034,-0.001215926487930119,0.0004960389924235642,-0.0019641700200736523,0.0028044898062944412,0.0007323214667849243,-0.003937405068427324,-0.0005366192781366408,-0.00021793336782138795,-0.0007839278550818563,0.0017958976095542312,-0.0012802282581105828,0.0001345541386399418,-0.0013891104608774185,-0.005020384211093187,0.005208869930356741,0.0004112612805329263,0.0032901749946177006,3.865269900416024e-05,0.004877893254160881,0.00048129266360774636,-9.220050560543314e-05,-0.0005046419100835919,-0.00248466688208282,0.005148742813616991,0.0035704956389963627,0.0022567505948245525,0.0006237789639271796,0.002687725005671382,0.0010503046214580536,-0.0011866651475429535,0.002818768611177802,-0.0029401227366179228,-0.0013910400448367,0.0008424149709753692,-0.0015523877227678895,-0.005171369295567274,0.0036952653899788857,0.0003707316645886749,0.00346402358263731,0.0063537308014929295,-0.004413658287376165,-0.002461777999997139,-0.0015189736150205135,0.002238689223304391,0.0029333161655813456,-0.002614766824990511,0.00015115139831323177,0.0016566684935241938,-0.00025515069137327373,-0.006034524645656347,0.0012063478352501988,-7.560489029856399e-05,-0.0038798318710178137,-0.0005124412127770483,-0.0013779634609818459,-9.337914889329113e-06,-0.0009875122923403978,-0.0004765526100527495,0.0006867251358926296,0.00046599781489931047,-0.002853991463780403,-0.0015810891054570675,0.00032526691211387515,-0.0031320075504481792,0.003321201540529728,0.0009648266714066267,0.001630603801459074,0.0014838161878287792,0.0009088037768378854,2.147121267626062e-05,-0.002700011944398284,-0.002707122825086117,0.0023898568470031023,0.0028353494126349688,-6.875557301100343e-05,0.0052848136983811855,5.343516750144772e-05,-0.004311622120440006,0.0011258427985012531,0.0007993548642843962,-0.0022126876283437014,0.0028750572819262743,0.0014680791646242142,0.002490288345143199,-0.002303636632859707,0.0005459405947476625,0.0021149159874767065,-0.0009420530986972153,0.004204701632261276
-0.0025699895340949297,-0.003679947927594185,-0.0015859076520428061,-0.002829635050147772,0.0012523451587185264,0.002857054118067026,-0.0011549713090062141,0.0026586935855448246,-0.0013706539757549763,-0.004818441346287727,0.00023959027021192014,0.0029028565622866154,-0.00045477665844373405,0.0024224224034696817,-0.0024374022614210844,0.0018296007765457034,0.005390857812017202,-0.003292914479970932,0.0003322433331049979,0.0015047871274873614,-0.0018756052013486624,-0.003983131144195795,-0.002723554614931345,-0.0017669114749878645,0.0038588286843150854,0.0025316509418189526,0.0029472257010638714,-0.00033887213794514537,-0.0018634914886206388,-0.0017872776370495558,0.0013630416942760348,0.002876951824873686,0.0018130986718460917,-0.00262568355537951,-0.0019091834546998143,0.002703457372263074,-0.0007832401897758245,0.003982608672231436,-0.0026970976032316685,-0.002513276180252433,0.0005747020477429032,-0.004167396575212479,0.0003393622755538672,-0.001284641562961042,-0.003267936874181032,-0.004045762587338686,-0.003977014217525721,-0.001020032330416143,-0.0016178495716303587,-0.003037672024220228,0.0030855676159262657,0.002012580167502165,0.0016571305459365249,-0.0004262465226929635,0.001350626815110445,0.001375743537209928,0.0011089465115219355,-0.00045929886982776225,0.0034203133545815945,0.00018072636157739908,-0.0024897276889532804,0.0037571098655462265,0.0038213811349123716,0.0017668332438915968,0.0017635042313486338,0.0031163212843239307,-0.001419908949173987,-0.0021903913002461195,0.0007265392341651022,-0.00396713986992836,-0.00048487764433957636,0.0018822451820597053,-0.0009192681754939258,0.0019051438430324197,-0.002317118225619197,0.004023343324661255,0.0016799959121271968,-0.0036217807792127132,0.005258926190435886,-0.0025687767192721367,0.0016143046086654067,0.0010948488488793373,-0.0007934807217679918,0.004550186451524496,-0.0008933162316679955,0.0007179271779023111,0.001888738595880568,0.0012582497438415885,0.001373385195620358,-0.0012551945401355624,0.000497994536999613,0.0016412297263741493,-0.0025045715738087893,-0.003968638833612204,-0.0024973361287266016,-0.0017066379077732563,-0.00022919828188605607,-0.002886578906327486,-0.0010055904276669025,-0.001602076692506671,-0.0018195812590420246,-0.0029326824005693197,0.00036172886029817164,0.00284713227301836,0.003926937934011221,-0.0017696153372526169,0.004003704059869051,-0.0024417985696345568,-0.0013667430030182004,-0.0016743801534175873,-0.004356600344181061,0.0037546365056186914,0.0009005509200505912,-0.0011378739727661014,0.002627729903906584,0.0014347300166264176,-0.002954227849841118,0.0009262412204407156,0.0007395584834739566,0.0034313483629375696,0.0007050437852740288,0.003161539090797305,0.000710628810338676,0.000975018076132983,-0.0027209606487303972,0.0002060568076558411,0.003892724635079503,0.0016702122520655394
0.0023018191568553448,0.00016557601338718086,-0.0001417510211467743,-0.0022304554004222155,-0.0036006153095513582,0.0010945969261229038,-0.0027968036010861397,0.0022967332042753696,0.0009979123715311289,0.0024123291950672865,-0.003190393792465329,-0.003194267861545086,0.002237623790279031,0.002473489148542285,-0.0016596658388152719,0.0007265314343385398,-0.0023250426165759563,0.001421040273271501,0.0015751547180116177,-0.0009054754045791924,-0.0027035512030124664,-0.00046861974988132715,0.002868530573323369,-0.003443606663495302,0.001434544799849391,0.003519251011312008,0.00044319743756204844,-0.0030139086302369833,-0.003040318377315998,-0.002214620355516672,0.0021757089998573065,-0.0023857150226831436,0.0027566789649426937,-0.0039014648646116257,-0.003527848981320858,-0.001749324263073504,-0.0015657962067052722,0.0007477584877051413,0.0011158246779814363,-0.0015079730655997992,0.0020428323186933994,0.00357862189412117,-0.002354535972699523,-0.0007061096257530153,0.0011956418165937066,0.002522134454920888,-0.0018201813800260425,0.001021991134621203,-0.0027001581620424986,0.0033759325742721558,-0.0006079563754610717,0.0013694674707949162,-0.0023224027827382088,0.00052830227650702,0.003143107518553734,0.0027020014822483063,-0.003550936933606863,0.0016173860058188438,0.0031412607058882713,0.001123606227338314,0.003243884537369013,0.0025504243094474077,-0.001996520673856139,-0.0037331501953303814,-0.003087996505200863,-0.002665315056219697,-0.0004959241487085819,-0.002460095565766096,-0.000923551619052887,-0.00014656655548606068,-0.0036902353167533875,0.0037500278558582067,0.0037957264576107264,1.3757926353719085e-05,-0.0007304074824787676,-0.001838544849306345,0.002639829646795988,0.0008898256346583366,-0.0006155726732686162,-0.0023038170766085386,-0.0011667163344100118,0.002997269621118903,-0.003590804059058428,-0.0032481763046234846,0.00190682802349329,7.309542706934735e-05,-0.0007383670308627188,-0.0026400049682706594,0.00347689725458622,-0.0027914822567254305,-0.0019801901653409004,0.0038792064879089594,0.0009702028473839164,-0.0032192408107221127,-0.002093450166285038,-0.0019984703976660967,0.0039973147213459015,-0.003438035724684596,0.0002936598611995578,-0.0018410470802336931,0.0023054045159369707,-0.003875135909765959,-0.0028274867217987776,-0.0027162153273820877,0.0030484795570373535,0.0011918575037270784,-0.00265451124869287,-0.0021665305830538273,0.0029791556298732758,0.0005274059367366135,0.00030173148843459785,-0.0017490285681560636,0.003930885810405016,-0.0003087985096499324,0.0004857718013226986,-0.003010545391589403,0.0036829637829214334,0.0023344806395471096,0.0016178414225578308,0.00020430074073374271,0.0008371707517653704,0.003225591266527772,-0.0010775286937132478,0.002715482609346509,-0.0020378348417580128,-0.0013490045676007867,-0.0030246844980865717,0.0030090247746556997
-0.0013162735849618912,0.00026741341571323574,0.005003788508474827,-0.003792436793446541,-0.0035300503950566053,0.0004853468853980303,0.0028138449415564537,0.0011845872504636645,-0.0050375377759337425,-1.0122310413862579e-05,-0.0006324958521872759,0.0014835774200037122,0.0020575313828885555,0.0029681501910090446,-0.0019283065339550376,-0.00032891190494410694,0.0017383485101163387,0.004118331708014011,0.0011117818066850305,0.0005831582238897681,-0.0026145875453948975,-0.0022138284984976053,-0.004718431271612644,-0.0021122645121067762,0.0017245463095605373,0.0015210562851279974,0.00040144886588677764,9.327437146566808e-05,0.0028529034461826086,-0.0020593032240867615,-0.001583751873113215,0.002148234285414219,0.000615219643805176,-0.0018064826726913452,0.002075763652101159,-0.0003293531481176615,-0.0006616085884161294,0.00023313566634897143,0.0002916359808295965,0.0008304892689920962,0.004633068107068539,-0.001794167561456561,0.003921110183000565,-0.003849409054964781,-0.0013583180261775851,0.0010067203547805548,-0.0026559133548289537,-0.004230010788887739,0.0019978720229119062,0.0014272218104451895,0.0014529309701174498,0.0004920641076751053,-0.0011961694108322263,0.0054058050736784935,-0.0001913924206746742,-0.0023168898187577724,0.0007045825477689505,0.002240700414404273,-0.0016921155620366335,-0.0023826616816222668,-0.0019153968896716833,0.004722253419458866,0.0010301125003024936,-0.002085561864078045,0.0024887220934033394,2.2887435989105143e-05,0.004265913274139166,-2.0784007119800663e-06,-0.002695895964279771,0.002022513886913657,-0.0030999775044620037,-0.0015579151222482324,0.0019835345447063446,-0.0015914764953777194,-0.004982215818017721,-9.853548544924706e-05,-0.0041335467249155045,-0.0009384805453009903,0.0004978657816536725,-0.0020080488175153732,-0.0019167691934853792,0.002117481082677841,0.0028560133650898933,0.004382843617349863,-0.0029977948870509863,0.0009489174117334187,-0.0010957723716273904,-0.0013287359615787864,-0.004101958125829697,-0.0014356354949995875,0.004811455495655537,-0.0013271919451653957,0.0029729262460023165,0.0019119973294436932,0.00204740883782506,-0.0012174778385087848,-0.0008175718830898404,-0.00024657457834109664,0.0050607118755578995,-0.0018683213274925947,-0.0015883514424785972,-0.0036248895339667797,-0.0021297268103808165,-0.0003571179695427418,-0.0033543757162988186,0.003896268317475915,0.0009818976977840066,0.0021548497024923563,0.0025027731899172068,-0.005142607726156712,-0.004115047864615917,-0.0015961839817464352,0.002271861070767045,0.0012795825023204088,-0.0014054955681785941,-0.001217676792293787,-0.0023148583713918924,-0.00014164614549372345,0.001160732819698751,0.00020700215827673674,-0.0009862994775176048,-0.0029011843726038933,-0.0018553768750280142,0.0023879113141447306,-0.005480606574565172,0.0004953643074259162,-0.0005230315146036446,-0.0016436558216810226
-0.009438447654247284,-0.0008863206021487713,0.03277043253183365,-0.012605325318872929,-0.022410092875361443,-0.018345164135098457,-0.01070067472755909,0.004674702882766724,-0.015373773872852325,-0.0556950718164444,-0.012786217965185642,-0.008962446823716164,0.004727885127067566,-0.009429900906980038,-0.017760872840881348,0.023769864812493324,0.04505704343318939,0.011943207122385502,0.004590244963765144,-0.02076694741845131,-0.010549509897828102,-0.04670673981308937,-0.013589698821306229,0.009623894467949867,0.012800006195902824,-0.004399461206048727,0.048291195183992386,0.04388534277677536,0.014547053724527359,-0.01796836219727993,-0.05022764950990677,0.017391325905919075,0.013889104127883911,-0.022358126938343048,0.012786703184247017,-0.01762131042778492,-0.03230123221874237,0.00511492183431983,0.007484696339815855,0.0034979211632162333,0.035213325172662735,-0.008875180035829544,0.007986076176166534,-0.011452951468527317,-0.007990779355168343,-0.027955519035458565,-0.0321476124227047,-0.014808190986514091,-0.02638823725283146,-0.0011307090753689408,-0.011373371817171574,-0.011182164773344994,-0.014611193910241127,0.019306762143969536,0.005280609242618084,0.022862806916236877,-0.029321592301130295,0.025802575051784515,0.011847993358969688,0.02333235554397106,0.009269189089536667,0.01886829361319542,0.01833733730018139,0.006454292684793472,0.012467647902667522,-0.017299126833677292,0.027055568993091583,-0.01911882683634758,-0.00573382992297411,-0.00686477730050683,-0.01789759285748005,0.011812480166554451,0.021577224135398865,-0.022802062332630157,-0.01891782321035862,0.02660478465259075,-0.017086759209632874,0.00044773751869797707,0.03318394348025322,-0.01736507937312126,0.009207585826516151,-0.01211851742118597,0.013567311689257622,0.015976011753082275,-0.031127434223890305,-0.021739276126027107,0.019031967967748642,-0.028013424947857857,-0.02843104675412178,-0.01253686472773552,0.016595488414168358,-0.0011433284962549806,0.001436526421457529,0.0016163834370672703,-0.008604107424616814,0.007902543060481548,0.015784673392772675,-0.011932911351323128,0.01721893437206745,-0.04640078544616699,-0.03200497105717659,-0.008246035315096378,-0.005819221958518028,-0.009540715254843235,0.003383086994290352,0.02119612693786621,0.020845701918005943,-0.011711888946592808,-0.01376094575971365,-0.02682834304869175,-0.010565961711108685,0.002064088825136423,0.006618614308536053,-0.000267086667008698,0.03414024040102959,0.018543601036071777,-0.01467872317880392,0.03029637411236763,-0.012649181298911572,0.001890003215521574,0.019726263359189034,-0.0006446948391385376,0.026582280173897743,-0.008150962181389332,-0.02920614741742611,0.04896005988121033,0.022718368098139763,0.0007721501169726253
0.0008776192553341389,-8.043188427109271e-05,0.0029003291856497526,0.0014264460187405348,-0.00282666040584445,-0.005579305347055197,-0.004272956866770983,-0.00011768617696361616,-0.0027387463487684727,-0.006639179307967424,0.0008825344266369939,-0.0015663361409679055,0.004189493600279093,0.0009355752845294774,-0.004828847944736481,0.001068545738235116,0.009499877691268921,0.0037882875185459852,-0.0003032812674064189,-0.0011137510882690549,5.2363229769980535e-05,-0.004594371188431978,-0.005723231006413698,-0.00036583197652362287,-0.0004836619191337377,-0.00289894943125546,0.006320567335933447,0.008426262065768242,0.00408291257917881,-0.005959996022284031,-0.005711636506021023,6.025421680533327e-05,0.0059830546379089355,-0.0006992082926444709,-0.0008754663867875934,-0.0024475587997585535,-0.007405252195894718,-0.0007880909834057093,0.001902437536045909,0.00292416219599545,0.002290224190801382,0.0012944533955305815,-0.0003713528567459434,-0.001772782881744206,-0.00046532598207704723,-0.0017243897309526801,-0.005144074559211731,-0.0008373677264899015,-0.003159878309816122,-0.002262912457808852,0.0018906501354649663,0.0012968064984306693,-0.0043456414714455605,0.0026902486570179462,-0.001162966713309288,0.003933855798095465,-0.003471602685749531,0.004256345331668854,-0.002063819905743003,0.0032088167499750853,-0.0002967837208416313,0.005998579319566488,0.0020878093782812357,0.002131496788933873,0.004765610210597515,-0.0006725485436618328,0.007551331073045731,-0.005775908008217812,0.000890634604729712,-0.004383602179586887,-0.0048304772935807705,0.0018196083838120103,0.000837002182379365,-0.006623394787311554,-0.0024895374663174152,0.0035519273951649666,-0.0023050045128911734,-0.002292579272761941,0.008294017985463142,0.0002988734340760857,0.0005690419930033386,0.0016460791230201721,0.003049522638320923,-0.0009840441634878516,-0.0061050038784742355,-0.0004610673349816352,0.003335236804559827,-0.008221200667321682,-0.001828084117732942,-0.0017274750862270594,0.0008758387411944568,-0.0025917093735188246,-0.0006701562087982893,-0.002477663801982999,-0.0001926133845699951,-7.824652129784226e-05,0.006109718233346939,-0.00035806643427349627,0.006577412132173777,-0.0067528546787798405,-0.0037281669210642576,-0.0037587732076644897,-5.3058342018630356e-05,-0.0017669586231932044,-0.002331346506252885,0.0018528004875406623,0.0013637358788400888,0.001806385233066976,0.000855466176290065,-0.00258688535541296,-0.0034438096918165684,0.0010813397821038961,0.00014694091805722564,-0.002382867503911257,0.004508119076490402,0.002913236152380705,-0.0033443206921219826,0.004664015024900436,-0.004245556425303221,-0.002617205958813429,-0.0005053447093814611,0.0004916436737403274,0.007681321352720261,-0.0011459075612947345,-0.0016851818654686213,0.0069398097693920135,0.0053655896335840225,0.0027060983702540398
-0.0019695281516760588,0.0020306992810219526,-0.001541547360830009,0.0017945970175787807,0.0003552511625457555,0.0020959244575351477,-0.0027122951578348875,-0.0036656619049608707,-0.0007956051849760115,-0.004510273225605488,-0.0018308445578441024,-0.004358005244284868,-0.0022190851159393787,-0.0005780847277492285,-0.004898454993963242,0.0021923098247498274,0.003193492768332362,0.00013841138570569456,-0.0016804077895358205,-0.0043539139442145824,-0.003910279832780361,-0.0019270899938419461,-0.0010907205287367105,0.002816534833982587,0.00038577758823521435,1.7971877241507173e-05,0.0043646045960485935,0.0017520590918138623,0.0026289925444871187,9.175080776913092e-05,-0.005887896288186312,0.003360338509082794,0.0012496273266151547,-0.0017418669303879142,-0.0017026190180331469,-0.001209487090818584,-0.004412924405187368,-0.001160626532509923,0.0020561073906719685,-0.0029683546163141727,0.0008890053723007441,-0.002772839041426778,-0.002852753037586808,-0.0031866871286183596,0.00011639273725450039,-0.001761593739502132,-0.003744626883417368,-0.0031852417159825563,0.001844261772930622,0.0025146924890577793,-0.004118310287594795,-0.002576687838882208,-0.0034880368039011955,0.004725136794149876,-0.003146684728562832,0.004154914524406195,-0.0002205293858423829,-0.0011516609229147434,-0.0020095768850296736,-0.0025878362357616425,0.001040322589688003,-0.00046267511788755655,0.0036633824929594994,0.0026659800205379725,0.002944735810160637,-0.002816302003338933,-0.0013060966739431024,0.0011092484928667545,-0.0025973038282245398,0.000917045574169606,0.0017478789668530226,-0.0013891407288610935,0.0032787781674414873,0.0013559729559347034,0.00033359351800754666,0.0006912939134053886,0.0011459806701168418,-0.0017420107033103704,-0.001348700956441462,-0.0019804537296295166,-0.001127234660089016,-0.0035534400958567858,0.0015609459951519966,-0.0006671955343335867,-0.0031568577978760004,-0.0021315044723451138,-0.0015284438850358129,-0.002303913002833724,-0.00019910954870283604,-0.002931023482233286,0.003837635973468423,0.0021686754189431667,-0.0007913512527011335,-0.002821307862177491,-0.002856084145605564,0.0033612193074077368,-0.0025787523481994867,-0.0032495269551873207,-8.36127219372429e-05,-0.004665832966566086,-0.005411965772509575,0.0022508047986775637,-0.002715257927775383,0.003447487950325012,-0.0008921811822801828,0.0017917884979397058,-0.002049209550023079,0.0011691193794831634,-0.004467035178095102,0.001032901112921536,-0.0022220900282263756,-0.000528086384292692,0.0012227225815877318,0.0007928634877316654,0.004747664090245962,-0.0011597155826166272,-0.002815792104229331,0.0037745449226349592,-0.003937583416700363,0.0023681779857724905,-0.0027174847200512886,0.0008082945714704692,0.0015542745823040605,0.0018475885735824704,-0.002474907785654068,-2.4637876776978374e-05,-0.0025211647152900696,0.0012736916542053223
-0.0009812668431550264,0.0026307664811611176,0.002293499419465661,-0.0038256726693361998,-0.005644429475069046,-0.00037352662184275687,-0.0001526282576378435,0.000767829769756645,-0.002429959364235401,-0.004546108655631542,-0.004723247606307268,-0.002708442509174347,-0.003676851512864232,-0.003701290814206004,-0.002352713840082288,-0.00024296522315125912,0.002521979156881571,-0.0004970721784047782,0.002663054969161749,0.00010364921763539314,0.0024421352427452803,-0.007037112955003977,-0.0005776350735686719,-0.0032608299516141415,-0.0027240151539444923,-0.0042058005928993225,0.005401102360337973,0.00048164851614274085,0.003133573802188039,-0.003941067960113287,-0.004182452801615,0.0039513069204986095,0.0027302384842187166,-0.005215826444327831,-0.0008958039106801152,0.001739263185299933,-0.0030568386428058147,0.000276412843959406,-0.0010074812453240156,0.0022375339176505804,0.006040500942617655,0.0012402086285874248,0.003161732340231538,-0.00023953865456860512,0.0017346725799143314,0.0015278189675882459,-0.004884920082986355,-0.0018891642102971673,-0.004339153412729502,0.003394612343981862,-0.004539378918707371,-0.003744507674127817,-0.004008156247437,0.0031150279100984335,-0.002060653641819954,0.0020555208902806044,-0.004895005840808153,0.00595293752849102,0.0003216424956917763,-0.0007904218509793282,-0.00018599735631141812,0.004918509628623724,0.0018023567972704768,-0.0008485854486934841,-0.00032692847889848053,0.0018357888329774141,0.004397896118462086,-0.004600123967975378,-0.0027432942297309637,-0.0030978466384112835,0.0008738849428482354,0.0032395850867033005,0.0009302633116021752,-0.0037035029381513596,-0.0005666610668413341,0.0026636053808033466,-0.001611637300811708,-0.0026056875940412283,0.00020158283587079495,-0.0034548183903098106,0.0021078812424093485,0.0022223826963454485,0.0007077411282807589,-0.0003445598704274744,0.0013437678571790457,-0.003439191495999694,0.0026573683135211468,-0.004484685603529215,-0.001141887973062694,0.0002686225052457303,-0.0002047399611910805,-0.002683389699086547,0.00014781545905862004,0.0012717822100967169,0.002031672280281782,-0.001575353555381298,-0.00097320054192096,-0.0033335890620946884,0.004867295268923044,-0.002487961668521166,-0.0022405057679861784,-0.0029823128134012222,-0.0005397777422331274,0.0008128746412694454,0.002454320667311549,0.0008730589179322124,0.0023308538366109133,-0.002336745848879218,-0.0011605777544900775,-0.0030224951915442944,-0.003774463664740324,-0.0014316446613520384,0.0027574501000344753,-0.0026178723201155663,0.0020701326429843903,0.0004542187962215394,0.0019838185980916023,-0.0006082740728743374,-0.0003582918143365532,-0.0006759983953088522,0.005061717703938484,-0.003098467830568552,0.0037849140353500843,0.00023191826767288148,-0.002264916431158781,0.0016504537779837847,0.0018767316360026598,0.0011667823418974876
-0.00016092001169454306,-0.001370465150102973,0.002698491793125868,0.0014369896380230784,-0.002257538726553321,-0.0032359908800572157,-0.004011952318251133,0.0028812827076762915,-0.002531485166400671,-0.00632703909650445,0.0003737265069503337,-0.005759371444582939,0.003930261358618736,-0.005406600423157215,-0.0032424405217170715,0.003763219341635704,0.008477590046823025,0.0017698336159810424,-0.0009538222220726311,-0.0010845919605344534,-0.004398623947054148,-0.0065378062427043915,-0.0005787262925878167,0.004622382111847401,0.001737526967190206,-0.0023467838764190674,0.01059725135564804,0.009063427336513996,0.00564182922244072,-0.004298641812056303,-0.005837647244334221,0.004024166148155928,1.562788020237349e-05,-0.0005707644741050899,0.0016289607156068087,-0.006014868151396513,-0.003380704205483198,-0.0030334354378283024,-0.002695205621421337,-0.0007948727579787374,0.002233523176982999,0.0017637367127463222,0.002877816092222929,-0.005381226073950529,-0.0026857375632971525,-0.004246839322149754,-0.009004487656056881,-0.0008884281269274652,-0.005342193879187107,0.0029269903898239136,0.0002216456487076357,-0.004789611790329218,0.0009124997304752469,0.00036519821151159704,-0.0025804743636399508,0.0018674127059057355,-0.008295844309031963,0.0062503875233232975,0.004649497102946043,0.0008501435513608158,-0.002054607030004263,0.0021359408274292946,-0.00017808479606173933,0.003572561778128147,0.005561658181250095,-0.00533867534250021,0.005393788684159517,-0.0017559853149577975,-0.002965492894873023,0.0008788915001787245,-0.00026634358800947666,0.002123982645571232,0.0015447117621079087,-0.007108201272785664,-0.0014227032661437988,0.0010452326387166977,-0.002749262610450387,0.003876668633893132,0.003422511275857687,-0.0071965367533266544,0.0012362718116492033,-0.0038044315297156572,0.002547255251556635,0.005845209117978811,-0.005071721039712429,-0.0019772660452872515,0.0008495710208080709,-0.008111037313938141,-0.007032222114503384,0.0008219663868658245,0.005946841090917587,0.0007461129571311176,0.0038184085860848427,-0.002788226120173931,0.0014008336002007127,0.0018629569094628096,0.004496519919484854,-0.005173011217266321,0.0019507691031321883,-0.005825698841363192,-0.006842958740890026,-0.0005024035344831645,-0.0003760881081689149,-0.0010618006344884634,0.000495961750857532,0.005695625673979521,0.004056270234286785,0.000979436095803976,-0.00026645258185453713,-0.008134135976433754,0.0003456647973507643,0.001118796644732356,-0.0018459502607584,-0.0005632514948956668,0.006283336319029331,0.005232095252722502,0.00027122185565531254,0.003131287405267358,0.0007397657609544694,0.0005564595921896398,0.003684650408104062,-0.00022056717716623098,0.004939192906022072,-0.0032769565004855394,-0.0025578003842383623,0.010449915193021297,0.0027595865540206432,0.002129646949470043
0.0014303855132311583,0.0009831500938162208,0.007494685240089893,-0.003942504059523344,-0.007379220798611641,-0.0018972198013216257,-0.001114517799578607,-0.00035993402707390487,-0.006987620145082474,-0.00602214178070426,-0.0037165789399296045,-0.003937772940844297,-0.002429493237286806,-0.0053821769542992115,-0.004073990974575281,0.007256611250340939,0.005748370196670294,0.0004166743310634047,-0.0032750179525464773,-0.00751621974632144,-0.002032768912613392,-0.00936131551861763,-0.006132532376796007,0.0028989792335778475,0.006264775991439819,-0.0007265930762514472,0.004959768150001764,0.007196634076535702,0.002162403427064419,-0.0028275372460484505,-0.008342637680470943,0.002053292468190193,0.005318510811775923,-0.0024849046021699905,0.0021251358557492495,-0.007310007233172655,-0.005691652186214924,-0.002640685997903347,0.0012293967884033918,-0.0005201672320254147,0.0042417012155056,-0.0012489140499383211,0.002474934794008732,-0.001036639092490077,-0.0007309175562113523,-0.004113170318305492,-0.00790939200669527,-0.005424307193607092,-0.0003828662447631359,0.004060456529259682,-0.003465119516476989,-0.0004868963733315468,-0.0028379964642226696,0.0031132344156503677,-0.0018354919739067554,0.001033960492350161,-0.006216567009687424,0.0025683746207505465,0.00244098505936563,0.002572675235569477,-0.002131468616425991,0.0011316926684230566,0.00034551694989204407,0.0017821568762883544,0.0018909421050921082,-0.00624763173982501,0.00706803472712636,-0.0015991813270375133,0.0028753874357789755,0.0013800202868878841,-0.006916638929396868,0.0019264885922893882,0.004479332361370325,-0.0012684406246989965,-0.006578000728040934,0.0046357400715351105,0.0007939276983961463,9.354911890113726e-05,0.0029879207722842693,-0.003908079583197832,0.0032416032627224922,0.0012982444604858756,0.0007891334826126695,0.0009186568786390126,-0.0017878066282719374,-0.0043599894270300865,0.003938521724194288,-0.0028321428690105677,-0.003772904397919774,-0.004455093760043383,0.006158363074064255,-0.0021498678252100945,0.002960854908451438,-0.003419474931433797,0.002151066204532981,0.002910397481173277,0.0022371960803866386,0.0004285573086235672,0.0012232112931087613,-0.010363420471549034,-0.004649244714528322,0.000345968030160293,0.0019872994162142277,0.0001768350921338424,0.0042669083923101425,0.003773227334022522,0.005383345764130354,-0.0033876807428896427,-0.0009980646427720785,-0.004040023777633905,-0.001270921085961163,-0.00020755089644808322,0.0012478666612878442,-0.001985124545171857,0.0063321711495518684,0.0022118990309536457,-0.005534071009606123,0.0054525164887309074,-0.004922532942146063,0.0027605565264821053,-0.0007031933637335896,-0.001245496910996735,0.007732474710792303,-0.005087017547339201,-0.004116615746170282,0.010580569505691528,0.0014766225358471274,-7.76975866756402e-05
-0.002589837182313204,0.0002261172776343301,0.002770463703200221,-0.0023971381597220898,-0.0028791711665689945,0.00018030544742941856,0.002190713305026293,-0.0033348065335303545,-0.0015464258613064885,-0.006862961687147617,0.00121880485676229,-0.004935889504849911,-0.003393065882846713,-0.0033147658687084913,-7.862990605644882e-05,0.004904479254037142,-6.490886789833894e-06,0.003373760497197509,0.004085517022758722,0.0004912516451440752,3.358014510013163e-05,-0.006462619174271822,-0.002725828206166625,0.0017696628347039223,0.001876371679827571,-0.0005716315354220569,0.0027231713756918907,0.0037916291039437056,0.003653145395219326,-0.003585699014365673,-0.007910081185400486,0.001663001487031579,-0.00203382084146142,-0.005488312337547541,0.002925731474533677,0.00038871882134117186,0.000773077888879925,0.0016757057746872306,-0.002840491011738777,-0.0002576798142399639,0.005353190936148167,-0.0024164067581295967,0.000526383810210973,0.0012520940508693457,0.0014132222859188914,-0.0012864755699411035,-0.00583350844681263,-0.003685921663418412,-0.005338649731129408,-0.0013158314395695925,0.0009368715109303594,-0.004532863851636648,-0.001280113821849227,0.0041447789408266544,0.0032331093680113554,-0.0010312908561900258,-0.0039681438356637955,0.0015170896658673882,-0.0028628886211663485,0.0005151842487975955,0.0008715255535207689,-6.219085480552167e-05,-9.333733032690361e-05,-0.001539760036394,0.0016177474753931165,-0.004870411939918995,0.0045623681508004665,0.0005527602043002844,0.0031316860113292933,-0.0010544382967054844,0.0010135980555787683,0.0006549970712512732,0.00015323936531785876,0.0015079010045155883,-0.0017820264911279082,0.005432024132460356,0.0015655989991500974,0.002516999375075102,0.001428019953891635,-0.0005365217220969498,0.002740208525210619,0.0007972492021508515,-0.002118141856044531,0.004417972173541784,-0.0010827452642843127,-0.0022540187928825617,0.0030861052218824625,-0.0019009823445230722,-0.00016321815201081336,-0.0019048325484618545,0.004584053531289101,0.0030277734622359276,-0.0013629650929942727,0.0006512844702228904,0.0020141801796853542,-0.0014796849573031068,0.0034981637727469206,-0.001319709001109004,0.005021523218601942,-0.0035265968181192875,-0.0015663059893995523,0.0011709913378581405,0.002940580016002059,0.0024041282013058662,-0.0023616855032742023,-0.00012132990377722308,0.0008449104498140514,-0.0037877566646784544,-0.0006623881636187434,-0.0027504893951117992,0.0004981373203918338,0.0022797926794737577,0.0009225196554325521,-0.00044702005106955767,0.0027124788612127304,-0.0013958835043013096,-0.0022947031538933516,0.003059256123378873,-0.002958867931738496,0.0032930681481957436,0.0027815010398626328,-0.0012099836021661758,0.0006086541106924415,-0.004252610728144646,-0.002480350434780121,0.007292483933269978,0.003346632234752178,0.0035225138999521732
-0.0010818294249475002,0.0005805159453302622,0.0023066161666065454,-0.0033828916493803263,-0.007205463480204344,-0.00049111049156636,0.002548901131376624,-0.0017120296834036708,-0.0014493820490315557,-0.00695356959477067,-0.006140952464193106,-0.0003107560332864523,-0.002841453067958355,-0.0016720739658921957,-0.0025255056098103523,0.0012786098523065448,0.005366339348256588,0.004830062389373779,6.11333452980034e-05,-0.004954224452376366,-0.0011214748956263065,-0.005415449850261211,-0.005286716856062412,0.001978736137971282,-0.0007649663602933288,-0.00029215248650871217,0.012034079991281033,0.005730330944061279,0.004690804053097963,0.00013650952314492315,-0.009541796520352364,0.001897130161523819,0.003739460837095976,-0.00020149171177763492,0.0026020221412181854,-0.0005636475398205221,-0.0031563248485326767,-0.00299628428183496,0.00425352668389678,0.001093752565793693,0.003400338115170598,-0.0037726485170423985,0.0031479597091674805,-0.003731935052201152,0.0008139304700307548,-0.007139312569051981,-0.004879658576101065,-0.0003503770276438445,-0.0045499359257519245,0.00377015327103436,-0.0020014357287436724,-0.004647605586796999,-0.0021274539176374674,0.007116034626960754,0.0015839134575799108,0.007246894296258688,-0.006813885644078255,0.0013738963752985,0.001847444917075336,0.00612000934779644,0.004041645210236311,0.005620693787932396,0.005693414248526096,9.151952690444887e-05,0.00038007929106242955,-0.006296759936958551,0.004008669871836901,-0.0030928642954677343,-0.0008264717762358487,-0.0026242081075906754,-0.00018589616229292005,0.005401218309998512,0.007204483263194561,-0.002193850465118885,-0.0009572196868248284,0.0017169186612591147,-0.005426960997283459,-0.0005726368981413543,0.0037677031941711903,-0.004593800287693739,0.0006367656751535833,-0.00029834656743332744,-0.00012770241301041096,0.00254156906157732,-0.008447232656180859,-0.002038294216617942,0.004313938785344362,-0.0031177757773548365,-0.007464213762432337,2.2042855562176555e-05,0.0038846400566399097,-0.003733125515282154,0.0030723498202860355,0.0026040636003017426,-0.003377750050276518,0.004284567665308714,0.0032766747754067183,0.0006604613736271858,0.0035223551094532013,-0.009219408966600895,-0.008585368283092976,0.001731906901113689,-0.0008155185496434569,-0.003981228452175856,-0.0005409829900600016,0.004096358548849821,0.0051419795490801334,-0.0020802414510399103,-0.00258143269456923,-0.0006688636494800448,-0.005378679372370243,-0.0005223355256021023,-0.0014455222990363836,0.0029705450870096684,0.006618507672101259,0.004708821885287762,-0.000946234620641917,0.009394681081175804,-0.002299525076523423,0.001213065697811544,0.00263612880371511,-0.0042454637587070465,0.0010183416306972504,-0.0028550440911203623,-0.003099402179941535,0.006653539836406708,0.0027170090470463037,0.004268984775990248
-0.004208805970847607,0.0029681276064366102,0.006983174476772547,0.0018612064886838198,-0.006179601885378361,0.0019225423457100987,-0.004119731951504946,0.0011873784242197871,-0.001017680624499917,-0.006166799925267696,-0.00020389730343595147,0.0007880430785007775,0.003162453416734934,0.002121263649314642,-0.0014083704445511103,0.002766800345852971,0.004678014665842056,-0.0016355171101167798,-7.308332442335086e-06,-0.003771391697227955,-0.004075818695127964,-0.008834375068545341,-0.005132474936544895,0.0017174045788124204,0.0013076966861262918,0.0011915756622329354,0.0031602755188941956,0.007903475314378738,0.0002430917083984241,-0.0038852302823215723,-0.0021715969778597355,0.0005083710420876741,-0.0014398079365491867,-0.00436309864744544,0.004531443119049072,0.0006564829964190722,-0.00472866790369153,0.00034556793980300426,-0.002200246322900057,0.0008117618272081017,0.0022163577377796173,-0.002820810070261359,-0.002265806309878826,0.0026218255516141653,-0.0018735076300799847,-0.004426993895322084,-0.004786528646945953,-0.0024030322674661875,-0.004866824019700289,0.0032450074795633554,-0.004308598581701517,-8.390844595851377e-05,-0.005494134500622749,-0.0008315354352816939,0.0019161010859534144,0.0018382153939455748,-0.005004069302231073,0.0015338739613071084,0.0004473428998608142,0.0026725672651082277,0.002159637166187167,0.002303290879353881,0.004660514649003744,7.14237175998278e-05,0.0011119999689981341,0.0012191010173410177,0.0002558157138992101,-0.0018136582802981138,0.0009867171756923199,-0.0021951470989733934,-0.0038555595092475414,0.003931769169867039,-0.0008076813537627459,-0.006182244513183832,-0.005023614503443241,0.003160956548526883,-0.0036707576364278793,0.0008519746479578316,0.0016926067182794213,-0.0005183551111258566,0.004072137176990509,0.0021015238016843796,0.0023730085231363773,0.0022978559136390686,-0.0001400057808496058,0.0013178595108911395,0.005605203099548817,-0.005809464491903782,-0.0030270921997725964,0.0002738825569394976,0.004052336793392897,0.0032833674922585487,0.0019017712911590934,-0.0038685635663568974,-0.0014847231796011329,0.0036777013447135687,-0.00025830548838712275,-0.003600228810682893,0.0025295838713645935,-0.0027784041594713926,-0.0031727992463856936,0.0027855606749653816,0.0031014559790492058,0.001984980423003435,0.002636761637404561,0.006413799710571766,0.0038869811687618494,-0.002956383628770709,0.0008219723240472376,-0.004487933125346899,-0.0023349279072135687,0.00172174081671983,0.000863078807014972,-0.002642833162099123,0.0028491728007793427,0.005425558891147375,-0.0008426482672803104,0.006498180795460939,-0.0013127871789038181,0.0024530834052711725,-0.0004597014340106398,-0.003296795068308711,0.0009932949906215072,0.0011126180179417133,-0.0060240826569497585,0.005817416589707136,0.0037198124919086695,0.0010345091577619314
0.0032920222729444504,0.0011933705536648631,0.000667128071654588,0.0035763063933700323,-0.002292080782353878,-0.0031522451899945736,-0.0011043468257412314,-0.0015661073848605156,0.00012922397581860423,0.0011994198430329561,0.0026448213029652834,-0.003975087311118841,-0.002199592301622033,0.0007158815860748291,-0.00020989103359170258,-0.0023933639749884605,-0.0014135357923805714,-0.000685718550812453,0.0014585088938474655,-2.8481445042416453e-05,0.003534310031682253,-0.004067184869199991,0.00047860085032880306,-0.00020312923879828304,0.0032550720497965813,-0.0038543357513844967,0.0035624306183308363,-0.00027238886104896665,-0.0007489648414775729,-0.0012603425420820713,0.0005808742716908455,0.0012007440673187375,0.0038667323533445597,-0.0025881589390337467,-0.0009989904938265681,-0.001586969825439155,-0.0018293402390554547,0.0024131666868925095,0.0016016227891668677,-0.002764143981039524,0.003896839916706085,0.0011223569745197892,0.0034739624243229628,-0.0036192049738019705,-0.00020380457863211632,0.0019746688194572926,-0.0028278138488531113,0.001084403251297772,0.003068747464567423,0.003852176945656538,-0.0007801619358360767,0.0034202432725578547,0.0022349555511027575,0.0025882096961140633,0.003346935613080859,0.0043944986537098885,-0.002247437834739685,0.004477400798350573,0.002991530578583479,0.0009070028900168836,-0.0016580333467572927,-0.0024292604066431522,-0.0007135240011848509,-0.0031487990636378527,-0.0010101727675646544,-0.0025990353897213936,-0.0004692388465628028,-0.004007886163890362,-0.0031673305202275515,0.0013205279828980565,2.8807524358853698e-05,0.004017695318907499,-0.0014725702349096537,-0.0039315978065133095,-0.0006506001227535307,0.004499470815062523,0.002313413191586733,-0.001391725498251617,0.004719858523458242,-0.0030534195248037577,-0.0023437999188899994,-0.0034188521094620228,0.003129341406747699,-0.003387968987226486,-0.004389482084661722,-0.001625903183594346,0.0023238856811076403,-0.001433020457625389,-0.002828822238370776,0.0016874258872121572,-0.002472053514793515,0.0028932637069374323,-0.0015412761131301522,-0.0016030496917665005,0.0023971986956894398,-0.0007202424458228052,0.00364086520858109,-0.002668908331543207,-0.0025505945086479187,-0.0019382990431040525,0.002765381708741188,0.0018434368539601564,0.0033879035618156195,0.00038116410723887384,-0.0027027134783566,0.0009796269005164504,-5.2852083172183484e-05,0.00255894404835999,-0.003187357448041439,0.00046501660835929215,-0.00024404737632721663,0.0005296887247823179,0.0004972338210791349,0.00012572220293805003,-0.0014550623018294573,-0.002175205387175083,-0.003929079510271549,-0.0006501400494016707,0.0019009634852409363,3.005735379701946e-05,0.0006046231719665229,-0.000660128251183778,0.002262589056044817,-0.001349220983684063,0.000515405205078423,0.004623130429536104,-0.0017063852865248919,0.002514780731871724
-0.0039096130058169365,0.0010117037454620004,0.004300071857869625,-0.0005182545864954591,-0.00022581711527891457,0.0007776413694955409,0.0003957530134357512,0.0016898257890716195,-0.0037491086404770613,-0.009472844190895557,0.0008455333299934864,-0.0030712441075593233,0.0036280490458011627,-0.0009484121692366898,-0.0021550473757088184,0.003689560806378722,0.004489538259804249,-0.001965644769370556,0.0003745748254004866,-0.0033320628572255373,-0.001205763197503984,-0.005580020137131214,0.0001362668990623206,0.0006864191382192075,0.0040848408825695515,1.432275166735053e-05,0.003648454789072275,0.0024684739764779806,0.0005861431127414107,-0.003495605895295739,-0.008342795073986053,-0.0010911134304478765,0.0056717898696660995,0.00010777087300084531,-1.3317415323399473e-05,0.0011288218665868044,-0.004989598877727985,0.00130698480643332,0.0015188456745818257,0.003866728628054261,0.007287183776497841,-0.0013610939495265484,-0.0025979045312851667,-0.003990664146840572,0.0003337420930620283,-0.0037584819365292788,-0.003366177435964346,-0.0023427417036145926,0.0010935465106740594,-0.0029761765617877245,0.002508715959265828,-0.0018856513779610395,-0.003268605563789606,0.002385403960943222,0.002566412789747119,0.006100768689066172,-0.0005291546694934368,0.0050282906740903854,0.0014844377292320132,-1.3076571121928282e-05,0.0003473862016107887,0.001958987442776561,0.001843523932620883,0.0035964823327958584,-0.0016944645904004574,-0.003110052552074194,0.006452586036175489,-0.003142236964777112,0.0025846820790320635,-0.002327756490558386,-0.005051256623119116,0.003160413820296526,0.004146862309426069,-0.0013465797528624535,-0.0029570269398391247,0.0036354383919388056,-0.003504615742713213,0.002653731731697917,0.00018755065684672445,-0.00014729943359270692,0.0006422731094062328,0.0009150042315013707,0.0027290061116218567,0.0022458708845078945,-0.006308720912784338,-0.0021039177663624287,0.0019277811516076326,-0.004820955451577902,0.00044084666296839714,-0.002594510093331337,0.00472467252984643,0.0016451835399493575,-0.00228342623449862,-0.0007086724508553743,0.001012185588479042,-0.001119674532674253,0.0032408316619694233,-0.0009629950509406626,0.005098886787891388,-0.0016728717600926757,-0.005612317938357592,0.0020329374819993973,0.001723596709780395,-0.0011559323174878955,-0.001724107889458537,-0.0001648882607696578,0.005483918357640505,0.0012758623342961073,-0.0030021292623132467,-0.003139888634905219,-0.0024784335400909185,-0.0007099681533873081,-0.000621065148152411,0.0021024176385253668,0.006866971030831337,0.003166838549077511,0.0004566039133351296,0.0011120743583887815,0.00023373345902655274,0.0014085847651585937,0.0029135355725884438,0.0005226779612712562,0.0032393140718340874,0.0020958855748176575,-0.0020931162871420383,0.008102240972220898,0.0006468414794653654,0.0011769451666623354
