0,1,2,3,4,5,6,7,8,9,10,11,12,13,14,15,16,17,18,19,20,21,22,23,24,25,26,27,28,29,30,31,32,33,34,35,36,37,38,39,40,41,42,43,44,45,46,47,48,49,50,51,52,53,54,55,56,57,58,59,60,61,62,63,64,65,66,67,68,69,70,71,72,73,74,75,76,77,78,79,80,81,82,83,84,85,86,87,88,89,90,91,92,93,94,95,96,97,98,99,100,101,102,103,104,105,106,107,108,109,110,111,112,113,114,115,116,117,118,119,120,121,122,123,124,125,126,127
0.8492105106913657,-0.2977841145463136,0.49429054796367256,0.013304151060285596,-0.5244852139945932,-0.21410260462708774,-0.7317327344540281,-0.9834567357507518,0.1413187737340198,0.36915867799374125,-0.07175512372499937,-0.10539806083154724,-0.3105611102313115,0.8470824357857794,-0.7143669911744286,0.11677550752676602,0.3037839054818334,0.18911678159818446,-0.3673137165390401,0.7575851098138966,0.46344403230646125,-0.0369857282874273,-0.5178739137550745,-0.055253483592233144,-0.9276627249370135,0.8984903546877896,-0.8714144868201039,-0.29815042969406536,0.10569186968461342,-0.578331884022377,-0.4356123764600901,0.8227843814322682,0.2570650269689565,0.5493617515558347,-0.31817001069683304,0.8436990547783512,-0.2466092983877719,-0.20646797448922283,0.8208204319007977,-0.21609029868773866,0.37906065810587064,-0.7287041167770432,-0.6504191780694109,0.027980880159186095,0.2629374542305116,-0.625700215226173,0.6410581933988717,0.9313472751321368,-0.7415898352462347,-0.7082662076664823,-0.5689565662996932,-0.6442952189222817,0.6343805042401516,-0.849572204454712,-0.40146572328142516,-0.8721155783896946,-0.264343058189594,0.7818821270572247,-0.9345069192252435,-0.22944345424406443,0.394139334446427,0.15751293244274733,-0.40807382041010265,-0.6479415565036195,-0.5495275580955803,0.2786435278398687,0.5624188563281827,-0.11493978421481965,0.07406749358188014,-0.279366559716711,-0.8237938706149328,0.08104853610449236,-0.8344289207908442,0.6859851708232065,0.08932283241942685,-0.7701668323564899,0.07534697070891783,0.3806241697019126,-0.06908074660232444,0.9434524050797115,0.17895760554590212,0.8578239826606584,0.8457190139132762,0.8817964433767891,0.6726218721305843,0.489711940648921,0.8165340545933302,0.5907556647968137,-0.5653212932306719,0.467196563301169,-0.543896337853506,0.11647712700463675,-0.6617827318310943,0.6989704227701519,0.24723662594942408,0.1101196589597504,0.670844541688586,-0.3648645371737518,-0.5859772746762542,-0.6953831642277357,0.11522126703943569,0.22647186556723242,0.930636129376657,-0.8507016820132691,-0.8678329138532577,0.8387596843664717,0.06516747357169783,-0.0774379764869022,-0.18175359489489673,-0.21978567920251368,0.5557419378572901,-0.3557859086942796,-0.6521238989514337,0.9441396491623915,0.2110647950850717,-0.35602101121944063,-0.6165805398685449,-0.670442468242644,0.16545696346904526,0.6304947879092877,-0.8718668340640152,0.8456112039644819,-0.4936494958493143,0.16674110612583726,0.6528486639197726,-0.39941134024976366,-0.21857673542839184,0.3547510349256642
-0.0019394098781049252,0.0002903298591263592,-0.0002081916609313339,0.0021700726356357336,-0.00020769705588463694,0.001622693263925612,-0.0012703720713034272,-0.0029595016967505217,0.002169756917282939,-0.001996680861338973,-0.002676087897270918,0.0014967877650633454,0.0011752134887501597,-0.0027905653696507215,-0.0013969261199235916,-0.0006709590670652688,0.003707494353875518,0.00020455264893826097,0.0025452582631260157,0.003835750510916114,0.0016349891666322947,0.0036649839021265507,0.003275133902207017,0.0013702074065804482,0.0032472519669681787,0.00323252915404737,0.0030292824376374483,0.00011133182124467567,-0.0012313504703342915,0.0013780177105218172,0.0032405981328338385,-0.0034187312703579664,-0.0025360144209116697,-0.0014113199431449175,-0.0003181828942615539,0.0012389596085995436,0.0028263977728784084,-0.0030975898262113333,-0.0033405751455575228,-0.00035659223794937134,0.0007396533037535846,0.0013765647308900952,0.000607954862061888,-0.004216847009956837,-0.000565519614610821,0.003939810208976269,-0.0005728526739403605,0.0014476198703050613,0.0025811688974499702,-0.0028277430683374405,0.003359589958563447,-0.0022564036771655083,-0.0026240225415676832,0.0006713882321491838,-0.002777997637167573,0.0004781228199135512,0.0013106913538649678,-0.0006327078444883227,0.0004751298110932112,-0.0022377565037459135,-0.0007509643910452724,0.0015228625852614641,0.0014178946148604155,-0.0037118017207831144,-0.0006506192148663104,0.0033338943030685186,-0.0007018045289441943,0.0030810299795120955,-0.0025457018055021763,0.003452003002166748,0.0010423054918646812,0.002501008566468954,0.00032367929816246033,0.00015448835620190948,-0.0031408907379955053,0.0026903587859123945,0.002859333297237754,-0.00032108777668327093,0.0014004322001710534,0.0013020383194088936,0.0024756540078669786,-0.0008067285525612533,0.0014303169446066022,0.0012424143496900797,0.00356852263212204,-0.002684714738279581,-0.0035659638233482838,0.0029056300409138203,-0.0029479980003088713,-0.0032360516488552094,0.00303823733702302,-9.308256994700059e-05,-0.0014570774510502815,-0.0005121975555084646,0.0036424535792320967,0.0011482456466183066,-0.0004848937096539885,-0.004140970762819052,0.0005854591145180166,0.003064780728891492,0.0030516511760652065,-0.0004013997968286276,0.0035243723541498184,0.0034364252351224422,-0.002221648348495364,-0.002772734733298421,0.0019022136693820357,-0.0009058919386006892,-0.0013502096990123391,-0.003256451804190874,-0.0027487233746796846,-0.002915317425504327,0.0005984919844195247,-0.002903719898313284,-0.0019807307980954647,0.00014181551523506641,-0.001145872287452221,0.0034460320603102446,-0.0012175169540569186,-0.0021949175279587507,-0.00025193538749590516,0.001331822481006384,-0.0015532433753833175,-0.002172964857891202,-0.0035734970588237047,0.0006698899087496102,0.0018397902604192495,-0.00029230289510451257
-0.0028227688744664192,-0.0032028008718043566,-0.0006725586135871708,0.0014914440689608455,-0.0005475717480294406,-0.002371105831116438,0.002799678361043334,0.0020058900117874146,-0.0021511013619601727,-0.003949991427361965,0.0011301034828647971,-0.002734952140599489,0.0018088569631800056,0.00039441449916921556,0.00011991500650765374,0.0007451155688613653,0.0028310713823884726,-0.0004642595595214516,-0.0031331388745456934,-0.0034951483830809593,0.0011162619339302182,0.003848631866276264,-0.002083314349874854,-0.0018842134159058332,0.0012186134699732065,-0.0017199942376464605,-0.0005712800775654614,-0.00046075962018221617,-0.0008243192569352686,0.00236455537378788,0.0009564645006321371,0.0025636344216763973,0.0011464516865089536,0.0039115953259170055,-0.0005372000741772354,-0.0011405684053897858,0.0019211511826142669,-0.002951845293864608,-0.0037034088745713234,-0.0020296082366257906,0.00277639995329082,0.0034690070897340775,0.0023947753943502903,-0.003714313032105565,0.0013206336880102754,0.0042349505238235,-0.0040268972516059875,-0.003979786299169064,-0.0018476839177310467,-0.0011154660023748875,4.956104021403007e-06,-0.0036018118262290955,-0.0024086697958409786,0.002777748741209507,-0.0021004434674978256,-0.002203276613727212,-0.0013831998221576214,0.003538932651281357,0.0012474096147343516,0.0022745791357010603,0.002648681867867708,-0.0015826724702492356,0.0037636756896972656,0.00328530534170568,1.537301068310626e-05,-0.00040060511673800647,-0.004264350514858961,0.0021944388281553984,7.1216504693438765e-06,-0.0018883495358750224,-0.0019375620177015662,0.0010534973116591573,0.0008114127558656037,0.0013812747783958912,-0.003920909948647022,0.0014355842722579837,0.0022303233854472637,0.0024923367891460657,0.0022383625619113445,0.0028074919246137142,-0.002219254383817315,-0.0012320502428337932,-0.003943056333810091,0.0020640199072659016,-0.00306613277643919,-0.003147568553686142,0.0020786160603165627,0.0007811249815858901,0.0010318608256056905,-0.0016019208123907447,0.0006859986460767686,0.0025976181495934725,0.0025425588246434927,0.0022516227327287197,0.002277379622682929,-0.0025193062610924244,0.0008076389203779399,0.0018600717885419726,-0.0014777487376704812,-0.000475531502161175,-0.0018675124738365412,6.988954555708915e-05,-0.0003968647215515375,-5.4896616347832605e-05,-0.0012225934769958258,0.001290012733079493,-0.003444734960794449,-0.0029407620895653963,-0.003220472950488329,-0.003034986089915037,-0.002229275880381465,-0.004022702109068632,-0.0038195522502064705,-0.003301647026091814,0.003981725312769413,-0.001831666100770235,-0.0014708229573443532,0.0028580022044479847,0.0017599717248231173,-8.556981811125297e-06,0.0026139840483665466,-0.002480963012203574,-0.002062022453173995,0.000802589871454984,-0.002987043699249625,0.003537525190040469,-0.00147607724647969,-0.0008386895642615855
-0.0036194107960909605,0.00104585662484169,0.0017847740091383457,-0.0030810723546892405,0.0001249699853360653,0.0033471197821199894,0.003664175746962428,0.0012086317874491215,-0.0033515198156237602,-0.0001359414163744077,0.003428205382078886,0.0018531735986471176,0.0001925148826558143,-0.0023061835672706366,0.0038924110122025013,-0.003389323130249977,0.002423431957140565,0.00013778838911093771,-0.0005514957592822611,0.00288259144872427,-0.0008491307380609214,-0.0011624644976109266,-0.003687045071274042,-0.003237467259168625,-0.0024604310747236013,-0.0022195789497345686,-0.003909078426659107,-0.0010468462714925408,-0.0036600830499082804,0.0019493951695039868,-0.003713188460096717,-0.003458081977441907,-0.003067274112254381,-0.0025290900375694036,-6.0942471463931724e-05,-0.001816175994463265,0.0005054808571003377,-0.002658279612660408,0.0019103728700429201,0.001292604487389326,-0.0015336775686591864,-0.0032400772906839848,0.0008331224671564996,-0.0007157830987125635,-0.0012937794672325253,-0.0025150307919830084,0.0007816364523023367,-0.00015959936717990786,0.0010658684186637402,0.003694952931255102,-0.0009324857965111732,0.0018084722105413675,0.0036074856761842966,-0.003125350456684828,-0.002187091391533613,0.0038129352033138275,0.0008491465705446899,0.002486460143700242,-0.0031626371201127768,-0.0007402685005217791,0.0023982475977391005,0.002847166731953621,0.002877018880099058,0.003394129453226924,-0.0017749344697222114,0.0008466679719276726,-0.002694018417969346,-0.001459588180296123,-0.0009995070286095142,-0.0005393847241066396,-0.0031775233801454306,-0.002512253588065505,0.0025262951385229826,-0.002285728696733713,0.003508569672703743,0.0019626449793577194,-0.0012008743360638618,-0.0017121665878221393,0.0029786499217152596,-0.003298226511105895,-0.0009444407769478858,-0.0006798262475058436,-0.0031222370453178883,-0.002062251092866063,-0.001218230463564396,-0.0011078250827267766,0.002840916160494089,0.00141895969863981,-0.0023741491604596376,-0.0006439969292841852,0.0032500792294740677,0.00383502128534019,0.00029771780828014016,0.0023129733745008707,0.0015008877962827682,-0.0022221985273063183,-0.0013298343401402235,0.0031443010084331036,0.0018238021293655038,-0.00377542432397604,0.0030672873836010695,0.0004263205046299845,0.002852651523426175,-0.000825932074803859,0.0009143806528300047,-0.0034367337357252836,-0.0004595512873493135,0.0018629813566803932,0.0022155253682285547,0.0016097880434244871,0.0022911664564162493,0.00033241353230550885,-0.0036600639577955008,0.001497542718425393,-0.0001069144782377407,-0.00013777747517451644,-0.0019839713349938393,0.001838363823480904,-0.003007521852850914,-0.0032756656873971224,0.0038318298757076263,0.0024326699785888195,-0.002130399690940976,-0.003068328835070133,-0.00023080097162164748,0.0037104899529367685,0.002388864988461137,0.00013065729581285268
0.002330394461750984,0.0006818881374783814,0.0034943383652716875,0.0031944778747856617,0.0009449747740291059,-0.002946362132206559,0.0009043337195180357,0.001328374375589192,0.003854206996038556,-8.580385474488139e-05,-0.0010793890105560422,-0.0003410386270843446,-0.0021047668997198343,0.0026736429426819086,0.0038186071906238794,-0.0005988224293105304,-0.0017042680410668254,-0.0016980728833004832,0.0019118895288556814,0.00021986918000038713,0.001741789048537612,-0.0029816660098731518,-0.0020264536142349243,0.0008048649178817868,-0.0014243311015889049,0.0034821005538105965,0.0011381921358406544,0.0036655901931226254,-0.0026263005565851927,-0.00274871988222003,-0.0002761739306151867,-0.00254692230373621,-0.00383526342920959,-0.0014180277939885855,0.0031608804129064083,0.003847953164950013,-0.0027213343419134617,3.293090412626043e-05,-0.0009886916959658265,-0.002194100758060813,-0.0021313591860234737,0.0032089322339743376,0.000848143536131829,0.0010642410488799214,0.003648284822702408,0.002715559909120202,-0.0038946433924138546,-0.0005746203241869807,-0.0021300185471773148,0.0012176672462373972,0.0023760085459798574,0.0003624043019954115,0.0003105424693785608,-0.0016972487792372704,-0.0021913666278123856,-0.0034413232933729887,-0.002842515939846635,-0.0038769312668591738,0.001496149692684412,0.003191037103533745,-0.0014849182916805148,7.125754200387746e-05,0.0016731256619095802,2.2698601242154837e-05,0.0031376448459923267,0.0008295941515825689,0.002926785731688142,-0.0005881729302927852,-0.0027570428792387247,-0.0019559345673769712,0.0019181149546056986,0.0012044509639963508,0.003022522432729602,-0.0016910398844629526,-0.0026510730385780334,-0.0021141788456588984,0.0018674902385100722,-0.002265573712065816,0.0005647111684083939,0.0038671770598739386,0.0004633628705050796,0.0019983556121587753,0.0008099122787825763,-0.00044714799150824547,-0.003459470346570015,0.0010270613711327314,0.002694566734135151,-0.000550098717212677,0.0004960202495567501,-0.0016249195905402303,-0.0031985826790332794,-0.002518170513212681,-0.0022859557066112757,0.000872276199515909,0.00033768717548809946,-0.00079146190546453,3.5139000829076394e-06,0.0004940743092447519,0.0008397297351621091,0.00042955944081768394,-0.002265393966808915,0.002697194693610072,0.0028217078652232885,0.0017891303868964314,-0.00013356917770579457,-0.0013324334286153316,-1.5538806110271253e-05,-0.00041975246858783066,0.00362693821080029,0.003521072445437312,0.002479474525898695,0.0007222905987873673,0.002589244395494461,0.0033053879160434008,-0.0021095299161970615,-0.0019345753826200962,0.00024258268240373582,-0.0020291260443627834,0.003614055225625634,-0.0015525973867624998,-0.0007674135267734528,-0.00026378576876595616,-8.800069917924702e-05,0.001952629303559661,-0.0033540234435349703,-0.0008669556118547916,-0.0026055830530822277,0.0012819701805710793
0.000480776303447783,0.0027554119005799294,-0.0011871387250721455,-0.0027550598606467247,0.00024660176131874323,-0.0031492263078689575,0.0010893546277657151,0.0020261136814951897,-0.0026107963640242815,0.0024133792612701654,0.0014788383850827813,-0.0011447928845882416,0.0010260719573125243,0.0029844590462744236,-0.003719557076692581,-0.002721334807574749,0.00014693642151542008,0.0025387387722730637,-0.0014786048559471965,0.001948720426298678,-0.0006888124044053257,-0.0016806380590423942,0.001519372221082449,0.000956812291406095,-0.0036143397446721792,0.0004480589122977108,-0.0033270870335400105,0.003165948437526822,0.0007841114420443773,-0.0032445413526147604,0.00015396831440739334,0.00048638484440743923,0.0016266349703073502,0.0024301318917423487,-0.0017958389362320304,-0.002456124173477292,-0.003985277842730284,0.0036641880869865417,-0.0002492697967682034,-0.00182968913577497,0.002897735917940736,0.003593823406845331,-0.00032942311372607946,0.0008706048829481006,0.003566584549844265,0.0011545689776539803,-0.0007039241027086973,-0.001952177844941616,0.0008234412525780499,-0.0005865218117833138,0.0007135975756682456,-0.0024063722230494022,0.0010548317804932594,-0.0005975913954898715,-0.001963219605386257,-0.0017719039460644126,0.0022409814409911633,-0.00042315866448916495,-0.003954699262976646,0.0004885108792223036,-0.00042754682363010943,-0.0015547543298453093,0.0016693418147042394,0.0013601070968434215,-0.003066478529945016,-0.0005513809155672789,0.0023417528718709946,-0.002859261119738221,-0.001258240663446486,0.0007756709237582982,0.002439657924696803,-0.002584797563031316,-0.001997130922973156,0.0021173979621380568,0.0033062405418604612,0.0023280379828065634,-0.0026413570158183575,-6.225732795428485e-05,-4.1240525661123684e-07,-1.954495564859826e-05,0.0018884595483541489,0.0009859284618869424,-0.0037277438677847385,0.0037362610455602407,0.0007060437346808612,0.0009656835463829339,-0.0036949417553842068,0.0018069630023092031,0.0024153050035238266,-0.00011717136658262461,0.0012799088144674897,0.0013430818216875196,0.0013072158908471465,0.0001359366433462128,-0.0016456479206681252,0.0031073293648660183,-0.0036932872608304024,-0.0010913183214142919,-9.114628483075649e-05,-1.2293901818338782e-05,-0.002116908086463809,0.0033413167111575603,0.0020125312730669975,-0.00033710579737089574,-0.0016201941762119532,0.0034726166632026434,-0.0015469721984118223,0.0014710290124639869,-0.002802470466122031,0.0009190565324388444,-0.0008159259450621903,0.0037194325122982264,-0.0012078648433089256,-0.000520859204698354,0.0018445674795657396,0.0016276086680591106,0.0019281940767541528,0.0008077314705587924,-0.0006933642434887588,0.0034393933601677418,-0.0010574397165328264,-0.0004171653708908707,0.0005029901512898505,0.0033676177263259888,-0.0018007070757448673,-0.00019030203111469746,-0.0013806072529405355,-0.000150861160364002
0.0017158349510282278,0.000986349070444703,-5.944430085946806e-05,0.0008658720762468874,0.0018839639378711581,-0.0022222325205802917,0.002418763702735305,-0.0010774437105283141,-0.0023497433867305517,-0.0031597253400832415,-0.0018125332426279783,0.002027082024142146,-0.003041390795260668,-0.0018975017592310905,0.0014520118711516261,-0.0005535398959182203,0.00037614034954458475,0.0006770594627596438,0.0021569831296801567,0.0007540604565292597,0.0029227486811578274,-0.0005407935241237283,0.00012806961603928357,-3.118584572803229e-05,0.003996595274657011,0.0027183378115296364,-0.001095030689612031,0.0029675476253032684,-0.0031554605811834335,-0.0015372858615592122,-0.0026934288907796144,0.0015580584295094013,-0.0009303914848715067,-0.00025386791094206274,0.0012936231214553118,0.002246564021334052,-0.0011275091674178839,0.0010261188726872206,-0.002312010619789362,-0.0024741939269006252,0.003171319607645273,-0.001970359357073903,0.0030007357709109783,0.002334428485482931,-0.002304392633959651,0.0023680697195231915,-0.0011627457570284605,-0.001337540685199201,0.003510246053338051,-0.0013581826351583004,-0.00015312182949855924,0.0031313905492424965,-0.002192035084590316,-0.002564279595389962,0.0018817945383489132,-0.0012188686523586512,-0.0022660568356513977,-0.002236315980553627,0.002695969305932522,0.002035691635683179,0.0018961223540827632,0.0020773911383002996,-0.0004961053491570055,-0.0020544989965856075,-0.0013029014226049185,-0.0038771298713982105,0.0036500832065939903,-0.0020188281778246164,0.0018251818837597966,0.00383767019957304,-0.0006679876823909581,0.0013218170497566462,-0.0007140516536310315,0.002541476860642433,-0.0038676471449434757,-0.0017654481343925,-0.003820904530584812,-0.0015889140777289867,-0.0023691330570727587,-0.001195942284539342,-0.0020450339652597904,7.07379003870301e-05,0.0028913237620145082,0.002981020137667656,-0.0019018914317712188,0.0035658464767038822,0.003432892495766282,-0.0010019573383033276,0.0009767520241439342,-0.0004760582814924419,-0.002918811747804284,-0.0003563750069588423,0.0035030983854085207,-0.0031098127365112305,-0.00021688634296879172,-0.0006777993985451758,-0.002125157741829753,-0.002320783445611596,0.0021767092403024435,-0.0038425540551543236,0.003370592836290598,-0.000853686302434653,-0.003044812474399805,-0.0011018374934792519,0.0005887402803637087,0.001085249474272132,-0.003997876308858395,-0.0021201346535235643,0.001499665668234229,0.0013220557011663914,-0.00128057855181396,0.002257713582366705,0.0017906149150803685,0.0007080142968334258,-0.0022972561419010162,-0.0008742644567973912,-0.00029935259954072535,0.0026446860283613205,0.0026031960733234882,0.003452644683420658,-0.0022760839201509953,-0.0005414285114966333,0.000552566722035408,0.0015338701196014881,0.0025236771907657385,-0.00039790128357708454,0.0024197676684707403,-0.003166987095028162
0.003656094428151846,0.002793252468109131,-0.00026349833933636546,-0.0013381633907556534,0.0038813897408545017,-0.0019364745821803808,0.003016300033777952,0.0008672055555507541,-0.003491851733997464,0.0012274490436539054,0.0004124952538404614,0.0005884516285732388,0.003580138785764575,-0.0038241955917328596,0.0008918974781408906,5.122463699080981e-05,0.0010912377620115876,-0.00022846173669677228,0.003418486565351486,-0.0027897153049707413,0.002970922738313675,-0.003823404898867011,-0.0037099244073033333,-0.0032507225405424833,-0.0035601730924099684,-0.0010558631038293242,-0.0035898247733712196,0.0017044749110937119,-0.0018951257225126028,-0.003673286410048604,0.0037537880707532167,0.0038230307400226593,0.0032141152769327164,0.00014285212091635913,0.0019488150719553232,0.0028112195432186127,-0.0019711856730282307,-0.0021925275214016438,0.0009510298841632903,-0.0002647814399097115,0.002447169041261077,0.0037501780316233635,0.0015342952683568,-0.0022966673132032156,0.0002663040941115469,0.00247784866951406,0.003359895898029208,0.003193340264260769,0.0008142880978994071,-0.003674162086099386,0.001794376876205206,-0.0037619024515151978,-0.0024751059245318174,0.00026388076366856694,0.0005254151183180511,0.003694892395287752,-0.003370443359017372,0.003590427339076996,-0.0018963689217343926,-0.003460433566942811,-0.002472210442647338,0.0016736966790631413,0.000280771084362641,-0.0035637356340885162,-0.0004332791140768677,-0.00048129618517123163,-0.0014176825061440468,0.0016590147279202938,-0.0014734576689079404,-0.000895516132004559,-0.003199172206223011,-0.002510213991627097,0.003343909280374646,0.0022117861080914736,0.0010654738871380687,5.765069363405928e-05,0.0037277706433087587,-0.0022560697980225086,-0.001491656876169145,0.0020050513558089733,-0.003354074666276574,-0.002102948259562254,-0.0009157125605270267,-0.0005564589519053698,-0.0015165504300966859,-0.001682765199802816,-0.002792085288092494,0.00272826524451375,-0.0015561149921268225,0.003355626482516527,0.0012441762955859303,0.00043128905235789716,0.0029760401230305433,0.000989372842013836,0.0009204369271174073,-0.0021352318581193686,0.0006905502523295581,0.0019876190926879644,0.002892777556553483,0.002511167898774147,-0.0001695893006399274,0.001405842136591673,7.350159876295947e-07,0.0012604015646502376,0.0004360724415164441,-0.0037442962639033794,-0.0011675923597067595,-0.0011659425217658281,0.000858577317558229,-0.0005253546987660229,0.0019490605918690562,-0.002495561959221959,0.0032704074401408434,-0.0028393815737217665,5.414626866695471e-05,-0.0007511244621127844,0.0035840473137795925,0.00147141027264297,-0.00313451886177063,-0.00361204263754189,-0.00269864103756845,-0.0005487642483785748,0.0003937364090234041,-0.0038147205486893654,-0.003532326314598322,-0.0017045900458469987,0.00035119836684316397,1.0160641068068799e-05
0.00258046155795455,-0.0027893485967069864,0.003808520035818219,-0.003062799107283354,-0.0025024241767823696,0.0030419828835874796,0.0021033864468336105,-0.0022804702166467905,0.003156133461743593,0.003341197269037366,0.0029837307520210743,-0.003189738839864731,0.0004676404350902885,0.0030456187669187784,0.001517105964012444,0.0024372830521315336,0.002135420683771372,0.002223978051915765,0.0035512216854840517,0.00017187425692100078,-0.0012508337385952473,0.001169638941064477,0.0037175100296735764,-0.003589923959225416,0.001405046903528273,-0.0034805391915142536,-0.002903631655499339,-0.0022396480198949575,0.001985108247026801,0.003925590310245752,0.00017249163647647947,0.002879523439332843,0.00029857372283004224,-0.0035525173880159855,-0.0022823037579655647,0.003098673652857542,-0.0029299715533852577,-0.0007453399593941867,0.001989986514672637,0.0018003182485699654,-0.0021378211677074432,-0.00230180355720222,-0.003303146455436945,0.002473633736371994,-0.00011362389341229573,-0.000487752549815923,-0.002391135785728693,0.003705293871462345,0.0029495898634195328,0.00116611341945827,0.0023115321528166533,0.0005979462875984609,0.002093781251460314,-0.0034140858333557844,0.0021417022217065096,0.0010062510846182704,0.0008603755850344896,-0.002942518098279834,-0.0036814019549638033,0.001600000075995922,-0.0017881535459309816,-0.00033818307565525174,-0.0006121767219156027,0.003462274558842182,-4.297650957596488e-05,0.0028159618377685547,0.001313336892053485,0.0020029209554195404,-0.002783402567729354,-0.00034680840326473117,0.001246390980668366,0.0031131026335060596,-0.0010571031598374248,0.003206040244549513,0.00019279266416560858,0.0011570403585210443,-0.003474231343716383,0.002221945207566023,-0.00176719157025218,-0.003214167198166251,-0.0007626187289133668,0.002770703751593828,0.0024283654056489468,0.0034003823529928923,-0.0006779445102438331,-0.0022785416804254055,-0.004123528953641653,0.0006793467327952385,0.0017946757143363357,0.0020674606785178185,0.0034201405942440033,-0.003025657497346401,0.00117387599311769,0.002200001385062933,0.0013569820439442992,-0.0026461314409971237,0.003214897820726037,-0.0030614046845585108,-0.001101269037462771,-0.00279477727599442,0.0025148976128548384,-0.0016045515658333898,0.00241691991686821,-0.0032738482113927603,-0.00039940900751389563,0.0004087393172085285,-0.00012716591299977154,-0.000812385871540755,-0.0006629992858506739,0.0018001158023253083,-0.0016377395950257778,0.0025774373207241297,0.0030589608941227198,-0.0025112933944910765,-0.0020522482227534056,0.0026213042438030243,0.0013698339462280273,-0.0026562297716736794,0.0014320854097604752,-0.0013319654390215874,0.0012420258717611432,-0.0016693758079782128,0.0030401302501559258,-0.0035039917565882206,0.002535735722631216,0.0029641129076480865,0.0033006425946950912,0.0034008228685706854
-0.0016708523035049438,0.0013276445679366589,0.0035588133614510298,0.0011844740947708488,0.0010578439105302095,-0.0030230721458792686,0.0026262239553034306,-0.0005528111942112446,-0.0014738752506673336,-0.002845973474904895,0.0023075237404555082,-0.001375627121888101,-0.0012340887915343046,0.00431264890357852,0.0027497773990035057,0.003970497753471136,-0.0026519973762333393,-0.002868922892957926,-0.0012033823877573013,-0.003506258362904191,0.0011872195173054934,0.0029249705839902163,0.0020402970258146524,-0.0012261896627023816,-0.0021979920566082,0.00083867710782215,-0.003765711560845375,0.004122140817344189,-0.0027105449698865414,-0.0011827686103060842,0.003816889598965645,-0.002016572980210185,0.003178001381456852,0.002289229305461049,0.0033765737898647785,0.0006176716997288167,-0.002213001949712634,-0.0017471369355916977,-0.001838278491050005,0.0010065523674711585,0.0005107821780256927,-0.003079118672758341,0.0006362993735820055,-0.004124299623072147,-0.0004965876578353345,0.0008616963750682771,0.0005390716250985861,-0.001771995215676725,0.000577007420361042,-0.002781494287773967,-0.0006726588471792638,-0.003570674452930689,-0.0017670587403699756,-0.0001311228406848386,-0.0012422280851751566,-0.002571053570136428,-0.0012804779689759016,-0.003223248990252614,0.003185494337230921,0.0036505183670669794,0.0017576648388057947,-0.0036321100778877735,0.003242342034354806,0.0013365159975364804,0.0006223618402145803,-0.003080248599871993,0.0022039408795535564,-0.00024711809237487614,9.352106280857697e-05,-0.0036993627436459064,-0.0022793267853558064,-0.002943487837910652,0.0009546688525006175,0.0036509139463305473,0.0004073122108820826,0.0010999313089996576,0.0016505680978298187,0.0003509709204081446,0.003315812675282359,-0.0025530485436320305,0.00017815838509704918,-0.0015270138392224908,0.0010138918878510594,-0.0028387608472257853,0.004150611348450184,-0.00047138851368799806,0.001955127576366067,-0.001469133305363357,-0.0025708426255732775,0.002362081315368414,-0.0037647781427949667,-0.0024570266250520945,-0.0006171390414237976,4.806885408470407e-05,-0.002291468670591712,0.002462265780195594,-0.000818590575363487,0.0018906252225860953,0.0006531073013320565,2.0723834950331366e-06,0.0020214670803397894,-0.0022541633807122707,5.461407454276923e-06,-6.725806088070385e-06,0.0028915395960211754,-0.002629372524097562,0.0017837040359154344,-0.0026393455918878317,-0.0004357994766905904,0.004066613037139177,-0.000791343511082232,0.0017844298854470253,0.00289465906098485,-0.0020834163296967745,-0.003248104127123952,-0.0031930003315210342,-0.0011522938730195165,-0.0019335175165906549,-0.0016850415850058198,-0.003254595212638378,-0.0017072557238861918,-0.0019248269964009523,-0.0007750097429379821,0.0021926825866103172,-0.0021558720618486404,-0.000788352161180228,0.0013572507305070758,-0.003075530519708991
-0.0009147870005108416,0.002839416731148958,-0.00033122775494121015,0.0021635715384036303,0.0008844746625982225,-0.001887956284917891,0.0038788130041211843,-0.0008909380412660539,-0.000492758525069803,-0.0018684411188587546,0.0036935259122401476,-0.0033509903587400913,0.0002603782049845904,0.0031847546342760324,-0.0030364489648491144,0.002487796824425459,0.002618157071992755,-3.0072802474023774e-05,-0.001086295465938747,-6.389990448951721e-05,-0.0033007243182510138,-0.002436885377392173,0.001531104906462133,0.0015283907996490598,0.0010696398094296455,0.001638301881030202,-0.0021161208860576153,0.0016038240864872932,0.0026536029763519764,-0.000524654402397573,0.0017703023040667176,-0.0033755917102098465,-0.001251698238775134,-0.0033642426133155823,-0.0004529631114564836,0.002058947691693902,-0.0016971305012702942,0.003363410709425807,-0.001534243463538587,-0.0008990198257379234,-0.0006921368185430765,-0.0020310571417212486,-0.002201859140768647,0.0011827213456854224,-0.00250046094879508,-0.002871464239433408,0.003526793560013175,0.003135007806122303,0.003531422931700945,-0.0003523482591845095,-0.0035009589046239853,-0.0030243650544434786,-0.003572816029191017,-0.0021753781475126743,0.0012883805902674794,0.00039604181074537337,0.0010992587776854634,-0.0022752953227609396,0.0016629858873784542,0.00042451152694411576,-0.0024309551808983088,0.0009290948510169983,-0.00207532849162817,-0.0037893953267484903,-0.003150253789499402,-0.0002687073720153421,-0.001996829640120268,-0.00226368336006999,-0.0033303729724138975,0.003415819490328431,-0.0020253744442015886,0.003553002141416073,-0.002962851896882057,0.00349811976775527,-0.0009938664734363556,0.003016508650034666,0.0030900558922439814,0.0020835204049944878,0.0002145551552530378,0.00248715840280056,0.0020968904718756676,-0.0033782697282731533,0.0010426037479192019,0.001692238380201161,-0.0015674110036343336,0.0037952763959765434,-0.0012661402579396963,0.000641816237475723,0.00029984189313836396,-0.0020609854254871607,-0.00022515960154123604,0.0016789333894848824,-0.0007769218645989895,-0.003672075690701604,0.0038458562921732664,-0.002733885310590267,-0.00012288117432035506,-0.0007242371211759746,-0.0027496095281094313,0.0006808324833400548,0.003003442892804742,-0.0031128120608627796,0.002312151715159416,-0.0003316219663247466,0.003291689557954669,-0.001163284876383841,0.0028482512570917606,-0.0012999462196603417,0.0035713338293135166,0.00290400767698884,0.0024788123555481434,0.0035570363979786634,-0.0009950636886060238,-0.0007914473535493016,0.0006329580210149288,0.002769714454188943,-0.001819123513996601,0.003633353626355529,-0.0025742275174707174,-0.0032574154902249575,-0.00346610089763999,0.003833252238109708,0.002963488921523094,-0.003786480985581875,0.0034962662030011415,-0.0014822230441495776,-0.0027780819218605757,-0.0024069505743682384
-0.006203486700989025,-0.9890991671853557,0.1023416116591449,0.4171023379283372,-0.19417255127361233,-0.6574466348215979,-0.8297804764254078,0.770115128729048,0.7860069198122279,0.2240322965089696,0.05896074702317944,-0.9480586413264418,-0.7944471585486741,-0.670908159154703,0.6979118368952157,-0.32345377220153027,0.24473950513429554,0.137717646143251,0.06195840902758687,-0.11308160483573948,0.8273919713450595,0.2740939385880081,0.6334518169537997,-0.4887825211360328,-0.14032156548305674,-0.938900649582459,0.44312518879789975,-0.5619628243961714,0.8059189512467051,0.0811943606501686,-0.6288926104168431,-0.8612675336155722,-0.46923671649786414,-0.3991417264394004,-0.3024127046268028,-0.18064830061197368,0.06668718147883723,-0.8483170287338946,-0.5411072100548475,0.872456986282778,0.03705520302438314,-0.7135048543703764,-0.7866112548719737,0.9338987413324127,0.48709759622124915,-0.8591846719512233,0.4466593488222663,0.14567567282642901,-0.2408846278656438,-0.4749790454592495,-0.9036003603122542,-0.5860286765165272,0.3996998237613478,-0.1480224230648124,0.3053425898359168,-0.4825520285946001,-0.4069744864653271,0.2182786949765858,0.10205980239426249,-0.4340270194499971,-0.05266177292357965,0.9734150332465863,-0.03913030418250152,0.8127355246807333,-0.48162629246425537,0.08814078961932048,-0.3167503913026337,-0.9070996040629951,-0.32525828521888434,0.24469977219299222,0.6486371486911309,0.5737490268298799,-0.9462854606734266,-0.537158516354538,-0.11334985005691367,-0.9365484179974879,0.6901161990819504,-0.9885042659095469,0.4792142089930318,-0.9959435945199282,0.30908382653129407,-0.14562310981401083,-0.06362410081072634,0.41764828618002126,-0.04915934863085014,0.40535418881786467,0.602582221226597,0.8315166470554467,-0.12500175979896788,-0.8810759973301965,0.43402210935461505,0.22652714726947631,0.5562641717599264,-0.8226110105279019,0.7148432895555761,-0.7877408139351465,-0.16139407676527773,0.5109870967070493,0.5357556728509456,-0.6083819093628473,-0.09550220818859789,-0.19741156525931736,0.34644440984425495,0.16834072756927032,0.4217870612286876,0.5359826011007185,0.1956605150598303,-0.08694380171555349,-0.6286043058219659,0.7346867825917385,0.007626463660969973,-0.3484615594525702,-0.17706678777399376,0.46275234802202014,0.28058671902646126,0.08808814100890738,0.7317124844100316,0.515896740644046,0.6788567217371617,0.8286883840666275,-0.49725557635667306,-0.10600601650137365,0.257397427497978,-0.24766260218377267,-0.7190633885672253,0.3635932952004177,0.228898329609325,-0.46599597192699305
-0.0008857492357492447,-0.0033595196437090635,0.0027179790195077658,0.0030656412709504366,0.0023745065554976463,0.002026420785114169,-0.0032704598270356655,0.0033121106680482626,-0.002688702428713441,-0.0038276156410574913,-0.0030432366766035557,0.0010450955014675856,0.0006912092794664204,-0.0036542178131639957,0.002557499799877405,0.0033026954624801874,-0.002978116273880005,-0.0011185857001692057,0.0014810581924393773,-0.0027833390049636364,0.00015173126303125173,-0.003428311552852392,0.002282720757648349,-0.0021834392100572586,0.002313368022441864,-0.0011046649888157845,0.0005684157367795706,-0.0005752723664045334,-0.001815999741666019,0.0020152966026216745,-0.00023668314679525793,5.0942817324539647e-05,-0.00013125804252922535,-0.002907367190346122,-0.002339180326089263,0.0020494218915700912,0.00039655822911299765,-0.0035035761538892984,0.0011658818693831563,0.00035994863719679415,-0.002557068597525358,0.0015135237481445074,-0.0024935544934123755,-0.0024335645139217377,0.0009886350017040968,-0.0020365111995488405,-0.003751013893634081,-0.0023090632166713476,0.00398797495290637,0.002582663670182228,-0.00014329649275168777,0.0035133773926645517,-0.0031968585681170225,0.003320485120639205,-0.00028264548745937645,-0.0010460164630785584,-0.0028417243156582117,0.0035637381952255964,0.0023937923833727837,-0.002230455167591572,-0.0013952198205515742,0.0013003925560042262,-0.003280160017311573,0.0021119986195117235,0.003008022205904126,-0.0003540844772942364,-0.0021307424176484346,-0.0007860492332838476,0.0010815367568284273,0.0038624980952590704,-0.001812573755159974,-0.0024655743036419153,0.0030672994907945395,0.0007790164672769606,0.0009002136066555977,-0.0009199571795761585,0.00025141428341157734,-0.003828615415841341,0.0005821266677230597,-0.0021111182868480682,0.0028685471042990685,0.000522958638612181,-0.003719966160133481,0.003162754001095891,0.0012456211261451244,0.002104886109009385,0.0012346672592684627,0.0017666046041995287,-0.0038638534024357796,0.002745772013440728,0.002247536089271307,-0.001328605692833662,0.00015888748748693615,0.0007726586773060262,-0.0016664250288158655,0.0020330483093857765,0.000779888010583818,0.000826581206638366,0.0030457573011517525,0.0025120298378169537,-0.0007491929573006928,0.0027627574745565653,0.0020321961492300034,0.00038982994738034904,0.003202754771336913,0.0024400788825005293,0.0011673852568492293,-0.002148122526705265,-0.0003023304743692279,0.0016675228253006935,0.0011638771975412965,-0.00098326220177114,0.002761233365163207,0.0033399960957467556,-0.003467671340331435,0.0001306959893554449,0.0036649806424975395,0.0028468635864555836,0.0034909320529550314,-0.0022820266894996166,0.0019333584932610393,0.003540543606504798,0.0038316447753459215,-0.0038705815095454454,0.002249873476102948,0.0009448917699046433,-0.002204794669523835,-0.002000061795115471
0.0008344778907485306,-0.0012118113227188587,0.00256637972779572,-0.0036204501520842314,-0.0007421619957312942,0.001888717757537961,-0.0021167502272874117,-0.0029269831720739603,0.0007749474607408047,0.0020721929613500834,-0.0001736584526952356,0.0025510729756206274,-0.0009584990912117064,0.00404445780441165,-0.0021742854733020067,-0.00033615814754739404,-0.0035273574758321047,0.0017523599090054631,0.000822854635771364,-0.0026641266886144876,0.0008278957102447748,-0.0022668512538075447,-0.003253460396081209,-0.0036836592480540276,0.00024958993890322745,-0.0023152967914938927,0.0006001789006404579,-0.0028608033899217844,0.0007472956203855574,0.002922982210293412,-0.003395096631720662,-0.0006183309596963227,0.0027027716860175133,0.00026404272648505867,-0.0036054032389074564,-0.0027993235271424055,-0.001805754378437996,0.002364521147683263,-0.0018332842737436295,0.00043620908400043845,0.0036446871235966682,0.0011977547546848655,-0.0023039078805595636,-0.0034377346746623516,0.001400310662575066,-0.0034980480559170246,-0.0026349083054810762,-0.0011164093157276511,-0.0034081880003213882,-0.00042500358540564775,0.00291352067142725,0.0030899355188012123,-0.0018243174999952316,0.0016426483634859324,-0.0012150725815445185,0.0027155589777976274,-0.0020273833069950342,-0.0004946972476318479,-0.00010331359226256609,0.0015831406926736236,-0.001986989751458168,0.00022112599981483072,0.001513711758889258,0.0020623942837119102,0.0018508653156459332,-0.0015681354561820626,-0.0032309661619365215,-0.001291922410018742,0.001966155832633376,-0.0025594804901629686,-0.001740724197588861,0.002739784773439169,-0.001377637847326696,-0.0019253493519499898,-0.0020777671597898006,-0.00016612665785942227,0.0025205928832292557,-0.0037189454305917025,-0.003479947801679373,-0.0008669632952660322,-0.002744556637480855,0.003055163426324725,0.00303959334269166,0.001702056615613401,-0.0035252224188297987,-0.0013193754712119699,0.0014755238080397248,-0.00117015209980309,-0.002550765872001648,0.002609784249216318,0.002060159808024764,-0.0004784629854839295,-0.0003579749318305403,0.0030867564491927624,0.0027007872704416513,0.002377847908064723,-0.00043977529276162386,-0.001311386120505631,-0.00040174744208343327,0.002308817580342293,-0.00012051605881424621,0.001427265233360231,-0.0037228381261229515,0.0035123303532600403,0.0013740778667852283,0.000415014656027779,0.0005683612544089556,-0.0017942199483513832,0.0002849691372830421,-0.00045197620056569576,0.00021583851776085794,-0.0022763251326978207,0.002706443890929222,0.0004647603491321206,-0.0015259396750479937,0.000571511744055897,-0.0017261506291106343,0.0013770840596407652,-0.0022788008209317923,-0.0025921640917658806,0.0031703514978289604,0.0034316827077418566,-0.0001777947327354923,-0.003701046807691455,-0.0021944595500826836,0.001999658066779375,0.0005723920767195523,-0.0004924153909087181
0.0015674724709242582,-0.0011884571285918355,0.0013785774353891611,0.0012876460095867515,-0.0021664334926754236,-0.0024130833335220814,0.00010707275214372203,0.0035381214693188667,-0.0005721654742956161,0.0001352008548565209,0.003343303455039859,-0.0035426272079348564,0.003717009676620364,0.003442605724558234,-0.0012238769559189677,0.0005408780416473746,0.002296393970027566,0.00362914870493114,0.0018646222306415439,-0.0028967626858502626,-0.0017317337915301323,5.1032646297244355e-05,0.00379995908588171,-0.0028128409758210182,-0.0013114577159285545,0.001619663555175066,-0.0014828884741291404,0.0028769420459866524,-0.0005446759751066566,0.0027174921706318855,-0.0024066639598459005,0.003602800192311406,0.0034762718714773655,0.0009800934931263328,0.0016695124795660377,0.003809340763837099,-0.0036093220114707947,0.0033431912306696177,0.002848431235179305,0.0010252485517412424,-0.002446797676384449,0.00011058279778808355,-0.0011377050541341305,0.0022772939410060644,0.0018353305058553815,0.002450063358992338,-0.002808446530252695,-0.0001225998712470755,-0.001304970239289105,-0.003934063017368317,-0.00190170225687325,0.0032058111391961575,-0.00044917763443663716,-0.001678710337728262,-0.004021875560283661,0.0027601197361946106,0.0024344460107386112,0.0007613060297444463,0.00015782835544086993,0.002577231964096427,-0.003076740074902773,0.0003098295128438622,-0.0003496336576063186,0.001138388179242611,0.0014810804277658463,-0.0014336585300043225,0.0011307918466627598,1.4379802451003343e-05,0.0009203520603477955,0.003417535685002804,-0.000664688996039331,-0.0007345112389884889,-0.00130646291654557,-0.0004560145316645503,0.0032653333619236946,-0.001968845957890153,-0.0011641682358458638,0.00017588531773071736,0.0033932754304260015,-4.711258952738717e-05,0.0006930115632712841,-0.0009723301627673209,0.0016687478637322783,0.002836200874298811,-0.0014837722992524505,0.00043465709313750267,-0.0011840759543702006,-0.0006387598696164787,-0.001347730285488069,-0.0022822150494903326,0.002911651274189353,0.003064574673771858,-0.0024505865294486284,0.0029446755070239305,0.0029799926560372114,0.0034056156873703003,0.00019366777269169688,0.0026196648832410574,0.0033284127712249756,-0.003611185122281313,-0.0015214825980365276,-0.0029677804559469223,-0.0005668961093761027,-0.0018253140151500702,-0.0023812358267605305,-0.0029049161821603775,0.0007314821123145521,0.00310748303309083,-0.0036374207120388746,0.003994316328316927,0.002495799446478486,-0.0013465058291330934,0.00025726715102791786,0.0006602821522392333,-0.000412635097745806,-0.002605847315862775,0.0035067228600382805,0.0023676473647356033,0.0008842407260090113,0.0009813273791223764,-0.0037822057493031025,-0.0012015234678983688,-0.002775968052446842,-0.00022425362840294838,0.0004995546187274158,0.0029512071050703526,-0.002834119601175189,0.0003862102166749537
5.793154195998795e-05,0.002766282530501485,0.003172236029058695,-0.000597494188696146,0.0032653450034558773,-0.0036302758380770683,-0.0004297932900954038,0.0020756106823682785,-0.0013133391039445996,0.00044086441630497575,-0.000286820693872869,0.003238523844629526,0.0026096724905073643,0.0007894179434515536,0.0022948558907955885,0.0009505436173640192,0.002866004593670368,5.849773879162967e-05,-0.0025122291408479214,0.0006719809025526047,-0.0020790474954992533,0.0004553958133328706,0.0026384389493614435,0.0012922798050567508,0.003309720428660512,0.001245433813892305,-0.002333474811166525,-0.0029533165507018566,0.00367316254414618,0.0012893875828012824,0.0034856810234487057,0.00058375159278512,0.0016114619793370366,0.004028366878628731,-0.0010688016191124916,0.003197726095095277,0.0005896430229768157,0.0022399856243282557,0.002925520995631814,-0.0021848008036613464,-0.001399321830831468,-0.000833650294225663,0.0035561942495405674,-0.002783294301480055,0.003285642247647047,-0.0008547627367079258,0.001687443582341075,-0.0021075564436614513,0.0012277441564947367,-0.004031024873256683,-0.0037496164441108704,0.003253753762692213,7.261137943714857e-05,-0.001798835932277143,0.0005353036103770137,0.003299230709671974,-0.0035948092117905617,0.0013131317682564259,0.0031938469037413597,-0.0008570979698561132,-0.0029489542357623577,-0.001112419064156711,-0.001785137690603733,0.0021537512075155973,-0.0027085570618510246,-0.002178066410124302,0.0019457874586805701,0.002816796535626054,0.00020830132416449487,0.0030637583695352077,-0.0006189847481437027,0.003171587595716119,-0.002423524856567383,0.0019489526748657227,-0.003525292966514826,-0.001958955079317093,0.0010170104214921594,0.0004572580219246447,-0.0034862621687352657,0.0030464858282357454,-0.0030966470949351788,9.103214688366279e-05,-0.0015868335030972958,-0.0015202014474198222,-0.0018583377823233604,-0.002839114749804139,-4.703754893853329e-05,0.0036954465322196484,0.0015603171195834875,-0.0020828349515795708,-0.0005889243329875171,-0.0035937244538217783,-0.0038209438789635897,-0.002134338952600956,0.0002634547126945108,0.0005638930597342551,0.003230978734791279,-9.447843331145123e-05,0.0016984374960884452,0.0010994713520631194,-0.0033386212307959795,-0.001735118916258216,-0.002500475849956274,-0.0011606041807681322,-0.002450175117701292,-0.0033530425280332565,0.0002546997566241771,0.002652361523360014,3.548218955984339e-05,0.0012503453763201833,0.0032587384339421988,0.0007095445762388408,-0.0014032359467819333,0.0028524205554276705,0.0029329287353903055,-0.0021415012888610363,-0.0026897676289081573,-0.0008781618671491742,-0.001053177984431386,-0.0026316745206713676,-0.003566110273823142,0.0020321966148912907,-0.0016671614721417427,-0.0013319514691829681,0.0030993209220469,0.0021995902061462402,-0.003212772309780121,0.002393052214756608
0.002927599474787712,0.0035391519777476788,0.0038119128439575434,0.00039751778240315616,0.0034004186745733023,-0.0028609209693968296,0.003760470077395439,-0.0010413907002657652,0.002576771890744567,0.000939195160754025,0.0025870418176054955,-9.551634138915688e-05,0.0016860913019627333,0.0013125535333529115,-0.001158357597887516,-0.00043116961023770273,0.002648422960191965,0.0014554050285369158,0.003318925853818655,0.0016302609583362937,-0.0023852724116295576,-0.003744152607396245,0.002834754064679146,0.00035785220097750425,0.0020401133224368095,0.001719778636470437,-0.0016096029430627823,-0.001046343706548214,0.000639336125459522,0.0025058225728571415,0.003122508991509676,0.0019798052962869406,-0.003242041915655136,0.00018403631111141294,0.0004868757096119225,0.0017559891566634178,0.000458299444289878,-0.0012010217178612947,0.0004389665846247226,-0.0006140486220829189,0.0009765304857864976,0.0011485613649711013,0.0003601590287871659,-0.0008120075217448175,0.002829671837389469,-0.0003421895671635866,-0.0035565753933042288,0.0025250748731195927,-0.0019175363704562187,-0.0035417312756180763,0.0021605854853987694,-0.0003461666638031602,0.0011684896890074015,0.003790025832131505,0.002237281296402216,0.003457101993262768,-0.0036317764315754175,-0.0015665240352973342,-0.0020542286802083254,-0.0038340359460562468,-0.003284430131316185,0.0010955464094877243,0.002779377391561866,-0.000502356851939112,0.0036932567600160837,-0.003601033240556717,-0.002652861410751939,0.002934666583314538,-0.0022462736815214157,0.0035029822029173374,0.002466571284458041,-0.0012850183993577957,0.0018893087981268764,-0.003685032483190298,-0.0024164498317986727,0.0037267187144607306,0.002951466478407383,-0.0035659042187035084,-0.0036293978337198496,0.0023051868192851543,-0.0004524176474660635,0.002035535639151931,-0.0005958457477390766,0.003178306156769395,0.002756781643256545,0.00273288507014513,-0.003245906438678503,0.0024317658971995115,0.0007574490155093372,0.001103171263821423,0.0036722493823617697,-0.0026473463512957096,0.0036403329577296972,0.0037285585422068834,0.0036123779136687517,-0.0036945068277418613,-0.0020762605126947165,-0.0005269336397759616,0.003682577982544899,0.0034199391957372427,-0.0011353775626048446,-0.0004847326490562409,-0.0033771879971027374,-0.0026216988917440176,0.0037071285769343376,0.001397915300913155,0.0015225528040900826,-0.001871070940978825,-0.0001421227934770286,-0.0009974290151149035,-0.0020367614924907684,0.002544267801567912,-0.0005050801555626094,0.00029506252030842006,0.002306306967511773,0.0011939266696572304,0.0011653938563540578,0.0005287035601213574,-0.0016226329607889056,0.002465304918587208,-0.001688060350716114,0.003281625686213374,-0.0016399306477978826,0.002222567331045866,0.0014838946517556906,-0.0021607480011880398,0.0023672396782785654,-0.002059223363175988
-0.002618136117234826,-0.0035395382437855005,-0.002035813871771097,0.003085359698161483,-0.0012971557443961501,0.0030195745639503,-0.0004579591332003474,-0.0014895049389451742,-6.830128404544666e-05,-0.003581766737625003,-0.001515620038844645,-0.003724594134837389,-0.0028939293697476387,-0.00017718241724651307,0.002398345386609435,-0.0024635347072035074,0.0006369787734001875,-0.0005076935049146414,0.0033043150324374437,0.0017883102409541607,0.0007638420793227851,-0.0009735740022733808,0.002741868607699871,-0.0038045363035053015,0.002275363076478243,0.0017170001519843936,0.0015382595593109727,8.544018055545166e-05,-0.0010405282955616713,-0.0037644021213054657,-0.0004033567965961993,0.0038852940779179335,-0.0031799045391380787,-0.0018735115882009268,0.0008070432231761515,-0.002907401882112026,-0.00019562859961297363,0.0006681765080429614,-0.0019047553651034832,-0.001966767245903611,0.0035912238527089357,-0.003470790572464466,-0.0035747636575251818,0.001301219454035163,-0.0025117569603025913,-7.904955418780446e-05,-0.00011047333100577816,-0.0023073151241987944,0.0038063880056142807,-0.0017126600723713636,0.0031604254618287086,-0.0025002809707075357,0.0037651127204298973,0.002300226828083396,-0.0006701950915157795,-0.0028132828883826733,-0.0015313283074647188,0.00023462111130356789,0.0013139763614162803,-0.0008612494566477835,0.0019581643864512444,0.003366467310115695,0.003270452842116356,0.0004958077915944159,0.0024858242832124233,0.0032630395144224167,-0.0004886080860160291,-0.0006850457284599543,-0.003547096159309149,-0.0011632383102551103,-0.002009750111028552,-3.289664527983405e-05,0.003484657732769847,0.0012706209672614932,0.0004096489865332842,0.0015909146750345826,-0.0032122069969773293,0.0036526587791740894,0.001046680030412972,0.0031552910804748535,0.0018335932400077581,-0.0022790287621319294,0.0015970307867974043,0.0034524123184382915,0.002533173421397805,-0.0015550522366538644,-0.0030395155772566795,0.002457567024976015,0.003771407762542367,7.312415982596576e-05,0.0016305153258144855,0.0023188237100839615,-0.0006141110206954181,-0.0012903677998110652,0.0013727865880355239,0.003918803762644529,-0.003611442167311907,-0.0033118429128080606,0.00359367486089468,-0.001628794358111918,0.00032399827614426613,-0.0034912792034447193,0.0021620469633489847,0.0034880645107477903,-0.0005065857549197972,-0.00026884942781180143,0.0003168676339555532,0.0024806573055684566,-0.00041402707574889064,-0.00030670041451230645,0.0014151224168017507,-0.0029710622038692236,0.000438965653302148,-0.0026593368966132402,-0.002597603015601635,0.002559913322329521,0.0010222340933978558,0.0006571837584488094,0.0034538861364126205,0.000555420177988708,-0.0030659297481179237,-0.001816640724427998,0.0010297285625711083,-6.3190127548296005e-06,-0.001991440774872899,-0.0005062823183834553,0.00221323873847723,-0.002732994966208935
0.0006725448183715343,0.0032233998645097017,-0.0029510939493775368,-0.002205603290349245,-0.0014557645190507174,0.0002773930609691888,0.00110992684494704,0.003976548556238413,0.000203831703402102,-0.003385344287380576,-0.0009926455095410347,0.0019502420909702778,0.001718580024316907,0.003389440244063735,-0.0014569107443094254,-0.0018388289026916027,-0.0002460201794747263,0.0004301467852201313,-0.0026079171802848577,-0.001998218707740307,-0.0013691160129383206,-0.0007250334019772708,0.0011983977165073156,-0.0024639139883220196,0.0009906196501106024,-0.0001546883286209777,0.0013345725601539016,0.0013734459644183517,8.062396227614954e-05,0.003948751837015152,0.003368665697053075,0.0010268611367791891,0.001460977946408093,0.0026933765038847923,0.0035282482858747244,-0.0003268162254244089,0.0010624331189319491,0.003981512505561113,0.003055248409509659,-0.002727126469835639,0.00023056504142004997,-0.0036487774923443794,0.0010459995828568935,-9.404955198988318e-05,-0.001164160668849945,-0.002811107784509659,0.003004052210599184,-0.0009590611443854868,-0.0010626333532854915,-0.0036653829738497734,0.003282698104158044,0.00032212253427132964,-0.0003665188851300627,-0.0025649466551840305,-0.002563239773735404,-0.0022840979509055614,-0.0005258424789644778,0.0037112045101821423,-0.00026952801272273064,0.0011450434103608131,0.0010635914513841271,-0.0017128417966887355,0.002489641075953841,0.0002822376263793558,0.003029873827472329,-0.0007580274832434952,-0.000376012729248032,-0.001651195576414466,-0.0015846756286919117,-0.00038229592610150576,0.0007027675746940076,0.002136919181793928,-0.0005362306837923825,0.003456666599959135,0.0016798005672171712,0.000610494171269238,0.0013921073405072093,-0.0019046160159632564,0.00277367839589715,0.0036214517895132303,-7.422260387102142e-05,-0.0013375375419855118,0.00010302769806003198,0.001735509606078267,-0.0002733734145294875,-0.0004935319302603602,-0.0027099517174065113,-0.0026053523179143667,-0.00357730477117002,-0.0015279713552445173,0.0010028828401118517,0.0011778702028095722,0.0031290417537093163,0.0017126585589721799,-0.000248996278969571,-0.001477142097428441,-0.00120390928350389,-0.001451054704375565,0.003238229313865304,-0.0026993700303137302,0.0017705013742670417,-0.003362002084031701,-0.0012628681724891067,0.0028818517457693815,0.002676737029105425,0.0025174152106046677,0.0030778327491134405,0.0036477355752140284,-8.052507496358885e-07,-0.000546218070667237,-0.0015603135107085109,0.0017416276969015598,-0.003371402621269226,-0.0037707455921918154,0.002788676880300045,0.0026407151017338037,-0.003361784154549241,6.282329559326172e-05,-0.0014838493661955,-0.0002143062447430566,-0.0015904717147350311,-0.0026867405977100134,0.00219091959297657,-0.0007142993854358792,-0.0021195358131080866,0.001770542818121612,0.0024717948399484158,-0.0007222041604109108
0.002197522670030594,0.0032013601157814264,0.0017947277519851923,0.0035443727392703295,-0.001438153674826026,-0.0036232045385986567,-0.001626980840228498,0.002541943220421672,-0.0026175910606980324,0.001469247043132782,-0.0012383530847728252,-0.002956369426101446,-0.0022836891002953053,0.0011092438362538815,0.0015753712505102158,0.002525744494050741,-0.002452797954902053,-0.0009512898977845907,-0.0013605584390461445,0.00222275429405272,0.0011237406870350242,0.0013873281423002481,0.003975247498601675,-0.0005797043559141457,0.003800042439252138,0.0021138580050319433,-0.0038643067236989737,0.0006372474017553031,0.0008405071566812694,-0.003542910795658827,0.00015275787154678255,-0.003566525876522064,-0.001219015452079475,0.002979861805215478,0.0025077946484088898,0.0035701203159987926,-0.0023657609708607197,-0.0028848988004028797,-0.003708414500579238,0.003811765229329467,0.0014423005050048232,0.000864444940816611,-0.0001641566923353821,0.0009520129533484578,0.0015152257401496172,0.004003109876066446,-0.0024670432321727276,-0.0035487066488713026,0.002110469853505492,0.001200009137392044,0.0013707460602745414,-0.003259301884099841,-0.002713976427912712,-0.0010044212685897946,-0.0036823570262640715,-0.002073996001854539,0.0035393768921494484,0.00295852473936975,-0.001959171611815691,0.0014077002415433526,-0.0016111828153952956,0.0023641607258468866,0.003673744387924671,0.001404117327183485,0.00020836199109908193,0.0013478887267410755,0.0005915013607591391,0.0038813010323792696,-0.0026471929159015417,-0.003439009888097644,0.0010616426588967443,0.0018156950827687979,-0.0023068671580404043,-0.000634472060482949,-0.0021172044798731804,-0.00010678148100851104,0.0019754236564040184,0.002407320076599717,0.0005480795516632497,0.0006762198754586279,0.0029853172600269318,0.0026560353580862284,0.0021316618658602238,-0.0025754543021321297,-0.003776040393859148,-0.0022995718754827976,0.0006760228425264359,0.003251525806263089,-0.003738216357305646,0.0017009367002174258,-0.003050535684451461,-0.000643236911855638,-0.0011793148005381227,-0.0019228366436436772,0.001260847202502191,0.002504120348021388,0.0012764718849211931,-0.00160236528608948,-0.00010064661910291761,-0.0034133733715862036,-0.0011534587247297168,-0.00046977741294540465,0.0015832701465114951,0.0005484115681611001,0.002728126710280776,0.0006146712694317102,-0.0038363663479685783,-0.003785807406529784,-0.0037823847960680723,0.0034586088731884956,-0.0018291296437382698,-0.003715626895427704,-0.00029420817736536264,0.0013442026684060693,-0.0012684912653639913,-0.0030884086154401302,0.0037129451520740986,0.0030286952387541533,0.0024559067096561193,-0.0027150765527039766,-0.000973016198258847,-0.0013198424130678177,0.002521514892578125,-0.0016017984598875046,-0.0026802304200828075,-0.0015993739943951368,0.0025455483701080084,-0.003597936360165477
-0.0012131251860409975,-0.0015677770134061575,0.0011084312573075294,0.0024120898451656103,0.0019531394354999065,0.0032626527827233076,-0.0026376950554549694,0.0014480914687737823,0.0009680819930508733,-0.0015269723953679204,-0.003801967715844512,3.121366898994893e-05,0.001431659096851945,-0.00012657242768909782,-0.002749234903603792,0.003607570193707943,-0.0011751237325370312,0.0038450059946626425,-0.00144343008287251,0.0014739194884896278,0.0026404066011309624,0.001152409822680056,-0.0032587258610874414,0.0026667704805731773,-0.0018727993592619896,-0.0011307094246149063,0.0022883855272084475,-0.0009512706310488284,-0.0009629051783122122,-0.003683858783915639,-0.002910933457314968,0.0022868874948471785,-0.002335029887035489,0.0018376214429736137,-0.0024240841157734394,-0.000820280285552144,-0.0013809195952489972,0.0022483679931610823,-0.0033400238025933504,-0.0003154607256874442,0.00024277871125377715,-0.0009841395076364279,-0.0021111462265253067,-0.0002698650350794196,0.0028962846845388412,0.002318714279681444,-0.002337814075872302,-0.002678609685972333,-0.003202344523742795,-0.0034468744415789843,-0.0021845754235982895,-0.0030768709257245064,-0.0030399926472455263,0.004002077970653772,-0.002639391925185919,-4.293182792025618e-05,-0.0011559092672541738,0.002265702234581113,0.0006958257872611284,-0.0006894471007399261,-0.0014163381420075893,0.0026056328788399696,0.001970869256183505,0.0006532010156661272,-0.0009399597183801234,0.001414875965565443,0.0016337459674105048,0.00019328472262714058,-0.002046605572104454,-0.003734743455424905,-0.0015409266343340278,0.0021136600989848375,-0.003016820177435875,0.00013760992442257702,-0.0030745083931833506,-0.000555595790501684,0.0035130204632878304,-0.0009438745910301805,-0.002459688577800989,0.002954144962131977,-0.0006094343843869865,-0.0004560920933727175,0.003104385919868946,0.0035468607675284147,0.00288605410605669,0.002436248818412423,0.0004909361596219242,-0.00033316845656372607,-0.001246585394255817,-0.0030651860870420933,0.003321438329294324,-0.0034714951179921627,-0.001511747483164072,-0.004047973081469536,0.003439215011894703,-0.0037723639979958534,-0.0008351370925083756,0.0002481179835740477,-0.0013777422718703747,0.0017187196062877774,0.00016572474851273,-0.0022387641947716475,-0.0006211781874299049,0.0033645913936197758,0.001276434981264174,0.0005704143550246954,-0.0019592279568314552,0.00021200775518082082,-0.002017752267420292,0.001396986423060298,0.0026624498423188925,0.0015817658277228475,0.002467772690579295,0.001115860533900559,-0.0024684700183570385,-0.0034130762796849012,0.0021509104408323765,-0.0004891424905508757,-0.0031603516545146704,0.0006500360905192792,-0.0023297711741179228,0.001385055249556899,0.0005394556210376322,0.0007541745435446501,-0.002693493152037263,0.0021361547987908125,-0.0014053953345865011,0.002639081096276641
-0.000650323461741209,0.0017195852706208825,-0.002789986552670598,9.207679977407679e-05,-0.0035345684736967087,0.0018057229463011026,0.004141058772802353,0.001407182076945901,0.0013950970023870468,0.003282019170001149,-0.00020854760077781975,0.00309281749650836,-0.0007170696626417339,-0.0013915679883211851,-0.00034276198130100965,0.0008710880647413433,-0.0018426560563966632,-0.0016762485029175878,0.0009998396271839738,0.0021332167088985443,0.003299847710877657,-9.985690849134699e-05,-0.002505226293578744,0.0031301553826779127,-0.0010102028027176857,0.0013144107069820166,-0.001093980041332543,-0.0005722442292608321,0.00034383623278699815,0.0011419937945902348,0.0011409901781007648,-0.000829210679512471,0.003635742701590061,-0.0004641686100512743,0.0013367930660024285,-0.0034852304961532354,-0.002278013387694955,0.001086026313714683,0.003325479570776224,0.0035804887302219868,0.0005104854353703558,-0.0007427173550240695,-0.0019788499921560287,0.00012169566616648808,-0.0030568318907171488,-0.0009637154289521277,0.0010278723202645779,9.345881699118763e-05,0.003843434853479266,-0.003313167952001095,0.0029864960815757513,0.002561608562245965,0.0002502150309737772,-0.0030578128062188625,0.0003083048795815557,0.0014571527717635036,0.0032747453078627586,-0.0005630634841509163,-0.001393578597344458,-0.0002804307732731104,0.0032944008708000183,-0.0010997828794643283,0.0013715761015191674,-4.293837264413014e-05,0.0024848654866218567,-0.002681983169168234,-0.0004349200753495097,0.0016820349264889956,-4.479079507291317e-05,-0.0008293989230878651,0.0028692518826574087,-0.0008174725226126611,-0.003960114438086748,-0.0008544541196897626,0.000458304159110412,0.003313109977170825,-0.0029085667338222265,-0.003262499114498496,-0.00027038491680286825,-0.0011339075863361359,-0.0001867759128799662,0.00257339165546,-0.0004693654482252896,-0.0018445567693561316,-0.0017715743742883205,0.002776229986920953,0.0028109727427363396,-0.0012040822766721249,-0.00027507563936524093,-0.0005680795293301344,0.00334167736582458,0.003869486041367054,0.0010410977993160486,-0.0006874281680211425,0.0026530588511377573,-0.0007616070797666907,-0.0035717554856091738,0.0014906993601471186,0.00015668736887164414,0.001945638912729919,0.0003677140630315989,-0.002558780601248145,0.003082780633121729,0.0020877241622656584,0.0006966459332033992,0.0005387582932598889,0.002155579859390855,0.0035553998313844204,0.003125335555523634,0.003863757476210594,-0.0025181418750435114,0.0009998338064178824,-0.0009052471141330898,-0.00059267389588058,-0.0009297502692788839,0.0023405912797898054,-0.003085087751969695,-0.003836988238617778,0.0036113690584897995,0.003064574673771858,0.0015437939437106252,-0.0006123288767412305,-0.003264500992372632,-0.0017976680537685752,0.002661620732396841,0.0013208462623879313,0.0026485174894332886,-0.0008406051201745868
-0.0023128173779696226,0.0023478660732507706,-5.2790561312576756e-05,0.0013430675026029348,-0.0034996068570762873,-0.001249242457561195,0.0009679508511908352,0.0032208638731390238,-0.002937643090263009,-0.0016714107478037477,0.002529580844566226,-0.0028810102958232164,-0.0016310635255649686,0.003659537760540843,-0.003522641723975539,-0.0005357633344829082,0.0035636965185403824,0.0016041185008361936,-0.0002955494273919612,-0.002865828573703766,-0.0003718124353326857,0.0019139075884595513,0.0002382992533966899,0.0018628688994795084,0.003542650956660509,-4.129308581468649e-05,-0.0034089884720742702,0.0038747675716876984,-0.0023953348863869905,0.0009652918670326471,-0.0015968205407261848,0.0012215703027322888,0.003336100373417139,0.0006019421853125095,0.0001436800230294466,-0.00037310938932932913,-0.0012428825721144676,-0.0016780622536316514,-0.00014834711328148842,-0.0037596242036670446,1.709428761387244e-05,0.002167444908991456,0.0018782056868076324,-0.003508675843477249,0.003623081836849451,-0.002376748248934746,-0.001552592613734305,-0.002855142345651984,0.0028911230619996786,-0.0023899320513010025,-0.0031861078459769487,0.00023698565200902522,0.003005021018907428,0.0026964901480823755,-0.0018823283025994897,-0.0015400766860693693,0.0014338957844302058,0.0015708986902609468,0.0026580928824841976,0.0007327389903366566,0.0009101350442506373,0.0013152132742106915,-0.0026299585588276386,0.0038143955171108246,-3.82818907382898e-05,-0.0002992154622916132,-0.003502253908663988,-0.0008162253070622683,0.0002915870863944292,-0.0015682195080444217,-0.0016503108199685812,-0.002718184841796756,-0.0031679365783929825,-0.0011906538857147098,0.003619362134486437,-0.001988445408642292,-0.0019734161905944347,-0.0008299592882394791,0.0010229850886389613,0.0019117820775136352,-0.0003743613779079169,-0.001676970161497593,0.0022463612258434296,0.003499442245811224,-0.0009274938493035734,0.0032065154518932104,-0.0012152905110269785,0.0035160512197762728,-0.002683656755834818,-0.00379253295250237,-0.002854794031009078,0.0025045068468898535,-0.0018055776599794626,-0.0005018666270188987,-0.0004085392283741385,0.0031506174709647894,0.0023914279881864786,-0.002961802063509822,0.0011671764077618718,-0.0028378393035382032,0.002432687673717737,0.0003713569021783769,-0.001902874791994691,-0.0031454169657081366,0.002370561473071575,-0.0004667178727686405,-0.003890095977112651,-0.0010981413070112467,0.00037687233998440206,-0.0019337780540809035,-0.00152209447696805,0.0005518188118003309,-0.0013140876544639468,-0.0024995470885187387,-0.00024776876671239734,0.0006809269543737173,-0.0005390910664573312,0.000100369805295486,0.0020659728907048702,-0.0033785172272473574,0.002505484502762556,0.0025595612823963165,0.002091732807457447,-0.002497190609574318,0.0036135565023869276,0.0035137010272592306,-0.0025658842641860247,-0.001176862046122551
-0.002882314845919609,-0.0001079318972188048,-0.000672641210258007,0.002843279391527176,0.002612821292132139,-0.0026178276166319847,0.0032627074979245663,-0.0011882106773555279,0.0029090915340930223,-0.00010601986286928877,0.0032634094823151827,-0.0034215524792671204,-1.2013259947707411e-05,0.000707130238879472,-0.001160817570053041,0.00240368046797812,0.0016669532051309943,-0.0016800295561552048,0.0017574980156496167,0.0033750482834875584,0.0008030984317883849,0.00016814874834381044,0.003595524001866579,-0.0018004097510129213,0.0037719369865953922,-0.0031098914332687855,-0.0018540013115853071,0.0008440505480393767,-0.0028857083525508642,-0.003359429305419326,0.003951850347220898,-0.0007042347569949925,0.0013297158293426037,0.0011672727996483445,-0.0009161713533103466,-0.0034566069953143597,0.0018553829286247492,0.0008567246841266751,-0.003886580467224121,-0.002080179750919342,-0.002984901424497366,0.002169037237763405,7.510907016694546e-05,-0.003931592218577862,0.0020840277429670095,-0.0026774697471410036,-0.0004932934534735978,0.0014869830338284373,0.0015445674071088433,0.0018086615018546581,0.0023178367409855127,0.0008730166009627283,0.0027818463277071714,-0.0017921952530741692,-0.0012586803641170263,0.002109128748998046,0.003485319437459111,0.0027513618115335703,0.002953662071377039,-0.00327748223207891,-0.0009608071413822472,-0.00018958061991725117,0.0007657993701286614,0.0014425772242248058,-0.0019853701815009117,0.001623087446205318,0.003200581995770335,0.0030627460218966007,-0.0008024548296816647,0.003644883166998625,-0.00019004434579983354,0.003580393036827445,-0.0020575602538883686,-0.0029481127858161926,-0.003897283924743533,-0.00024710706202313304,-0.0007595152710564435,0.003699564142152667,0.002693220041692257,-0.0017288652015849948,-0.0008176614646799862,7.683270814595744e-05,0.0035564464051276445,-0.0011396093759685755,-0.0033008090686053038,0.0024274559691548347,-8.341403736267239e-05,-0.0004779848677571863,-0.0012721954844892025,-0.0015057021519169211,0.00043790575000457466,-0.002368680899962783,-0.003228234127163887,-0.0002458124654367566,0.001760617014952004,-0.0015563367633149028,0.002599117113277316,-0.002798576606437564,-0.0004823076305910945,-0.0035598273389041424,-0.0027952140662819147,0.00048645117203705013,-0.0025929310359060764,0.0008343192166648805,-0.002518479945138097,0.000447181606432423,0.0025222934782505035,-0.0020057945512235165,-0.0035119131207466125,0.0018248046981170774,0.0014677810249850154,-0.0010678023099899292,-0.003896291833370924,-0.001225310261361301,-0.003620208241045475,-0.0007040346972644329,0.0032981738913804293,0.001378347515128553,-0.0006411381182260811,-0.003176444675773382,-0.003293843474239111,0.0008314067963510752,0.0015217020409181714,0.00035487464629113674,-0.0014772973954677582,-0.0005660101887769997,-0.0013937110779806972,-0.0029217777773737907
-0.001870838925242424,-0.00041067792335525155,-0.0029319447930902243,0.003890371648594737,1.4153868505673017e-05,0.0020126537419855595,0.001908769947476685,-0.0003860306751448661,0.0031154523603618145,-0.0012575454311445355,-0.0033337699715048075,-0.0008134961244650185,-0.0007017400348559022,0.003112451173365116,0.00146130018401891,-0.0026540097314864397,0.003792551578953862,-0.000992906978353858,-0.00036854384234175086,0.0016236781375482678,0.0007274086237885058,-0.0016506417887285352,-0.0009579185862094164,-0.002870034659281373,-5.9045891248388216e-05,0.0015967722283676267,-0.0029043909162282944,-5.4362095397664234e-05,-0.001468490925617516,0.0033945832401514053,-0.0012244262034073472,0.0010293442755937576,0.0033551633823662996,0.0011917435331270099,-0.002060727681964636,-0.0010888042161241174,0.002019720384851098,0.003209593938663602,0.001119396765716374,0.0025831996463239193,0.0019423923222348094,-0.0030503554735332727,0.0009957861620932817,0.001117900013923645,0.0003182104555889964,0.0028606844134628773,0.00013553939061239362,-0.0015628014225512743,0.004329712130129337,-0.0004465308738872409,-0.003322836710140109,-0.0005246722139418125,0.003993539605289698,-0.0018851400818675756,-0.0027587953954935074,0.0012522160541266203,-0.0027923977468162775,0.0008928929455578327,-0.0006132649723440409,0.002398619195446372,-0.0022622800897806883,-0.001432541524991393,-0.0034332359209656715,-0.00041561771649867296,0.0008716914453543723,0.002283179434016347,0.0019243478309363127,0.001461113104596734,0.0002777073532342911,0.003978024236857891,-0.00033723583328537643,-0.0036566040944308043,0.000257453735684976,0.00327482377178967,-0.0009274323238059878,-0.0035889851860702038,-0.002806225558742881,0.00304081616923213,0.003688726108521223,0.0021763427648693323,-0.0010904173832386732,0.0024775955826044083,-0.0009384984150528908,0.004777376540005207,-0.001961135072633624,0.0009295861818827689,0.0013753881212323904,0.0011616171104833484,0.003243246814236045,0.0022361469455063343,-0.000529670505784452,-0.0034156376495957375,-0.00020145460439380258,-0.004181693773716688,-0.0032870923168957233,0.0020515834912657738,0.003023891942575574,-0.0014473971677944064,0.0008209722582250834,-0.001754986820742488,-0.0001566448772791773,0.0027050410863012075,-0.0013968358980491757,5.233668343862519e-05,-0.0006459775031544268,-0.000735485169570893,-0.002010911237448454,0.004177927505224943,-0.0013065049424767494,-0.0017165817553177476,0.0013008055975660682,0.0013324302854016423,-8.958509170042817e-06,-0.002054984914138913,0.0005371274310164154,-2.0353423678898253e-05,0.0017174148233607411,0.0008957048412412405,-0.0017479542875662446,0.002293426776304841,-9.055630653165281e-05,0.000476344779599458,-0.003096239408478141,0.0018082876922562718,-0.003997179213911295,0.0022975290194153786,-0.002048770897090435,0.003158905543386936
-0.00158663559705019,0.0012124007334932685,-0.003124743467196822,-0.0024101247545331717,-0.001641993410885334,-0.003450598567724228,0.0017969170585274696,-0.0036795022897422314,0.002714262343943119,-0.0033942260779440403,0.0023540034890174866,0.0015219640918076038,-0.0011112792417407036,-0.0036189265083521605,-0.003447224386036396,-0.0006927949725650251,0.000968261796515435,-0.0006663038511760533,-7.351342355832458e-05,0.0024413843639194965,0.0019113991875201464,0.0030945183243602514,0.0008403797983191907,0.0015734266489744186,0.002096092328429222,0.00226203422062099,-0.002828092547133565,-0.0033661257475614548,-0.0015475894324481487,0.0005043273558840156,0.002719776937738061,0.0011098755057901144,0.002759958617389202,0.0019640482496470213,-0.002790029626339674,0.0033462748397141695,0.0034834537655115128,0.0029280714225023985,0.002585415029898286,-0.003056612564250827,0.0035588277969509363,0.00013703045260626823,0.0007371651008725166,-0.0001651226048124954,0.0010946911061182618,0.0016189542366191745,0.0007031165878288448,0.0013498648768290877,-0.00284564564935863,0.0024588205851614475,-0.0034402499441057444,0.0036398775409907103,0.0007440670160576701,0.003513809759169817,-0.001405353075824678,-0.0025695909280329943,0.0018844964215531945,-0.003384594339877367,-0.0027793890330940485,0.003246012842282653,0.0014741014456376433,0.001856170129030943,0.0031020017340779305,-0.0003406551550142467,-0.0025093876756727695,-0.001076035900041461,-0.0020300790201872587,0.003034560475498438,0.002690585097298026,-0.002826839918270707,-0.0011115013621747494,-0.002783177886158228,0.0022059332113713026,7.461982022505254e-05,-0.003113974817097187,-0.0021093282848596573,0.0006549322861246765,4.0300205000676215e-05,0.0006989166722632945,-0.003241776255890727,0.002301368862390518,-0.0032180305570364,0.0037205659318715334,-0.0007507990812882781,-0.0010828347876667976,-0.003704450558871031,0.0002461305703036487,-0.0003191373834852129,0.0020219150464981794,0.0011085584992542863,-0.0002015601930906996,0.0018836291274055839,-0.0024861120618879795,-0.0003302799887023866,-0.001146824681200087,-0.0009100938914343715,-0.00016338276327587664,0.0002188774960814044,0.003271117340773344,0.0037810704670846462,0.0008443585829809308,-0.003727247705683112,-0.0020364385563880205,0.0015157522866502404,0.00014504253340419382,-0.0017678628209978342,-0.00392340449616313,0.002344064647331834,0.0006617231410928071,-0.003795911790803075,-0.0033419542014598846,-0.0016747345216572285,-0.0031586159020662308,0.003347615245729685,0.0009414801024831831,0.0015901264268904924,0.0036125618498772383,0.0025799775030463934,-0.0006442205631174147,-0.00265303417108953,-0.003101854585111141,0.0012387761380523443,-0.0018156147561967373,0.0005119518609717488,0.0011512638302519917,0.00014285121869761497,-0.00016256648814305663,0.002294298494234681
-0.0007807498914189637,-0.000993498251773417,-0.002616093261167407,0.003652549348771572,0.003624125849455595,-5.964445153949782e-05,0.004252342972904444,-0.0010402974439784884,-0.0028364676982164383,0.0031448770314455032,-0.0019647893495857716,0.003636071691289544,0.0017892614705488086,0.0010969756403937936,7.636441296199337e-06,0.0005107639590278268,-0.0005093227373436093,-0.0013608731096610427,0.003981564659625292,-0.0011087876046076417,0.0021779255475848913,0.00022585874830838293,-0.003418201580643654,0.002483482239767909,0.0014787194086238742,-0.001625137752853334,0.001233598100952804,-0.002468343824148178,0.00017359358025714755,0.0010573072358965874,0.004075562581419945,-0.0019258965039625764,0.0006856195395812392,0.0006027355557307601,0.00023881216475274414,-0.0007032869034446776,-0.0025526743847876787,0.0007426328957080841,-0.0027416644152253866,0.0008084564469754696,-0.0014518394600600004,-0.004020878113806248,-0.0008563754963688552,0.003041805000975728,0.0012924285838380456,-0.0013735442189499736,-0.0008141397847793996,-0.0014771214919164777,0.0037076182197779417,0.0019625260028988123,0.0007636570371687412,0.00354090821929276,-0.002472309162840247,0.0011691885301843286,0.001459074323065579,0.0005488995811901987,0.0002218893205281347,0.0026329313404858112,-0.0010163860861212015,0.00219218572601676,0.0018738586222752929,0.003640091046690941,-0.0018913681851699948,0.00036198890302330256,0.0009953805711120367,0.0026746713556349277,0.0024476787075400352,-0.001558035844936967,0.003689440665766597,-0.0010513805318623781,-0.003397083841264248,-0.003018508665263653,0.00046462862519547343,0.0025993690360337496,0.0011125991586595774,0.002856811275705695,0.0019089005654677749,0.0006817707908339798,-0.0004184080462437123,-0.0011538399849087,0.0010611932957544923,-0.002775882836431265,0.0012976890429854393,-0.0014853031607344747,0.003963117487728596,-0.0010379637824371457,-0.0036762270610779524,-0.0021408728789538145,-1.6899344700505026e-05,0.0008626952767372131,-3.1101430067792535e-05,0.0014258052688091993,0.0010840010363608599,-0.0024486712645739317,0.0007650306215509772,0.0005468279705382884,-0.0034639330115169287,0.001371615333482623,-0.0029488978907465935,-0.003436379600316286,-0.0024817718658596277,0.0007498980266973376,0.003163140034303069,-0.0022674202919006348,-0.0018111569806933403,-0.0013932624133303761,-0.004354396834969521,-0.00015461508883163333,0.0014314407017081976,0.0013253097422420979,0.0019123199163004756,-0.002376606222242117,0.0010777022689580917,0.002461323980242014,-0.0012589858379215002,-0.00386742502450943,0.0030005250591784716,0.0033057427499443293,-0.001057000132277608,0.0031787585467100143,0.0006236943881958723,-0.0012166145024821162,-0.0007497443002648652,-0.0019452145788818598,-0.0026305359788239002,0.0013879367616027594,0.0026835775934159756,-0.0029852138832211494
-0.00338046345859766,0.0021888676565140486,-0.0017281663604080677,-0.0013474858133122325,-0.0004696383548434824,-0.002788948593661189,-0.00016080554632935673,-0.0028506710659712553,-0.0010422376217320561,-0.0002036793011939153,-0.0038350848481059074,0.0008939245599322021,0.0007220814586617053,0.0005824961117468774,-0.000561737862881273,0.0007759218569844961,0.0027147019281983376,-0.0003213161544408649,-0.0033849815372377634,0.00010131110320799053,-0.0013638905948027968,-0.001828131265938282,-0.0025222685653716326,0.0019255102379247546,-0.002071122406050563,-0.0006754049099981785,0.003556070849299431,0.0008260496542789042,-0.0006725111743435264,-0.0020383165683597326,0.0012260139919817448,-0.002332039875909686,-0.0015699920477345586,0.0032999117393046618,0.0023944934364408255,0.001073908992111683,-0.003556763520464301,-0.002143633086234331,-0.0028345256578177214,0.000299535458907485,-0.003319127019494772,0.0036962353624403477,0.001085957046598196,-0.001982067944481969,0.002332488540560007,-0.0019028057577088475,0.0027833806816488504,0.0030177354346960783,0.0031753655057400465,-0.0026644801255315542,0.0007078606868162751,0.00024723669048398733,-0.0025782075244933367,0.00042737144394777715,-0.0013301774160936475,-0.002038279315456748,0.001762330299243331,-0.002377044875174761,0.0023366075474768877,-0.002615418052300811,-0.003571852808818221,0.0035328848753124475,0.002068932866677642,0.0017351537244394422,0.003036851529031992,-0.002494202461093664,-0.003269834676757455,-0.0036534802056849003,0.0023839115165174007,-0.0038729473017156124,-0.00021421174460556358,0.002038239734247327,-0.0009959833696484566,0.0028888527303934097,0.003118974855169654,-9.176001185551286e-06,-0.0018713902682065964,2.2022464690962806e-05,-0.0021793986670672894,-0.0017740572802722454,-0.0032148603349924088,-0.00036393440677784383,0.0018296517664566636,0.000662023201584816,1.666591560933739e-05,-0.0021426912862807512,-0.00283866748213768,0.0009150831028819084,-0.0024664949160069227,-0.0007352911052294075,0.0009754957864060998,-0.002850579796358943,-0.0021751762833446264,-0.0019546300172805786,-0.0028422081377357244,-0.0022543231025338173,0.0030407255981117487,-0.0032339112367480993,0.0017807160038501024,0.0034324706066399813,0.0009831773350015283,-0.0005293940776027739,0.00038460289943031967,0.001675663166679442,-0.0008154224487952888,0.0011268656235188246,0.002323075896129012,-0.00210143462754786,0.0023211792577058077,0.003620196832343936,0.001372613594867289,0.0010521385120227933,-0.0010762722231447697,-0.0013865435030311346,-0.0015624600928276777,-0.0010396569268777966,0.0007168315351009369,-0.003197266021743417,-0.002808160614222288,-0.0020360108464956284,-0.003278914839029312,0.0014378346968442202,-0.001058367546647787,0.0011174738174304366,-0.003098491346463561,0.0025349268689751625,-0.0017689756350591779,0.0005894943024031818
-0.001018187147565186,-0.00022452467237599194,0.0022011748515069485,-0.000464366574306041,0.0007998300134204328,0.0023860768415033817,-0.002790631027892232,0.0024931300431489944,-0.0011984524317085743,-0.0017858716892078519,-0.0010999118676409125,0.0014432392781600356,0.0019750497303903103,0.003779716556891799,0.00212930329144001,0.0009253986645489931,0.001005268655717373,0.0009209802956320345,-0.0034168814308941364,-0.002415125258266926,-0.0004701383877545595,0.003239249112084508,0.0014382745139300823,0.0022503375075757504,-0.0017809589626267552,-0.0006137674790807068,-0.0026101463008672,0.0026844108942896128,-0.0005384046235121787,-0.00041931698797270656,0.0003932497347705066,-0.003384539159014821,0.0024142488837242126,-0.0020599961280822754,0.0010926666436716914,0.0017614745302125812,0.0032696349080652,0.000959551427513361,0.00038347081863321364,0.00020580382260959595,0.0033931108191609383,0.0030300102662295103,-0.000976668088696897,-0.0012322979746386409,-0.0011552301002666354,8.373698801733553e-05,0.00031440670136362314,-0.0009263813844881952,-3.990320328739472e-05,0.00039765622932463884,-0.0013275763485580683,-1.2506249731814023e-05,-0.0016557988710701466,0.003732916433364153,0.003586227772757411,0.00024355626374017447,-0.0015222439542412758,-0.00027460267301648855,-0.0007368523511104286,-0.0021356982178986073,0.00213075103238225,-0.0024731599260121584,-0.003287483472377062,0.0033558846917003393,0.003768682712689042,-0.0005591305089183152,0.0005831345915794373,0.0016191249014809728,0.0014316445449367166,-0.00026326815714128315,-0.002224174328148365,0.0017448599683120847,-0.0017185648903250694,-0.0032196741085499525,-0.002076639560982585,-0.003722124034538865,0.0018913509557023644,-0.0038789273239672184,-0.00346315442584455,0.0005341077921912074,0.0002268311509396881,-0.003379371715709567,-0.0006795897497795522,0.0017037015641108155,0.0028699093963950872,0.002591201104223728,-0.0025561507791280746,-0.0006074684206396341,-0.0008780326461419463,0.001442212495021522,-0.0037495638243854046,0.0032349720131605864,-0.0008630161173641682,0.0018043627496808767,-0.001273416681215167,-0.002311441581696272,-0.002708432963117957,-0.0008120056008920074,-0.0031241977121680975,0.0001587580336490646,0.0005522737628780305,0.0019055877346545458,-0.0003633666201494634,0.0020225588232278824,0.0032828638795763254,0.0036006756126880646,-0.00028237616061232984,-0.0002180324081564322,0.0019003209890797734,0.0006306383875198662,-0.0028701312839984894,0.0026786457747220993,-0.0002801990485750139,-0.0026793198194354773,0.0006111007533036172,0.0015262264059856534,-0.001839374890550971,-0.0005396479391492903,-0.003675337415188551,0.003743319306522608,0.0036941443104296923,0.0014746966771781445,-0.002375056268647313,-0.0006400006241165102,0.0034937977325171232,0.0005006761057302356,0.003620463190600276,-0.0007151495083235204
-1.5056213669595309e-05,-0.002837490290403366,-0.002692000474780798,0.003417782951146364,-0.0019212370971217752,0.003482978092506528,-0.003362200455740094,0.0011367033002898097,0.0012969160452485085,-0.0009642403456382453,-0.0018306762212887406,0.0027809005696326494,0.0017751074628904462,-0.00035707486676983535,0.0032278315629810095,0.0011481635738164186,-0.0037694014608860016,-0.0021625387016683817,0.0024254624731838703,0.0008824307005852461,0.003706037998199463,0.0011193036334589124,0.003039517905563116,-0.00266239233314991,0.0025642577093094587,-0.001083491137251258,0.0005804155953228474,0.0029569866601377726,0.00033273902954533696,0.0038711715023964643,-7.83111754572019e-05,-0.003498510690405965,-0.00016678888641763479,-0.0034399100113660097,0.0016157544450834394,0.003214299213141203,0.0025251638144254684,0.0022482769563794136,-0.0036300141364336014,-0.0017895944183692336,-5.5764292483218014e-05,-0.001319710980169475,0.0030488185584545135,-0.0005658463342115283,-0.0035895598120987415,0.002763700671494007,0.0016430607065558434,0.002430271590128541,0.002659818157553673,-0.002156213391572237,0.003069212194532156,0.0007024375372566283,3.612207365222275e-05,-0.002224513329565525,-0.0025873330887407064,0.0026954172644764185,0.0009967788355425,-0.0025735802482813597,-0.0017979855183511972,0.003715642960742116,-0.002967292442917824,-0.0016756384866312146,0.001011619926430285,0.0003820269776042551,0.000954652379732579,0.0005908256862312555,-0.0022487754467874765,0.0008380736107937992,0.0008600389119237661,0.0017999374540522695,-0.0009959485614672303,-0.0012032705126330256,0.001140029402449727,0.002717386232689023,-0.002753674052655697,0.0008401248487643898,-0.002927449531853199,-0.0026292752008885145,0.0037604321260005236,-0.0023835012689232826,-0.0038642610888928175,0.0033322451636195183,-0.0009718899964354932,0.0005975737003609538,0.0008546423050574958,-0.003618612652644515,0.002152124186977744,-0.0034541659988462925,0.0015885336324572563,0.0036682637874037027,0.0015781394904479384,-0.002729295752942562,-0.0032851542346179485,-0.0017513800412416458,-0.001995380036532879,-0.0003539128811098635,-0.00026596689713187516,-0.00045475689694285393,0.0023900121450424194,0.0033299268689006567,-0.0036325587425380945,8.767982961899179e-08,0.00022983463713899255,0.0036258797626942396,0.0023384112864732742,0.00013700409908778965,0.0012805716833099723,-0.0024776721838861704,0.0006102108163759112,0.003920808434486389,-0.00349928205832839,7.600824028486386e-05,0.0022293059155344963,0.000758452748414129,-0.00147467409260571,2.758037589956075e-05,-0.001266305916942656,0.0011866063578054309,0.0028418689034879208,0.001724567380733788,0.0022109453566372395,0.002997025614604354,-7.940361683722585e-06,0.0027527809143066406,0.003292379667982459,-0.0031025484204292297,-0.0019704103469848633,-0.0036572522949427366
0.0034944864455610514,0.00241741631180048,0.0023699651937931776,0.003999622073024511,-0.001395183033309877,-0.0022767013870179653,0.00206590723246336,0.0021486401092261076,0.0027894715312868357,0.001025976031087339,0.0037804206367582083,0.0036274585872888565,-0.0017372174188494682,0.0003785330627579242,-0.0006483437609858811,0.002503806259483099,-0.0005258810706436634,-0.0026617012917995453,0.0017778136534616351,0.004012838937342167,0.0002425074635539204,-2.39506371144671e-05,-0.0019528832053765655,-0.0009654586901888251,-0.0008662433829158545,-0.0009588853572495282,-0.001223294879309833,0.00024703648523427546,-0.0033077073749154806,0.00013808537914883345,-0.0012480904115363955,-0.0009736292413435876,-0.003144490998238325,0.00034670019522309303,0.0008375724428333342,-0.0026304638013243675,-0.0007793675758875906,0.003720022039487958,-0.0017922413535416126,-0.0007620060350745916,0.002983721438795328,0.0030542665626853704,0.003512235125526786,-0.0012062059249728918,0.0011827312409877777,-0.0027081386651843786,-0.0030628263484686613,-0.001953544793650508,0.0034237701911479235,-0.002986400155350566,-0.0029395781457424164,0.0035201713908463717,0.0012227084953337908,0.0014655827544629574,0.001111517776735127,-0.0035479122307151556,-0.0006824208539910614,0.0037131018470972776,0.00047236771206371486,-0.0006580388871952891,-0.0032838215120136738,0.003502490697428584,0.00038655620301142335,-0.0015750114107504487,0.0005160893779247999,-0.0030612535774707794,0.003560825949534774,-0.001854839501902461,0.002405966632068157,0.003365793963894248,-0.002048536902293563,-0.00318553252145648,0.001193232019431889,0.0022042635828256607,-0.003119596978649497,-0.001772304647602141,0.0030948820058256388,-0.0012717366917058825,0.0036183123011142015,0.003077465109527111,0.002197747817263007,0.0030066671315580606,-0.0019452922279015183,-0.0015153909334912896,0.003700029104948044,-0.0001821958867367357,0.0027485147584229708,-0.0025011179968714714,0.0007913553272373974,-0.00010449461115058511,0.0017129667103290558,-0.001017664442770183,0.0025929040275514126,0.0007382861222140491,-0.0010214714566245675,-0.0023427484557032585,-0.001152822165749967,-0.0028955123852938414,-0.001443151501007378,-0.00199314602650702,0.00041149542084895074,0.00039283413207158446,0.002587949624285102,-0.00034300630795769393,-0.0017771865241229534,0.0021293628960847855,-0.0010835237335413694,-0.002351942704990506,0.003655229462310672,0.002407245570793748,0.002241969108581543,-0.0026609173510223627,-0.00019958482880610973,-0.001325009623542428,0.003938188776373863,-0.0006297798245213926,0.0019915439188480377,-0.002680146135389805,-0.0007997329812496901,-0.0010363560868427157,-0.002706693485379219,-0.003726068651303649,-0.002012321026995778,-0.0019094373565167189,0.0034133323933929205,-0.00253124488517642,0.0006538506131619215,0.0029528781305998564
-0.0028785502072423697,0.000618009187746793,0.0027272820007056,-0.0014860781375318766,0.0029820429626852274,0.0027406061999499798,0.0038206386379897594,0.0039122020825743675,0.003067134413868189,-0.0023256116546690464,0.0016627570148557425,0.0004604351706802845,-0.0014998128172010183,-0.0035697189159691334,-0.0006702138343825936,-0.0021339026279747486,0.00025023974012583494,0.0033530769869685173,0.001523506478406489,0.0032761376351118088,0.002238699933513999,0.0026890828739851713,0.0007304179016500711,0.0038023763336241245,-0.0015914441319182515,-0.0030868458561599255,-0.0021217898465692997,0.0013657872332260013,0.0020323414355516434,0.0008411322487518191,-0.001654680585488677,-4.4191434426466e-05,0.003041480900719762,0.002877736696973443,-0.0035359880421310663,-0.002268342999741435,0.003112026723101735,-0.003158123232424259,-0.0019577674102038145,-0.001892749685794115,0.003285976592451334,-0.0031947025563567877,-0.002296857303008437,0.001999401254579425,-0.0005898238741792738,-0.0008473249617964029,-0.003451770171523094,0.0002048955502687022,-0.0007883443613536656,-0.0006729231681674719,-0.0030961697921156883,0.0022018603049218655,-0.002733321161940694,-0.0019398697186261415,-0.0025204105768352747,-0.0025245300494134426,0.0011902940459549427,-0.0024114884436130524,-0.001970909768715501,0.0035635000094771385,-0.001736531499773264,0.0031053919810801744,0.0026737081352621317,-0.0014960705302655697,0.0024870980996638536,-0.003575157606974244,-0.0035214084200561047,-0.0016671044286340475,0.0026308614760637283,0.0025067096576094627,-0.003832350019365549,-0.0037713092751801014,0.0007508668350055814,0.00031759939156472683,0.0037538218311965466,-0.0035116830840706825,-0.0008642192115075886,0.001159096253104508,-0.0038374585565179586,-0.002849943470209837,-0.0006863077287562191,-0.0031401391606777906,0.0005790977156721056,-0.003262357087805867,0.0003800146223511547,-0.0032385652884840965,-0.0038523434195667505,-0.0007926012622192502,-0.001955724786967039,0.0016240644035860896,-0.0013175091007724404,0.0027317937929183245,0.0002614108379930258,-0.0016627861186861992,-0.0032314276322722435,-0.0007265924359671772,-0.003635582746937871,0.0032838701736181974,-0.0008580191060900688,0.0008543494623154402,0.0038766420911997557,0.0011214202968403697,0.00024339476658497006,-0.0035575011279433966,0.0031784388702362776,0.003325311467051506,-0.0031295213848352432,0.00014715046563651413,-0.002633744850754738,-9.996824701374862e-06,0.0010389370145276189,-0.0038331677205860615,-0.0016545484540984035,0.003348479513078928,-0.0036250317934900522,0.0006849750061519444,-0.0033709665294736624,0.0009287656866945326,0.001146038994193077,-0.002752866130322218,-0.0027376359794288874,-0.0022908365353941917,0.0016477974131703377,-0.003304382087662816,0.0033826520666480064,-0.001514167757704854,-0.001466043177060783,-0.0018618818139657378
0.0027995945420116186,0.0025664260610938072,0.0007542227976955473,0.004047757014632225,0.0018032686784863472,0.0021185593213886023,0.002848387463018298,0.0010563760297372937,0.0039015840739011765,-0.003514927113428712,0.003806233871728182,0.0030264854431152344,0.0025137653574347496,0.004167476668953896,0.002828227821737528,0.0012888623168691993,-0.0014785460662096739,0.0031271313782781363,-0.0014603601302951574,-0.0011145866010338068,-0.0011062351986765862,-0.003569001564756036,0.0023084802087396383,0.0009877195116132498,-0.0020312173292040825,-0.0022312267683446407,0.0023888794239610434,0.0028827188070863485,-0.001632055384106934,-0.0015547017101198435,-0.0024826424196362495,-0.003591498825699091,-0.0031316536478698254,0.003706608898937702,8.381863153772429e-05,0.00398977380245924,0.0017884660046547651,-0.0010791386011987925,0.0016352190868929029,0.000232979393331334,-0.002722441218793392,0.00037106103263795376,-0.0012366995215415955,0.0030234442092478275,-0.0025278227403759956,0.002601092681288719,-0.002667361404746771,3.458960054558702e-05,0.002771749161183834,-0.0019345368491485715,-0.001525728963315487,0.003865157486870885,-0.0003108081582468003,0.0031501236371695995,-7.803075277479365e-05,0.0023217336274683475,-0.0013497172622010112,0.0032701848540455103,-0.0018767588771879673,0.0007358630537055433,-0.0017516709631308913,-0.0032429334241896868,0.0004292427620384842,0.0030513573437929153,0.00034313349169678986,-0.0022121842484921217,0.000496027001645416,0.0014367804396897554,0.0024092544335871935,0.0020018601790070534,0.0030893750954419374,0.0012622984359040856,0.001005827565677464,-0.0017329191323369741,-0.003718969412147999,0.0020755045115947723,-0.0029752685222774744,0.0009456817642785609,-0.003184783272445202,-0.0030554956756532192,0.0021053480450063944,0.0006232062005437911,0.0008963588043116033,-0.0022608055733144283,0.0008505966397933662,0.0006786390440538526,0.0018060090951621532,-0.0024327330756932497,0.0011666796635836363,-0.0011045568389818072,0.003089797217398882,-0.002161278622224927,-0.0035969906020909548,0.0030468336772173643,0.0030123472679406404,-0.0014271977124735713,-0.002652332652360201,0.002693929709494114,0.001849653897807002,0.0027633721474558115,0.00023239236907102168,-0.0013266496825963259,-0.0016216988442465663,0.002213582629337907,-0.000743775861337781,-0.0027577956207096577,-0.004480198957026005,0.0030912335496395826,-0.0036031343042850494,-0.0019248223397880793,0.0020618708804249763,-0.0017542003188282251,-0.002961575984954834,0.0022473852150142193,0.00036710515269078314,-0.0022848083171993494,-0.0031353116501122713,0.0033467819448560476,-0.001290527288801968,0.003494439646601677,-0.0036880397237837315,0.0019366684136912227,0.0009333783527836204,-0.003222665749490261,-0.001428118790499866,0.003187437541782856,-0.0015951271634548903,-0.0016600900562480092
0.0028252587653696537,-0.003228959860280156,-0.0015031853690743446,-0.0014826934784650803,-0.0032294131815433502,-0.003163945861160755,-0.0034585692919790745,0.0017381381476297975,-0.0026522455736994743,0.0007385198841802776,0.0014405605616047978,-0.0015425201272591949,-0.00370590528473258,0.0015201554633677006,0.0006983830244280398,0.0005340504576452076,0.0032999254763126373,-0.0023456804919987917,0.0020173622760921717,0.002722809324041009,-0.0035218901466578245,0.0014951626071706414,0.002487258752807975,-0.001079177251085639,0.0003785195585805923,0.0015362240374088287,-0.0018720627995207906,-0.0032253116369247437,-0.0010072195436805487,-0.0014636933337897062,0.0007735409308224916,-0.0015959363663569093,-0.0037411947268992662,-0.0008490650216117501,0.0004454799636732787,0.0031015025451779366,-6.822159775765613e-05,-0.00292207975871861,0.002554557519033551,-0.0016968363197520375,0.0019618109799921513,0.0024917738046497107,0.0005602066521532834,-0.0023163945879787207,-0.002183368895202875,0.0008094776421785355,-6.0436468629632145e-05,0.002542338101193309,-0.003821444697678089,0.001425677677616477,0.00273562571965158,-0.0016216833610087633,0.001998522551730275,-0.003797274548560381,0.003068048506975174,0.0007690557395108044,-0.0025243221316486597,0.0012480627046898007,-0.0037737886887043715,-0.003122561378404498,-0.00375316571444273,-0.003254117676988244,-0.0004651129711419344,-0.0038410236593335867,0.0014318033354356885,0.001966179348528385,-0.0006295471102930605,-0.003773641539737582,-0.003763850312680006,-0.0019656908698379993,-0.003886199090629816,0.00011845186963910237,0.0008792363805696368,0.002451843349263072,-0.00010746438056230545,0.003200808772817254,-0.0015317294746637344,0.0038223753217607737,0.0023886600974947214,-0.001826495281420648,-0.0027532055974006653,-0.0029391725547611713,-0.0008475846261717379,0.0031000394374132156,-0.001240730518475175,0.0014381988439708948,-0.0027068837080150843,-0.003729559713974595,0.00015675333270337433,-0.003038812428712845,0.0020332438871264458,-0.0019416686845943332,-0.0006127681699581444,0.0033285771496593952,0.0030138043221086264,0.002148812171071768,-0.002633495256304741,-0.001490687602199614,0.003899942385032773,0.0038334063719958067,0.003031072672456503,-0.0036853617057204247,-0.00034595117904245853,0.0032524841371923685,-0.0033511428628116846,0.0003531674447003752,-0.0005341339274309576,-0.00038561943802051246,0.0022297953255474567,-0.0025074570439755917,-0.0005251916591078043,-0.0017061519902199507,0.0017450101440772414,-0.0031315635424107313,0.002517550950869918,8.230055391322821e-05,-0.0023064573761075735,-0.0014174915850162506,-0.001258312026038766,-0.0004123859980609268,0.002694948809221387,-0.0009473072714172304,0.0033222802449017763,0.001758297556079924,-0.002567082177847624,-0.0023890661541372538,0.0033373157493770123,-0.0032955261413007975
0.0006398119148798287,0.0037672596517950296,-0.0027238449547439814,0.002145244739949703,-0.003428019816055894,-0.0028101883362978697,-0.002999089192599058,-0.002943825675174594,0.0033235601149499416,0.0016813400434330106,0.0002026471047429368,0.0030706441029906273,0.0005492129712365568,-0.0018505826592445374,-0.0006211501895450056,-0.0036539703141897917,0.002272588899359107,0.00341256451793015,0.0013694020453840494,0.003562931902706623,0.001001424272544682,0.003369745798408985,-0.0022153472527861595,0.0019247622694820166,-0.0002615494595374912,-0.0014159041456878185,-0.0012571224942803383,-0.002769827377051115,-0.0013595251366496086,0.0007481701322831213,-0.0027371093165129423,-0.0009339432581327856,9.926426719175652e-05,0.0031422122847288847,0.002073373179882765,0.0036673557478934526,0.001182687934488058,-0.003252255031839013,-0.0011723438510671258,0.003960223402827978,-0.0023855618201196194,-0.0032120535615831614,-0.003303876146674156,0.0005271738045848906,0.0008740415796637535,0.0007227192400023341,0.0005742083885706961,-0.0025653373450040817,0.0032619978301227093,0.0020166628528386354,-0.00180797278881073,9.99762341962196e-05,-0.0007636855589225888,-0.0017696510767564178,0.0013685959856957197,0.000920733786188066,0.0010007687378674746,-0.0020396432373672724,0.001373046892695129,6.642645894316956e-05,0.0014326553791761398,-0.003538766410201788,-0.0019657649099826813,-0.0038467447739094496,-0.0015683682868257165,-0.0001377591397613287,7.253148942254484e-05,-0.0018334526102989912,0.0023732450790703297,0.0035557239316403866,0.0029400044586509466,0.0027986117638647556,0.0007738004787825048,-0.0005119572742842138,0.0003766198642551899,-0.0028386448975652456,-0.002787066390737891,-0.00366867333650589,0.0002424687409074977,-0.0004635319346562028,-0.0021405606530606747,-0.00016280656564049423,-0.002860435750335455,-0.0016857967711985111,0.002151309745386243,0.0005507725290954113,-0.0021912027150392532,-0.003757598577067256,0.0033167609944939613,0.002088742097839713,-0.0023800355847924948,-0.0006710255402140319,0.0008656083373352885,0.0007418285822495818,-0.0004651665803976357,-0.0027192782144993544,-0.0008562704315409064,0.0015713130123913288,0.0019062540959566832,-0.002817893633618951,-0.003107972675934434,0.0037724038120359182,0.0011860958766192198,0.0031180663499981165,-0.0025975899770855904,-0.0018869646592065692,0.0009578873869031668,-0.001044257078319788,0.0025960011407732964,-0.0023124408908188343,0.0011435335036367178,-0.0037982885260134935,-0.0034179636277258396,0.0011678073788061738,-0.003476975718513131,0.0023816328030079603,0.00022389297373592854,0.003892280627042055,-0.001149189192801714,0.0018711400916799903,-0.0004089886206202209,0.001400689478032291,-0.0036064235027879477,-0.003228288609534502,-0.002345108659937978,0.000330751616274938,-0.000910852977540344,0.0023506677243858576
