0,1,2,3,4,5,6,7,8,9,10,11,12,13,14,15,16,17,18,19,20,21,22,23,24,25,26,27,28,29,30,31,32,33,34,35,36,37,38,39,40,41,42,43,44,45,46,47,48,49,50,51,52,53,54,55,56,57,58,59,60,61,62,63,64,65,66,67,68,69,70,71,72,73,74,75,76,77,78,79,80,81,82,83,84,85,86,87,88,89,90,91,92,93,94,95,96,97,98,99,100,101,102,103,104,105,106,107,108,109,110,111,112,113,114,115,116,117,118,119,120,121,122,123,124,125,126,127
0.36755369786414427,-0.9743307777404382,0.17299163545712148,0.14080572667905988,-0.42987437007181195,-0.9550610104328969,-0.14382853048826316,-0.9671163576721038,0.8808069113323296,0.8018775249970913,-0.06180223680266006,-0.9706217388461367,0.2702401209265879,-0.5530515731074761,0.04149453876591114,-0.1352322792226135,-0.45094109408469096,-0.6682675769302959,0.6433961499231424,0.5247300612744583,0.7762112895339224,-0.8456599416486497,-0.576861453919937,0.7310589129292382,0.3646592308379144,0.17304189121545877,0.055951793591759724,-0.3513266422386754,0.20723328526753737,0.7938044456187878,-0.8636496721081681,-0.18706841114986839,0.8126133918491747,0.5437983086596743,0.1512699194534184,0.36289225661776836,-0.34936313118432394,0.6658363540072203,0.08646170194458924,0.44052002935472157,0.017246647569572504,0.7576292726571705,0.5486672189566206,-0.33778653208770604,-0.4768213378704078,0.2708625073706461,0.6517083554251899,-0.744335965718159,-0.06566383934444509,0.7759950499075823,0.5382253799068373,0.747300117010913,0.42440883692764064,0.8431360297774226,0.027627160575421916,0.2663175189551308,-0.24370018235479773,0.905314480133836,0.6737116472476408,0.8576188778409193,0.8174368331669082,-0.8068033874449179,0.8106906714237223,-0.6048638210892907,0.31006564943224335,-0.3688814656158359,0.9803999954311611,-0.9970336492058103,0.8411924272949978,-0.8859262187213877,-0.6448124074238097,0.6776296922759435,0.90369389734938,-0.0238989738410329,0.2163168126905608,-0.24609852551517908,0.24766230783500975,-0.7361800842909827,-0.35095279059691875,0.017446973310795144,0.2946390999824551,0.0706034069360395,0.12397923828588175,-0.479138524357704,0.9800857492862909,0.6618797957425033,-0.19197144104999442,-0.6545998423653627,0.7811834371275277,-0.8244310213060693,-0.07999501069780512,-0.9658954686316976,0.7528013603334021,0.7829830413570884,-0.8270803562472828,0.6790602254844051,0.4752527635885839,-0.07410732512768403,-0.15127103406867692,-0.16211954080426416,-0.33685095581923896,0.35120679897329765,-0.2115797788838707,0.46663461376984894,-0.8052217911369841,-0.4958683340022336,-0.6508634954763197,-0.3400369179018474,0.2413015195407724,-0.3522609277839954,-0.2367628960827226,-0.9861258318850072,0.38816156026195103,-0.9879139769964711,-0.7014067933680075,-0.09671776461666437,0.09494677593501422,0.034847694816919184,0.5973438288541979,-0.016328369585151048,-0.48103723443056245,0.6534559627628838,0.4640080685657417,-0.7257351703509487,-0.6997446585658413,0.07271173455517688,0.38996400775179896,-0.8444104643972323
-0.0011178817367181182,-0.0015341504476964474,0.002253933111205697,-0.001468408154323697,-0.0007435508305206895,0.002649986417964101,0.0019383631879463792,-0.00028884506900794804,-0.0017789724515751004,0.0004726698389276862,-0.0011732024140655994,0.0019523872761055827,-0.00023771288397256285,-0.002359558129683137,0.0019472446292638779,-0.0033323816023766994,0.0010743365855887532,0.00021313989418558776,0.0016809364315122366,-0.0008748236577957869,0.0022733593359589577,-0.004212362226098776,-0.000762996613048017,-0.0016238355310633779,0.0012869277270510793,0.0008734487346373498,0.0007752057281322777,0.0015856495592743158,-0.0034902645274996758,-0.0033744280226528645,-0.003387765260413289,-0.0016134228790178895,0.0012029098579660058,-0.0031528512481600046,-0.0023917618673294783,0.0014192279195412993,-0.002206045901402831,-0.0030748266726732254,-0.0009206889662891626,-0.0026977367233484983,-0.00022262085985857993,-0.001530900364741683,0.0017594231758266687,-0.00011009549780283123,0.0031217141076922417,-0.004116895142942667,0.001306584570556879,0.0016556391492486,-0.0033782380633056164,0.0024646115489304066,-0.001972207799553871,0.0032535577192902565,-0.002237830776721239,-0.0025210226885974407,0.0012079294538125396,-0.0032445199321955442,-6.493919499916956e-05,-0.0030324733816087246,0.0009886816842481494,0.002517929533496499,-0.003654523752629757,0.001369497156701982,0.002524800831452012,-0.003805100219324231,0.0012055125553160906,-0.0024425177834928036,0.0026045450940728188,-0.0011739932233467698,-0.003105014795437455,-0.0031065160874277353,-0.002229854231700301,0.001280419179238379,-0.0022431211546063423,-0.0032761679030954838,-0.003051729639992118,-0.00011566897592274472,-0.001424508634954691,8.251945837400854e-05,-0.0023591616190969944,-0.0011586458422243595,0.0007296239491552114,-0.002091193338856101,-0.0006885136244818568,0.0008201173623092473,-0.0008323820657096803,-0.003427743911743164,-0.0010823418851941824,-0.0022132047452032566,-0.0035534778144210577,0.004213341511785984,-0.0014519564574584365,0.003234469797462225,-0.0011304948711767793,-0.002346394583582878,-0.001538975047878921,0.0022279545664787292,-0.003307438688352704,0.0026641865260899067,0.0007735897088423371,0.001230007503181696,0.0015864812303334475,-0.0011002130340784788,-0.002853530226275325,-0.003482529893517494,0.0018614811124280095,0.0003604516095947474,-0.0035607803147286177,-0.0025173642206937075,0.004066129680722952,0.0021293084137141705,0.0009612616850063205,0.0010176235809922218,0.001858768635429442,-0.003187798662111163,0.0009108152007684112,0.00021178752649575472,-0.0008770225686021149,-0.002939209109172225,0.000884635781403631,-0.0007892570574767888,0.0011568727204576135,0.00014550505147781223,0.0037471649702638388,-0.00013856655277777463,-0.0025977117475122213,0.002586233662441373,0.002259677741676569,0.0005335024907253683
-0.003914158791303635,-0.003130620578303933,-0.0008410551818087697,7.373191328952089e-05,0.0005519304540939629,9.046777449839283e-06,0.0008205697522498667,0.003772504162043333,-0.0014199551660567522,-0.0019867829978466034,0.002323693595826626,6.95113412803039e-05,0.0013042851351201534,0.0029839500784873962,-0.0030547191854566336,0.0025809051003307104,0.0020895819179713726,-0.0024162549525499344,0.0019730315543711185,0.002764248289167881,0.0020875828340649605,0.0029283524490892887,-0.001982657937332988,0.0016317027620971203,0.0008721046033315361,-0.0003607804828789085,-0.002360857790336013,0.0016782841412350535,-0.003489335300400853,0.0024468775372952223,0.0029067795258015394,-0.001664021285250783,0.0029478135984390974,0.0026482415851205587,-0.002950628288090229,0.0031982692889869213,0.002591790398582816,0.002674869727343321,-0.0007344732293859124,0.0019652056507766247,-0.0017363635124638677,0.0007362004253081977,0.0002883819688577205,0.00035108320298604667,-0.0029880846850574017,-0.0011783550726249814,0.0008877496002241969,-0.0009715951746329665,0.0035790065303444862,-0.00326168374158442,0.000851771212182939,0.0024106441996991634,-0.0036263070069253445,-8.221914322348312e-05,0.0011508683674037457,-7.246889435919002e-05,0.002776722889393568,-0.002300745341926813,0.0023387172259390354,-0.0011561764404177666,0.0009856931865215302,-0.0022590551525354385,-0.0008218915318138897,-0.003741737687960267,0.003302914323285222,0.003165640402585268,-0.0034361244179308414,0.0032592781353741884,-0.0009891851805150509,0.002500804141163826,0.0006530981627292931,-0.0008122832514345646,0.0018690457800403237,0.0024141985923051834,0.001621113158762455,-0.0016048270044848323,-0.0002127413754351437,-0.0013272325741127133,0.0025197917129844427,1.65778401424177e-05,0.0012389342300593853,-0.0010857594897970557,0.0006261827074922621,0.0030835093930363655,0.002189807826653123,0.0034669688902795315,-0.0003023628960363567,0.0017974753864109516,-0.0006157950847409666,-0.0014742006314918399,-0.0022847470827400684,0.002541422611102462,0.001482678228057921,-0.003271584864705801,-0.003539380617439747,0.0030249045230448246,-0.003983760252594948,-0.003629548940807581,0.0017019369406625628,-0.0004918001941405237,-0.0029717874713242054,6.817153189331293e-05,-0.002691257046535611,-0.002240384230390191,-0.0012914534891024232,0.0022991246078163385,0.00104962894693017,5.888401938136667e-05,0.001954995561391115,-0.0007770659285597503,-0.0032079026568681,-0.0018123702611774206,-0.00081749347737059,-0.003438114421442151,-0.0019768199417740107,0.0015063787577673793,0.0027133303228765726,0.0005049617611803114,0.0004633486387319863,-0.0034528819378465414,0.0020165895111858845,-0.003524916712194681,-0.002899447688832879,-0.00040254430496133864,-0.0021581652108579874,0.0027153226546943188,-0.0028590820729732513,-0.0016935454914346337
0.0012279711663722992,0.00021487410413101315,0.0035098916850984097,0.003479183651506901,0.0007782191969454288,0.0018601998453959823,-0.0011137253604829311,0.003260863944888115,0.0011347191175445914,-0.003732306882739067,0.0017224854091182351,0.0016905451193451881,-0.0030813042540103197,-0.0008330834680236876,0.0015066337073221803,-0.0014927810989320278,0.002132314955815673,-0.003887950209900737,0.0003790753544308245,-0.002422553487122059,0.002347798552364111,0.00028971192659810185,-0.002479067537933588,-0.002022836124524474,0.0002778048219624907,-0.0018373214406892657,-0.0013982322998344898,-0.001131210825406015,0.0028211092576384544,0.0023682918399572372,0.0011324313236400485,0.0030985609628260136,-0.0005910577601753175,0.0004458749608602375,0.00033113735844381154,-0.00258690700866282,0.0010745482286438346,-0.0009130880935117602,0.0008932809578254819,-0.0006538419402204454,-0.0031074092257767916,0.0036943266168236732,-0.0014664483023807406,-0.0001565841375850141,0.0028579989448189735,0.0022295655217021704,0.003820299869403243,-0.00196219515055418,-0.001591527252458036,0.000384738203138113,0.0027361162938177586,0.0010527442209422588,0.001177560305222869,-0.003356211120262742,-0.0018351908074691892,-0.0019295542733743787,-0.0006069470546208322,-0.0036159800365567207,0.0009210528805851936,0.0013125280383974314,-0.003574416507035494,0.0039399066008627415,-0.0014205100014805794,-0.0016955435276031494,-0.002229951089248061,-0.0008661299361847341,-0.00038785734795965254,0.0034443680197000504,-0.0015806946903467178,0.0012315475614741445,0.0004860783228650689,-0.0018838869873434305,0.0023391202557832003,-0.0020402788650244474,0.002569757401943207,-0.00040131888817995787,0.0017126135062426329,-0.0033298954367637634,-0.0025275785010308027,-0.0032094125635921955,-0.0012160835321992636,-0.0006270888261497021,-0.0009130545076914132,0.00230679870583117,-0.002944160019978881,0.0034312496427446604,0.002278116764500737,0.001503440784290433,0.0014907274162396789,-0.0012933238176628947,0.003976159729063511,-0.003197113750502467,-0.0011595162795856595,-0.0011813895544037223,-0.0018578741000965238,-0.0037975520826876163,-0.0018950909143313766,0.0033964747563004494,0.0015561316395178437,-0.003538291435688734,0.001313139800913632,0.0017014223849400878,0.0036976805422455072,0.0017767422832548618,0.0003824279992841184,0.003041840624064207,0.0018541815225034952,0.003291310044005513,0.0007968019344843924,-0.0031946462113410234,0.002719129901379347,0.0033698673360049725,-0.0031100360210984945,-0.0016321371076628566,-0.0007537461933679879,0.0004582437395583838,0.0019833703991025686,0.0006531882099807262,-0.0008780253119766712,-0.00029685438494198024,-0.0007943695527501404,-0.0003188236732967198,-0.0016850418178364635,0.001781729981303215,-0.0039057896938174963,0.0003985025978181511,-0.0014875091146677732,-0.0014633049722760916
-0.0024624010547995567,0.0033773661125451326,-0.0027747522108256817,0.0012186237145215273,0.0013221293920651078,0.0029616253450512886,-0.002179994946345687,0.001463562366552651,-0.003401355817914009,-0.0020032674074172974,-0.0005157562554813921,-0.00011486239964142442,-0.0013754916144534945,0.002139737829566002,-0.0031228906009346247,0.00047947399434633553,-0.0008890985045582056,-0.002174788387492299,-0.0028813788667321205,-0.001769791473634541,0.0013938751071691513,-7.26296057109721e-05,-0.0008423250401392579,0.0014472828479483724,-0.001965535804629326,0.0008242192561738193,-0.0027683251537382603,-0.0027781352400779724,-0.0006612169090658426,-0.0014745789812877774,0.0022952603176236153,-0.0030233561992645264,0.00032408031984232366,0.0021600602194666862,-0.003674382111057639,-0.002619480714201927,0.0022077097091823816,0.003593848552554846,5.128992415848188e-05,0.00045569674693979323,-0.002782546216621995,0.0032717662397772074,-0.0017652485985308886,-0.0013816591817885637,0.0019699549302458763,0.0035448186099529266,-0.0008045531576499343,-0.000803869916126132,-0.0031945197843015194,-0.0024435031227767467,-0.0014610376674681902,-0.002807711949571967,-0.0036427900195121765,0.002119695767760277,0.0010515955509617925,0.0023763044737279415,0.0025996873155236244,0.0011105479206889868,-0.0026038698852062225,0.002845154143869877,0.0027036445681005716,0.0003890499647241086,0.0025224853307008743,-0.0005158556741662323,-0.0033837272785604,-0.0030027609318494797,0.0037104070652276278,0.003060470800846815,-0.00024617993040010333,-0.003509830916300416,0.0023264812771230936,-0.002069034380838275,0.0001422854111297056,-0.0026593715883791447,0.002312075113877654,0.0009953865082934499,0.0005202244501560926,-0.00041281068115495145,-0.0034338945988565683,-5.0058195483870804e-05,0.0036755469627678394,0.000936396885663271,-0.0022508292458951473,0.003615851514041424,0.000792431179434061,-0.0040303925052285194,-0.0015042695449665189,-0.002650198992341757,-2.291160672029946e-05,0.0035823520738631487,0.0008403411484323442,-0.003786814399063587,-0.0031602326780557632,-0.00015250261640176177,0.001179899089038372,0.0017514221835881472,-0.0029796380549669266,-0.0032767667435109615,0.002187079982832074,-0.002140380907803774,-0.0021822804119437933,-0.003744185436517,0.002804808784276247,2.6352361601311713e-05,0.0006255246698856354,-0.003689433913677931,0.0030268821865320206,0.001832595095038414,-0.0005663742776960135,-0.0027740304358303547,0.002460750285536051,0.0029345210641622543,-0.0011255756253376603,-0.0011128726182505488,-0.00010206303704762831,0.002594891469925642,-0.00023739284370094538,-0.0012399047845974565,-0.002116468967869878,-0.0020969416946172714,0.0014155413955450058,0.003316699294373393,-0.00021411680791061372,-0.000697843439411372,-0.0011424629483371973,-0.0004183323762845248,-0.0007195408106781542,0.0024162502959370613
0.003479274455457926,-0.0037317718379199505,0.0035149911418557167,-0.0035392045974731445,-0.0015553355915471911,0.0037160932552069426,0.003088735044002533,-0.0018650690326467156,-0.0005888668820261955,-0.0012706463458016515,0.0006189256673678756,-0.0007060421048663557,0.0025181842502206564,0.000730222905986011,0.0026582235004752874,0.0026806313544511795,-0.002225830452516675,0.0010185413993895054,-0.0005708126118406653,0.00023826048709452152,0.0031451431568711996,-0.004807158373296261,0.0023320221807807684,-0.00019355575204826891,0.001807864522561431,0.003720114706084132,-0.0028619777876883745,0.003636262146756053,-0.002873763907700777,0.004399118013679981,-0.0007259604171849787,-0.002881839172914624,0.0011650370433926582,-0.0023630044888705015,-0.0005015566130168736,0.0015266388654708862,-0.0009261524537578225,0.001671493984758854,0.002818751148879528,0.002449024934321642,-0.0003632470325101167,-0.0015177220338955522,-0.003140675602480769,-0.001413989462889731,-0.0005111926002427936,0.002138877287507057,-0.00284303305670619,6.778180977562442e-05,-0.002614605473354459,-0.0036060090642422438,0.002869883319362998,-0.0010283923475071788,-0.0029960123356431723,0.00273510511033237,-0.0028103655204176903,-0.0028369685169309378,0.001102933892980218,0.0029601971618831158,-0.0043033757247030735,0.002212360966950655,0.0009469339856877923,0.0036648947279900312,-0.0010778360301628709,-0.0030384177807718515,-0.002081636805087328,-2.8335249226074666e-05,0.001753260032273829,-0.002654670737683773,0.0034071768168359995,-0.0018571135587990284,0.002738674869760871,-0.0004796038556378335,0.003009839216247201,0.002119065262377262,0.0027654122095555067,0.000348598143318668,-0.0013561202213168144,0.0027416867669671774,-0.0008532207575626671,0.0012776149669662118,0.00020269690139684826,0.004253054969012737,0.0006576931336894631,0.00012576690642163157,-0.0023343374487012625,-0.0040064710192382336,-0.0025511160492897034,-0.0006679829093627632,-0.002712179906666279,-0.0006218208000063896,0.00369932665489614,-0.00086589326383546,0.0038186777383089066,-0.0017408946296200156,0.0033345469273626804,0.0020688215736299753,0.0012309117009863257,-0.0007458918844349682,0.0013814048143103719,0.0029260378796607256,0.00314945075660944,0.0015402401331812143,0.003455809084698558,0.0017121697310358286,0.002326185116544366,0.0002810284204315394,0.001957740169018507,0.003281334415078163,0.00304360780864954,0.0013698030961677432,0.004197269212454557,-0.004074534401297569,-0.003898030612617731,0.0009426598553545773,-0.0009140364127233624,0.0030978224240243435,-0.0012223552912473679,-0.0017138917464762926,-0.00038835048326291144,0.002713701454922557,-0.0028940674383193254,-0.0016037577297538519,0.0002070232731057331,0.0012831904459744692,0.0026853166054934263,-0.0032678982242941856,0.0013458807952702045,-0.0039802975952625275
-0.0012356177903711796,0.0032387571409344673,-0.003520628437399864,0.003533395240083337,0.0011761595960706472,0.0005309904809109867,0.001096453401260078,0.0008496825466863811,-0.0025874199345707893,0.002207370474934578,-0.0017329102847725153,0.0038791210390627384,-0.003282591002061963,-0.0033836520742625,-0.003618663176894188,-0.0012814131332561374,0.00342211639508605,0.0024775108322501183,-0.0014547817409038544,0.0026018088683485985,0.0032466507982462645,-0.0036364318802952766,-0.003605180885642767,0.0016826150240376592,0.0009232989978045225,0.0019467516103759408,-0.0013092735316604376,0.0004891968565061688,-0.002115804236382246,0.0025940050836652517,-0.0016393732512369752,-0.0014859611401334405,0.003397366963326931,0.003572760382667184,0.0028473346028476954,-0.00255648628808558,-0.0009849539492279291,-0.0010039284825325012,0.0009050795342773199,-0.0007401586626656353,0.002253584796562791,-0.0011806298280134797,-0.0033292926382273436,-0.002390163717791438,0.0009533807751722634,-0.0031364450696855783,0.000785804761108011,0.0018137894803658128,0.0010613102931529284,0.003345420118421316,-0.0014314019354060292,-0.0036325850524008274,-0.0006013896781951189,-0.0019213315099477768,-0.00023929188319016248,-0.0020049577578902245,-0.0031346227042376995,0.000387307140044868,0.0024714258033782244,-0.0008921157568693161,-0.0011387858539819717,0.0015312909381464124,-0.002364928601309657,0.003392936661839485,0.002419858705252409,-0.0008029011660255492,0.004088547546416521,0.004371711518615484,0.0031978811603039503,-0.0006911210366524756,-0.0004954665782861412,-0.00340583105571568,-0.001700929133221507,0.0029890993610024452,0.002683177124708891,0.001095975749194622,0.0012324220733717084,0.0018446892499923706,-0.00069017632631585,0.003909754101186991,-0.0024605966173112392,0.002064842963591218,0.0014763872604817152,-0.0034783771261572838,0.002993508242070675,0.0021539286244660616,-0.0002495974476914853,-0.0005614589317701757,0.003863382386043668,0.0006233245367184281,0.0010484670056030154,0.001914793741889298,-0.0033971734810620546,-0.004149366170167923,-0.0008323522051796317,-0.002909153699874878,-0.000989592052064836,7.957009802339599e-05,-0.0012932645622640848,-0.003545014886185527,0.00030246490496210754,-0.00015246367547661066,-0.0002692507114261389,-0.004011143930256367,-0.0020708225201815367,-0.0017881905660033226,-0.0013753705425187945,-0.001438181265257299,0.001810058020055294,0.000632194394711405,0.0028265260625630617,-0.0025240066461265087,-0.0018781451508402824,0.0023410352878272533,-0.0005614631809294224,0.0025052805431187153,-0.00023532938212156296,-0.0034982464276254177,-0.0020375752355903387,0.0004979376681149006,-0.0024810077156871557,0.0004446177335921675,-0.0032857637852430344,-0.0015843736473470926,-7.055541209410876e-05,0.0010053495643660426,0.002641301602125168,-0.004441586788743734
0.0015122704207897186,0.003287441097199917,-0.0029926199931651354,-0.003638028632849455,-0.002646091626957059,0.0007402044138871133,0.00045109502389095724,0.0012863934971392155,0.0038302126340568066,0.00122835801448673,0.0007599761593155563,0.0003505331987980753,-0.003457518992945552,-0.0017243348993360996,-0.0008026951109059155,0.0008861764799803495,0.0011804021196439862,-0.002009030431509018,0.0007596473442390561,0.0026227529160678387,-0.0017131944186985493,0.0005266722291707993,-0.0010032724821940064,0.00177947583142668,0.002302540233358741,0.002024795627221465,-0.002514948369935155,-0.0015161533374339342,0.003346382873132825,0.003932878840714693,6.71998132020235e-05,-0.004045628476887941,-0.0037016815040260553,0.0005301633500494063,-0.0021862636785954237,-0.0009209436248056591,-0.00035654116072691977,0.0032359291799366474,0.0018026723992079496,-0.002784696640446782,-0.0031273500062525272,-0.000606449437327683,-0.0031514978036284447,-0.0036604248452931643,0.0007342372555285692,0.00022661576804239303,0.0009213389712385833,0.0006996195879764855,-0.0005798155325464904,0.0011740336194634438,-0.0008271893602795899,0.0006103054620325565,0.0020778323523700237,-0.0005082813440822065,-0.003600707743316889,-0.0018643259536474943,0.0017063086852431297,-0.0028691007755696774,-0.0010229013860225677,-0.003390684025362134,-0.00025879350141622126,-0.0031914229039102793,-0.003238232107833028,-0.0007847175584174693,0.0014682739274576306,-0.003189610317349434,-0.0020872338209301233,0.000820642220787704,-0.001029646024107933,-0.0012573907151818275,-0.00048331738798879087,0.0017843104433268309,-0.001811206224374473,-0.0011185207404196262,0.0035079356748610735,0.0004125521518290043,-0.0013050008565187454,-0.003721867920830846,0.0034025348722934723,0.0017642521997913718,-0.002560895401984453,-9.545303328195587e-05,-0.0032277193386107683,0.0017317316960543394,0.0024358860682696104,0.0012607169337570667,-0.0026145249139517546,0.0009046809864230454,0.0035432761069387197,0.000837521452922374,0.000790812773630023,0.0013803070178255439,-0.0027348329313099384,-0.0012210758868604898,-0.00298201572149992,-0.0005522741703316569,-0.00017887794820126146,-0.001976282335817814,-0.003667979734018445,-0.0021359899546951056,-0.0007553146569989622,0.0015789237804710865,-0.0004278653359506279,-0.003952519036829472,0.003841524478048086,-0.001700269989669323,0.0024849078617990017,-0.0013521594228222966,-0.0010131761664524674,0.0023757631424814463,-0.0009094266570173204,-0.0023385765962302685,1.3370269698498305e-05,-0.0014103918801993132,0.0006212859298102558,-0.0009749383316375315,-0.0034310773480683565,-0.0031276922672986984,0.002146015642210841,-0.001538053504191339,0.00020763759675901383,-0.0014432230964303017,-0.0033923464361578226,-0.0033064261078834534,-0.0013415723806247115,0.0032452235464006662,-0.0014255072455853224,0.0005846155108883977
0.0027228149119764566,-0.002325979294255376,-0.0010193086927756667,-0.0015438769478350878,-0.0016049351543188095,-0.003184956731274724,-0.002231832593679428,0.0011360838543623686,0.00166907103266567,-0.001314076827839017,-0.002602193970233202,-0.0027813923079520464,0.002696770243346691,-0.000584346940740943,-0.002987248357385397,-0.0010215380461886525,0.0005504993023350835,-0.00016772547678556293,-0.002974728588014841,-0.0030321215745061636,0.000591246469411999,-0.0016901394119486213,-0.0007845156942494214,0.0013341030571609735,0.0009541093604639173,-0.0011245864443480968,-0.0025580856017768383,0.00263876817189157,0.0016181961400434375,-0.00040147529216483235,0.003216019133105874,0.0025936230085790157,-0.00025853016995824873,0.002309096045792103,0.0008405253756791353,-0.0035150840412825346,0.0024705487303435802,0.0004996169009245932,-0.0002076054224744439,-0.002253487939015031,-0.0020072332117706537,0.0018294110195711255,0.002227602992206812,0.0010662650456652045,-0.0014353266451507807,-0.00019251448975410312,0.0026716901920735836,0.003612588392570615,0.000542247376870364,0.003264340106397867,-0.0036710614804178476,0.001957816770300269,-8.817006892058998e-05,-0.0023979698307812214,0.0022558514028787613,0.0032232606317847967,0.0036928318440914154,-0.001583943609148264,-0.0021867197938263416,0.0012222141958773136,0.0029325387440621853,0.0007460452616214752,0.000786500284448266,-0.00314234453253448,0.002693456131964922,0.0027691160794347525,-0.001402451773174107,0.0011014669435098767,-0.0012058791471645236,0.0011568855261430144,0.0002800227957777679,-0.0011157466797158122,0.002157112816348672,0.0036467097233980894,0.0020972182974219322,-0.0006319889216683805,-0.003719208762049675,0.003362455405294895,-0.0005213067051954567,-0.0001967461284948513,0.003554971655830741,-0.0010192599147558212,0.0004933112068101764,-0.0030950980726629496,0.0016729531344026327,0.003294980153441429,0.0004501646908465773,-0.0003026409540325403,0.002098584081977606,-0.0015830397605895996,0.001986366929486394,-0.0033925159368664026,0.002978596370667219,-0.0011196540435776114,0.0020254680421203375,-0.0036959417629987,-0.001342215808108449,0.0004206829471513629,-0.0006985832005739212,-0.0016924826195463538,0.0021324169356375933,0.0033301941584795713,0.000768188969232142,-0.0035245774779468775,-0.0033607562072575092,-0.0028718526009470224,0.0021007817704230547,0.0001523859828012064,-0.0007564356201328337,-0.0037773335352540016,-0.002707479055970907,0.0034522851929068565,0.0009400798589922488,-8.311752026202157e-05,0.0029849836137145758,-0.0006464779726229608,0.0034323015715926886,0.0024407522287219763,-0.0028550350107252598,-0.0020820884965360165,0.003188004717230797,-0.0020219096913933754,-0.002209541853517294,-0.0019291125936433673,-0.0025980044156312943,-0.0010887081734836102,-0.0027732723392546177,-0.001504038111306727
-4.509097561822273e-05,-0.001436053542420268,0.002424630569294095,-0.00019777771376539022,0.0034111496061086655,-0.00041065743425861,0.0004986904095858335,-0.0034029970411211252,-0.0021412321366369724,0.00368288136087358,0.0013013483257964253,0.0012244237586855888,0.0017818091437220573,-0.00018027532496489584,0.0024272319860756397,-0.0011434158077463508,0.0032014967873692513,0.0023149019107222557,0.0036152228713035583,-0.0015682444209232926,-0.0002364093961659819,-0.0017078602686524391,-0.0007698609260842204,-0.0007847840897738934,-0.001978123327717185,0.0004348138754721731,0.00010660682892194018,0.0036702710203826427,-0.0006671465234830976,0.0013198484666645527,0.00017885946726892143,5.112381768412888e-05,-0.0017512860940769315,0.0018308957805857062,-0.0013237311504781246,-0.00020277379371691495,0.0026781498454511166,0.003957272972911596,-0.003725792281329632,-0.00014289435057435185,0.0012069314252585173,-0.0038412678986787796,-5.2139992476440966e-05,-0.0031173492316156626,-0.0012139229802414775,-0.0040223971009254456,-0.0022095448803156614,0.002262776019051671,0.0004957388737238944,0.003121680812910199,1.1258888662268873e-05,0.0024447005707770586,-0.0036343401297926903,-0.0007387344958260655,-0.0011495351791381836,-0.0011335599701851606,-0.0027857173699885607,0.003018224611878395,0.0017275010468438268,0.003076729830354452,0.0036842043045908213,-0.00141368608456105,0.00137746287509799,0.0030826337169855833,0.0011115607339888811,-0.003913047723472118,0.0027045069728046656,-0.001513797789812088,0.000818471540696919,0.0032695201225578785,0.0019514329032972455,0.0015293461037799716,0.0026236576959490776,0.003902433905750513,0.0024173930287361145,0.0033479896374046803,-0.0041635590605437756,0.0035801343619823456,-0.0023035986814647913,9.431430953554809e-06,-0.0035997636150568724,0.0005689499666914344,-0.003614789806306362,-0.002212442457675934,0.0030590947717428207,-0.000892957323230803,0.00353427417576313,0.0002517378015909344,0.003707271534949541,-0.002274138852953911,-0.0035276280250400305,-0.0008086365996859968,-0.0033941438887268305,-0.0019125594990327954,0.002472911961376667,0.0024643747601658106,-0.003330195089802146,-0.0023123975843191147,-0.000609430018812418,-0.004006566479802132,-0.002042773412540555,0.0001345319178653881,0.0032002246007323265,-0.001088775577954948,-0.0011112532811239362,0.0036494932137429714,0.0028157641645520926,-0.003576273564249277,0.0032746719662100077,-0.00029343782807700336,0.00133348791860044,0.003298506373539567,-0.0035613144282251596,0.0036337212659418583,-0.00195741537027061,0.0024016210809350014,0.000858612300362438,-0.00192939059343189,-0.0038145952858030796,0.0016451718984171748,-0.0021576331928372383,0.002431954024359584,-0.0020876270718872547,0.0002454267523717135,0.0010042485082522035,-0.0033228998072445393,-0.0028959938790649176,-0.0025595049373805523
0.0010415739379823208,0.003086025593802333,0.003200467675924301,-0.003026756225153804,-0.002611374482512474,-0.003929140977561474,-0.00042810459854081273,-0.0035957994405180216,-0.0009134556166827679,0.002117734868079424,0.003134197322651744,0.0018498118733987212,0.0032889002468436956,-0.0011186111951246858,-0.0036993669345974922,-0.001227190368808806,-0.0023402946535497904,0.003702081274241209,-0.0030820374377071857,0.002085262443870306,-0.002077279845252633,-9.272449824493378e-05,-0.0032740789465606213,-0.002473032334819436,0.0026951488107442856,-0.0009376871166750789,-0.0012388095492497087,-0.0020859551150351763,-0.0018769274465739727,-0.001182985259220004,-0.003363818395882845,-0.0013519899221137166,0.0017583239823579788,0.0037307213060557842,-0.00037831146619282663,-0.000695995579008013,-0.0009683542884886265,-0.0023721009492874146,0.0016492988215759397,-0.0002703598001971841,0.0020239506848156452,0.00038855941966176033,0.0003122470807284117,-0.0034816681873053312,0.0007011497509665787,-0.0032924890983849764,0.003387367120012641,0.0007995977066457272,-0.0015051644295454025,0.0006094523705542088,-0.0014052416663616896,-0.0031405575573444366,-0.002485854784026742,-0.0030429782345891,0.0031624138355255127,0.0026969071477651596,-0.0011892180191352963,-0.0035125294234603643,0.002700808923691511,0.0012858324917033315,-0.0017105750739574432,-0.003445231355726719,0.003743648761883378,-0.0038755745626986027,-0.0038223587907850742,-0.003416632767766714,8.901519322535023e-05,0.00036032943171449006,0.003619150258600712,-0.0037839619908481836,0.003742498578503728,-0.001255021896213293,-0.0008685143548063934,-0.0024779057130217552,0.0022229021415114403,-0.0034529073163866997,-0.002709941938519478,0.002255084691569209,0.0017226912314072251,0.0013131937012076378,0.002221738686785102,-0.0002663471095729619,-0.0029371255077421665,0.0005120566347613931,0.002911226823925972,0.002838470973074436,0.0006399793783202767,0.0007976303459145129,0.0033713618759065866,-0.0007586083374917507,-0.0007679182454012334,-0.002806431148201227,-0.0017224946059286594,0.0035859227646142244,0.0037814672105014324,-0.0038675200194120407,0.0008121432038024068,-0.0014024715637788177,0.00012763224367517978,-0.00038311074604280293,-0.003304731799289584,0.0035698574502021074,0.0009001003345474601,0.002217257162556052,0.001020048395730555,0.002826620126143098,0.0011533640790730715,0.0024865728337317705,0.0014902747934684157,0.001575154485180974,-0.0001928603887790814,-0.000589218398090452,0.00014704410568811,-0.00048491463530808687,-0.003695404389873147,0.0005585476756095886,0.003020770149305463,-0.002086072461679578,0.0030893844086676836,-0.000626743829343468,0.0017989517655223608,-0.0029856692999601364,0.0032292043324559927,0.003583707148209214,-0.0030165724456310272,-0.0001553573238197714,0.001177609316073358,0.0017052466282621026
-0.002644537016749382,0.0030100028961896896,-0.0009889997309073806,-0.00253738509491086,0.0025889805983752012,-0.0034151661675423384,0.003084647236391902,0.0026190930511802435,-0.0034647248685359955,-0.001992517849430442,0.004071918781846762,-0.0036064786836504936,0.002583651104941964,0.0022858711890876293,0.0024125820491462946,0.0036189963575452566,-0.0034588114358484745,0.0009495470440015197,0.0023103784769773483,-0.0011964881559833884,0.00399039126932621,-0.002165434882044792,0.003615621943026781,-0.0020229280926287174,0.001303949044086039,-3.5419776395428926e-05,0.0032064137049019337,-0.0031013377010822296,0.0029065182898193598,-0.002577305305749178,-0.0033021308481693268,-0.00030990209779702127,0.002051738789305091,0.0037379604764282703,0.0010678968392312527,0.001698470558039844,0.002184423850849271,0.0033880353439599276,0.0014505577273666859,-0.00013878793106414378,7.326608465518802e-05,0.002042311243712902,-0.00040337868267670274,-0.003204441862180829,-0.002809196477755904,-0.0036433995701372623,-0.0022399078588932753,0.00401092367246747,-0.0037450483068823814,-0.001627643476240337,-0.0003650190483313054,0.002936032833531499,0.0026225410401821136,0.0017656709533184767,-0.0024654248263686895,0.0014506189618259668,0.0031360683497041464,-0.001254053320735693,-0.0022655250504612923,0.0015126869548112154,-0.000644890358671546,0.0001852576097007841,-0.0019399221055209637,-0.0005437983782030642,0.0033977206330746412,0.002460247138515115,0.00297220004722476,0.001161177409812808,-0.0017210420919582248,0.0030650075059384108,0.0027185899671167135,0.0019316893303766847,0.0007114257314242423,-0.0032647375483065844,0.0010238580871373415,0.0025977017357945442,-0.0017991282511502504,0.0026351099368184805,-0.002578785875812173,-0.002246249932795763,0.0007064391393214464,-0.0032201753929257393,0.001975090941414237,-8.159074786817655e-05,0.0030971551313996315,-0.0022682147100567818,0.0026615045499056578,-0.0024851635098457336,-0.0029923582915216684,-0.0022503931540995836,0.002859153551980853,0.0035281197633594275,0.0025224715936928988,0.003561877179890871,0.001645679702050984,0.0035527299623936415,0.002845663344487548,-0.00018349509628023952,0.0015735386405140162,-0.00024187842791434377,0.0030873678624629974,-0.0018048638012260199,-0.00011330719280522317,-0.0021951161324977875,-0.00034206369309686124,0.0027131778188049793,-0.002293908502906561,0.0010591259924694896,0.0012318295193836093,0.0018067682394757867,0.002288678428158164,-0.0032981964759528637,-0.000636342796497047,-0.00013018224854022264,-0.0013424608623608947,-0.0019521985668689013,2.7793546905741096e-05,-0.003747729118913412,0.0023924210108816624,0.0019296417012810707,-0.0015952718676999211,-0.0017893941840156913,0.001805893611162901,0.00046602345537394285,7.667497993679717e-05,-0.00011342507059453055,0.0009743456612341106,0.0018216390162706375
0.0027613353449851274,0.002678644610568881,-0.0016543423989787698,-0.0030517722479999065,-0.0031691240146756172,0.002490581478923559,0.0032993867062032223,0.0013243661960586905,0.0005669487291015685,0.0023929032031446695,0.0025389869697391987,-0.0017839377978816628,0.00104039185680449,0.003083060495555401,0.0008785650716163218,-0.0009137383312918246,-0.0027710518334060907,0.0026385036762803793,0.002386261010542512,-0.0013318979181349277,0.00039711460703983903,0.00031359167769551277,0.001523661194369197,0.0024350322782993317,0.0019363010069355369,0.001536811818368733,-0.0035715282429009676,0.0005053976783528924,0.0034487475641071796,-0.00025731470668688416,-0.0014216704294085503,0.0012589457910507917,-0.002734254812821746,-0.0016870979452505708,0.0004707793705165386,-0.0038908144924789667,-0.003882189281284809,0.001715474878437817,0.00045149095240049064,0.00011652559624053538,0.0018116456922143698,-0.0033618761226534843,0.0029723928309977055,-0.0025763227604329586,-0.0008255447610281408,0.002525108167901635,0.00017611718794796616,-0.00237153354100883,0.00012572914420161396,-0.0016169012524187565,-0.00038849914562888443,0.0014390068827196956,-0.0003195344761479646,0.0015623238869011402,4.9617501645116135e-05,0.0006915026460774243,-0.003276057541370392,0.0005641672760248184,0.003083366435021162,0.0038932720199227333,-0.002243038034066558,-0.0031547716353088617,-0.0017965033184736967,0.002295755548402667,-0.0014736088924109936,0.002851453609764576,-0.0021055128891021013,0.0031531082931905985,-0.0037690235767513514,-0.00038303821929730475,0.0013016246957704425,-0.0021500843577086926,0.002200006740167737,0.0003808367473538965,-0.003521922044456005,-0.00150416255928576,0.0023157952819019556,0.0018615273293107748,-0.0030748832505196333,-0.0005615866393782198,-0.0032174326479434967,0.003665219759568572,-0.0030418129172176123,-0.0034462662879377604,5.3892899813945405e-06,0.003776501165702939,-0.0010494125308468938,-0.0028261973056942225,0.0017767545068636537,0.0033570171799510717,0.00047213659854605794,0.001411807257682085,-0.0018835525261238217,-0.003599495394155383,0.0026617522817105055,-0.002764533506706357,-0.0028492514975368977,0.0015834167134016752,0.0017281601903960109,-0.0012785379076376557,0.00026777651510201395,-0.0025159092620015144,-0.002659251680597663,-0.0007346258498728275,0.0009906453778967261,0.002938744844868779,-0.000987838371656835,0.003491547191515565,-0.0023668217472732067,-0.0013169830199331045,-0.0021598986349999905,-0.002947223838418722,0.0036632511764764786,-0.003154904115945101,0.0022535729221999645,-0.00015120483294595033,0.0037643760442733765,0.002714769681915641,0.0012324383715167642,0.0031350995413959026,-0.00025506538804620504,-0.0025623315013945103,-0.0012415506644174457,-0.0012551519321277738,-0.0003680685185827315,0.002036408754065633,0.0032292730174958706,0.00028068313258700073
-0.003721276530995965,0.0032256324775516987,-0.0004373124393168837,-0.0016560594085603952,0.0026708601508289576,0.0019728434272110462,0.002564655849710107,-0.0038451221771538258,-0.0018060881411656737,-0.002850733930245042,-0.0010382545879110694,-0.0009846242610365152,0.00018003690638579428,0.00109585199970752,0.0034534672740846872,-0.002700026612728834,-0.0008254462736658752,-0.001937941531650722,0.0022550346329808235,-0.0018732708413153887,0.000856386439409107,0.0017091903137043118,-0.0035709210205823183,0.0023786425590515137,0.0011899913661181927,-0.0034090850967913866,0.002311952179297805,0.00274521391838789,-0.00021049061615485698,-0.000246769399382174,-0.001203749910928309,0.002712877932935953,-0.00088701635831967,-0.0032760770991444588,0.0005669447709806263,0.002952951705083251,0.0013805603375658393,0.003132239915430546,0.0015661980723962188,-0.0023015716578811407,0.003774858545511961,0.0036961212754249573,-0.0019412629771977663,0.0013217286905273795,-0.0010989345610141754,0.00022179943334776908,0.0038823906797915697,0.0003160859923809767,0.001202652114443481,-0.00269120279699564,-0.002858039690181613,0.0026133109349757433,-0.003209088696166873,-0.0028918359894305468,0.0017433192115277052,0.002907166490331292,0.0027114744298160076,0.0008596436236985028,-0.0014466188149526715,-0.0017733664717525244,0.000494712614454329,0.0035520582459867,0.0026181412395089865,0.0016834437847137451,-0.002566073788329959,0.002698267810046673,0.0014297512825578451,0.0024902280420064926,-0.000495720305480063,0.0012033950770273805,-0.001063641277141869,0.0026863671373575926,-0.0017109052278101444,0.0008888203883543611,-0.0034407712519168854,-0.002132645808160305,0.00017375373863615096,-0.000727545702829957,-0.0027209571562707424,0.003207789035513997,0.0019565089605748653,0.003285355633124709,0.0020754460711032152,-0.0020165429450571537,-0.0017529736505821347,-0.0007766135386191308,0.002109213499352336,0.001561847748234868,-0.0031860957387834787,0.0021986134815961123,0.001499695354141295,-0.0007947486010380089,0.00010336372361052781,0.0035650315694510937,0.0039025661535561085,-0.0001601904514245689,0.002478610258549452,-0.0024512002710253,-0.0038191541098058224,-0.001484603970311582,0.003544022561982274,-0.000552408688236028,-0.002972083166241646,0.001562471967190504,-0.0029975303914397955,0.00020116659288760275,-0.0026926537975668907,0.0010418053716421127,0.0030799712985754013,0.0019606170244514942,-0.002943790517747402,-0.0009593002614565194,-0.0029913836624473333,0.0025534003507345915,-0.00027830328326672316,-0.0033936023246496916,0.0014564302982762456,-0.0022215296048671007,-0.00223560887388885,0.0018811332993209362,-0.0015263814711943269,0.0034928270615637302,9.91303168120794e-05,0.0013907939428463578,0.0029077837243676186,-0.0009885585168376565,0.0020296156872063875,-0.00019564508693292737
0.0005087779136374593,0.002685975283384323,0.0012667167466133833,0.0011522178538143635,-0.0030139570590108633,0.002444459358230233,0.000316849909722805,0.0015147750964388251,-0.003414284437894821,0.0019498167093843222,0.0027491706423461437,-0.000253280479228124,-0.002027128590270877,0.0026276055723428726,0.0006235417677089572,-0.0027094127144664526,0.002340954262763262,0.0012818167451769114,0.002825669012963772,-0.0014153739903122187,0.0029504497069865465,-0.001800141646526754,0.0005695692962035537,-0.00365205155685544,0.0016579057555645704,-2.6858319870370906e-06,0.0007775518461130559,-0.001879527815617621,0.0008324666996486485,0.00367110432125628,-0.0003334683133289218,-0.0032226000912487507,-0.0028259132523089647,-0.002603028668090701,-0.0032401024363934994,-0.001457262085750699,-0.0033612041734158993,-8.704141509952024e-05,0.00371522456407547,-0.0020166344475001097,-0.0029129257891327143,0.0035913255997002125,-0.002988817635923624,-0.002451658481732011,0.0019224572461098433,-0.001574775786139071,0.00094541598809883,-0.001924054347909987,-0.001231072936207056,0.0035106667783111334,0.0017281153704971075,0.002697539748623967,0.00016627252625767142,0.003965445328503847,-0.0023693288676440716,-0.003735846374183893,-0.0004978166543878615,0.0038348298985511065,0.0010003390489146113,0.0016992082819342613,-0.0020073573105037212,-0.0035479217767715454,-0.0012004607124254107,-0.0030561445746570826,-0.0029865738470107317,-0.003191521856933832,-0.0034404967445880175,0.0016179443337023258,0.0013300295686349273,-0.0006817724206484854,0.00044906060793437064,0.0011349058477208018,0.003187737660482526,-0.001846452709287405,-0.003043648786842823,0.002432070905342698,-0.0016868789680302143,0.0018068334320560098,-0.0025162927340716124,0.00022870324028190225,-0.003003825433552265,0.002456331392750144,-0.0006059736479073763,-0.001537514734081924,0.002848641946911812,-0.0023983868304640055,0.0013142208335921168,0.0026293653063476086,-0.002796476474031806,0.0015924868639558554,-0.001756256096996367,0.0018132893601432443,0.0013028070097789168,-0.0019272258505225182,0.0011507122544571757,0.0004945916589349508,-0.0008568410994485021,-0.0003349248436279595,0.003412786405533552,0.0015836221864446998,-0.0008337157778441906,0.0009728331933729351,0.0020496188662946224,0.0036265235394239426,-0.0036210366524755955,-0.0014676523860543966,-0.00146305316593498,0.0014392914017662406,-0.003115758765488863,0.002268783748149872,-0.0017269996460527182,0.0004603591514751315,-0.00018707665731199086,-0.0027559942100197077,0.001341403229162097,0.0026698200963437557,0.0011123587610200047,-0.003911974374204874,-0.0004643418360501528,0.0028011263348162174,-0.002837828826159239,0.0037814099341630936,0.00211619702167809,-0.0019826688803732395,0.0001676957617746666,0.0026706058997660875,-0.003264668397605419,0.003054230008274317
-0.0034948105458170176,-0.0016277753747999668,0.0021670989226549864,-0.0017935491632670164,0.00021828780882060528,-0.003406618256121874,-0.003205160843208432,0.0021597836166620255,0.0016900674672797322,-0.0007836174918338656,0.0008031679899431765,-0.000401629222324118,0.0024474002420902252,-0.0005612486274912953,-0.0008501405827701092,0.003566392697393894,-0.0019657649099826813,0.001057533430866897,-0.0015017191180959344,0.0023019989021122456,-0.0015132803237065673,-0.0008923133718781173,0.003597984090447426,0.002266235649585724,0.003389746882021427,0.003454587422311306,0.002999752527102828,0.0033173835836350918,-0.0023693693801760674,-2.270660615977249e-06,-0.003272298024967313,0.0002355599426664412,-0.00453840522095561,-0.003427305957302451,0.0021681138314306736,0.0033908614423125982,-0.003999927546828985,0.0007232248899526894,0.0026365434750914574,0.0009638066403567791,0.0011370274005457759,0.0026430932339280844,0.002079004654660821,0.0015246924012899399,-0.003114645602181554,0.0013872840208932757,-0.0007553804316557944,0.0028269533067941666,-0.0013005123473703861,0.0031281013507395983,-0.0009111848776228726,0.003321378957480192,-0.0008995719836093485,-0.001027707476168871,-0.001807085587643087,-0.0007003425271250308,0.0013706110185012221,-0.0010850781109184027,-0.00038040513754822314,0.00447757076472044,0.0022121514193713665,-0.0016978452913463116,-0.00028012695838697255,-0.002417967887595296,0.0011528214672580361,-0.0017068568849936128,-0.003132544457912445,0.0013956158654764295,-0.003972374368458986,0.0008102068677544594,-0.0013224497670307755,0.0016136885387822986,-0.0029266292694956064,0.0017612368101254106,-0.003234726842492819,0.00010421467595733702,-0.0033425188157707453,-0.003868666710332036,-0.0032921505626291037,-0.0009356286027468741,-5.527013126993552e-05,0.002898727310821414,0.0019552658777683973,0.0006999556790105999,-0.0035862671211361885,-0.003537038341164589,0.004167596343904734,-0.0018845677841454744,-0.0023860496003180742,0.00046142711653374135,0.0017862125532701612,-0.0022717448882758617,0.004048702772706747,0.002245804760605097,-0.002629146445542574,-0.0021791269537061453,0.0004869794356636703,-0.003764799563214183,0.0021982011385262012,-0.0026638831477612257,0.003726866329088807,-4.2063238652190194e-05,-0.0024230589624494314,-0.005328578408807516,-0.0019711104687303305,-0.00040176513721235096,-0.003762173932045698,0.004180427640676498,0.002913958625867963,0.003246267791837454,0.00024043199664447457,0.0027781883254647255,9.677428170107305e-05,0.0030394140630960464,0.0028755671810358763,-0.002451438456773758,0.002063426887616515,0.0011042210971936584,-0.003227956360206008,-0.003293850691989064,-0.0011471323668956757,0.0012031737715005875,0.004518007393926382,-0.0015784213319420815,0.003665213007479906,0.0014978902181610465,-0.0033396424259990454,-0.004514112137258053
0.001824136357754469,0.0024990513920783997,0.002325004432350397,-6.391160422936082e-05,0.0015034633688628674,0.003523394698277116,0.0023643297608941793,0.0010903632501140237,-0.0019544519018381834,0.0032950022723525763,-0.0010250941850245,0.002044247230514884,0.0023464614059776068,-0.0014227543724700809,0.0013514852616935968,0.0035624834708869457,-0.0019087824039161205,-0.0010875369189307094,0.0003688243741635233,-0.0025881559122353792,0.0015365640865638852,-0.001315829809755087,0.003514121985062957,0.0016314287204295397,-4.40474877905217e-06,-0.003370721358805895,0.0035170922055840492,-0.0017924628918990493,-0.0017959672259166837,-0.001099970773793757,0.0007827633526176214,0.0004892136785201728,-0.0037388543132692575,-0.0006973681738600135,-0.0033302775118499994,0.0036574879195541143,0.0036354102194309235,0.0039266012609004974,-0.0006517718429677188,0.003907475620508194,0.0013221241533756256,-0.0010949381394311786,-0.002695909235626459,-0.003199736587703228,0.001946351258084178,-0.003533273935317993,-0.003489501541480422,-0.0010972198797389865,0.002619851613417268,-0.0029630837962031364,0.003096391214057803,-0.0022214017808437347,0.0038295744452625513,0.0019561308436095715,-0.00411944929510355,-0.0028815241530537605,0.0017313957214355469,-0.004298846237361431,0.0015838057734072208,0.0036978370044380426,0.0033047273755073547,0.001438082312233746,-0.003372390754520893,0.0019046200904995203,-0.0029205798637121916,0.0003179192135576159,0.001867732615210116,0.000262887857388705,-0.00020208055502735078,-0.001479531405493617,0.0010082359658554196,-0.002000408712774515,0.002036289544776082,-0.0016431144904345274,-0.0006324440473690629,-0.0019260068656876683,0.002636864548549056,-0.0029326570220291615,-0.0036292087752372026,0.0013631136389449239,-0.000624410284217447,0.004319305066019297,-0.002376750111579895,0.0011668879305943847,-0.0030362110119313,-0.0017057645600289106,0.003830248722806573,-0.000751454965211451,-0.000184180389624089,-0.002591917058452964,0.003965063486248255,-9.998185123549774e-05,0.001937883673235774,0.0011342578800395131,-0.0026538236998021603,0.0026030412409454584,-0.001496257376857102,-0.002928592963144183,0.002647625980898738,0.001812073984183371,0.001961365109309554,0.0021494338288903236,0.0006314230849966407,0.0019761521834880114,-0.0009297754731960595,0.0011943187564611435,-0.0011916982475668192,-0.0015645257662981749,-0.003446964081376791,0.0034303327556699514,0.003709558630362153,0.003472648561000824,-0.0020815415773540735,0.0028889209497720003,0.0002152003871742636,-0.0005897727096453309,-0.002863809699192643,-0.0004773212713189423,0.0030415388755500317,-0.002787192352116108,-0.001568941050209105,-0.0006173158180899918,0.002005362417548895,-0.0001334011903963983,0.0015895968535915017,-0.0018028980121016502,-0.002982915611937642,-0.0009973347187042236
0.0008904606802389026,-0.0011186606716364622,0.0005420383531600237,-0.0006458776188082993,-0.0025391005910933018,-0.0009330487227998674,0.0020779240876436234,0.00010741378355305642,0.0003017508424818516,0.0033053928054869175,-0.003044356591999531,0.0015871190698817372,0.0025591058656573296,-0.0019200616516172886,-0.0025959431659430265,0.0006875231629237533,-0.00022987402917351574,0.0004534889885690063,-0.0030594090931117535,-0.0035340378526598215,0.0011018677614629269,0.003512884257361293,-0.003424157854169607,-0.0035185448359698057,-0.0017756045563146472,-0.0037375062238425016,0.0001992647594306618,0.0021758228540420532,0.003406320931389928,-1.3365103768592235e-05,-0.0025527235120534897,0.003280867822468281,-0.0012753785122185946,0.001190489623695612,0.0007796371355652809,0.0023029258009046316,0.0020044208504259586,-0.002904713386669755,0.0036539516877382994,-0.0028688600286841393,-0.0016230932669714093,0.0011993233347311616,0.0033101432491093874,-0.003182013751938939,0.0015608033863827586,0.0033524869941174984,0.000724752084352076,0.0025073387660086155,0.0009653260349296033,-0.003782126121222973,-0.00028689534519799054,0.0027911514043807983,0.0019116178154945374,0.0016329762293025851,-0.001008050749078393,-0.0005037327646277845,0.003039961215108633,0.0009377858368679881,0.002590111456811428,0.0017544624861329794,0.0010272138752043247,-0.0037461770698428154,0.0005547816399484873,2.61422337644035e-05,-0.0036849030293524265,0.0029749360401183367,-0.0003995388688053936,-0.000766615616157651,-0.0017551962519064546,-0.0002451998880133033,-0.0007357529830187559,-0.0025826161727309227,0.0015907938359305263,0.0037237629294395447,-0.0016207786975428462,0.003170534735545516,-0.0012870201608166099,0.0014540652045980096,0.0010690196650102735,0.0035668397322297096,0.0028647275175899267,0.0022880977485328913,-0.001923389034345746,-0.0013326745247468352,-0.001958859618753195,0.0027852237690240145,-0.003736891783773899,0.0027315691113471985,-0.001820807927288115,0.0007014409638941288,0.0012070159427821636,0.0018324409611523151,-0.0029695078264921904,-0.0014618383720517159,0.0017242776229977608,0.003633559448644519,-0.003965733572840691,-0.0038776893634349108,-0.0027020766865462065,-0.002571319928392768,0.0027277402114123106,0.004018796142190695,-4.8069086915347725e-05,0.0009288236033171415,0.001812291913665831,0.001701408764347434,-0.0023352329153567553,0.000871495169121772,0.0002536118554417044,0.0022233847994357347,-0.0014071608893573284,0.0016195760108530521,0.0008685402572154999,0.0018373761558905244,-0.0018416742095723748,-0.0033423497807234526,-0.00135864969342947,-0.002226628828793764,-0.0024532657116651535,0.0033901657443493605,-0.0020101352129131556,-0.0016732730437070131,0.002057065721601248,-0.002315227873623371,-0.003686778713017702,-0.0012939771404489875,-0.002976485760882497,-0.002142983488738537
-0.002877312945201993,-0.0009742846596054733,0.0031617844942957163,-0.0018348146695643663,0.0013154871994629502,-0.0007055113092064857,0.002815880812704563,-0.0008788699633441865,-0.0037146476097404957,-0.003654502099379897,-0.0012810230255126953,-0.0005081694107502699,0.0014917640946805477,0.00215488881804049,-0.0013971992302685976,-0.0014705529902130365,-0.002201047260314226,-0.0007753261015750468,-0.0011823595268651843,-0.0012590775731950998,0.002382325939834118,0.0024030585773289204,0.001806065789423883,-0.0014020841335877776,0.0010586550924926996,-0.000871218740940094,0.0010814943816512823,-0.0031948445830494165,-0.00065968296257779,-0.0021495127584785223,-0.0037684671115130186,0.0032339647877961397,-0.003181959968060255,0.002487543737515807,-0.0015083353500813246,-0.003643035190179944,0.00017573325021658093,-0.0009998200694099069,-0.0037349078338593245,-0.0009821150451898575,0.003628235775977373,-0.0019237464293837547,-0.0012048018397763371,0.0009310749592259526,-0.0034294268116354942,0.0034905218053609133,0.0037746604066342115,0.002328729722648859,0.0026788755785673857,0.0003947732620872557,0.0024374339263886213,0.0024154302664101124,-0.0014296340523287654,-0.0027960643637925386,0.0006640758947469294,-0.003838559379801154,0.0020726791117340326,-0.0020980765111744404,-0.0015096667921170592,-0.0018767011351883411,0.00320236012339592,-0.0008932567434385419,-0.0038154185749590397,0.001399071654304862,-0.0018010152271017432,-0.002375947078689933,0.0029238301794975996,0.0012408267939463258,0.0020587334875017405,0.0008761856006458402,0.002641314407810569,0.0020559949334710836,0.00047353183617815375,-0.003495661308988929,-0.0036058102268725634,-0.0014593539526686072,0.0010932915611192584,0.002965014660730958,-0.0008212167886085808,-0.002603778149932623,0.0014842345844954252,0.00033237048774026334,0.003889011684805155,-0.00025468081003054976,1.1332394933560863e-06,0.0011264107888564467,0.0031225974671542645,-0.002110067754983902,0.003704386530444026,0.0039835115894675255,0.0034274845384061337,0.0038537741638720036,-0.001856200979091227,-0.0011928589083254337,0.0011240674648433924,0.001231364207342267,-0.0022166711278259754,-0.003321694443002343,-0.0010236650705337524,0.0017585089663043618,-0.0007049625273793936,-0.0009629168198443949,-0.0036119120195508003,-0.0029944260604679585,0.002983881626278162,0.002518371446058154,-0.002416559960693121,0.0027284231036901474,0.0026615899987518787,-0.003327122423797846,-0.0010854179272428155,0.0003523238410707563,0.0009753298363648355,0.0025320141576230526,-0.0038181187119334936,0.0015361801488325,0.0030050850473344326,0.002167888218536973,0.00015561441250611097,-0.0034025709610432386,-0.0008667592774145305,-0.003057727124541998,0.0021891919896006584,0.0002675334981177002,-0.0031679808162152767,-0.0006688520079478621,0.0011160693829879165,0.0018017688998952508
-0.0015737642534077168,0.003085019299760461,-0.001055107917636633,0.002340004313737154,0.0023989584296941757,-0.0026632791850715876,0.0013881644699722528,-0.0008908876334317029,-0.0015263701789081097,-0.0015053139068186283,-0.0021650532726198435,0.0005619756411761045,-0.0008573701488785446,0.0019756837282329798,-0.00123993877787143,0.0029738997109234333,-0.0010537432972341776,-0.0018337066285312176,-8.396250632358715e-05,0.002725450322031975,0.003521909937262535,0.002924220869317651,0.003370836144313216,-0.0019349043723195791,0.0030029211193323135,-0.0017352832946926355,0.0011791063006967306,-0.002016043523326516,-0.0028876233845949173,0.0041173179633915424,-0.00266772392205894,0.0028919843025505543,0.0010810070671141148,-0.0011190412333235145,0.0021175099536776543,0.0028091231361031532,-0.0014235177077353,-0.0004763581673614681,0.0008641910389997065,0.0004283818416297436,-0.0029574627988040447,-0.0038756353314965963,0.0015614785952493548,-0.0013518347404897213,0.0038711093366146088,0.0013059121556580067,0.0015312446048483253,0.0023293648846447468,0.00034175359178334475,-0.002134520560503006,-0.0021200531627982855,-0.0029574688524007797,-0.0009952164255082607,-0.001229252782650292,0.0007901216158643365,0.0007926422404125333,-0.0008252892876043916,0.0019590992014855146,-0.0009675336768850684,0.0018629520200192928,-0.0017282509943470359,0.003688387805595994,-0.00084682583110407,0.0021421334240585566,0.0005378025816753507,-0.0014471076428890228,0.0029853417072445154,0.0025786373298615217,-0.000633404531981796,-0.0009754790808074176,-0.0016211322508752346,-0.0023132089991122484,-0.0016198793891817331,0.00317490310408175,-0.0005917562521062791,0.002220100723206997,0.00040462746983394027,0.00035110022872686386,-0.0011107884347438812,0.0011420741211622953,0.00137848942540586,0.003513017203658819,-0.002417131094262004,0.0038848386611789465,0.00239553046412766,-8.984157466329634e-05,0.0018906061304733157,-0.0009037858690135181,0.0019991016015410423,0.002001324901357293,-0.0012657231418415904,0.0034163391683250666,-0.0033613131381571293,-0.004003097768872976,0.00011343343066982925,0.00245950510725379,-0.0026256819255650043,-0.002452222164720297,-0.000833410129416734,0.0017348681576550007,0.0021990989334881306,-0.0010756364790722728,-0.00016294987290166318,-0.0041837310418486595,0.00023369411064777523,0.00105838302988559,8.411433555011172e-06,0.000843461079057306,0.0017371902940794826,-0.0034393607638776302,0.0029459826182574034,0.002483182353898883,0.0009617773466743529,0.0015581913758069277,0.0008696863078512251,-0.0005590750952251256,-0.0022682789713144302,-0.0014458399964496493,-0.0007404519128613174,-0.0016179530648514628,-0.002146995160728693,0.003368660109117627,-0.0011042216792702675,0.00038003126974217594,0.002342954743653536,0.0028980057686567307,0.003918802831321955,-0.0021339929662644863
-0.001757888006977737,0.001550888642668724,0.0008409597212448716,-0.0006516146240755916,-0.002271400298923254,0.0014452189207077026,-0.0035557199735194445,-0.001558344578370452,0.002893387107178569,0.0022032768465578556,-0.0011020420351997018,-0.00011149614147143438,0.002137045608833432,-0.0010181630495935678,-0.0023580852430313826,-0.001780779450200498,-0.003251585876569152,-0.00043865619227290154,0.002311056712642312,0.0007602173136547208,0.004073810763657093,0.0034719284158200026,-0.001331958919763565,0.0021536326967179775,0.003816403681412339,-0.0031546715181320906,0.002431086963042617,0.004016504622995853,0.003479468170553446,0.001832484151236713,0.0036185390781611204,-0.0008819749346002936,-0.0026010319124907255,0.0019157113274559379,0.0012704243417829275,0.003715833416208625,0.0036321161314845085,0.003153694560751319,0.0025025757495313883,-0.000776332279201597,-0.0016810944071039557,0.002007535193115473,-0.0007840989856049418,-0.0002618775179143995,0.0016501060454174876,-0.001162243541330099,0.0021477723494172096,0.002873872173950076,0.0002608548675198108,0.0008347454713657498,-0.0011866061249747872,0.002001736080273986,0.004012818448245525,0.0032066446729004383,0.0018380237743258476,-0.0032765378709882498,0.00016420343308709562,-0.0006842432194389403,-0.004095146432518959,0.0015817037783563137,-0.0004669952322728932,0.0016821864992380142,-0.0008716006414033473,-0.0035249709617346525,3.380531052243896e-05,0.0028100013732910156,0.0013093985617160797,-0.001874946872703731,-0.0022266795858740807,0.0017397861229255795,-0.001621690345928073,0.0022082440555095673,0.003335994901135564,0.0029226227197796106,0.0035655160900205374,-0.0007586387218907475,0.00013272072828840464,-0.003187312511727214,-0.0023716518189758062,0.0014403245877474546,0.0033384463749825954,0.003556097624823451,0.002854418009519577,-0.00014198025746736676,-0.0038738020230084658,-0.0006918165599927306,0.0008315657614730299,-0.00036767928395420313,-0.0015894442331045866,-0.0030496367253363132,-0.001379176159389317,-0.00015536833961959928,0.0030038354452699423,0.0011471817269921303,0.0022999607026576996,0.003255555871874094,-0.003001010976731777,0.0012106416979804635,0.0015850155614316463,-0.0018775566713884473,-0.003692139172926545,-0.002869362710043788,0.002357364632189274,0.002469364320859313,1.290579530177638e-05,-0.0034515720326453447,-0.0013207073789089918,0.000719192496035248,0.00024246980319730937,0.0002861440007109195,-0.0034613143652677536,-0.0037651685997843742,0.002219939837232232,0.00044843414798378944,0.0018792895134538412,0.0009450323996134102,-0.002933567389845848,0.0015634279698133469,0.000248451076913625,0.003465954912826419,0.00233984156511724,0.0008684430504217744,-0.00167942198459059,0.0009674507891759276,0.0026801005005836487,-0.00365662993863225,-0.0003895741538144648,-0.001699173473753035
0.00182366743683815,0.0009299093508161604,-0.0003590217384044081,-0.00030415187939070165,-0.0023026717826724052,-0.002832022961229086,0.00010367349750595167,0.002367776818573475,0.000728115439414978,0.002337588230147958,-0.00023117716773413122,0.0011890671448782086,0.001855655456893146,0.0006497735157608986,0.0013974159955978394,0.0030876221135258675,0.003102524671703577,-0.0014749134425073862,-0.003602121025323868,-0.002947123721241951,-0.00017808296252042055,0.000711494532879442,0.0014822807861492038,-0.0006671061855740845,-0.0035960092209279537,0.0033129805233329535,0.0038023050874471664,0.0007958982023410499,-0.0008621253655292094,0.0034405780024826527,0.003201113548129797,-0.002986426930874586,-0.0009473885875195265,-0.001574144116602838,0.0008046809816733003,0.0019356671255081892,0.003563161939382553,0.0016068886034190655,0.0029842893127352,0.002439463511109352,-0.0008165952749550343,0.002412626752629876,-0.003465630579739809,-0.0032401052303612232,0.001519449520856142,0.0006535851862281561,0.002122889505699277,0.0022535142488777637,0.00020820662030018866,0.002148278756067157,-0.002745092613622546,0.0012699912767857313,0.0024841786362230778,0.002764699514955282,0.003818701719865203,-0.00206843763589859,0.0028495967853814363,-0.003339765826240182,0.0017315300647169352,0.0028069401159882545,-0.002095601987093687,-0.0006199627532623708,0.0033347324933856726,0.00016730045899748802,-0.002452706452459097,0.0017379443161189556,-0.003471624804660678,0.0023542738053947687,0.002033211523666978,0.0021277957130223513,-0.002423658035695553,0.0008335948223248124,0.0006069195223972201,-0.0020096327643841505,-0.0012559904716908932,-0.0018718253122642636,0.00352408061735332,-0.003671325510367751,0.0036888127215206623,-0.0013597214128822088,0.0007231318159028888,-0.002961798571050167,0.0027332536410540342,-0.0015673080924898386,-0.0001574077905388549,0.003594296285882592,-0.0014218162978067994,0.00376199372112751,0.0014062675181776285,0.0008253231644630432,-0.0020335805602371693,-0.00188096531201154,0.0012271084124222398,0.002769863000139594,-0.0033499908167868853,0.0034218449145555496,-0.003815597854554653,-0.0015832919161766768,0.0014995674137026072,-0.001987704075872898,-4.303816967876628e-05,-0.001226835884153843,-0.0007012040005065501,0.001323650125414133,0.00016064601368270814,-0.0027791124302893877,0.0018515168922021985,-0.0008836959023028612,0.001895817695185542,0.003366864984855056,0.0006725433631800115,-0.0012607864337041974,-0.003498341189697385,0.0026442508678883314,0.0010079765925183892,-0.0030629124958068132,0.0016437332378700376,-0.002164990408346057,0.0027685968670994043,0.00023585128656122833,-0.001684539602138102,-0.0014507921878248453,0.0002501659619156271,-0.002115922747179866,0.0011942401761189103,-0.001682440284639597,-0.0032100521493703127,-0.0012549763778224587
0.0012360808905214071,-0.0006070674862712622,0.0020604536402970552,-2.7775797207141295e-05,-0.0010728276101872325,5.7496352383168414e-05,-0.0018365569412708282,0.003505513770505786,-0.003875394118949771,0.002362163970246911,-0.001915966160595417,0.0030678636394441128,0.0030838444363325834,0.0021804857533425093,-0.00382334110327065,0.00024655918241478503,-0.0023317397572100163,0.0012322887778282166,0.001252098591066897,-0.002160998759791255,0.0003211083821952343,-0.0014351418940350413,-0.002818790730088949,0.001268520369194448,0.0026554365176707506,0.0006758386152796447,0.0020107347518205643,0.0006076068966649473,0.00034184742253273726,-0.0014924649149179459,-0.00333663122728467,-0.003420343389734626,0.0027017013635486364,-0.0011920410906895995,0.0006934390403330326,-0.0019233351340517402,-0.0014417575439438224,0.0023160420823842287,-0.0029894227627664804,0.003360816277563572,0.0012940767919644713,4.968657231074758e-05,0.00025718947290442884,0.0009853040101006627,-0.0016538625350221992,0.003032263834029436,-0.00260824803262949,0.0020329467952251434,-0.0002670468529686332,-0.0010413330746814609,-0.0026279017329216003,-0.0011296739103272557,-0.0032950059976428747,0.0019054508302360773,-0.003860690863803029,-0.0028783802408725023,-0.0019263561116531491,0.0037569282576441765,-0.0032762514892965555,-0.003699794877320528,-0.003262865822762251,-0.0012906250776723027,0.0010442930506542325,0.003672227496281266,-0.001220889389514923,-0.0002968260378111154,-0.0032605682499706745,-0.0013732360675930977,0.0035406784154474735,-0.003506189677864313,-0.0033860038965940475,9.945679630618542e-05,0.001301529468037188,0.0031692266929894686,0.0004617417580448091,-0.003152321558445692,0.0014380711363628507,0.002198505913838744,0.0022731926292181015,0.0038334012497216463,0.0034034843556582928,0.0005724405054934323,-0.0020586508326232433,-0.0023830849677324295,-0.0016408164519816637,-0.0031506812665611506,-0.0012017566477879882,0.00031283305725082755,0.00238190870732069,0.00030567438807338476,0.000580285326577723,0.0020874941255897284,0.0033357967622578144,0.003245047526434064,0.0015686412807554007,-0.0032192051876336336,0.001798607292585075,0.0025590350851416588,-0.003006965620443225,0.0037301925476640463,-0.00231383484788239,3.208518319297582e-05,0.003460062900558114,0.0015454033855348825,0.0015086398925632238,-0.003179167862981558,0.0005493294447660446,0.00030072490335442126,0.0017088422318920493,-0.0025247863959521055,-0.002307803835719824,0.0018857879331335425,0.0005949251353740692,-0.0009544179192744195,-0.003273929934948683,-0.0036694069858640432,0.003811291651800275,-0.003722572000697255,2.7251095161773264e-05,-0.0013856872683390975,0.00376615347340703,0.0012206122046336532,0.003623357741162181,-0.0017417288618162274,0.0037666046991944313,0.003054338740184903,-0.0010938660707324743,0.00020825864339713007
-0.0031240866519510746,-0.002421758370473981,-0.0029316027648746967,0.00323699414730072,0.0038601597771048546,-0.003674138803035021,0.0036051920615136623,1.814793358789757e-05,0.0009613492293283343,-0.0007420053007081151,0.002964921295642853,0.001844331854954362,-0.002978272270411253,0.0033526280894875526,0.0009058599825948477,0.002540883142501116,0.0014090511249378324,-0.0021130291279405355,-0.0002294992154929787,0.0004626325680874288,0.002118878299370408,0.0011667300714179873,-0.001513564377091825,-0.0019749116618186235,0.0003550479596015066,-0.0023374122101813555,0.003620163071900606,0.002893999684602022,0.001677566790021956,0.003363843308761716,0.00020001360098831356,0.00342373619787395,0.0015709307044744492,-0.00204627332277596,-8.817263733362779e-05,-0.002393504837527871,-0.0009831642964854836,-0.0030181272886693478,0.0001539601944386959,0.002523093018680811,0.0022209358867257833,-0.0007504711393266916,0.0033348132856190205,-0.00017264952475670725,0.003502935403957963,-0.0013403398916125298,0.003849226515740156,0.002968204440549016,0.0029465099796652794,0.00214480166323483,-0.0007111812592484057,-0.0038434606976807117,0.0038032562006264925,0.0008901320397853851,-0.002701797056943178,0.00026964323478750885,-0.002527598524466157,-0.003349063917994499,0.0025520536582916975,-0.0005845656269229949,0.003456082660704851,0.0007933887536637485,0.00042029484757222235,0.00044234649976715446,0.0016983899986371398,-0.0021011102944612503,0.0017433257307857275,0.0002706367813516408,-0.0011381118092685938,0.0011949840700253844,0.0017490058671683073,-0.0025113956071436405,0.0007057885522954166,-0.000443587196059525,-0.00031284501892514527,0.003737163031473756,-0.0006543454946950078,0.001744823413901031,-0.0027778467629104853,0.0006393466610461473,-0.0007039204938337207,-0.003383022267371416,-0.0009075959678739309,-0.0005917922244407237,-0.00142444740049541,-0.002883125329390168,0.001786835608072579,0.0026158527471125126,0.002184513956308365,0.0007862711208872497,-0.0022632048930972815,-0.0013395235873758793,-0.001956826075911522,0.0021026607137173414,-0.0024811800103634596,-0.002560498658567667,-0.0014868644066154957,-0.003397637279704213,0.0006755081121809781,-0.0002489283215254545,-0.0008740343037061393,0.00193409516941756,0.0012254861649125814,-0.00010928425763268024,0.0028896101284772158,-0.0004907089751213789,0.0030789743177592754,0.003580916440114379,-0.00168614462018013,-0.001927920151501894,0.0030119374860078096,0.0035893861204385757,-0.00037209028960205615,-0.00210910034365952,-0.0011939945397898555,0.0018257772317156196,0.002101390389725566,0.0009692172752693295,-0.003484251443296671,-0.0014796853065490723,0.003463504370301962,0.00025309191551059484,0.002905741799622774,0.0017157786060124636,-0.0029713597614318132,0.0033530802465975285,0.0019044044893234968,0.0012382406275719404
-0.003444480011239648,0.002334898104891181,0.002131876302883029,-0.0030721458606421947,-0.00022075795277487487,-0.0023527515586465597,-0.004023095592856407,-0.002859212225303054,0.0033040125854313374,-0.0007274840609170496,0.0005251175607554615,-0.0018915912369266152,-0.0024174624122679234,-0.0024115454871207476,-0.00382642331533134,0.0021856757812201977,0.0008221983443945646,-0.00416270736604929,-0.00319747906178236,-0.00010435408330522478,0.0037677863147109747,-0.002794412663206458,-0.0010636223014444113,0.002136354800313711,0.00365272955968976,0.00254156650044024,0.0031005311757326126,-0.0007332790992222726,-0.0024071333464235067,-0.0020550619810819626,0.0034227478317916393,0.000747811805922538,-0.001922527444548905,0.00029197681578807533,-0.00012839180999435484,0.0013324340106919408,0.0033746242988854647,0.003423369489610195,0.0028927037492394447,0.00011290047405054793,0.0030002312269061804,-0.00011048113810829818,-0.0034615437034517527,-0.0003409072814974934,0.0009046514169313014,0.0014941585250198841,-0.003747238777577877,1.4878836736897938e-05,0.0013116548070684075,0.0026085113640874624,-0.0012242320226505399,0.0003601956705097109,0.003945032134652138,0.0016781619051471353,0.0016126459231600165,-0.003570252563804388,-0.002167633268982172,0.0021707487758249044,-0.00019503313524182886,0.0005934826913289726,-0.0008139248820953071,0.0011258086888119578,0.0019954643212258816,-0.001390772988088429,0.0027133969124406576,-6.674392352579162e-05,-0.0029540660325437784,0.0033006160520017147,-0.0008981181308627129,0.0027860335540026426,-0.002310148673132062,0.002706073224544525,0.0012853734660893679,-0.0036932011134922504,-0.0033139942679554224,0.0001715546241030097,-0.001223002327606082,-0.0005614198744297028,-0.002787340432405472,-0.0014623068273067474,-0.0021281903609633446,-0.002464896533638239,0.0027572272811084986,0.0028218221850693226,-0.003116174601018429,-0.001215206691995263,-0.0003689256263896823,-0.0012868947815150023,0.0018164629582315683,-0.00020806452084798366,-0.0014663549372926354,0.000731296488083899,0.0035953600890934467,-0.0017422905657440424,0.0026683853939175606,0.00012188540131319314,-0.002307645743712783,0.002472322667017579,-0.001998249674215913,0.0031014629639685154,0.002421575365588069,0.003288479056209326,-0.003643346019089222,0.0021769851446151733,-0.0021135807037353516,-0.0018231585854664445,0.00129947648383677,0.002805128460749984,0.003138102823868394,-0.0024360192473977804,-0.001598208211362362,0.0005848964210599661,0.00018721440574154258,-0.0007033628644421697,0.0027100045699626207,-0.0034599928185343742,-0.0015418445691466331,-0.0036261200439184904,0.002032365882769227,0.0030138040892779827,-0.0007398820598609746,-0.0009329490712843835,0.0010200694669038057,0.0011201362358406186,-0.00045266738743521273,-0.0012063276953995228,0.001451802672818303,-0.003992196638137102
-0.00011787744733737782,-4.461895514396019e-05,-0.00044481849181465805,2.341468643862754e-05,0.00194563961122185,-0.0018666737014427781,-0.0006407632608897984,-0.0004046644316986203,-0.002152766566723585,-0.0022707844618707895,-0.001741078682243824,0.0007922022487036884,-0.002454544883221388,-0.0015678085619583726,-0.0034633490722626448,0.002269528340548277,-0.00228523975238204,-0.0005954501102678478,0.0010745713952928782,0.003924596589058638,-0.0007526197587139904,-0.0013612048933282495,0.0015515700215473771,0.00131228007376194,0.001285879290662706,0.0025866124778985977,-0.0010003368370234966,0.0006759777897968888,-0.0004567206196952611,0.00172019365709275,0.0006745569407939911,-0.004170967731624842,0.00013804879563394934,-0.0011730031110346317,0.003860542783513665,0.0007136064814403653,-0.0022449202369898558,0.003966836258769035,-0.0011928790481761098,0.0015260684303939342,-0.00022890139371156693,-0.0036665741354227066,0.0007268803892657161,0.0032126230653375387,0.0014986492460593581,0.0015986060025170445,-0.0013838567538186908,0.0019094623858109117,0.0017506133299320936,-0.0005535517120733857,0.002959474455565214,-0.0025826620403677225,0.002767225494608283,0.002430879045277834,5.94396551605314e-05,-0.004073305521160364,-0.0019249208271503448,-0.0004224733856972307,0.0026846597902476788,0.000608105503488332,-0.003649241989478469,0.0031985987443476915,-0.003626450663432479,0.002902741776779294,0.0028188542928546667,0.0008425158448517323,-0.0016684667207300663,0.0005504115833900869,0.002112578134983778,-0.0018895065877586603,-0.0026626219041645527,-0.0013811937533318996,0.002649567322805524,-0.00038491468876600266,-0.0026806353125721216,-0.0004927841946482658,0.003664543153718114,-0.0018277058843523264,0.0003294191847089678,0.0014405811671167612,-0.0030307851266115904,-0.0024550026282668114,0.0003808684414252639,0.0029853135347366333,0.002165308455005288,-0.0029223160818219185,0.0031878133304417133,0.0025211831089109182,-4.5569835492642596e-05,-0.002197274472564459,0.003330336883664131,0.00364684802480042,0.002850383287295699,-0.0036591270472854376,-0.001078143366612494,0.002102252095937729,-0.0023943029809743166,-0.0010412721894681454,0.0006637386977672577,0.0034689358435571194,0.0002578162821009755,-0.0035400826018303633,-0.0017509206663817167,-0.002983665792271495,-0.00276170508004725,0.0007327342755161226,-0.0001896631729323417,-0.002435246016830206,0.0008835354237817228,-0.0027261150535196066,0.0018185613444074988,-0.0033239321783185005,-0.0016434105345979333,-0.002924647182226181,-0.0015378749230876565,-0.0023398934863507748,0.0032307400833815336,0.0008480029064230621,0.00048603376490063965,0.0018196288729086518,0.0018698385683819652,-0.0017214711988344789,0.0006804251461289823,0.0034680126700550318,0.0025112335570156574,0.0032790827099233866,-0.0029832697473466396,-0.0005666842916980386
0.001959378831088543,-0.003713889280334115,-0.0004775927809532732,-0.00014725224173162133,-7.6311182056088e-05,0.0023704099003225565,0.0007435147417709231,-0.0012067696079611778,-0.0007454798906110227,-0.0009653510060161352,0.00311186327598989,-0.000804534531198442,-0.002769012004137039,-0.00031641233363188803,-0.0013876118464395404,0.0007476992323063314,-0.0021502780728042126,0.0011951624182984233,-0.003783463267609477,0.0020674921106547117,0.0035574771463871002,-0.002747653052210808,-0.0020190947689116,-0.0035506163258105516,-0.0029090025927871466,0.0012781104305759072,-0.0014171653892844915,-0.0029369229450821877,0.0014772030990570784,0.002382496139034629,-0.0008968700421974063,-0.0028727136086672544,0.0029881445225328207,0.00239224499091506,-0.003024496603757143,0.0037656028289347887,-0.002088406588882208,-0.002477874280884862,0.0026456420309841633,-0.00011735107545973733,-0.002795711625367403,-0.00170089618768543,-0.002563741058111191,0.0030838968232274055,-0.0029030467849224806,-0.0016630996251478791,0.001632693805731833,0.0002582948363851756,-0.0033920675050467253,-0.003727459814399481,0.0007436036830767989,-0.0004527064156718552,0.00385358021594584,-0.001920069451443851,-0.003390225348994136,-0.0007958357455208898,0.002604519948363304,-0.00310751935467124,-0.003940604627132416,0.0025813360698521137,0.003302463097497821,0.0016983355162665248,0.003041134914383292,0.0003529998939484358,-9.51312540564686e-05,0.002231976017355919,-0.0001637780078453943,0.003573228372260928,0.0026535452343523502,-0.0023029856383800507,0.0002952661016024649,-0.0011287586530670524,-0.001835980569012463,0.0013468075776472688,-0.000586698588449508,-0.003193001728504896,0.0035175099037587643,-0.0009177967440336943,4.7590943722752854e-05,0.0011986251920461655,0.0003325287834741175,0.003023301949724555,-0.0024191811680793762,8.952658390626311e-06,-0.0018093179678544402,0.0006566193187609315,0.001332041691057384,0.0033359285444021225,-0.0016733157681301236,-0.00270629720762372,0.0018574442947283387,0.0033912681974470615,-0.0034432224929332733,0.003504083026200533,0.0004110315931029618,0.0009577138698659837,0.00242690765298903,0.0004635970399249345,0.0018653587903827429,-0.0022554013412445784,-0.003087468445301056,-0.0034302170388400555,0.0011443530675023794,0.0021349648013710976,4.480268762563355e-05,-0.0011261111358180642,-0.0005377999623306096,0.002498515648767352,0.002235831692814827,-0.003918596543371677,0.0015584307257086039,0.003027829574421048,0.001640521571971476,-0.0019283525180071592,-0.0010085152462124825,-0.0037889473605901003,-0.0021338218357414007,0.0027252978179603815,0.0020050345920026302,0.003665793454274535,-0.003843647427856922,-0.0006642636144533753,-0.002909651957452297,-0.0033001869451254606,-0.003836338873952627,-0.0031055775471031666,0.0028855649288743734,0.0026319390162825584
0.003345707431435585,0.002604889450594783,0.0038798185996711254,0.0008393293246626854,-0.0004501763905864209,-0.0018087063217535615,0.002285527065396309,-0.0010851484257727861,0.003694642335176468,-0.0026799265760928392,-0.0026617178227752447,-0.0019999640062451363,0.0033404617570340633,0.003464383538812399,0.0016795247793197632,-0.002261783927679062,-0.0011702710762619972,0.0017751865088939667,-0.0024285062681883574,-0.0026886030100286007,-0.0012051922967657447,3.658961213659495e-05,-0.0007222988060675561,-3.4933083270516363e-07,-0.003807647852227092,-0.0030982892494648695,-0.0028558443300426006,-0.0027844631113111973,0.0006259293295443058,-0.00034764595329761505,0.00021927592752035707,0.0008434504852630198,0.002761973300948739,0.00026718658045865595,-0.0009056979324668646,0.002886116737499833,-0.000825145747512579,-0.0035688390489667654,-0.0009062925237230957,0.002149000996723771,-0.002383132930845022,-0.0019457575399428606,0.0019964089151471853,-0.0026430028956383467,-0.001507994718849659,0.0006029098876751959,0.0009215313475579023,0.001943402225151658,0.0037568893749266863,-0.002582069020718336,-0.0007931200671009719,-0.0020325989462435246,-0.003789694746956229,0.0010071777505800128,-0.0005795424222014844,-0.0035159089602530003,0.0005873673944734037,-0.003759755054488778,-0.001677124761044979,-0.0016667667077854276,-7.25871796021238e-05,-0.0014285739744082093,0.0005682178307324648,0.001133563695475459,-0.0028663899283856153,0.0028258967213332653,-0.0033310423605144024,-0.0016794453840702772,0.0029514189809560776,-0.002555849961936474,0.0022925669327378273,-0.0003938798909075558,-0.0027824968565255404,-0.0008156622061505914,-0.0007450864068232477,0.0026499093510210514,-0.0010658425744622946,0.002994986716657877,-8.033229823922738e-05,-0.0038477207999676466,0.0015658281045034528,-0.0002292481658514589,0.0016510448185727,-0.0006536075961776078,0.0014694847632199526,-0.0018858097027987242,-0.0032329722307622433,-0.0004995195777155459,0.0012577514862641692,-0.0009517268626950681,-0.003253952134400606,-0.00218635774217546,-0.002181563526391983,-0.002732042223215103,0.0008974894299171865,-0.0036374565679579973,0.002333511831238866,-0.0014875023625791073,0.0020148444455116987,0.0007544291438534856,-0.002006963826715946,0.0036250296980142593,0.0021595091093331575,-0.0016461213817819953,0.0029047292191535234,-0.0020934611093252897,0.0036308986600488424,0.0018553492845967412,-0.0023507215082645416,-0.00018982926849275827,-7.01331373420544e-05,0.0031606853008270264,-0.002221076749265194,0.0036269952543079853,0.0004330658703111112,0.0032996018417179585,-0.00204488611780107,-0.0019200369715690613,-0.0033343262039124966,0.0003172253491356969,-0.003010390792042017,0.003190960269421339,-0.0036903033033013344,-0.0013894014991819859,0.00256975251249969,0.0019306651083752513,0.002659483579918742,0.0005612277309410274
-0.0005504965083673596,0.00016612459148745984,-6.288092845352367e-05,-0.00021698784257750958,-0.003825551364570856,0.0024720802903175354,0.001730248797684908,-0.0031672040931880474,-0.0027086485642939806,0.003307381644845009,-0.0026740317698568106,0.002256855135783553,0.002804488642141223,-0.002825070172548294,0.0015074997209012508,0.003151040058583021,-0.0021262934897094965,0.0023342976346611977,-0.00018483403255231678,0.0004210264887660742,-0.0026236455887556076,-0.0014820127980783582,-0.0021092905662953854,0.0026263678446412086,0.0028507616370916367,0.003312905551865697,0.0022637357469648123,-0.0036377361975610256,-0.003863814752548933,0.0023801883216947317,0.0008855917258188128,-0.003354281885549426,-0.00390159641392529,-0.0031212035100907087,0.0003607780672609806,0.0010991947492584586,0.00039305610698647797,0.0005086942692287266,0.002051789313554764,-0.0005748000112362206,0.0015233103185892105,0.0012534118723124266,0.0015705748228356242,-0.0018274190369993448,-0.0007535662734881043,0.0012067715870216489,0.00041897938353940845,0.0012373432982712984,-0.0016909124096855521,0.0005124971503391862,-0.000111017121525947,-0.0036364980041980743,-0.0025211472529917955,-0.0032670109067112207,-0.0037296044174581766,-0.003757782280445099,0.0030888409819453955,-0.0004892506403848529,0.002378307981416583,0.003745404304936528,-0.0032787350937724113,-0.002530819270759821,-0.0022995134349912405,0.002451104111969471,-0.0016759770223870873,0.003187825670465827,-0.003358950139954686,-0.0029157837852835655,-0.003270791145041585,-0.002653311938047409,-0.0031626031268388033,-0.0006621903157792985,0.0029993990901857615,-0.0003731552860699594,0.0030911171343177557,0.0007001377525739372,0.002197477500885725,-0.00040992521098814905,-0.0030978817958384752,0.0025034602731466293,-0.0029921417590230703,-0.0021003400906920433,-0.002998128067702055,0.003073307452723384,0.0006269757286645472,0.0012398078106343746,-0.0035486689303070307,0.002713632071390748,-0.0010596303036436439,-0.0027711817529052496,-6.481279706349596e-05,0.0021610220428556204,-0.0014524311991408467,2.5696372176753357e-05,0.0026318703312426805,0.0008197922725230455,-0.00035945908166468143,-0.0011324003571644425,-0.002475503832101822,-0.00010716360702645034,0.0027791056782007217,0.0010086095426231623,-0.003545551560819149,0.0019387182546779513,-0.0024480305146425962,0.001108443597331643,0.003391291480511427,0.0005841317470185459,0.0006147333770059049,0.00035452062729746103,0.0020590987987816334,0.0035960080567747355,-0.0027494539972394705,0.00038046218105591834,-0.0029160769190639257,0.0018602386116981506,-0.0021302306558936834,0.0014545934973284602,0.0018475200049579144,-0.0011650642845779657,-0.003364131785929203,-0.0009713650797493756,0.000621725048404187,0.00333863846026361,0.000316152028972283,3.2661126169841737e-05,0.00028436051798053086,0.0016858478775247931
-0.0034539559856057167,-0.0013221537228673697,-0.0025958912447094917,-0.0026251040399074554,0.0006335506332106888,-0.00195860187523067,-0.0013029675465077162,-0.0029701057355850935,0.0010737539269030094,0.0031134882010519505,-0.0003966153017245233,-0.0007963682292029262,-0.00014537757670041174,-0.0003027970378752798,-0.0006109992391429842,-0.0032945952843874693,0.0007900727796368301,-7.954576722113416e-05,0.0007537308847531676,-0.0037368282210081816,0.0024780023377388716,0.0005880951066501439,-0.0012044846080243587,0.0003107617376372218,-0.0022592523600906134,0.0003346828161738813,-0.001562620047479868,0.0015340844402089715,0.003657410852611065,0.002473219996318221,0.002808528719469905,0.0025060628540813923,0.003242018399760127,0.002906425390392542,0.00012614415027201176,0.0011633876711130142,0.0017392942681908607,0.001025854260660708,0.003246575826779008,-0.0026160720735788345,-0.003038260154426098,0.0002907307934947312,0.002804487943649292,0.003604637458920479,-0.002181055722758174,-0.0031546689569950104,0.0037550979759544134,0.0032003449741750956,0.0034132148139178753,-0.0033381576649844646,0.002718062838539481,0.001746627502143383,-0.0007233192445710301,-0.0023602659348398447,-0.0007342557655647397,0.00023801025236025453,0.003398627508431673,-0.0009060711599886417,0.0004329343209974468,-0.0007020343327894807,-0.0031551001593470573,0.003947587683796883,0.0013208437012508512,-0.0024684967938810587,-0.0006442001322284341,0.003095505991950631,0.0037881629541516304,0.003222360508516431,0.0019840821623802185,0.003684265073388815,0.002325157867744565,-0.0024996770080178976,0.0028195397462695837,0.0003488871152512729,0.000667139480356127,0.00012499121658038348,0.0030131470412015915,-0.0038957823999226093,0.000640462210867554,0.0006548066739924252,-0.0026012007147073746,0.002046547830104828,-0.0017223804024979472,-0.0014943231362849474,-0.0026222369633615017,-3.4058710298268124e-05,0.003284134902060032,-0.0024085231125354767,-0.0021219810005277395,0.0005048090242780745,-0.0013399424497038126,-0.0020598748233169317,-0.0028964339289814234,-0.00030769873410463333,-0.00032096137874759734,0.00289316033013165,-0.0021363578271120787,0.00020673361723311245,0.0005423834081739187,0.0030071388464421034,0.001442039036192,0.0035684627946466208,0.0005126058240421116,0.003270914079621434,0.003430316923186183,0.0014163414016366005,-0.002515522064641118,0.003657364519312978,-0.003532647853717208,-0.0014093101490288973,0.003956744913011789,0.0010598673252388835,-0.002627406734973192,-0.001756141777150333,-1.6935580788413063e-05,0.0032607284374535084,0.0026389413978904486,-0.0019973134621977806,-0.0021304048132151365,0.0017155645182356238,-0.0014362907968461514,-0.002589700510725379,0.0027926729526370764,-0.0010218782117590308,-0.0005549567868001759,-0.002665613079443574,0.0032266508787870407,0.0018372233025729656
0.001754196360707283,0.0026590246707201004,-0.002608422189950943,-0.001593635999597609,0.0024789434392005205,-0.0021675764583051205,0.0019330806098878384,0.0008609922952018678,-0.00019456472364254296,-0.002377256751060486,0.004031475633382797,0.0021708302665501833,0.001085923402570188,-0.0036549936048686504,0.0038028464186936617,-0.0011554453521966934,0.0034981705248355865,-0.0006315257051028311,-0.002476756926625967,0.002304658992215991,0.0007680549169890583,0.0024102379102259874,0.003705816576257348,-0.0006207051337696612,-0.0038295304402709007,0.0010386595968157053,0.0021736519411206245,-0.002564780879765749,-0.0011252021649852395,0.002908057766035199,0.0019966079853475094,-0.0031841685995459557,-0.000152948938193731,-0.0010156517382711172,0.0038683870807290077,-0.0013152746250852942,-0.0009986321674659848,-0.0019396041752770543,-0.0016388591611757874,0.002303437562659383,-0.0009780027903616428,-0.002637609839439392,-0.0035532223992049694,-0.003212417010217905,0.001945217722095549,-0.001438824343495071,0.0013832738623023033,-0.0033260565251111984,-0.002084315987303853,0.0023286861833184958,-0.0010414471616968513,0.002525269752368331,0.0028101839125156403,0.0033927052281796932,-0.0017255899729207158,-0.003500129096210003,0.0033124606125056744,-0.0011143770534545183,-0.0027738299686461687,-0.002926897257566452,-0.002410139190033078,-2.3973190764081664e-05,-0.0012489501386880875,0.0015331734903156757,0.0006297630025073886,0.002397695556282997,0.003536489326506853,-0.0016482198843732476,0.0032622357830405235,0.0020103519782423973,-0.0026776334270834923,0.003714330494403839,-0.00012554964632727206,-0.0007897928589954972,-0.00011349130363669246,4.835428626392968e-05,-0.003074798034504056,-0.0034928242675960064,0.002766154706478119,-0.0025457770098000765,0.000579274317715317,-0.0022868455853313208,0.0007754961843602359,-0.002080996986478567,0.0025180671364068985,0.0022750869393348694,-0.0016504079103469849,-0.0006445576436817646,-0.0026764546055346727,-0.003410480683669448,-0.0027560051530599594,0.0017252584220841527,0.0024366804864257574,-0.0018552044639363885,-0.0003224853426218033,0.0034800649154931307,-0.0026376929599791765,0.0016491854330524802,-0.0004487652040552348,-0.00030156559660099447,6.819032569183037e-05,0.00027871481142938137,0.0032938725780695677,0.00017019538790918887,0.003558472031727433,0.0005296608433127403,0.002176669193431735,-0.0023366715759038925,-0.0006590296397916973,0.002543848939239979,-0.002844781382009387,0.0022926833480596542,0.0035023316740989685,0.0024370092432945967,0.0015959306620061398,0.0020931402686983347,0.0032229505013674498,-0.00029711684328503907,-0.0036505809985101223,0.00038576711085624993,-0.001418187515810132,-0.0010652771452441812,-0.0021685927640646696,-0.00023501711257267743,7.864752660680097e-06,-0.0028809853829443455,-0.0027795997448265553,-0.0016868762904778123
-0.003589720232412219,-0.0018823865102604032,-0.0012805475853383541,-8.749178232392296e-05,0.003077584784477949,0.002116131829097867,-0.0015071409288793802,0.0029760487377643585,0.0005578851560130715,0.0021659526973962784,0.0024720083456486464,-0.0018364287680014968,0.0033631452824920416,0.003282024525105953,-0.0038291048258543015,-0.001801645732484758,-0.00020660721929743886,0.0028853637631982565,0.0008243539487011731,0.002484777709469199,-0.0033333818428218365,-0.00026039787917397916,0.0029014088213443756,-0.0028222831897437572,0.0031251320615410805,-0.0011663173791021109,-0.0017474812921136618,-0.003230989445000887,-0.0022417972795665264,-0.001571817439980805,-8.715551666682586e-05,-0.0031552277505397797,-0.0008267401717603207,0.0011185983894392848,0.0035502056125551462,0.002632980002090335,-0.003618641523644328,0.0010004626819863915,-0.0006876335828565061,-0.0006141365156508982,-0.0031137303449213505,-0.0017367773689329624,0.003370789112523198,0.0031827620696276426,0.0025883601047098637,0.002168920822441578,0.0030637686140835285,0.0004090532020200044,-0.00318084005266428,-0.000592478143516928,0.002761007286608219,0.0015451863873749971,-0.000273381476290524,-0.0021047769114375114,-0.000891796313226223,0.001665998948737979,-0.003538968972861767,0.003154032863676548,-0.00024721745285205543,-0.0022178739309310913,0.0008251380058936775,-0.0015084872720763087,-0.0010198107920587063,0.001243696897290647,0.00038320766179822385,-0.00042087360634468496,-0.0007776721031405032,0.003448566421866417,-0.003582380712032318,0.0029110449831932783,0.000829964701551944,-0.0005631353706121445,-0.0032545977737754583,0.0026398119516670704,-0.0035278773866593838,-1.1714197171386331e-05,-0.0012297122739255428,-0.0003274116897955537,-0.0007008163374848664,-0.002613337244838476,0.0011956425150856376,0.003285865066573024,-0.0032847414258867502,-0.002313516568392515,-0.0029308535158634186,0.0019728983752429485,0.0017238843720406294,-0.0018377582309767604,0.0004079404752701521,0.00032567587913945317,-2.0088577002752572e-05,-0.0022315431851893663,0.0036687671672552824,-0.001701323431916535,-0.003750741481781006,0.0028097040485590696,-0.0009339002426713705,0.0006505478522740304,0.003880557604134083,0.003033564891666174,-0.0032886783592402935,-0.0005742059438489377,0.0005801536608487368,-0.0003774446086026728,0.0010439386824145913,0.0005743547808378935,0.000738367554731667,-0.0016005323268473148,0.001818831660784781,0.0007664071163162589,-0.0009666531113907695,-0.003060565795749426,-0.0021471267100423574,-0.002621675841510296,0.0027430301997810602,-0.0006710922461934388,-0.0034005953930318356,0.003139766864478588,0.002212891820818186,-0.0012876078253611922,-0.00172150949947536,-0.001638860092498362,0.001725808484479785,-0.002827130723744631,0.0029584034346044064,-0.0038972359616309404,-0.0005497249076142907,0.0013395010028034449
-0.0012828698381781578,0.003285741899162531,-0.0010687755420804024,-9.3643473519478e-05,0.0007336679846048355,0.0016979556530714035,0.0035449231509119272,0.0015342712868005037,-0.00045401384704746306,0.0019693446811288595,0.0006737075163982809,0.002487296238541603,0.00020620520808734,0.0036993171088397503,-0.003742894157767296,-0.0037947404198348522,0.000765883072745055,-0.001573569024913013,-0.0014035083586350083,0.0009645905229263008,-0.0006433904636651278,-0.002496199682354927,0.0009160470799542964,-0.003210639115422964,0.003034039167687297,0.002293067518621683,0.0030311490409076214,-0.0028517493046820164,0.002902721520513296,0.00379664683714509,-0.0008814280154183507,-0.0004874689329881221,-0.001020576455630362,0.0028689082246273756,0.0005725767114199698,-0.0028736733365803957,-0.0008302452624775469,0.0027244938537478447,-0.003043249947950244,0.003774936543777585,-0.00123078643810004,-0.0017738350434228778,-0.0035301537718623877,-0.002371968934312463,0.0002511835773475468,0.002827208023518324,-0.0025999299250543118,0.003246343694627285,0.0008504430297762156,-0.00023634133685845882,0.0015152880223467946,-0.002441795077174902,0.00330795394256711,0.0005841610836796463,-0.0027406979352235794,-0.0038045565597712994,0.00037562657962553203,-0.001299997209571302,0.0028839213773608208,0.004253603983670473,-0.0014912908663973212,0.0018527897773310542,0.0026315543800592422,0.0018485105829313397,0.0012314780615270138,-0.000184572214493528,0.0008643623441457748,-0.0020272464025765657,-0.0007132312166504562,0.0028022637125104666,-0.0029169663321226835,0.001483701285906136,-0.0037812620867043734,0.000998587696813047,-0.0028140260837972164,-0.000904192216694355,0.0007472424767911434,-0.0022310586646199226,-0.00032072162139229476,0.0012343592243269086,-0.002309864852577448,-0.0030955218244343996,0.0008267189259640872,0.0009482564637437463,0.002140376018360257,0.002374727511778474,-0.0025611058808863163,7.467513933079317e-05,-0.0022924679797142744,-0.00026666655321605504,-0.0025284227449446917,0.0013732323423027992,0.001984002534300089,0.003154952311888337,-0.0038440998177975416,-0.001728998264297843,-0.0010804827325046062,0.0029697399586439133,-0.0006502321921288967,0.00023096012591850013,-0.002933444920927286,0.0038009933196008205,0.0024463958106935024,0.002054064068943262,0.00286097195930779,-0.00022417544096242636,0.0010825332719832659,-0.001850728178396821,0.0028872790280729532,0.0015407009050250053,-0.00146763538941741,-0.003498850157484412,-0.0016065007075667381,0.0040055387653410435,-0.0035822156351059675,0.000801966933067888,0.002678671618923545,-0.0004706929321400821,0.0015242388471961021,-0.0017206498887389898,-0.0012320739915594459,0.0016818870790302753,-0.0022432722616940737,0.00022630718012806028,0.002883276203647256,-0.00034428457729518414,-0.0014751050621271133,-0.002250680001452565
0.0009649184066802263,-0.0037965322844684124,0.001380109810270369,4.209552935208194e-05,0.0033158811274915934,0.00036120059667155147,-0.0019894111901521683,-0.0013817823491990566,-0.00017378445772919804,0.0009157244930975139,-0.001540693105198443,0.002336899982765317,0.0020633949898183346,-0.00037244826671667397,-0.00043362562428228557,-0.0005142997833900154,-0.002408656058833003,-0.0017339077312499285,0.0016150637529790401,0.0023027732968330383,-0.0027170893736183643,-0.0031601907685399055,0.0017346699023619294,-0.0031779170967638493,-0.0032683999743312597,0.0038268794305622578,-0.0007271149661391973,0.00399817293509841,-3.7932510167593136e-05,0.0029088316950947046,0.0034059106837958097,-0.0032057203352451324,0.0005507097812369466,-0.0022219244856387377,-0.0008069484611041844,-0.0037501624319702387,-0.0014339220942929387,-0.0015233613085001707,0.001594690722413361,-0.00037408340722322464,0.0030888202600181103,-0.002381972735747695,-0.004044987726956606,0.000544607697520405,0.0016028906684368849,0.0018865528982132673,-0.0003187310940120369,0.0029470997396856546,-0.000622401072178036,0.0025610055308789015,-0.0007901458302512765,0.0027006184682250023,-0.003122940193861723,-0.001863390440121293,0.0013946682447567582,-0.002900776918977499,-0.0019417598377913237,0.00031040087924338877,0.0007846792577765882,0.0028868881054222584,0.0027783967088907957,0.0009952235268428922,0.0022861151956021786,-0.0034062135964632034,-0.0017903069965541363,-0.004189695697277784,0.002805640222504735,0.002987341955304146,-0.00415722094476223,-0.0024007908068597317,-0.00336723611690104,-0.0002186690689995885,-0.002867623930796981,0.003631211118772626,-0.0025180589873343706,0.0026000291109085083,-0.00029990408802405,-0.0017978594405576587,-0.00386936217546463,0.0002477184170857072,-0.003233260940760374,0.0009316245559602976,0.001027679885737598,-0.001059268251992762,-0.003056948073208332,-0.0008864460978657007,-0.0018965830095112324,-0.0020922792609781027,0.003727374831214547,-0.00011794442252721637,-0.0004699129785876721,0.0009263503598049283,-0.0010046029929071665,-0.0008860959205776453,-0.0014275254216045141,-0.0026976964436471462,0.0009430699865333736,0.0014746508095413446,-0.0019945185631513596,0.0013595527270808816,0.00262232287786901,0.0015457343542948365,-0.0006660610670223832,-0.004905045032501221,-0.002514192368835211,0.0016552518354728818,-0.0012960718013346195,0.0035923582036048174,0.001511468319222331,-0.00172911467961967,-0.003285488346591592,-0.0016967079136520624,0.0017023059772327542,8.202745812013745e-05,-0.0029121756087988615,-5.957034227321856e-05,0.0037770671769976616,-0.0001690000935923308,-0.003153336700052023,0.0010912192519754171,2.4839298930601217e-05,0.0040798974223434925,-0.001930078724399209,0.003106609918177128,-0.00040192101732827723,0.0035371698904782534,0.0026086652651429176,-0.004484295379370451
-0.0021640961058437824,-0.0029367320239543915,-0.0005036169313825667,0.0005923920543864369,-0.003636414185166359,-0.0025103443767875433,0.00027217355091124773,-0.0010433705756440759,-0.0032549418974667788,0.00016195783973671496,-0.0015636178432032466,0.00045949986088089645,0.0016862782649695873,-0.002352791139855981,-0.0022217717487365007,-0.0013254432706162333,0.0038514963816851377,0.0006492091924883425,0.0003378965484444052,-0.0016158343059942126,-0.0025391087401658297,0.0012037274427711964,-0.0011634790571406484,-0.0034034885466098785,-0.0009929804364219308,0.0002603152533993125,0.0002099046396324411,-0.00014397181803360581,0.0007555231568403542,-0.001583943492732942,-0.003781443927437067,-0.002560165710747242,0.0022896858863532543,-0.002521418733522296,-0.0004989503067918122,-0.0024403349962085485,0.00038976187352091074,-0.0028756256215274334,-0.0030425607692450285,0.003123663831502199,-3.917137655662373e-05,-0.0019004133064299822,-0.0032412083819508553,0.001391589525155723,0.0031146893743425608,-0.003578989766538143,-0.000960857083555311,0.0024522673338651657,0.0026956330984830856,-0.00119730771984905,-0.0009317329386249185,0.00039387657307088375,-0.0012049360666424036,0.0020245122723281384,-0.0007768514333292842,0.0005002969992347062,0.0037718715611845255,-0.00029226214974187315,0.0014480374520644546,-0.000996113638393581,-0.0016717221587896347,0.0025220904499292374,-9.515303099760786e-05,-0.0006991050322540104,-0.0014460916863754392,-0.0026191051583737135,-0.001033955835737288,0.0038085763808339834,0.000980850774794817,0.002869900781661272,-0.0026547680608928204,-0.0030571946408599615,-0.0016899744514375925,0.0009757877560332417,0.0004766635247506201,-0.0019391808891668916,0.0026482592802494764,-0.002260151319205761,-0.0006376701639965177,-0.0023646322079002857,0.0009494574624113739,-0.0008691596449352801,0.003771770279854536,-0.001560155302286148,0.0026032901369035244,0.0002595924015622586,-0.0029001098591834307,-0.00021609669784083962,-0.0008997883414849639,-0.0008499554824084044,-0.0010259498376399279,-0.0030477812979370356,0.0024269581772387028,-0.0009042798774316907,0.0030018649995326996,0.0034809967037290335,-0.00017714958812575787,0.0012155193835496902,-0.0026449854485690594,-0.0003056432178709656,0.003010727697983384,-0.00025638737133704126,-0.0031567185651510954,-5.615880945697427e-05,0.0012541107134893537,-0.0005341895739547908,0.0006498967413790524,-0.0007790114032104611,-0.003478733589872718,-0.0024960441514849663,-0.003037351183593273,-0.0030884325969964266,-0.002882034284994006,0.001498724683187902,-0.0010203089332208037,0.0032299214508384466,-0.001812128466553986,0.0013181272661313415,0.0009482382447458804,-0.0037341294810175896,-0.0002859471132978797,-0.0009910380467772484,-0.0034237056970596313,0.0014092451892793179,-0.003383670700713992,0.003475629026070237,0.0013422066112980247,-0.002912679919973016
