0,1,2,3,4,5,6,7,8,9,10,11,12,13,14,15,16,17,18,19,20,21,22,23,24,25,26,27,28,29,30,31,32,33,34,35,36,37,38,39,40,41,42,43,44,45,46,47,48,49,50,51,52,53,54,55,56,57,58,59,60,61,62,63,64,65,66,67,68,69,70,71,72,73,74,75,76,77,78,79,80,81,82,83,84,85,86,87,88,89,90,91,92,93,94,95,96,97,98,99,100,101,102,103,104,105,106,107,108,109,110,111,112,113,114,115,116,117,118,119,120,121,122,123,124,125,126,127
-0.09467982259733065,0.3290942795226639,0.3038338571085133,-0.41219328356877916,-0.3206523267982886,0.14926819372525357,0.4309852612105478,-0.4649253650208123,0.7487393546200216,0.7790571018573516,-0.1664574469979927,-0.47178010154307093,-0.08211980745501934,0.3455819638753064,0.9096616698977564,-0.25815697064130805,-0.19919560183004803,0.13323950084075986,0.6018062275342524,0.47267687932470426,-0.9121124580316173,-0.22077870968082647,0.1690679626887348,0.9755820376728561,-0.4185799482249488,-0.7580926561001713,-0.7404623165619157,-0.427109964743684,-0.48960677264866215,-0.7910207520429671,0.23050545925371568,0.3022270890671257,-0.12159720574102706,0.5319828324510247,0.5524990964560965,0.5978870017931499,-0.6202296036771449,0.9124114081720427,-0.3975503220113019,-0.22452771649387127,0.2112577381924856,-0.5370288041754792,0.9566556815177973,0.5320230346929544,-0.5464813294388138,-0.8066821056213367,-0.049439891482726095,0.3085554695215533,0.05261619117196137,-0.4994866710207393,0.2716135200903975,0.0986860556592315,0.7834019610186422,0.12181567427517681,-0.49456400690497615,0.3442428830048265,-0.540382943401071,-0.34642068629333833,0.5973443496884352,-0.8535656107051599,-0.15778172150688263,0.9246935046192601,-0.7709685178787318,0.9573699324470706,0.036273764298490496,0.8596758418989516,0.5538776699546641,0.7860419777740564,-0.9517526476231484,0.6829764099414088,-0.5786946726605982,0.02304144624520177,0.09993007220545413,-0.29885035859865616,0.5213961264351836,-0.9768089063009526,-0.4365950305257784,0.026421830025820103,0.5462616543307244,0.583317972540975,-0.2636758653336526,-0.2609477976877572,-0.6378192236197371,-0.28134014527052,-0.7059895343410525,-0.2708907298846006,0.5265161908689744,0.22297208716010974,-0.8869197759434742,0.2629188671576195,-0.9053043539328665,-0.7033349031734561,-0.3147162873859828,-0.9525323896615703,-0.1325244340702647,0.8349847846395333,-0.5821642946226098,-0.7234338642620657,0.5860499852962626,-0.5751943815817366,0.4854939833200891,-0.556325054331068,0.309064856857836,0.747957982496416,0.27134283732769693,-0.16663490324539287,-0.4339880704511354,0.9410396237228162,0.8068107457195723,-0.4374743889327448,-0.7129890222480004,-0.21072151695081076,-0.5072521539482575,0.20697185844028465,-0.12748875529096093,0.25274151375507414,-0.8283375905222572,0.838685070070813,-0.9187682249856608,0.008575707501835783,0.26297652034039,-0.28336684549012126,-0.757444006666866,-0.6232660958002949,-0.8075093555810882,0.4763103295332023,0.2714787574224655,0.7627226513949092
0.0005956828244961798,-0.0037589501589536667,0.0031400881707668304,-0.0016785019543021917,-0.0016486628446727991,-0.003016055328771472,-0.0023255746345967054,0.0001238286931766197,0.0037586165126413107,-0.0026680300943553448,0.0037340621929615736,0.002221497939899564,0.001675498322583735,0.0034363146405667067,-0.0010627367300912738,0.0023399298079311848,-0.002963962499052286,0.0006174261216074228,-0.0039072646759450436,0.00333788082934916,-0.0035236759576946497,0.0005796406767331064,-0.0017994755180552602,0.003176149446517229,-0.003825334133580327,0.0028031901456415653,-0.0029725099448114634,-0.0019772513769567013,0.0013869829708710313,-0.0008726457017473876,-0.0038370040711015463,0.001033723820000887,0.002794806845486164,-0.0038067647255957127,0.00317100971005857,-0.0002688230306375772,0.00226094969548285,-0.00296912738122046,-0.0024135548155754805,-0.0014856880297884345,-0.002444969257339835,-0.0035597411915659904,0.0022493198048323393,0.0008468286832794547,-0.0019525529351085424,0.001556252595037222,0.0032755921129137278,-0.0011282707564532757,-0.0009421705617569387,-0.0003599863557610661,0.0031357991974800825,-0.003430379554629326,0.0022607611026614904,0.0014203652972355485,-0.0006029254873283207,-3.1347382901003584e-05,-0.0030262048821896315,-0.0014473338378593326,0.0002591051743365824,0.00236232066527009,-0.0002466852602083236,0.003203342668712139,-0.001855966285802424,0.0019849285017699003,-0.0015560782048851252,0.0009496545535512269,0.001955323154106736,-0.0030206504743546247,-0.002540517831221223,-0.003651330480352044,-0.002133911708369851,0.001106089330278337,-0.00021298523643054068,0.0017575470265001059,0.0011407574638724327,-0.0013241770211607218,-0.0038639495614916086,0.0015332665061578155,0.003484344342723489,-0.0014065123395994306,0.003258373588323593,-0.0034961909987032413,-0.0020830174908041954,0.003312529530376196,0.002329024486243725,-0.000986595987342298,-0.002459164708852768,-0.0024942527525126934,-0.00046510068932548165,-0.0035073617473244667,0.002146501326933503,0.0035001018550246954,-0.0017955135554075241,0.0023857273627072573,-0.0030381132382899523,-0.0029084898997098207,0.0023710085079073906,-0.0035631225910037756,-4.002936475444585e-05,0.0017064400017261505,0.001229958957992494,0.003716682083904743,-0.003606700338423252,-0.0016292278887704015,0.0003021882730536163,0.0035258883144706488,0.0021720132790505886,-0.003288362640887499,-2.450284046062734e-05,-0.0014342941576614976,-0.00013245346781332046,0.0011541892308741808,-0.00046192281297408044,0.003225838067010045,-0.0038539108354598284,-0.00169452338013798,-0.001870663370937109,-0.002965561579912901,-0.002485000528395176,0.00014669338997919112,9.29330853978172e-05,0.000824016344267875,-0.002932504750788212,-0.0011465976713225245,0.0037963567301630974,-0.001560829346999526,-0.0005225103232078254,-0.002622126368805766
0.0035801513586193323,-0.0009130601538345218,-0.0030902260914444923,-0.0026311026886105537,-0.002941237762570381,-0.0033715376630425453,-0.0005832347669638693,-0.0001581520918989554,-0.0005106320604681969,4.461217031348497e-05,-0.00012135675206081942,-0.0036254054866731167,0.003794708289206028,-0.0030500097200274467,-0.0020386369433254004,-0.003371589118614793,0.002904220949858427,-0.0017351954011246562,-0.0019002016633749008,-0.0003246389969717711,-0.0032876955810934305,0.002591088181361556,0.0025181425735354424,0.003783899126574397,-0.00016888546815607697,0.0021147055085748434,-0.0007648633909411728,0.0015370271867141128,-0.00290104397572577,-0.003182440297678113,-0.003316309070214629,-0.0005571436486206949,0.002614825265482068,-0.0033278940245509148,0.002388778841122985,-0.0011588523630052805,0.004013767931610346,-0.0010079782223328948,-0.0008580973371863365,0.0026376559399068356,-0.000372823589714244,-0.0034105887170881033,0.0004100467194803059,0.0029438133351504803,0.003628833219408989,0.0006819841219112277,0.0008693282143212855,-0.0037435702979564667,-0.003535156836733222,-0.0011114570079371333,0.0014545744052156806,0.003776701632887125,0.0021929822396486998,0.001114778802730143,-0.0008526660385541618,-0.0005236079450696707,0.0007388166850432754,0.0013565518893301487,0.00045853646588511765,0.0018036570399999619,-0.0014804601669311523,-0.0009226183174178004,-0.00039881811244413257,0.0027546591591089964,0.0013413927517831326,-0.0036183365155011415,0.0025477996096014977,0.0029283699113875628,0.00011492162593640387,-0.0036952169612050056,0.0024885039310902357,-0.00017239589942619205,-0.0037161954678595066,-0.0019315253011882305,-0.0035326939541846514,-0.0013174370396882296,0.0009881044970825315,0.0026848248671740294,-0.00033778304350562394,-0.0008801139774732292,-0.003107618074864149,0.0004022562352474779,-0.0030166329815983772,0.0012587798992171884,-0.0022130408324301243,-0.0006688244757242501,-0.0016426077345386147,0.0032992272172123194,-0.0011200517183169723,-0.002768938662484288,-0.003401414956897497,0.0025740773417055607,0.0037862223107367754,0.0005733693251386285,0.002735940972343087,0.0013454420259222388,-0.0032450021244585514,-0.001254686270840466,0.002220755908638239,-0.003407044569030404,0.002681707963347435,-0.0037776934914290905,0.000766949902754277,-0.002754992339760065,-0.0018131638644263148,-0.0038876989856362343,0.001463392749428749,-0.0003268918953835964,0.0013907485408708453,-0.0014493537601083517,-0.002093213377520442,-0.0008369635324925184,-0.003155096899718046,0.000957836105953902,0.003854026785120368,0.0028500871267169714,-0.00022797536803409457,-0.0030589529778808355,-0.003796779317781329,-0.0006810720078647137,0.0032851705327630043,0.0007597350631840527,-0.0022189486771821976,-0.0017864760011434555,-0.003601623699069023,0.0008945438312366605,0.0019902021158486605,5.9190144384047017e-05
-0.0018104258924722672,-0.0022377159912139177,0.0016567123821005225,0.001906579709611833,0.002639171900227666,0.0005319873453117907,-0.0037183761596679688,-0.002755202353000641,-0.000505523756146431,0.002458259230479598,0.0033584116026759148,-0.00013680572737939656,0.000568043440580368,0.0016023371135815978,-0.0026562782004475594,0.0014752363786101341,0.0015015298267826438,0.0036114018876105547,0.0009239557548426092,0.0009323707781732082,0.0007192727643996477,0.0014447270659729838,-0.0006899279542267323,-0.004001490771770477,0.0010979347862303257,-0.0035911966115236282,-0.00213626679033041,-0.002238471293821931,0.0018969383090734482,-0.0005567795597016811,-0.003236238844692707,-0.0028919412288814783,0.0013707233592867851,0.0019558954518288374,0.0025205521378666162,-0.00030678469920530915,-0.000896271551027894,-0.000849878357257694,-0.0002689710527192801,-0.0027959048748016357,-0.0020804202649742365,0.0029898365028202534,0.003740258514881134,0.003744970541447401,-0.0013798816362395883,-0.003949331119656563,-0.00236028665676713,-0.00015573325799778104,-0.0008261261391453445,0.0015686623519286513,-0.0028811199590563774,0.000624236068688333,-0.00107789586763829,0.0009062646422535181,0.0023486928548663855,-0.0005298706237226725,0.0025766948238015175,-0.00041594632784835994,-0.0033477111719548702,0.002419588388875127,0.0011361850192770362,-0.0005481629050336778,0.0021921941079199314,-0.002226507058367133,0.0007245512679219246,-0.0038592221681028605,-0.00386655586771667,-0.0010947766713798046,0.001057846238836646,0.0010776104172691703,0.0006151947309263051,-0.0016985402908176184,-0.0017846751725301147,0.0005529529880732298,0.001649698824621737,0.0001853949943324551,-0.001147925271652639,-0.002264556474983692,0.0031756542157381773,0.0017988677136600018,-0.0003507615765556693,-0.003864029888063669,-0.0012028600322082639,-0.0017839580541476607,0.0007937821792438626,0.0002296336169820279,-0.003811607602983713,0.00017425605619791895,0.003126641269773245,-0.00040311491466127336,0.0033401211258023977,-0.003001338802278042,-0.0019448352977633476,0.003883558325469494,0.0014078295789659023,-0.0024500496219843626,0.0022645355202257633,0.003777991281822324,0.0036460382398217916,0.0035095650237053633,0.000108912012365181,-0.0031272510532289743,0.0038295467384159565,-0.0007652602507732809,-0.0008279685862362385,-0.0003038173308596015,-0.0020662471652030945,0.0006165840313769877,-0.0021787493024021387,-0.0016576687339693308,0.0018318378133699298,0.004054876044392586,0.001780048361979425,-0.0003086238575633615,0.0003235866315662861,-0.000857875740621239,-0.0004667561443056911,-0.0036619040183722973,0.00022960072965361178,0.0009976108558475971,0.0008701132610440254,0.0015532545512542129,-0.0015975787537172437,-0.0023482656106352806,0.0017062618862837553,-0.0037964230868965387,0.0002936297096312046,0.0009070742526091635
-0.00035984269925393164,0.0022856625728309155,-0.00040845113107934594,-0.0005384159157983959,0.0020594364032149315,0.0037078969180583954,0.0033414685167372227,0.0033240346238017082,0.0009357371600344777,-0.003759694518521428,-0.003783529857173562,-0.002061705105006695,-0.002027672715485096,0.0038097428623586893,0.003014171961694956,-0.0014588631456717849,0.003704219590872526,0.002208881778642535,-0.003679899265989661,-0.0028645077254623175,-0.0032893004827201366,-0.0003227461129426956,0.002006874419748783,0.0026790457777678967,0.0014815563336014748,-0.0023908086586743593,-0.0007148064323700964,0.0021052348893135786,-0.0019256087252870202,0.0014333411818370223,-0.0020398255437612534,0.00016512141155544668,0.00035467042471282184,0.0007914151065051556,-0.003419000655412674,-0.0010779164731502533,9.586879968992434e-06,-0.0019168233266100287,0.0034061199985444546,-0.0035363943316042423,0.003786601359024644,-0.000597956997808069,0.00015262686065398157,-0.0037949474062770605,-0.000983677338808775,-0.0018434637458994985,-0.001219411613419652,-0.0033582355827093124,-0.0005731965065933764,0.003343915566802025,0.0007181639084592462,-0.0019735980313271284,-0.0009611392742954195,0.00120814167894423,-0.003017356852069497,0.0018946435302495956,-0.001199086895212531,-0.0016276579117402434,-0.002927005523815751,-0.0002692548150662333,0.00385690713301301,0.0007448511896654963,0.0032999138347804546,0.0032880560029298067,0.002182798692956567,6.896493141539395e-05,-0.0011128501500934362,0.0038367370143532753,0.0010208507301285863,-0.0004185433208476752,0.0013570744777098298,0.002496259054169059,-0.0029019012581557035,0.0028713480569422245,-0.0021170745603740215,0.001632808824069798,0.0003871959343086928,-0.003489391878247261,-9.709908772492781e-05,-0.0001182862397399731,-0.003204963868483901,0.0015570841496810317,0.0027719393838196993,0.003802121849730611,-0.0019150517182424664,-0.0031586054246872663,-0.001609054859727621,0.0030268810223788023,0.0038958408404141665,6.114115240052342e-05,0.002855912782251835,-0.001355547341518104,0.0010308691998943686,-7.618608651682734e-05,0.0008913238998502493,-0.0017398587660863996,0.0011160813737660646,-0.003034472232684493,0.001224190928041935,-0.0022203654516488314,0.00244251755066216,-0.00020848828717134893,-0.0010712842922657728,-0.002045205095782876,-0.0027783510740846395,0.0030809168238192797,-0.002515884116292,0.0005964459851384163,0.00016073389269877225,0.0007671280181966722,-3.206733526894823e-05,-0.003134660655632615,-0.001501582097262144,-0.0034088073298335075,0.0016042075585573912,0.0020479841623455286,0.0020148083567619324,0.0032072390895336866,0.0028722076676785946,0.0012518252478912473,-0.0026583548169583082,0.0037951201666146517,-0.001626059995032847,0.0006185019738040864,0.000933322764467448,0.0018069209763780236,0.0002630705130286515,-0.00047581022954545915
0.003413851372897625,0.000814753700979054,-0.0006418838747777045,0.0039399173110723495,0.003299980890005827,0.001593826338648796,0.0038091063033789396,0.0015830055344849825,-0.00043978370376862586,-0.0003602853394113481,0.0015265097608789802,-0.0025951769202947617,0.0022377544082701206,0.0011887153377756476,0.0031842670869082212,-0.002184671815484762,0.0009592738351784647,-0.002723035868257284,0.0003765770816244185,0.001446703216060996,-0.0007030727574601769,0.0005749986157752573,0.00018630363047122955,-0.0015264766989275813,0.002397185657173395,-0.003207602770999074,0.0021747034043073654,0.002641180530190468,0.002054656622931361,-0.0031467450316995382,8.58900893945247e-05,0.0011068996973335743,-0.002073670271784067,0.001157062011770904,0.0029629303608089685,0.0020671330858021975,-0.003441008972004056,-0.002713521709665656,-0.00012721486564259976,-0.0019376246491447091,0.0010613094782456756,-0.0010147172724828124,-0.0007266207248903811,-0.00278695160523057,0.003463160013779998,-0.0028316352982074022,0.002117339288815856,0.0020876636262983084,-0.0005509493057616055,-0.0020778877660632133,-0.0018896799301728606,-0.00036650963011197746,-0.0016449886607006192,0.0019793014507740736,-0.0029494580812752247,0.0004257700638845563,-0.00036898101097904146,-0.002779911970719695,0.0037628482095897198,0.003852495923638344,-0.0018099151784554124,0.0012324092676863074,0.003002682002261281,-0.0022113905288279057,0.0035468689166009426,-0.0008108605397865176,0.0007525341934524477,-0.0006605933303944767,-0.0012509074294939637,-1.9494478692649864e-05,0.0006145485094748437,-0.003377641784027219,0.0021333182230591774,0.0027035148814320564,0.0008189043728634715,-0.0029311003163456917,-0.0010986165143549442,-0.003195979632437229,0.0013713724911212921,-0.0006392912473529577,-0.0028434935957193375,0.002258032327517867,0.002292193938046694,-0.0011294109281152487,-0.0011252410477027297,-0.0026122077833861113,-0.003026343183591962,-0.0021542999893426895,0.0005785255343653262,-0.0013273528311401606,-0.0020129820331931114,0.0006880384753458202,-0.0003647425037343055,-0.0025292537175118923,0.0034469047095626593,0.0037703393027186394,-0.0026323816273361444,0.00022033722780179232,-0.0029089353047311306,0.0038545741699635983,-0.000888993323314935,0.001993597950786352,-0.003549660323187709,0.0011911035981029272,0.0030943427700549364,-0.0006348945898935199,-0.0005595583934336901,-0.0017476256471127272,0.0024444223381578922,-0.0027315279003232718,-0.0015691553708165884,-0.0013369022635743022,-0.0018732408061623573,-0.0003855624527204782,-0.003816650714725256,0.00034848781069740653,-0.002904687775298953,0.001279418938793242,0.0030118755530565977,0.002049233065918088,-0.0022904593497514725,-0.0008320332271978259,-0.001595620415173471,-0.0032394027803093195,-0.0032060625962913036,0.0001760140003170818,-0.001412149053066969,-0.0037683751434087753
-0.0032615780364722013,0.003356700763106346,-0.0005114780506119132,0.0032984630670398474,-0.00021745850972365588,0.001373174600303173,0.003012795466929674,-0.0015740266535431147,-0.0021306013222783804,0.0033886339515447617,-0.00048537246766500175,0.0011124028824269772,0.0005162471788935363,0.003859669668599963,-0.003214595839381218,-0.0016452150885015726,-0.0024841660633683205,0.0037200094666332006,0.0022372340317815542,0.0008990405476652086,0.0011754088336601853,0.0006496233982034028,0.0005641180905513465,3.182899672538042e-05,-0.0006872144294902682,-0.003170932410284877,-0.0032579987309873104,-0.00010074907913804054,-0.0006615790189243853,0.0013774828985333443,0.00136778992600739,-0.002188810147345066,-0.002210963284596801,0.001326982630416751,-0.003581050783395767,0.0029910430312156677,0.003580997930839658,0.001826007035560906,-0.00103752501308918,0.0022138834465295076,0.002606333466246724,0.001309919054619968,-0.003019245807081461,-0.001214581192471087,0.0020366788376122713,-0.00022470072144642472,0.003482890548184514,0.002500089118257165,0.002947225235402584,-0.001656434964388609,-0.0024610632099211216,0.0008757143514230847,0.0033934086095541716,0.0034743866417557,-0.0010143385734409094,0.0027120187878608704,-0.0022554451134055853,-0.0016491891583427787,-0.0002489508769940585,0.0007483552326448262,0.0030568097718060017,-0.002570026321336627,-0.003231849055737257,0.0031418411526829004,-0.00015974551206454635,-0.0006082780892029405,-0.0033968486823141575,-0.0025884744245558977,-0.0011236363789066672,-0.003631818341091275,-0.0016612153267487884,-0.0009643562370911241,0.0029632337391376495,-0.003746654372662306,0.0008046701550483704,0.002764876000583172,-0.0022499519400298595,-0.0006953105912543833,-0.0022438953164964914,0.0018559135496616364,-0.003563141217455268,-0.0014446544228121638,0.0026059704832732677,0.0003330479084979743,0.0007285796455107629,0.0017580874264240265,0.0017876942874863744,0.00192173570394516,-0.0003096791042480618,0.003462152322754264,0.003334169741719961,0.000862179440446198,0.003298727562651038,0.0020959624089300632,-0.0012503009056672454,0.002588087460026145,0.0019188832957297564,-0.003501329105347395,0.001074786065146327,0.0005671651451848447,0.0017955222865566611,0.003387782722711563,-0.0016715768724679947,0.0029923543334007263,-0.0001684483722783625,-0.0007218495011329651,0.0018685876857489347,0.0014725791988894343,0.0007016590097919106,0.0005633705295622349,-0.002640619408339262,0.0009591950802132487,-0.003920723218470812,0.0005361820221878588,0.0017789648845791817,-0.002527729608118534,0.003109787590801716,-0.000777692417614162,-0.0032396281603723764,0.0019073954317718744,-0.002162032760679722,-0.0030615960713475943,-0.0027800905518233776,0.0035953689366579056,0.0009951391257345676,0.0016129835275933146,-0.0033999497536569834,0.00309938145801425
0.0014978669350966811,0.0024457809049636126,-0.0038562528789043427,0.00377133721485734,-0.002286122180521488,-0.001980936387553811,0.0020883025135844946,-0.003714616410434246,0.002189035527408123,0.0006324330461211503,-0.002355520613491535,-0.002137543400749564,-0.0024479844141751528,-0.0031771089415997267,0.00028328585904091597,0.001113567384891212,-0.0017853492172434926,-6.528653466375545e-05,-0.003614209359511733,0.0038570149336010218,-0.002644121879711747,0.0033619171008467674,0.0010222403798252344,0.00025924836518242955,0.0009048903011716902,0.0014725695364177227,0.003564164973795414,-0.001966129057109356,0.0006421374273486435,-0.0006297872751019895,0.0026800697669386864,-0.000576165912207216,0.00333525356836617,0.0014230686938390136,-0.0016286242753267288,-0.003452606499195099,-0.0006211131694726646,-0.0026452469173818827,-0.001181208761408925,0.0010331877274438739,0.0006460262811742723,0.0018929229117929935,-0.0030522572342306376,-0.002716562943533063,-0.002163197146728635,-0.0017969616455957294,-0.0016858475282788277,0.0008146770996972919,-0.0036675771698355675,-0.0013580691302195191,0.0034373051021248102,-0.00045489578042179346,0.0016634707571938634,-0.0017008589347824454,-0.0023144185543060303,0.0023591010831296444,-0.0011951519409194589,0.002640699502080679,0.0016551883891224861,0.0035584494471549988,-0.001140541979111731,0.000887061411049217,0.0032879607751965523,0.002866399474442005,-0.001953410916030407,-0.00037982725189067423,-0.0038414758164435625,0.0021594632416963577,0.00017258839216083288,0.0007308758213184774,0.0035755839198827744,-0.0018864553421735764,-0.0012998890597373247,0.000956308445893228,-0.003039443399757147,-0.0001846189989009872,-0.0017110798507928848,-0.002727254992350936,0.0009426693432033062,0.0012421360006555915,-0.00044681126018986106,0.000709502724930644,-0.0006030008080415428,0.00021426919556688517,-0.0013624773127958179,0.00273522874340415,-0.00024496979312971234,-0.0017369387205690145,-0.000451368629001081,0.003880227217450738,-0.00017761556955520064,-0.0007896269089542329,0.0014723183121532202,0.0002934334333986044,-0.00021990560344420373,0.0007117677014321089,-0.002261274727061391,-0.0006426164763979614,0.0029984633438289165,-0.0005939385737292469,0.0018644353840500116,0.0034022750332951546,0.00011331426503602415,-0.0023827420081943274,0.0035015656612813473,0.003691405989229679,-0.0007447276148013771,-0.003592396154999733,0.0005356745678000152,0.003494430799037218,-0.0031513613648712635,-0.002264289651066065,-0.0025567507836967707,0.00033014448126778007,0.0012789632892236114,-0.0031216521747410297,0.0036561221349984407,0.002779983449727297,0.0030718448106199503,0.0027741023804992437,0.00018092014943249524,-0.0020021770615130663,0.00041406560922041535,0.002047645626589656,0.00031436828430742025,-0.0009303370025008917,-0.003313658991828561,-0.002071581780910492
0.002669426379725337,-0.0002124560996890068,0.0015096940333023667,0.0002459074021317065,0.0033679227344691753,-0.0004895044839940965,0.0016182545805349946,-0.001237568212673068,0.0004995757481083274,0.00017249623488169163,0.002274520695209503,-0.003997158724814653,-0.001744700944982469,-0.0017034024931490421,0.0006538194138556719,-0.003869192209094763,-0.003237240482121706,0.001068070181645453,-0.003141099354252219,-0.001129699288867414,0.0020821152720600367,0.003322160104289651,0.0014052796177566051,-0.0032674968242645264,-0.0022927015088498592,0.00048114501987583935,-0.0036238639149814844,0.0016122584929689765,-0.0001458953192923218,-0.00036523136077448726,-0.0030186770018190145,-0.0005784296081401408,-0.0023223564494401217,0.003668992081657052,-0.00041679744026623666,-0.0023193496745079756,-0.00130555871874094,0.0015706262784078717,0.0038456940092146397,0.0012088761432096362,-0.0011979376431554556,0.00332135078497231,-0.0030762769747525454,0.0026568234898149967,0.00021386632579378784,-0.0020078171510249376,0.00035511268652044237,-0.002655494026839733,0.0005889261374250054,0.0016204508719965816,0.0019841459579765797,-0.0023147035390138626,-0.003869995241984725,-0.0011175333056598902,0.0016122052911669016,0.0024368148297071457,0.0032062469981610775,-0.00038615765515714884,-0.0012256483314558864,-0.0006621127249673009,-0.002541900146752596,0.0020194686949253082,0.00017940970428753644,-0.002870553871616721,0.00033313085441477597,0.0032735802233219147,0.0022676000371575356,-0.00036204862408339977,0.0016005209181457758,0.0013995652552694082,0.000337217963533476,-0.0003580082266125828,-0.0023206984624266624,-0.0003343337739352137,-0.002650148468092084,0.003680340014398098,-0.0032163788564503193,0.0005218027508817613,0.0011692981934174895,0.002934866352006793,-0.0021913410164415836,-0.0012300648959353566,0.0021908306516706944,0.0020562494173645973,-0.003449251875281334,-0.0036610697861760855,-0.0034898961894214153,-0.0023577858228236437,0.003383432514965534,0.0015141324838623405,0.003806440159678459,0.0035157096572220325,0.0023417409975081682,0.0016561017837375402,0.0015144225908443332,0.002736245281994343,-0.00011059403186663985,0.0015271480660885572,0.0022721753921359777,0.0017412297893315554,-0.0013223846908658743,0.0011929319007322192,0.003466645022854209,0.0007140263332985342,-0.003642576513811946,0.0007170735625550151,-0.0009255303302779794,-0.001654168008826673,-0.0016592262545600533,0.0027689803391695023,-0.0038907849229872227,0.0006526696961373091,0.0028587430715560913,-0.0033150219824165106,0.0028453252743929625,0.003016264410689473,0.00029076484497636557,-0.0015453922096639872,-0.00040581129724159837,-0.000525488518178463,-0.003168512834236026,0.00236303498968482,-0.0024086630437523127,-0.0008248387603089213,-0.0017295295838266611,0.0014431457966566086,-0.002902003237977624,-0.003667293582111597
0.0038364180363714695,0.0006707620923407376,-0.000429034058470279,-0.0015335415955632925,0.0007752801175229251,0.001491134287789464,0.002373944967985153,0.0034398448187857866,-0.001018316950649023,0.002555473940446973,-0.0013579854276031256,-0.0007905556703917682,9.019226126838475e-06,0.002946530468761921,-0.0005995553801767528,-0.002435562899336219,0.00013094628229737282,0.0005075617227703333,-0.0023286212235689163,0.000611324911005795,0.0012213134905323386,-0.0004260885179974139,0.00011021108366549015,0.0014075516955927014,-0.0004527564160525799,-0.003485333174467087,-0.0004186125588603318,0.0008221954922191799,-0.0024186454247683287,2.114087692461908e-05,-0.0014473639894276857,0.0016543223755434155,-0.002756224013864994,0.0008377231424674392,-0.0003782952844630927,0.0009804118890315294,0.0026050317101180553,-0.003036452690139413,0.003991234581917524,0.0016856922302395105,-0.003106005024164915,-0.0006346553564071655,0.0012261102674528956,-2.5669445676612668e-05,-0.00027988117653876543,-0.003197444137185812,-0.00026894439361058176,0.0013755246764048934,0.000838935375213623,0.001326496247202158,-0.002694276161491871,-0.0018783638952299953,-6.833358929725364e-05,-0.002926122397184372,-0.0025924250949174166,0.002835766412317753,0.0010525926481932402,0.0025826729834079742,2.2307015115075046e-06,0.002674575662240386,-0.0011505562579259276,0.0026449153665453196,0.002580604748800397,0.0032744689378887415,-0.001331782783381641,-0.002284789690747857,0.0004070927680004388,0.002797977300360799,-0.003692005295306444,0.0033793682232499123,-0.0004932603915221989,-0.0020827187690883875,-0.002343930769711733,-0.0005314078298397362,0.0012414798839017749,-0.0006253274623304605,-0.002487305086106062,-0.001752363401465118,-0.003258643439039588,0.000701086362823844,-0.0017077100928872824,-0.0006920695886947215,-0.0021935037802904844,-0.002880077576264739,0.0014365335227921605,0.0018565187929198146,-0.001930916216224432,-0.0002974218805320561,0.001737502170726657,-4.518324203672819e-05,-0.001519750221632421,0.001747660688124597,0.001478780759498477,0.0038369123358279467,0.0007884929655119777,0.0004109956498723477,0.0032295549754053354,0.0022659909445792437,-0.0016343349125236273,-0.0020478260703384876,0.00011700162576744333,0.0027125393971800804,0.0036097499541938305,-0.0005633700056932867,-0.00308744958601892,-0.000804826442617923,0.0016894718864932656,-0.002523890696465969,-0.0029333236161619425,-0.003526959801092744,-0.003284940728917718,0.0036541935987770557,0.00019756247638724744,0.0037110582925379276,0.0017906930297613144,-0.0018722007516771555,0.001726682996377349,0.0032236683182418346,0.0008335401071235538,-0.0032367194071412086,-0.002106556436046958,-0.003781243460252881,0.0008014457416720688,0.001997348852455616,-0.0019099815981462598,0.002752070315182209,-0.004011634271591902,-0.00213092309422791
-0.0018522263271734118,0.003592149121686816,-0.0016844491474330425,0.003980052191764116,-0.0036946337204426527,0.0032405280508100986,-0.0011036884970963001,-0.0008824480464681983,0.0025000530295073986,0.00017115010996349156,0.0002440041716909036,-0.0005158164422027767,0.0034081456251442432,0.0022681469563394785,0.0025301838759332895,-0.00018421602726448327,0.001381338806822896,-0.0031154740136116743,-0.0035801560152322054,-0.002752316417172551,-0.003587300656363368,0.002571755787357688,-0.0019705554004758596,-0.004160236567258835,0.0005061050178483129,0.0012266160920262337,-0.00014728127280250192,-0.002982652746140957,-0.0009032519883476198,0.0034467405639588833,-0.00043815362732857466,-0.003305664286017418,-0.00023115822114050388,0.0018540038727223873,-0.0023637867998331785,0.0030250863637775183,-0.0009985429933294654,-0.0010348401265218854,0.003966835793107748,0.0036522457376122475,0.002221540780737996,0.003091024700552225,-0.003260146826505661,0.0007887921528890729,-0.0027908317279070616,0.0011574390809983015,-0.002912376308813691,0.00043954182183369994,0.0012677351478487253,0.0027812933549284935,-0.003169153118506074,-0.003114151768386364,-0.0020338702015578747,-0.004658672958612442,-5.711857374990359e-05,0.0002105716266669333,0.003236280521377921,-0.0022595319896936417,-0.001465095323510468,-0.0002912466588895768,-0.0006506891804747283,-0.0017845126567408442,-0.0017086169682443142,0.0003055940323974937,-0.0013385182246565819,-0.003987228963524103,-0.0016123976092785597,0.00074970000423491,-0.002913970500230789,0.0016234313370659947,-0.0011063601123169065,-0.002658379962667823,-0.0035283397883176804,-0.001817152020521462,-0.0010879532201215625,-0.001282041659578681,0.0024820619728416204,-0.0031393372919410467,0.0019806907512247562,-0.003450416261330247,-0.0008142423466779292,-0.002364254090934992,-0.0009625931270420551,0.0036463160067796707,0.001194734126329422,-0.004038493148982525,-0.0037812318187206984,-0.0010132924653589725,0.0030744276009500027,-0.00045626555220223963,-0.0016780686564743519,0.0009077887516468763,0.0026308982633054256,0.003692529397085309,0.0013829871313646436,0.00029905035626143217,-0.0017210503574460745,0.0018510922091081738,0.003646861296147108,0.003930544946342707,0.00287293060682714,0.0026792078278958797,-0.00013980110816191882,-0.0013702353462576866,-0.00021661637583747506,-0.0015125336358323693,-0.002423653844743967,-0.0014071797486394644,-0.003407157026231289,-0.0021217926405370235,0.0005000121309421957,-0.000810077937785536,0.0030594461131840944,-0.00262485072016716,0.0020330618135631084,0.00039302583900280297,0.0003513144620228559,0.0022849019151180983,0.0022698170505464077,-0.0029563375283032656,0.002649277215823531,-0.0037494113203138113,0.004034805577248335,0.0015380793483927846,-0.0021824813447892666,0.0008851067395880818,0.003158699721097946,-0.0014553958317264915
0.0023267294745892286,0.002991211600601673,-0.0034734546206891537,0.003772192168980837,-0.0038582535926252604,0.001680324668996036,0.0006663196836598217,0.0037738271057605743,-0.0018886501202359796,3.378001929377206e-05,-0.0014564377488568425,-0.0011358076008036733,0.0017924170242622495,-0.002159564523026347,-0.0015223632799461484,0.003298192983493209,0.0028547816909849644,0.0010105915134772658,0.0015018506674095988,-0.0008061212138272822,0.0011918444652110338,-0.001884194673039019,0.0006067382637411356,0.0009623009245842695,0.0006103545310907066,0.0019580950029194355,0.003381153801456094,-0.0032979059033095837,0.003797481069341302,-0.002625317545607686,0.0017454749904572964,0.0009434791863895953,0.0021611060947179794,0.00021462031872943044,-0.0013638397213071585,-0.0035351889673620462,-0.0008556301472708583,-0.003443141933530569,-0.0007778122671879828,-0.0011687374208122492,-0.0016749583883211017,0.0003915111592505127,-0.00068053969880566,0.0004632798081729561,-0.002848926465958357,0.0008922127890400589,0.0031364073511213064,0.0028361277654767036,-0.001723853754810989,0.0026863894890993834,-0.00037402467569336295,-0.0009357784874737263,0.0007024435326457024,-0.0034211277961730957,0.0038036718033254147,0.002101332414895296,0.0011126856552436948,-0.0037891750689595938,3.056350760743953e-05,-0.0005455075297504663,-0.00233819498680532,-0.0024088076315820217,0.002823319984599948,0.003819460282102227,0.002817859873175621,-0.0011677587172016501,0.001932710176333785,0.0037629695143550634,-0.001826142193749547,0.003362103831022978,0.0028741101268678904,0.002628675661981106,-0.0006061143358238041,0.0027949439827352762,-0.0036019706167280674,0.001221158541738987,1.3224471331341192e-05,0.0009798947721719742,-0.0007947440026327968,-0.0038248919881880283,-0.003560924669727683,-0.003542432328686118,0.0029116906225681305,0.0037167633417993784,-0.0002743844233918935,-0.0014049950987100601,0.0008382299565710127,-0.0033595634158700705,-0.0020072588231414557,0.00244434573687613,-0.00114058970939368,0.003909496124833822,0.00015156797599047422,0.0015291789313778281,0.0024448842741549015,0.0014535080408677459,0.003634671913459897,0.0018918021814897656,-0.0026854658499360085,-7.001663470873609e-05,0.0035507213324308395,0.001510233269073069,0.002171356463804841,0.0038515080232173204,0.0031709610484540462,0.0012104087509214878,0.003337911330163479,-0.003483845852315426,0.0009069138905033469,-0.002731212880462408,0.0006461836164817214,0.00029925856506451964,0.0032079103402793407,-0.0017097247764468193,0.0013101614313200116,-0.002387106418609619,-0.0019119747448712587,-0.0007805450004525483,0.003574071219190955,0.0025580779183655977,-0.0008933186763897538,-0.003855988848954439,0.002667244290933013,0.0038472069427371025,-0.0038758921436965466,0.0028975072782486677,-0.0026245175395160913,0.0007958802743814886
0.0008546544122509658,0.003262012265622616,-0.003708904841914773,0.0036793143954128027,-0.0014740679180249572,-0.00017782836221158504,0.0017213999526575208,-0.0030995956622064114,0.001318552647717297,0.0020198889542371035,0.003216837765648961,-0.003907940350472927,0.0012864911695942283,-0.0029094726778566837,0.0014912806218490005,-0.0014023419935256243,0.001131509430706501,0.0032153301872313023,0.0008194588590413332,0.0020771510899066925,-0.0028624406550079584,-0.0020065559074282646,-0.0028241463005542755,0.002489515347406268,0.0021062905434519053,0.00019038673781324178,-0.001310122199356556,-0.00013990978186484426,-0.0031979037448763847,-0.001975379651412368,0.0006163983489386737,-0.0007995843188837171,0.00267738476395607,-0.0005959647241979837,-0.003599778516218066,0.00015365026774816215,0.0005371866864152253,0.0006408425979316235,0.0005347913829609752,-0.00292791286483407,0.000579260871745646,0.0008944051223807037,-0.0038706613704562187,0.0036417299415916204,0.001975691644474864,-0.0009644055389799178,-0.0007764332112856209,-0.0008097058162093163,-0.001998668536543846,0.0011694912100210786,-0.003406897885724902,-0.0015668750274926424,0.003627296071499586,-0.00015742240066174418,-0.0027143098413944244,0.0020157662220299244,-0.001997455023229122,-0.00282145943492651,-0.00016650317411404103,-2.8478569220169447e-05,-0.002971834735944867,0.0030068738851696253,-0.0038405696395784616,0.00340834679082036,0.003116791835054755,-0.0012768410379067063,0.0017872198950499296,0.002385997213423252,-0.00028576754266396165,0.003012638073414564,-0.000877249869517982,0.001327855628915131,-0.002309173811227083,0.0036023154389113188,-0.003305470570921898,-0.0014547157334163785,-0.002783473813906312,-0.003027444938197732,-0.0023105840664356947,-0.0024295663461089134,0.001935871783643961,0.0008954819641076028,-0.0016001686453819275,0.003308932762593031,0.0031730569899082184,-0.0018933323444798589,-0.0018551672110334039,0.0006444979808293283,2.604081055324059e-05,0.002686044666916132,-0.0013970732688903809,-0.0020566864404827356,0.0013324921019375324,0.0037192886229604483,0.0008828539866954088,-0.0017515207873657346,0.0018685918767005205,0.0034953851718455553,-0.0027551399543881416,0.0021385110449045897,0.0030680587515234947,-0.0007280631107278168,0.0008236808353103697,0.0017790576675906777,0.001702530193142593,-0.0032717427238821983,-0.002786543918773532,-0.0007316864212043583,0.001109058503061533,0.0028341428842395544,0.003636507783085108,-0.002794509055092931,-0.001063522999174893,0.0034297299571335316,0.0011308338725939393,-0.0010471533751115203,-0.00312621146440506,0.003983658272773027,0.0006757256924174726,0.002066988730803132,0.0018287907587364316,-0.0034596016630530357,0.0005171135417185724,-0.0030412173364311457,-0.002116398885846138,5.344760211301036e-05,-0.001567687257193029,0.0005495405639521778
-0.0005134435486979783,0.002479291521012783,-0.002991868183016777,0.00010504461533855647,-0.004165410529822111,0.002987724030390382,0.002664927626028657,0.0006374731310643256,-0.0008321088971570134,0.001098605222068727,0.0028196757193654776,0.0018814560025930405,0.0013636273797601461,0.0040091536939144135,0.0001623907737666741,-0.0004958190838806331,0.004423282574862242,-0.000644227780867368,-0.003897763090208173,4.4214360968908295e-05,-0.0005591234075836837,-0.0029319857712835073,0.0014170948415994644,0.0006161187775433064,0.0030304519459605217,-0.003185913199558854,0.004053652752190828,-0.004538522567600012,-0.0009510889649391174,-0.0030144304037094116,0.003421276807785034,-0.0003562353376764804,0.0037882619071751833,-0.0014638466527685523,-0.0038922433741390705,0.0009446378098800778,-0.002165535930544138,0.0022069497499614954,0.0038938072975724936,-2.741705611697398e-05,0.0015222372021526098,-0.0034081581979990005,-0.0015567661030218005,-8.772825822234154e-05,-0.0020268650259822607,0.0011032259790226817,-0.0031215862836688757,-0.0013905499363318086,-0.0010649715550243855,0.001196248340420425,0.0025679825339466333,0.0023280635941773653,0.0030466325115412474,-0.0035472731105983257,-0.0017193430103361607,0.004204467870295048,-0.0012519581941887736,-0.001019514398649335,-0.002756680129095912,0.0020261439494788647,-0.0005679809837602079,-0.004295418970286846,-0.003266064915806055,-0.0005215203273110092,0.003942084964364767,-0.002863069297745824,-0.0016241346020251513,-0.002968429122120142,-0.0033521917648613453,0.0010801104363054037,-0.0012049516662955284,0.0013638166710734367,-0.0011645314516499639,0.0014345237286761403,-0.001105993753299117,0.0025992209557443857,0.0028622772078961134,3.466703128651716e-05,0.0025369198992848396,0.0010374953271821141,0.0011107404716312885,-0.0019220623653382063,0.0015053767710924149,0.003911985084414482,0.0011124087031930685,0.0005773169687017798,-0.0004603223060257733,0.0020415412727743387,0.0025897480081766844,-0.0004932488081976771,0.002116272458806634,0.0015071319648995996,-0.0006274396437220275,-0.002489969599992037,-0.001928950659930706,0.0036634402349591255,0.002500403206795454,-0.0032943710684776306,-0.0007579810335300863,-0.0030936163384467363,0.000912571616936475,-0.0013505950337275863,0.0035253814421594143,-0.002290543168783188,-0.0033240269403904676,-0.0039202552288770676,-0.0018457371043041348,-0.0004318886494729668,-0.00022100745991338044,-0.004099512472748756,0.0005112772923894227,0.001053030020557344,0.001396795967593789,0.0013819143641740084,-0.0024012799840420485,0.0025554001331329346,-0.002653855364769697,0.0005164922913536429,0.0007467865361832082,-0.0032690162770450115,-0.0039060499984771013,0.002198953414335847,0.004383830353617668,-0.0030913506634533405,0.0025420973543077707,-0.002801931696012616,-0.0021278595086187124,0.002440762473270297
-0.00257067009806633,0.0018870147177949548,0.002693315502256155,-0.0008936839876696467,-0.00018354220082983375,-0.002456112066283822,-0.001957794651389122,-0.00035125811700709164,-0.0022422883193939924,-0.0010640753898769617,-0.0013151693856343627,0.0003762852866202593,0.0010595261119306087,0.0007859807228669524,-0.0033739900682121515,-0.0032694588880985975,-0.003537842771038413,-0.0010530675062909722,-0.00017703005869407207,0.002640788909047842,-0.0015966317150741816,-0.0033810294698923826,-0.001268740394152701,0.0011373503366485238,0.0001681019930401817,0.0020186440087854862,0.002688630251213908,0.0019263388821855187,0.0027572258841246367,0.000401710974983871,0.0015558936866000295,-0.001313498942181468,0.00362402549944818,0.0021272737067192793,-0.003251823829486966,-0.001836160197854042,0.00020549212058540434,-0.002078372286632657,-0.0017178478883579373,-0.0009666014811955392,0.003548048436641693,0.0012190960114821792,-0.00295667233876884,0.0015711087035015225,-0.0036819817032665014,-0.0018933089450001717,0.00017138986731879413,-0.003332110121846199,-0.0023651132360100746,-0.001715589314699173,-0.002968404907733202,0.0022943352814763784,-0.0015914647374302149,-0.0005883469711989164,-0.00035771820694208145,0.00261416332796216,-0.000786757911555469,-0.0003485758788883686,-0.002861401066184044,-0.0005985794123262167,-0.002796672284603119,-0.003443525405600667,0.0015631549758836627,-0.0026000794023275375,-0.002318759448826313,-0.0029095509089529514,0.0007219878607429564,-0.001327608828432858,-0.0010014427825808525,-0.0033660242334008217,-0.0031315390951931477,-0.0018811033805832267,-0.0005070431507192552,-0.0023246482014656067,-0.003115576459094882,-0.0027979761362075806,-0.001166129601188004,0.002810370409861207,-0.003285530023276806,-0.002589835086837411,-0.003324969206005335,-0.0029756780713796616,-0.0035303295589983463,-0.0032137082889676094,0.0013105942634865642,0.001159530133008957,-0.0031065186485648155,0.001552706235088408,-0.00029298572917468846,0.0009125489159487188,-0.0004639264661818743,-0.0017713004490360618,-0.0003685809497255832,0.0015770967584103346,0.0030087486375123262,-0.0003207536065019667,-0.0014373306185007095,-0.00033125971094705164,-0.0006812548963353038,0.002357461955398321,0.003076124470680952,0.0016028472455218434,-0.0014626516494899988,0.001420706743374467,-0.002185327932238579,0.002748911501839757,1.3270730050862767e-05,0.0017893657786771655,0.0004963360261172056,0.0004133586189709604,-0.0007145187701098621,-0.001481817220337689,0.0021142459008842707,-0.0031451003160327673,-0.0028526398818939924,0.002064585220068693,-0.0016853520646691322,-0.0004992147441953421,-0.0026161186397075653,-0.002645898377522826,0.0031635123305022717,-0.0022701211273670197,-0.003086644923314452,-0.0026084806304425,5.3702831792179495e-05,0.0019073239527642727,-0.0024910911452025175,-0.0035654078237712383
0.002508296864107251,-0.0001401389017701149,-0.001724096480756998,0.0036220455076545477,-0.0018695056205615401,0.00258091208525002,-0.00394463213160634,-0.0029668742790818214,-0.003024662146344781,0.0026376964524388313,-0.0038612401112914085,-0.0007378163281828165,-0.002470337552949786,0.001595970126800239,-0.0011600025463849306,-0.0035614462103694677,-0.0030396683141589165,-0.0012886130716651678,-0.0034825261682271957,4.226003875373863e-05,-0.002165843965485692,-0.0034323271829634905,0.0001304874604102224,0.003412144025787711,0.0013257961254566908,-0.0002635862329043448,0.0007111913291737437,-0.0032241973094642162,-0.000737529422622174,0.003555208444595337,-0.002765108598396182,-0.001441320520825684,-0.002342472318559885,0.0008170534856617451,0.003075620159506798,0.0015512531390413642,-3.0021201382623985e-05,-0.0038551008328795433,0.00048369221622124314,-0.0009872203227132559,0.00364006869494915,-0.002152046887204051,-0.003458679188042879,-0.0034788968041539192,-0.0010840363102033734,-0.002951019210740924,-0.0005277781165204942,0.0007153706392273307,-0.0018410816555842757,0.0003871659573633224,-0.0029100284446030855,-0.002474457025527954,0.002055208431556821,-0.0005964555311948061,0.003058575326576829,-0.002954911207780242,-0.0032982223201543093,-0.0025723266880959272,-0.00027992989635095,-0.0004790554812643677,0.003102728631347418,0.000260189815890044,-0.0005815980257466435,-3.6607656511478126e-05,-0.00270924624055624,-0.0027808346785604954,-3.936159919248894e-05,0.0037475875578820705,0.003747799666598439,0.0013810129603371024,0.0004159111704211682,-0.0005898409872315824,0.0037049311213195324,0.0034241669345647097,-0.0030496271792799234,-0.0008450500899925828,-0.00017801775538828224,0.0023041183594614267,0.0007032474968582392,0.003506030421704054,0.0013254904188215733,0.0008254537242464721,0.0007763966568745673,-0.0005096991662867367,7.325647311517969e-05,0.0018320817034691572,0.0007672099163755774,-0.001340570393949747,0.001084415940567851,0.002685324987396598,-0.0015775590436533093,-5.0002177886199206e-05,-0.0030832288321107626,-0.0034049213863909245,0.002854041289538145,-0.0015694382600486279,0.0005703573697246611,-0.0020861453376710415,-0.0007098704227246344,0.003695294028148055,0.003816093783825636,0.001644232776015997,-0.0003487627545837313,-0.00214615766890347,-0.002824084833264351,-0.0011992203071713448,0.00226208264939487,0.0028502438217401505,-0.0032041107770055532,-0.0024901800788939,0.000903021078556776,0.0018267023842781782,0.003336341353133321,0.00021175744768697768,-0.002755706664174795,-0.003554435446858406,-0.0016950194258242846,0.002321916399523616,-0.003535799914970994,-0.0007634920184500515,-0.0019205784192308784,0.001521577825769782,-0.0015615562442690134,-0.0036583140026777983,-0.001735535217449069,0.0033199130557477474,0.002508321776986122,-0.0005769147537648678
0.0011240041349083185,-0.003632499370723963,-0.0016928075347095728,-0.0017867626156657934,-0.003465701825916767,0.00048778459313325584,-0.0006952999392524362,8.44209935166873e-05,0.0024727266281843185,0.00018769856251310557,0.0016770820366218686,-0.00040138053009286523,0.0012541682226583362,0.002875065663829446,-0.0031239097006618977,0.0011777774197980762,-0.002300781197845936,-0.0008629421354271472,-0.002876648213714361,-0.004015024751424789,-0.004243217408657074,0.00022064882796257734,-0.002018736908212304,0.0026554970536381006,-0.0004393346607685089,5.2234725444577634e-05,0.002879232168197632,0.001639217953197658,0.003733995370566845,0.0032750016544014215,0.001109704258851707,0.0005804034881293774,0.0005349725252017379,-0.0032728449441492558,-0.004820554051548243,0.0004869113035965711,0.0035719098523259163,0.0033306435216218233,0.0029377853497862816,-0.0033823612611740828,-0.0033719937782734632,0.00392152601853013,-0.0018293902976438403,-0.0036336404737085104,-0.004292541649192572,0.001544799073599279,0.0008115765522234142,-0.0010415908182039857,-0.0036115595139563084,-0.0005764191737398505,-0.002615095814689994,3.531140464474447e-05,-0.0008349947747774422,-8.373986929655075e-05,-0.0034912137780338526,0.001810643239878118,-0.0013516767648980021,-0.0013798775617033243,0.0005626298952847719,-0.0011588431661948562,-0.000604684348218143,0.0010519884526729584,-0.0033754834439605474,-0.0035551476757973433,0.0005537120159715414,-0.0018644911469891667,0.002271507401019335,-0.004051963798701763,-0.0019754820968955755,-0.0029341275803744793,0.0026249100919812918,-0.0028129927814006805,0.002911910181865096,0.003331036539748311,0.003328850260004401,0.002679284196346998,0.0011134165106341243,-3.2896285119932145e-05,-0.0007085456163622439,-0.0028442218899726868,-0.004821876063942909,-0.0034255092032253742,0.0003329089959152043,0.0005050403997302055,-0.00018466181063558906,-0.004029551520943642,-0.002747566206380725,-0.0007463541114702821,-0.003030996071174741,0.0035976660437881947,0.002266226103529334,0.0028580334037542343,0.0013098818017169833,-0.0019488733960315585,0.0024932757951319218,0.0030290530994534492,0.002428630832582712,-0.0014119572006165981,-0.0004893331788480282,0.00012262210657354444,-5.770615462097339e-05,-0.00040215119952335954,0.005068990867584944,-0.0027085861656814814,0.0020831828005611897,-0.0014363918453454971,-0.0015585814835503697,0.001147678354755044,-0.0006965274806134403,-0.0005555912503041327,-0.0037265936844050884,0.00033976766280829906,-0.001261554192751646,0.0016287571052089334,-0.0015182564966380596,-0.0007481970824301243,0.0049599395133554935,0.004160557873547077,-0.0016916632885113358,0.00415963027626276,-0.0027694571763277054,0.0019387871725484729,0.0040724449791014194,0.0032699895091354847,-0.0015111134853214025,0.0024500179570168257,-0.003677355358377099,-0.004259814508259296
-0.002712750108912587,-0.0010182858677580953,0.0012469823705032468,-0.000658998207654804,-0.0022384219337254763,0.0024860468693077564,-0.004088878631591797,-0.0018991129472851753,-0.0028985170647501945,0.0018693830352276564,0.00029121292755007744,-0.003049361752346158,0.0022456443402916193,0.00397624121978879,-0.0026988729368895292,0.0010256936075165868,-0.003241288708522916,-0.0004365668573882431,0.0032465215772390366,0.00197864999063313,-0.0008813184686005116,0.0006945120985619724,-0.0029549195896834135,-0.004072593525052071,-0.0011068563908338547,-0.0018609956605359912,0.0014996539102867246,-0.00021965533960610628,0.0011961869895458221,-0.00029246960184536874,0.002968219807371497,-0.0017430607695132494,-0.0026612887158989906,-0.003413998521864414,-0.0036573458928614855,-0.000414583133533597,0.0014197231503203511,-0.0005643804324790835,0.002869273768737912,-0.0015395467635244131,0.0026826548855751753,-0.001685142400674522,-0.0022240211255848408,0.003521645674481988,-0.0033192133996635675,0.002362725557759404,-0.0012339738896116614,-0.0019756541587412357,-0.0025776487309485674,-0.0034567718394100666,0.0002585856709629297,-0.003802664577960968,-0.0014983545988798141,-0.0033093930687755346,0.0012800667900592089,0.0038849241100251675,-0.0016658402746543288,-0.0025552453007549047,0.0010079240892082453,-0.003806235734373331,-0.0008293453720398247,-0.0005122256698086858,0.0020647170022130013,0.0030486020259559155,0.0003896015405189246,0.002479355316609144,0.0028297794051468372,0.0036970439832657576,0.002072389703243971,0.0019792227540165186,-0.003075131680816412,0.0007919484633021057,-0.0011900129029527307,-0.0009962244657799602,0.003463365836068988,0.0038410346023738384,0.001135735190473497,0.0028191134333610535,0.0017654577968642116,-0.001710662618279457,0.0024963701143860817,0.0009160595946013927,-0.0032855698373168707,0.00285956053994596,0.002596332924440503,-0.0037866653874516487,0.0010121884988620877,-2.5092855139519088e-05,-0.0019464116776362062,0.003614183282479644,0.0005940222181379795,0.00411722669377923,-0.00285942479968071,-0.002729250816628337,0.0037908751983195543,-0.0021019226405769587,-0.0019279991975054145,0.003037604270502925,-0.00032186691532842815,-0.0014589629136025906,0.00024810494505800307,0.0018650409765541553,0.003250039415434003,0.001240824698470533,0.0007023378275334835,-0.003370523452758789,-0.002759929047897458,0.0034380836877971888,-0.00033914708183147013,0.0015668274136260152,0.0008523583528585732,-0.0021887621842324734,0.0001742733147693798,0.003228595480322838,-0.0009983450872823596,0.0015969150699675083,0.002028433606028557,-0.0009672279702499509,-0.00044434217852540314,-0.0023968894965946674,-0.0020413040183484554,0.0019191484898328781,0.0020770723931491375,-0.0031543190125375986,0.003683395916596055,0.0036238220054656267,0.001576768234372139,-0.002414463087916374
0.0034000116866081953,-0.0027556437999010086,-0.00013165490236133337,0.00018265335529576987,-0.0034677120856940746,-0.0014211207162588835,-0.002245497889816761,-0.001995764672756195,0.0016404363559558988,-0.001290875836275518,0.0022366768680512905,0.0008688464295119047,-0.002274686936289072,0.0037294018547981977,-0.0006391133065335453,-0.003432464087381959,-0.0038288580253720284,4.2703646613517776e-05,-0.0013311428483575583,-0.002791248494759202,-0.0006826613680459559,0.003646460361778736,5.4953230574028566e-05,-0.0021891638170927763,0.0009205852402374148,0.0007279605488292873,-0.000540258944965899,-0.003427480813115835,0.002634192118421197,-0.003049985971301794,-0.002388959750533104,-0.0005850623128935695,0.0020241085439920425,0.0014101340202614665,0.0035074029583483934,0.0005078891408629715,0.0017960674595087767,-0.0007007000385783613,-0.001692904275842011,0.0005855635972693563,0.0003177558828610927,0.0034448218066245317,0.002747141057625413,-0.003914905712008476,-0.0013075157767161727,0.0032397895120084286,-0.0013083983212709427,-0.0022679255343973637,0.0020971568301320076,0.0010545233963057399,-0.0033203221391886473,-0.0024944785982370377,-0.0015032733790576458,-0.0018467921763658524,-0.0004678660770878196,0.0024652767460793257,0.0020886424463242292,-0.0024861223064363003,-0.001041640993207693,0.00014977714454289526,-0.0019115114118903875,-0.0034417309798300266,0.0028636823408305645,0.0035736977588385344,-0.001691690064035356,-0.00300233974121511,0.0010193666676059365,0.00138225092086941,-0.0025659198872745037,0.0023843797389417887,0.001056698034517467,0.0023968101013451815,-0.0024297828786075115,-0.0033369280863553286,0.0020408027339726686,-0.0001386631338391453,0.0015408266335725784,0.0006767931045033038,-0.0018267175182700157,0.003394289640709758,0.0014016743516549468,-0.0038854053709656,-0.0034092427231371403,-0.002823219634592533,-0.0038004829548299313,-0.0029818080365657806,-0.00038296342245303094,0.003842331236228347,0.0014203311875462532,-0.00045405252603814006,-0.0004749696818180382,-0.0024226901587098837,-0.0016814385307952762,-0.003888532053679228,-0.0037612542510032654,-0.0007531601004302502,-0.00045724769006483257,0.0004947582492604852,0.0027225250378251076,-0.0018468324560672045,-0.000443396857008338,0.0008609370561316609,-0.0013981948141008615,-0.002072276547551155,0.00042452604975551367,0.0010514266323298216,-0.0031392481178045273,-0.003087053308263421,-0.0033480064012110233,-0.001410447875969112,-0.0032641561701893806,0.003964281175285578,0.002234504558146,0.0014326658565551043,0.0024805741850286722,0.001242947531864047,-0.0019017010927200317,0.0011664123740047216,-0.0038480027578771114,-0.0030418408568948507,0.001721045933663845,0.0010231706546619534,-0.0012490951921790838,0.0010927226394414902,0.0016678966348990798,-0.00033975334372371435,-0.0037122187204658985,-0.0019120199140161276
-0.0014681166503578424,0.001574912341311574,-0.003656931919977069,0.0014952222118154168,0.0010573697509244084,0.0036052241921424866,0.003860682249069214,-0.003206067718565464,0.0026924139820039272,0.001040901173837483,0.0014433636097237468,-0.0009140959591604769,0.0009474769467487931,0.0013045406667515635,-0.0008221178431995213,0.0014415221521630883,-0.0015997879672795534,-0.003106111893430352,0.002001829445362091,0.000622496590949595,0.0020269914530217648,0.0013266215100884438,-0.0024009800981730223,0.0012735113268718123,0.003002677345648408,0.003504045307636261,-0.0014512458583340049,-0.0009037741692736745,0.002956592245027423,0.003321506781503558,0.002714443253353238,0.0031350310891866684,-0.0036345692351460457,-0.0033672929275780916,-0.00197446346282959,0.0008489657193422318,-0.000537969172000885,-0.001044956035912037,-0.0008359913481399417,-0.003544042119756341,0.0016035932349041104,-0.0018335601780563593,-0.0026304228231310844,-0.001751357689499855,0.0016910649137571454,-0.00013645649596583098,-0.0019973707385361195,0.003866857383400202,-0.0009339723037555814,-0.0032465660478919744,0.0036188154481351376,-0.0012019729474559426,0.0034455624409019947,0.0028623626567423344,0.003505952190607786,1.2371267985145096e-05,-0.003548162989318371,-0.0037815228570252657,-0.0017693279078230262,-0.0012941263848915696,-0.0006349569302983582,-0.0035895544569939375,-0.0005463038105517626,0.0006392499781213701,0.0024455543607473373,-0.0019064821535721421,0.002406752435490489,0.0038037204649299383,-0.0036160110030323267,0.002167566679418087,-0.0025151565205305815,-0.0017377128824591637,-0.0004620493855327368,-0.00047372039989568293,-0.002098756143823266,-0.003187010297551751,0.001081080175936222,0.002556432271376252,-0.0021304222755134106,-0.0014365313109010458,-0.0002510777849238366,0.0010024933144450188,-0.002101575257256627,0.0033969625364989042,-0.001793174771592021,0.0007883745129220188,-0.0029435898177325726,0.002358869416639209,-0.0035010185092687607,0.0030938046984374523,0.0010051889112219214,-0.0030388522427529097,-0.0014076221268624067,0.0019304691813886166,-0.001305494923144579,0.00132063461933285,0.0004459863994270563,0.0025973329320549965,0.001891376101411879,-0.0025199789088219404,0.001704587833955884,0.003555124392732978,0.0006779732066206634,-0.0029094021301716566,0.0016815195558592677,-0.0009733069455251098,0.0037934475112706423,-0.0013851913390681148,-0.002541506430134177,0.0009726779535412788,-0.0017917369259521365,6.879880675114691e-05,0.002107790671288967,-0.0012563586933538318,-0.0023056305944919586,-8.694211283000186e-05,-0.0009751498582772911,-0.0021786342840641737,-0.0032930588349699974,0.0010740042198449373,0.002315852791070938,0.0031937777530401945,0.0030113798566162586,0.0019643264822661877,-0.00042625496280379593,0.0014598261332139373,0.0008502990822307765,-0.0030716138426214457
-0.0008482444100081921,-0.002513545099645853,0.0007226525922305882,-4.032116703456268e-05,-0.0031457419972866774,0.0011957611422985792,0.003145033959299326,-0.003083941526710987,-0.001536096795462072,-0.0011759974295273423,-0.0018223446095362306,0.0037258488591760397,0.0025022055488079786,0.0036915778182446957,0.002986009931191802,0.0025086875539273024,0.00020587377366609871,-0.001518102129921317,0.0030860924161970615,0.001473248121328652,0.0030835361685603857,0.0014223532052710652,-0.0031499401666224003,0.002919010119512677,0.001788496971130371,-0.0024009565822780132,-0.0029019464273005724,0.0036568548530340195,-0.0009917517891153693,0.0021154179703444242,0.0036876362282782793,-0.0038742900360375643,0.0019493811996653676,-0.0026454732287675142,-0.004049197770655155,0.002114339033141732,0.003283497877418995,-0.003443669993430376,0.0018342174589633942,0.0035089082084596157,0.0027183417696505785,0.001583391916938126,0.002189921448007226,-0.0030564195476472378,-0.00019805591728072613,-0.0007280251593329012,-0.0015430054627358913,0.0012405826710164547,0.00216280622407794,-0.0030302589293569326,0.0020940853282809258,0.0007933400338515639,-0.0013897973112761974,-0.0034773109946399927,-0.0022772157099097967,0.0018454232485964894,0.0018996719736605883,-0.002223554765805602,0.0015729814767837524,-0.0025759043637663126,-0.0014953406061977148,0.00039999448927119374,0.0002559465356171131,-0.0006295910570770502,0.0004361698229331523,-0.0014846590347588062,0.0035831229761242867,0.003303529229015112,-0.0007604419370181859,-0.0010953115997835994,0.0027132006362080574,0.0011303024366497993,-0.0009055388509295881,-0.0010982423555105925,-0.0034276486840099096,0.0016940280329436064,-0.001391976373270154,-0.003203699830919504,-0.0014037910150364041,0.0037235610652714968,0.00298531842418015,-0.0018050894141197205,-0.000769512087572366,0.001857040449976921,-0.0022249743342399597,0.0031485222280025482,0.0012729967711493373,-0.002751599997282028,-0.0008826031116768718,-0.0018551441607996821,0.003906259313225746,0.001906252233311534,0.0014125605812296271,-0.0033149016089737415,-0.0029463991522789,0.002686107996851206,-0.0018386770971119404,-0.0007700781570747495,0.0013017862802371383,-0.0004226268792990595,0.0010253576328977942,0.0015955473063513637,-0.0014371323632076383,0.0037691104225814342,-0.0004210593178868294,-0.003686389187350869,-0.0007555314223282039,-0.003151020035147667,0.0007760053849779069,0.003344830824062228,-0.00039560237200930715,-0.0021392342168837786,-0.0017931065522134304,-0.0016251824563369155,-0.0005937655223533511,-0.0022473479621112347,0.0037019914016127586,0.0035924126859754324,-0.003323094453662634,0.0018428144976496696,0.0033427011221647263,0.0021260243374854326,0.0009125134674832225,-0.003306509228423238,0.0038831899873912334,-0.003476722864434123,-0.0013173240004107356,-0.0016269313637167215
-0.0011539974948391318,-0.0036034216172993183,0.003624906297773123,0.0029643464367836714,-0.0021580024622380733,0.0034187566488981247,0.00039773492608219385,-0.002626935951411724,-0.002321179723367095,-0.00021409819601103663,-0.0010867826640605927,-0.00341149908490479,0.0027495701797306538,0.002185084391385317,0.0017175469547510147,-0.003501580562442541,-0.002099141478538513,-0.0035873607266694307,-0.001423927373252809,-0.00019523191440384835,-0.004172958433628082,0.0034143696539103985,-0.0012470692163333297,-0.0036352493334561586,-0.003412955906242132,0.00020864568068645895,0.003260319819673896,-0.001085753319784999,0.0024761916138231754,0.003267324063926935,-0.004158313386142254,0.0005827964632771909,0.0004998894291929901,1.4212166661309311e-06,0.002706545637920499,0.001106232637539506,-0.0012196183670312166,0.0007925110985524952,-0.0005974010564386845,-0.000947429973166436,0.003197051351889968,0.0021656400058418512,-0.0008535038214176893,-0.0011459153611212969,-0.0008957425015978515,0.0002610515512060374,0.003696040017530322,-0.0008702743798494339,-0.004125230014324188,-0.00027427877648733556,0.0004993829061277211,-0.0025346947368234396,-0.0006295621860772371,-0.002337464364245534,0.0019135137554258108,-0.0008464974234811962,0.0020235555712133646,0.0009453006205148995,0.0007409222889691591,0.002105038147419691,0.002623297506943345,-0.0017601818544790149,0.0002250930992886424,0.0033405611757189035,0.0003856449911836535,-0.00397734297439456,0.0019318246049806476,-0.003975945059210062,0.002837614854797721,-0.002944118110463023,-0.0025501889176666737,0.0022128624841570854,-0.002019648440182209,0.004122006241232157,0.0025173439644277096,-0.0026295229326933622,-0.0019113033777102828,-0.0014351762365549803,-0.0010305024916306138,0.0024874424561858177,0.00017833308083936572,0.0012297749053686857,-0.0036190154496580362,0.0015441696159541607,-0.0007550036534667015,-0.0029997408855706453,-0.002422068966552615,-0.002766759367659688,-0.0002866808499675244,-0.0004201305564492941,0.0033341506496071815,-0.003281209385022521,0.0029693436808884144,0.002478670096024871,-0.004025773145258427,-0.002350368769839406,0.002359517617151141,0.0012241657823324203,-0.002173858927562833,-0.0014051790349185467,-0.0019700925331562757,0.0030626626685261726,-0.0005525368615053594,0.0011289563262835145,-0.0009030281216837466,-0.0003511151880957186,0.0035089319571852684,-0.0035274773836135864,0.0028671042528003454,-0.0032154815271496773,-0.0010255299275740981,-0.0030677521135658026,0.0025155397597700357,-0.0021404707804322243,0.0014772121794521809,-0.00037545515806414187,-0.0028389734216034412,0.002407521940767765,0.0006698573706671596,-0.002677449258044362,0.0010424620704725385,0.003566107712686062,0.0014975302619859576,-0.002629933413118124,-0.0035030124709010124,-0.0011353647569194436,-0.003506593406200409,-0.0007568554137833416
-0.003053340595215559,-0.0032615792006254196,0.0016801678575575352,0.0032595216762274504,0.0018380889669060707,-0.0026685218326747417,-0.003940745256841183,0.0012219927739351988,-0.0035766130313277245,-0.0026501084212213755,-0.0027799883391708136,-0.0010235896334052086,-0.0009811535710468888,-0.0028899083845317364,0.001686363946646452,-0.0030320705845952034,-0.0012913290411233902,-0.0024206279776990414,-0.003910547122359276,0.00025694884243421257,0.0033823326230049133,0.0019599413499236107,2.1830737750860862e-05,0.0019366636406630278,-0.0011016445932909846,0.003475170349702239,-0.0034158569760620594,-0.002721851458773017,-0.0034261138644069433,0.0022994729224592447,-0.0015864284941926599,-0.002932055154815316,-0.0013253160286694765,0.0003002577868755907,-0.0007034228183329105,0.003427967196330428,0.0011133266380056739,0.00298998667858541,0.0003208624548278749,-0.0015071864472702146,0.0012588220415636897,0.0012593300780281425,0.0007504359818994999,-0.00055553182028234,-0.00035944380215369165,-0.0021047163754701614,0.003126626368612051,-0.00225679948925972,0.0026784983929246664,-0.0001964007824426517,-0.0005211272509768605,0.0024602776393294334,-0.0004485583340283483,-0.00033518162672407925,0.0029248909559100866,-0.0021735120099037886,-0.0009026021580211818,0.00030306889675557613,-0.0028458465822041035,-0.0007937124464660883,0.0004100794030819088,-0.0028423676267266273,-0.0020300219766795635,-0.003915424924343824,0.0016701780259609222,0.00232330453582108,-0.0036258434411138296,-0.002961021615192294,0.003237801603972912,-0.0023065353743731976,0.0028722870629280806,0.0007092532468959689,0.0035447957925498486,0.001980777829885483,-0.0032863684464246035,-0.00028159774956293404,0.0008297537569887936,0.002410412998870015,0.00015490718942601234,-0.002835478400811553,0.002198010217398405,-0.0035635363310575485,-0.003307096427306533,0.0019494479056447744,-0.0028352239169180393,0.0011060801334679127,-0.0036758515052497387,-0.0010748193599283695,-0.002230907091870904,-0.002065430162474513,0.0024504263419657946,-0.0019425683422014117,0.0028981573414057493,-0.003269457258284092,0.0035793709103018045,-0.0017964128637686372,0.0006777498638257384,-0.0024744721595197916,0.002807648852467537,0.0018770499154925346,0.0028958774637430906,-0.0008581281290389597,-0.0022630449384450912,0.001839356729760766,0.0008447962463833392,-0.002013186225667596,0.0029160776175558567,-0.002012350596487522,-0.0017378320917487144,0.001488935318775475,-0.0003766000154428184,-0.003330458654090762,-0.0035339307505637407,-0.0018446871545165777,0.0021433329675346613,0.001069153775461018,0.00307526346296072,-0.0006521194009110332,-0.0036983294412493706,5.1299339247634634e-05,0.0002098333352478221,0.0004808531666640192,-0.0024844834115356207,-0.0027503438759595156,-0.0005435774801298976,0.0031752826180309057,0.00348947593010962,-9.540886821923777e-05
0.0021006830502301455,-0.0011336692841723561,0.0009315577917732298,-0.002639902988448739,-0.0006526249926537275,-0.0028937412425875664,0.0018022157019004226,-0.0015545310452580452,0.0004753917164634913,0.003954332787543535,-0.002313249045982957,-0.004168405197560787,-0.003183277091011405,-0.0028302462305873632,0.0008764602243900299,0.002446746686473489,0.0028629624284803867,-0.0020078106317669153,-0.0038313630502671003,-0.003318612929433584,-0.0024151657707989216,-0.003510047448799014,-0.0011481964029371738,-0.00024071650113910437,-0.0035110018216073513,0.0009990542894229293,-0.0018357575172558427,0.0029280856251716614,-0.003478670259937644,-0.0016896814340725541,-0.002952912589535117,-4.0371542127104476e-05,0.0019114228198304772,0.001858683186583221,-0.0007797684520483017,-0.0015553358243778348,0.0023827236145734787,-0.0034923723433166742,0.0028337312396615744,0.00014112400822341442,-0.0030208237003535032,0.0006220124196261168,0.001753704622387886,0.0011033600894734263,-0.0010923327645286918,0.000649566703941673,-0.0034144085366278887,6.0069840401411057e-05,-0.00142041000071913,-0.0029217565897852182,3.961989932577126e-05,-0.003064217744395137,-0.002935915719717741,0.0007894193404354155,0.00037063006311655045,-0.0019225485157221556,0.0038630289491266012,0.0018268631538376212,0.002735875081270933,-0.0028563786763697863,0.0004650677728932351,0.0008211829117499292,-0.0011570254573598504,-0.0023461643140763044,-0.003305963007733226,-0.0008134396048262715,0.0028166037518531084,0.002255558967590332,0.003773648990318179,0.0012632606085389853,0.0003927086654584855,0.0032649908680468798,-0.003175219753757119,-0.0033787856809794903,-0.0025326753966510296,0.0018059760332107544,0.0013735309476032853,0.0029501335229724646,0.0021899319253861904,-0.0005546362372115254,-0.0036861805710941553,0.0003935254644602537,0.0018144092755392194,0.004110568203032017,0.0029658309649676085,0.0010461556958034635,-0.002562452107667923,-0.000802003953140229,0.001685253344476223,0.0037383337039500475,-0.00039261847268790007,-0.002141169272363186,0.003324330085888505,0.001164275105111301,-0.0021144035272300243,-0.0012428403133526444,0.0029468368738889694,0.0020870810840278864,-0.000385493302019313,-0.0021939240396022797,-0.00037763509317301214,-0.0010266663739457726,-0.0028586070984601974,0.0024722900707274675,-0.0029363646171987057,4.2369432776467875e-05,0.0029594749212265015,0.003187300870195031,-0.003743644803762436,0.0031464211642742157,-0.0036108214408159256,-0.0033663681242614985,0.0011591793736442924,-0.0020531518384814262,0.0020879616495221853,0.0023434378672391176,0.002642091829329729,0.0022946777753531933,4.741923930851044e-06,-0.0015760581009089947,0.0032115618232637644,-0.0034213692415505648,-0.002793245716020465,0.003627462312579155,0.0006919174338690937,0.002497682347893715,-0.003944586031138897,-0.0025149646680802107
0.0032619156409054995,-0.0037868197541683912,-0.0018704135436564684,0.002897667931392789,-0.003463572822511196,-0.0007349815568886697,-0.003870527260005474,0.001638853340409696,0.00020607846090570092,-0.003358887042850256,-0.0008430276648141444,-0.004025089088827372,0.0019549753051251173,0.0017444746335968375,0.0012249056017026305,0.0021803579293191433,-0.000996888498775661,-0.0029914244078099728,0.0008937561651691794,0.0008887798176147044,0.0009157028398476541,-0.0028974374290555716,-0.0014158978592604399,-0.0026886819396167994,0.0008879171218723059,-0.0031503101345151663,-0.0025113639421761036,0.002169714542105794,0.0008416264317929745,0.0008744559017941356,-0.002369226422160864,0.0027759100776165724,-0.0021373643539845943,0.0029990626499056816,-0.0036134039983153343,0.003462576773017645,-0.0016228222521021962,0.0012835981324315071,0.002747563412413001,-0.0019440148025751114,0.0037761249113827944,0.0035735140554606915,0.0016874244902282953,-0.0016737073892727494,-0.001237904536537826,-0.002875306410714984,0.0017554289661347866,0.0015990164829418063,-0.001806250773370266,0.003701131558045745,0.0027293823659420013,0.0025386461056768894,-0.0017746093217283487,-0.003307733917608857,0.0010961859952658415,0.0021155974827706814,3.226108310627751e-05,0.0035923118703067303,0.0010797916911542416,-0.0036827363073825836,0.003512437455356121,-0.003111319849267602,-0.0007204330177046359,-0.002957406220957637,0.00036234507570043206,-0.0011953053763136268,0.002386845415458083,0.001515028765425086,-0.0028342162258923054,0.0018662147922441363,0.003843106562271714,-0.0006997850723564625,-0.001644489704631269,0.0031667931471019983,0.0005990634090267122,-0.00014834954345133156,0.0022723940201103687,-0.0026823808439075947,-0.0031717868987470865,-0.003552995389327407,-0.0012319452362135053,-0.0005194743862375617,0.002614541444927454,0.0023136544041335583,-0.002089151181280613,-0.0005624187760986388,0.002505397889763117,0.002427638042718172,0.003248500172048807,0.00048100441927090287,-0.0033324616961181164,0.0021557207219302654,-0.003238569712266326,-0.0033022253774106503,-0.0008752425201237202,-0.0031536223832517862,0.0037759242113679647,0.0017490608152002096,-0.0018887481419369578,-0.0005399047513492405,-0.0031641232781112194,0.0018271447625011206,0.0008039778331294656,0.00253768521361053,0.0005767784314230084,-0.003713133977726102,0.0033472583163529634,8.425556734437123e-05,-0.0037353713996708393,0.003431084332987666,-0.0002619155857246369,0.0009030550718307495,-0.001600206713192165,-0.004041817970573902,0.0020791543647646904,0.003467630362138152,0.00010421407205285504,0.00016773970855865628,-0.0019257924286648631,0.00014214578550308943,0.0029086570721119642,0.0003272314788773656,-0.003375111147761345,0.0019387227948755026,0.002680898644030094,-0.003504282096400857,-0.0020024976693093777,-0.0017873148899525404
-0.00208920962177217,-0.0006076021236367524,0.003563544014468789,-0.002512479666620493,0.0023586852476000786,-0.00023510513710789382,-0.0038878475315868855,-0.0013732709921896458,-0.0030772006139159203,-0.0023333458229899406,-0.002812557853758335,-0.0037785370368510485,0.0039042048156261444,-0.0008562608854845166,-0.0023886910639703274,0.0023177815601229668,-9.086328645935282e-05,0.001282479614019394,-0.0004516939225140959,-0.002627256792038679,-0.0011884283740073442,0.0027035067323595285,-0.002498550806194544,-0.002693637739866972,-0.0003335304500069469,0.00042266727541573346,-0.0011253093834966421,-0.0006296283099800348,-0.0009188013500533998,0.00032363849459216,0.002474360866472125,0.003487001871690154,0.0032278518192470074,-0.0017944852588698268,-0.0006452100351452827,0.003632588544860482,-0.002921052509918809,-0.003679289948195219,-0.0034427307546138763,0.003229648107662797,-0.0004757345304824412,-0.0012484075268730521,-0.0005115148960612714,-0.0009136151056736708,0.0028909784741699696,0.0018561100587248802,-0.002414892427623272,-0.0015099240699782968,-0.002591159427538514,0.001573094050399959,0.002723389770835638,0.003065122989937663,0.0004698664415627718,-0.0025290227495133877,-0.003130214288830757,-0.0008399561047554016,-0.0012601559283211827,-0.0006415619282051921,-0.00029666384216398,-0.0008611534140072763,-0.0031974129378795624,0.003240986028686166,0.0026910381857305765,-4.0819664718583226e-05,-0.00013007457891944796,-0.0019246729789301753,0.001564235077239573,-0.0014018347719684243,0.0029705821070820093,0.0034879017621278763,0.0031778255943208933,-0.00032573321368545294,0.003401294117793441,-0.000438042072346434,0.0015565046342089772,-0.0030868318863213062,0.001751889823935926,0.0015345420688390732,-0.0012796996161341667,-0.0018467430491000414,-0.002641331171616912,-0.002041466534137726,-0.003352475119754672,0.001531344372779131,0.0007648125174455345,0.0029528499580919743,-0.0008509235340170562,0.003945258446037769,0.0016198341036215425,-0.0012960145249962807,-0.0009227441623806953,-0.0008743731887079775,0.001023147371597588,0.0032177334651350975,0.0031653346959501505,-0.0025232513435184956,-0.0005991798243485391,0.00021309114526957273,-0.0032144750002771616,-1.5140874893404543e-05,0.003421965753659606,-0.00027983609470538795,-0.0019792516250163317,0.0016352939419448376,-0.002827056683599949,-0.000596315716393292,-0.002706588711589575,0.0006987940869294107,0.002943607047200203,0.0019162226235494018,-0.00020927752484567463,-0.0034173671156167984,-0.0007994928164407611,0.0005794233293272555,-0.003684243420138955,0.0028138551861047745,0.0022770718205720186,-0.0009700531372800469,0.00052126485388726,0.003641970455646515,-0.00025747911422513425,-0.0031637074425816536,0.0007953458116389811,0.002659899415448308,0.0026156301610171795,0.0022401970345526934,-0.0018561113392934203,-0.0026187098119407892
0.0034794569946825504,-0.0022696219384670258,0.001266940264031291,0.0012567979283630848,0.0007252010982483625,-0.0021069194190204144,-0.0039374250918626785,-0.0027641456108540297,0.003695284016430378,0.0015334250638261437,-0.0025303007569164038,-0.0035790104884654284,-0.0012277034111320972,-0.001619907794520259,0.0011280772741883993,0.003191516036167741,0.002395150950178504,0.0017964981961995363,0.0019608507864177227,-0.0005376206827349961,-0.0037904151249676943,-0.0038323458284139633,-0.00013160363596398383,0.0026488478761166334,0.0026585932355374098,0.001519779092632234,0.0009815327357500792,-0.0031437634024769068,0.0034826176706701517,-0.002386700361967087,-9.946307545760646e-05,0.002130251843482256,0.002342663938179612,-0.0015201522037386894,0.0036091322544962168,-0.0017022941028699279,-0.0004522424133028835,0.002339544938877225,-0.0009761954424902797,-0.00032258417923003435,-0.0015881068538874388,0.0012060425942763686,0.001821625977754593,-0.0013585464330390096,-0.0008213144028559327,-0.00020990306802559644,-0.003482556901872158,0.0006441730656661093,-0.00146410649176687,-0.0009016688563860953,0.0029045306146144867,0.0014362530782818794,-0.0013148050056770444,0.0016539024654775858,-0.001089355442672968,0.0032424309756606817,0.003465235000476241,0.001852506655268371,-0.0023208237253129482,0.0022856295108795166,-0.003120603272691369,-0.0016173437470570207,-0.0021144840866327286,-0.002643189625814557,-0.00022599971271120012,-0.0016469679540023208,-0.003179107327014208,0.003778166137635708,0.003107709577307105,0.0038156905211508274,0.003881329670548439,-9.2759495601058e-05,0.0026150387711822987,0.0036567149218171835,0.002986410865560174,-0.002681837184354663,0.001531038898974657,-0.001086593372747302,0.0010624013375490904,-0.0018733786419034004,-0.003556813346222043,-0.0034146648831665516,0.0015894223470240831,0.003966421354562044,-0.0005051577463746071,-0.0010831434046849608,-0.0007539787911809981,-0.0036105280742049217,-0.000799165281932801,-0.0002552088990341872,-0.0010556308552622795,0.0022778732236474752,-0.0015062406891956925,-0.0006567197269760072,0.0038377204909920692,0.0011625199113041162,0.001916356268338859,-0.0017568812472745776,0.0020525751169770956,-0.0006482854369096458,-0.002660096390172839,-0.00338029395788908,-0.0015761336544528604,-0.0033769006840884686,0.00093206821475178,-0.0009254005854018033,-0.0020269996020942926,-0.0011881603859364986,0.0037930868566036224,-0.0018207834800705314,-0.00023583046277053654,0.0002859053493011743,-0.0023279415909200907,-0.00013616688374895602,-0.000710850115865469,0.0035611449275165796,0.0007080748910084367,-0.0016640634275972843,0.002273677149787545,-0.0012664227979257703,-0.0007977475761435926,-0.0015078813303261995,-0.0006348944152705371,-0.0009291708120144904,-0.0019970969296991825,0.002854104619473219,0.0034401779994368553,0.0006425061728805304
-0.0004981112433597445,-0.00046331793419085443,-0.0007622196571901441,-0.0008699306636117399,0.002847452415153384,0.0010497180046513677,-0.0002554226666688919,0.002419586991891265,0.0030671050772070885,0.004117253702133894,-0.0020201480947434902,0.0009546625660732388,-0.002140241675078869,5.440158201963641e-05,0.0006781462579965591,-0.0030268500559031963,-0.0016914083389565349,0.00014730010298080742,0.0030314375180751085,-0.0008453724440187216,-0.00042009574826806784,0.0020746614318341017,-0.0025527088437229395,0.002507232828065753,-0.0012035981053486466,-0.000989799853414297,0.0029679525177925825,-0.003523397957906127,-0.0021719851065427065,0.0018232191214337945,0.0002805704716593027,-0.0011657740687951446,-0.002236021216958761,0.0026904954575002193,-0.004178786184638739,-0.0036717886105179787,0.0037387763150036335,0.0026334652211517096,-0.0014047048753127456,0.003058877307921648,0.001634701038710773,-0.0037820797879248857,-0.0015110423555597663,0.0020890459418296814,-0.0017279147868975997,-0.0026846914552152157,-0.00165092502720654,-0.0008398192003369331,0.0016243970021605492,-0.002556578489020467,0.00035849105915986,-0.00264731771312654,0.002165217185392976,-0.003988874144852161,0.0010825252393260598,0.0011531038908287883,-0.00241814530454576,-0.0024504659231752157,0.002015648176893592,0.0019999281503260136,0.0031403107568621635,-0.0010318653658032417,0.0016531258588656783,-0.0021053780801594257,0.0018215123564004898,0.001791267073713243,-0.003223100211471319,0.0035118500236421824,-0.000507545773871243,-0.0017608733614906669,0.0007118929643183947,0.0033350621815770864,0.001479730592109263,-0.0034518931061029434,0.0022677986416965723,-0.0024534526746720076,0.002800130285322666,0.0031252787448465824,0.0019204876152798533,1.4166729670250788e-05,-0.003968954086303711,0.0033336824271827936,-0.0011505928123369813,-0.000704873469658196,8.536595851182938e-05,0.00026214588433504105,-0.0017967161256819963,-0.0004595291393343359,0.0030862183775752783,-0.0007903134683147073,-0.002241619396954775,-0.003003107151016593,0.0023497785441577435,0.001493380288593471,0.0021586872171610594,3.500941238598898e-05,0.002869976684451103,0.0011474830098450184,0.0031823022291064262,-0.002431755419820547,-0.0030925022438168526,0.0025366779882460833,0.0023059165105223656,-0.0011720008915290236,-0.0017589015187695622,-0.0031655484344810247,-0.0015757872024551034,0.0034891876857727766,0.0007551141898147762,0.0020716239232569933,0.001735370373353362,0.004089975729584694,-0.003829400520771742,-0.001690407982096076,0.003203025320544839,0.0013413550332188606,0.0030689388513565063,0.0006718314252793789,0.0019041755003854632,0.0013687385944649577,0.0033033934887498617,0.00021441241551656276,0.0022450536489486694,-0.0018758615478873253,-0.0035207862965762615,0.001841035089455545,-0.003371322760358453,0.002961559686809778
-0.003724681446328759,-0.0034970229025930166,-0.0001800465543055907,0.0028093301225453615,-0.002374327275902033,0.0038162104319781065,-0.0021030663046985865,0.002115552080795169,0.0035450104624032974,0.002134251408278942,-0.002726166043430567,-0.003279282944276929,-0.001960286870598793,0.0028625016566365957,-0.002585986629128456,-0.00035673234378919005,-0.0023167694453150034,0.003746114671230316,-0.0029806785751134157,0.0006959163001738489,-0.0006725664716213942,0.0018804293358698487,-0.0001864391815615818,-0.0012844711309298873,-0.0004910838324576616,-0.0002889772003982216,0.0005294937873259187,-0.00032798570464365184,-0.0013200113316997886,0.0005231971153989434,0.0030784064438194036,-0.0028268934693187475,0.002745823236182332,-0.003828451270237565,-0.0005285355728119612,-0.003973379731178284,-0.0020350380800664425,0.002068313304334879,-0.0006807277095504105,-0.0009103517513722181,-0.003582873148843646,-0.0011930492473766208,0.00042633767588995397,0.0023671279195696115,-0.00012048760981997475,0.0025288406759500504,0.003539545461535454,0.003621661337092519,0.00031210712040774524,-0.002925473963841796,-0.0020378741901367903,0.003468477865681052,-0.002829687437042594,0.0022188571747392416,0.003515667049214244,-0.00033155918936245143,0.001324215903878212,-0.0003184133383911103,-0.0006064891931600869,-0.0037274674978107214,0.0020241732709109783,0.00011515719961607829,-0.003736746497452259,-0.0038956627249717712,0.0025542047806084156,-0.0032347613014280796,0.003139667445793748,0.0018182327039539814,-0.000791033380664885,0.004088372923433781,-0.0034143340308219194,-0.00012127600348321721,0.0036669964902102947,0.0003530910471454263,0.0030724152456969023,0.00202477490529418,-0.001469658687710762,0.0006154367001727223,-0.00014801639190409333,-0.001948272343724966,0.0030864784494042397,0.00045777412015013397,-0.003157125785946846,-0.00040439527947455645,-0.0031395701225847006,-0.0009443858871236444,0.00031277554808184505,-0.0013190098106861115,-0.0003687388089019805,0.0018872276414185762,-0.0017708197701722383,-0.00038392600254155695,-0.0007646010490134358,0.0029847556725144386,-0.002624047454446554,0.0016980626387521625,-0.00229294179007411,-0.0030204448848962784,-0.0033772094175219536,-0.0038266077172011137,0.0028620895463973284,0.0011772242141887546,-0.0013827153015881777,0.001746101421304047,0.0005232022958807647,-0.00021605689835269004,-0.0030802064575254917,0.0009320981916971505,0.0027676166500896215,0.003685502102598548,-0.0004610532196238637,0.0004414377617649734,-0.0014083468122407794,-0.0010453893337398767,-0.000482020404888317,8.156960393534973e-05,0.0030072361696511507,0.0019832556135952473,-0.001336120069026947,-0.0009742092806845903,0.0034561159554868937,0.0020861614029854536,2.2315647584036924e-05,0.00178607739508152,-0.0011612483067438006,-0.002931188326328993,0.00201118434779346,-0.003937636502087116
-0.00108428078237921,-0.0019942543003708124,-0.0013577104546129704,0.0014016354689374566,-0.001866749138571322,-0.0028037941083312035,-0.0033537892159074545,0.001308408915065229,0.0037011592648923397,0.002437217626720667,-0.000963666127063334,-0.002370647620409727,-0.0025464631617069244,0.0033373143523931503,0.0028625440318137407,-0.002926817163825035,-0.0029818129260092974,-0.002309617353603244,-0.0023026373237371445,-0.0010862274793908,0.002197032095864415,0.001403601374477148,-0.0027979344595223665,8.240379247581586e-05,-0.0023074569180607796,0.0009102605981752276,0.002294439822435379,0.0010490763233974576,0.0037052826955914497,-0.0032486733980476856,0.0006617100443691015,-0.0024484663736075163,0.002801216207444668,-0.0018459265120327473,-0.0039989519864320755,-0.002072650007903576,-0.0004501972289290279,-0.0014461814425885677,0.0033401234541088343,-0.001321358373388648,0.003258870681747794,-0.0018821833655238152,-0.001555342460051179,0.003227388486266136,-0.0021631314884871244,0.0034565068781375885,-0.0014488433953374624,0.002277492545545101,-0.0034788663033396006,-0.00017096828378271312,-0.0029280446469783783,7.599388482049108e-05,0.00019447936210781336,-0.0029116200748831034,-0.0023968073073774576,0.0024044157471507788,0.0014536048984155059,-0.000287044036667794,-0.0023871210869401693,0.001574480440467596,0.0029261126182973385,0.0009432499064132571,0.0037387253250926733,0.0016457822639495134,0.003062969306483865,0.0014971890486776829,-0.0010851918486878276,0.0013527949340641499,-0.0012883130693808198,-0.0015210513956844807,0.0040953378193080425,-0.0023861948866397142,0.003604224184527993,-0.0014584566233679652,-0.0028839928563684225,0.0034090266562998295,0.003047249047085643,0.0002170205261791125,0.0031148463021963835,0.00032520751119591296,-0.002809382975101471,0.0017790362471714616,0.0021677755285054445,-0.001913529820740223,-0.002628941088914871,0.003587209852412343,0.0008436943753622472,-0.00038106576539576054,0.002374262548983097,0.001056817127391696,0.001667225849814713,0.0006669847061857581,-0.00017375533934682608,-0.0010127485729753971,-0.0007171138422563672,-0.0012464061146602035,0.002564958995208144,0.0005455382051877677,0.0014684837078675628,-0.0018334435299038887,-0.0005568875931203365,0.0003635447355918586,0.003740880638360977,0.0015117457369342446,0.001950558158569038,-0.0021114477422088385,0.0011104813311249018,0.003962463699281216,0.0009309234446845949,-0.002714038360863924,-0.0038289823569357395,0.0038740509189665318,-0.0004903512308374047,-0.0002853317419067025,0.0023333136923611164,-0.00030282195075415075,-0.0018071745289489627,-0.0024900869466364384,0.0010290448553860188,0.0024918699637055397,-0.002278026193380356,0.0006214592140167952,0.000570829666685313,0.0015140104806050658,-0.0012191572459414601,0.0005026216967962682,0.0010580442612990737,-0.0017094174399971962
-0.0003003738820552826,0.001251468900591135,0.003067790763452649,-0.0028120302595198154,0.001569161075167358,0.003670093370601535,0.0026039695367217064,-0.00045433183549903333,-0.003233756171539426,0.002727141138166189,-0.0023450106382369995,-0.0031243476551026106,0.0011800058418884873,-0.0035422728396952152,0.003527736058458686,0.002373839495703578,0.0011184288887307048,0.0010622215922921896,-0.0014660488814115524,0.00373796746134758,-0.00088017393136397,-0.0027102467138320208,0.0022855878341943026,0.0037274768110364676,-0.0024274205788969994,0.00017833425954449922,-0.0006908242939971387,-0.002472636755555868,0.0007016243180260062,-0.00013519210915546864,0.002743712393566966,-0.0004281244764570147,-0.002988660940900445,0.002008628100156784,-0.00013897972530685365,0.0025975157041102648,0.003975659143179655,0.002291519660502672,-0.0008522426360286772,-0.001683311420492828,-0.0010620777029544115,0.000713446584995836,0.0016517910407856107,-0.001701286411844194,0.00043056669528596103,0.0034220574889332056,0.001505080726929009,-0.0033073064405471087,0.0004071766452398151,0.0013027418171986938,-0.0003283486294094473,0.0024165238719433546,-0.0020332741551101208,0.002213279251009226,0.0027949344366788864,-0.002589188748970628,0.0036127667408436537,0.001094959443435073,0.0031013127882033587,-0.00332580110989511,-0.002933698007836938,0.0017439972143620253,0.0034043933264911175,0.001531774876639247,-0.00014278713206294924,-0.0024955698754638433,-0.002010357566177845,-0.0026054170448333025,0.0003044624754693359,0.0034141228534281254,0.0031891122926026583,-0.002300415886566043,-0.003078159876167774,-0.0018099945737048984,0.0032918620854616165,-0.0008801807998679578,0.0031154374592006207,0.00115561846178025,0.0010331205558031797,0.000669925007969141,-0.0011494967620819807,-0.003889666637405753,-0.0034196951892226934,-0.0013576120836660266,0.0014187347842380404,0.0028080858755856752,-0.0005910508916713297,-0.0012890398502349854,-0.002931671915575862,0.0022483179345726967,0.002788389101624489,-0.0009842835133895278,0.0025798012502491474,-0.0012669616844505072,0.0037795384414494038,-0.002525185002014041,-0.0010254994267597795,-0.0004321276501286775,0.0024580436293035746,0.0026152697391808033,0.0034394217655062675,0.0017652687383815646,-0.0035242910962551832,-0.0008644487243145704,-0.0025111131835728884,-0.0030269534327089787,0.002053663833066821,0.0027471217326819897,8.788291597738862e-05,-0.0014153816737234592,0.001297668437473476,-0.0025941391941159964,-0.0029294255655258894,-0.0023019080981612206,0.0006528605008497834,-0.0029822541400790215,-0.0010977797210216522,0.0005051367916166782,1.8865513993659988e-05,-0.002789474558085203,-0.00021006693714298308,0.0006165527156554163,-0.00349566456861794,0.000623481348156929,-0.003088739002123475,-0.002558738924562931,-0.0027669158298522234,0.0027182542253285646
0.001817225944250822,-0.0038063942920416594,0.0036169926170259714,0.001734937191940844,-0.0001502226950833574,2.7880425477633253e-05,-0.00031535988091491163,0.003504180582240224,-0.0013663993449881673,-0.00325812422670424,-0.0029770403634756804,0.0004025099624413997,0.003381785238161683,0.00028799561550840735,0.00022510938288178295,-0.003950903657823801,-0.0014724245993420482,-0.000720636744517833,-0.0033403777051717043,-0.0037564863450825214,-0.0019080793717876077,-0.003245598403736949,0.002105738501995802,-0.00397905008867383,-0.0004198527312837541,-0.0012099487939849496,0.0033187924418598413,-0.00024285369727294892,0.0031194062903523445,0.0007371297688223422,-0.0013633985072374344,0.001405793009325862,0.0025395196862518787,-0.0015373207861557603,-0.0014975126832723618,-0.00343140447512269,0.0021932919044047594,-0.00033126355265267193,0.003542084712535143,-0.002268280368298292,-0.0038491191808134317,0.003268669592216611,-0.0002817867789417505,-0.00013755894906353205,-0.0021923582535237074,0.0005797756020911038,-0.0002505879383534193,-0.0008743482176214457,-0.004489982966333628,-0.0010036873864009976,-0.0027186868246644735,-0.0008129425114020705,0.0007803335902281106,-1.8044809621642344e-05,0.0020180463325232267,0.0018031791551038623,-0.0029444240499287844,0.0016626100987195969,-0.003538388991728425,0.0012385016307234764,-0.0033874795772135258,-0.0032497684005647898,-0.0021754358895123005,0.0030631946865469217,0.0018389219185337424,-0.0018645672826096416,-0.0003250782610848546,-0.00281321769580245,0.0012905261246487498,0.003700691508129239,0.0008447148720733821,-0.003636471927165985,0.0025296343956142664,-0.0018656137399375439,0.0019709947519004345,0.0003318749077152461,-5.9869711549254134e-05,-0.0013161508832126856,0.0035875465255230665,0.0009952178224921227,0.00120671431068331,-0.00027625443181023,-4.1300836528535e-07,-0.0023228612262755632,-0.003600427648052573,-0.0016076790634542704,-0.00311006186529994,-0.0036508231423795223,-0.0017299485625699162,-0.003045851830393076,0.003288230625912547,0.002225656760856509,-0.0014022253453731537,0.0011519346153363585,-0.0023543527349829674,-0.0021025966852903366,0.002555055543780327,0.0016922594513744116,-0.0013169331941753626,-0.003807295812293887,0.0006961748003959656,0.0002901658299379051,-0.0006401429418474436,-0.00295505509711802,-0.0027399796526879072,-0.0018438025144860148,-0.0032564974389970303,-0.0031429657246917486,-0.0023993400391191244,0.0007485527312383056,-0.002784907352179289,0.0011686196085065603,-0.000735406531020999,0.0007584422128275037,-0.001816931297071278,0.0030437102541327477,-0.0016686753369867802,0.002803380135446787,-0.002775467000901699,-0.0029281408060342073,-0.000665297091472894,-0.0011174468090757728,-0.0019099897472187877,-0.0025068395771086216,-0.0036506010219454765,0.0020160179119557142,0.0008627022034488618,-0.004015595652163029
-0.0011731160338968039,0.0002186443452956155,-0.0018380178371444345,-0.0007977812783792615,0.0022774480748921633,0.003516086842864752,0.0033680060878396034,0.0027878396213054657,-0.002412775531411171,-0.003445081878453493,-0.0012338553788140416,-0.003859593765810132,0.003124743467196822,-0.0014899639645591378,0.003042733995243907,0.0009946298087015748,0.0029600972775369883,0.0023368657566607,-0.003358544548973441,-0.001059910049661994,0.0001675580715527758,0.002919706515967846,0.003681086702272296,0.0027286866679787636,0.0017530196346342564,0.0004786323115695268,0.0005303313955664635,-0.0026498809456825256,-0.00023462263925466686,0.001958610024303198,-0.002353393705561757,-0.003146216506138444,0.0010439789621159434,0.00013757853594142944,0.0029594541992992163,-0.0029352535493671894,0.0006484640180133283,0.0003557234595064074,0.00040682265534996986,0.0025822038296610117,-0.0027813250198960304,0.0021808745805174112,0.0032393140718340874,0.0005097459070384502,-0.0027633188292384148,-0.0003521477337926626,-0.0022737334948033094,-0.0020492596086114645,0.0023000093642622232,0.0019963064696639776,0.0020870587322860956,0.0009548843954689801,0.0012376727536320686,-0.003448777599260211,-0.003732324345037341,0.0013718514237552881,-0.0015773450722917914,0.003476650221273303,0.0013798808213323355,-0.0005506862653419375,0.0025550140999257565,0.0003897689748555422,0.0007077453774400055,-0.0010312075028195977,-0.003091228660196066,-0.002035754732787609,-0.003904988756403327,-0.0023449717555195093,-0.0016754864482209086,-0.0015422877622768283,-0.0028025107458233833,-0.0023004624526947737,-0.001551654189825058,0.0035531767643988132,-0.0023966587614268064,0.0029238297138363123,-0.002442849101498723,-0.0017065638676285744,-0.0021420642733573914,-0.0033750031143426895,-0.0023836398031562567,-0.003105816198512912,-0.0021990376990288496,0.001096145249903202,-3.628555714385584e-05,-0.0021946376655250788,0.003405788680538535,0.003303829813376069,0.0032461006194353104,-0.003242735518142581,0.0036363094113767147,-0.002219356829300523,-0.002778766443952918,-4.856437226408161e-05,-0.0031829243525862694,0.0032982921693474054,0.0022333411034196615,-0.0020325365476310253,-0.0014353754231706262,0.0031010457314550877,0.003550692228600383,0.0007313514943234622,0.003934647422283888,-0.002953237621113658,-0.0025648470036685467,0.0033710249699652195,-0.001158792874775827,0.0005777084152214229,-0.0017908719601109624,0.0013269293121993542,-0.002610874595120549,-8.023349801078439e-05,0.0008394662872888148,-0.0030964179895818233,-0.00044117539073340595,-0.002133092377334833,0.0001393981947330758,0.0006348106544464827,0.003906657919287682,-0.00213650637306273,5.895207141293213e-05,0.003453560872003436,-0.0028028665110468864,-0.0034685819409787655,0.00022319242998491973,-0.003209627466276288,-0.00364951160736382,0.0018169068498536944
-0.0032768265809863806,-0.0021362220868468285,-0.002425245940685272,0.0028874254785478115,-3.883210592903197e-05,-0.002838247222825885,0.0027842787094414234,0.0031174381729215384,0.0027069684583693743,0.0005154157988727093,0.0024444612208753824,0.00038714834954589605,0.003242575330659747,0.0016851386753842235,0.0032326201908290386,5.9869922552024946e-05,0.0009988913079723716,-0.0019508411642163992,0.0012443427694961429,-0.0029978263191878796,-0.002674435032531619,-0.0024770917370915413,0.0006191974389366806,0.002234248910099268,0.0026984266005456448,-0.0006029203068464994,0.00015074899420142174,-0.0027376385405659676,0.0014159905258566141,-6.97000723448582e-05,-0.002290960866957903,-0.0015181521885097027,0.0005119792185723782,0.0006014320533722639,-0.0027130180969834328,-0.003499496728181839,0.0006214215536601841,-0.001599030802026391,-0.0015431264182552695,-0.002025473862886429,0.000262771820416674,-0.002383031416684389,-0.0008836864144541323,0.0010594780324026942,0.0035870359279215336,-0.002307505114004016,0.00292331469245255,-0.0004093920870218426,0.0026916649658232927,0.0009787582093849778,-0.0007625441066920757,0.0005879424279555678,-0.0006727793952450156,-0.0003983877249993384,-0.002979705110192299,0.003602522425353527,-0.0014489778550341725,0.001189450966194272,-0.003208298236131668,-0.0007175349746830761,0.0010781220626085997,-0.002744259312748909,0.0013843642082065344,0.0007412696140818298,0.0036280325148254633,-0.0018007636535912752,0.0027428872417658567,-6.702916289214045e-05,-0.003459316212683916,0.003185887821018696,0.0025722505524754524,-0.0026201766449958086,-0.002063667168840766,0.002063637599349022,0.001793131697922945,-0.00011710062244674191,-0.0016585498815402389,-0.0012770326575264335,-0.002635974669829011,-0.0013101480435580015,1.1342306606820785e-05,0.0017947866581380367,-0.00238005630671978,-0.001255379756912589,-0.00022913303109817207,0.002661603270098567,-0.0037007946521043777,5.517459430848248e-05,0.0004847894888371229,-0.0005979101988486946,0.0037250106688588858,-0.00038856203900650144,-0.0017051130998879671,0.0005381779046729207,-0.00362289696931839,0.0035920545924454927,-0.003777892328798771,0.0011691658291965723,-0.0021477683912962675,0.0007250122143886983,0.0017855612095445395,0.0021045603789389133,0.0003843532467726618,0.0021398658864200115,0.0017717481823638082,-0.0011504440335556865,-0.0011755271116271615,0.0014524301514029503,-0.0034196593333035707,-0.001674611703492701,0.0030958529096096754,0.0002250888355774805,0.0005605978076346219,0.000644140352960676,0.0038072841707617044,0.002162120072171092,0.0010781767778098583,-0.0016975164180621505,0.0013076979666948318,-0.0018040694994851947,0.002617056015878916,-0.003865801030769944,0.0031068387906998396,-0.0007085278630256653,-0.0021333966869860888,-0.00021443517471197993,0.0021764233242720366,-0.0005313064903020859
0.0017404070822522044,0.0018989765085279942,0.0027532081585377455,0.0006454616086557508,-0.0007627661107107997,0.0017488078447058797,0.0004111111629754305,0.0019891085103154182,0.0023715554270893335,0.003874124027788639,0.003783615306019783,0.0016705841990187764,-0.002644212916493416,0.0012863355223089457,-0.0031044946517795324,0.00023330142721533775,0.002547788666561246,-0.002404507715255022,0.0035268650390207767,-0.0017880594823509455,0.0003692903555929661,-0.0015449569327756763,-0.0006869097705930471,0.0009793201461434364,0.00034952632267959416,0.003726248163729906,-0.002076183445751667,-0.002348289592191577,-0.0019088895060122013,0.0023544426076114178,0.0011594935785979033,-0.0017683717887848616,0.001729545183479786,0.0028749476186931133,-0.0016032338608056307,0.00285554607398808,0.002162111224606633,0.002096272073686123,0.0024912036024034023,-0.0027294913306832314,0.0001726595073705539,6.077047873986885e-05,-0.003434101352468133,-0.0012346850708127022,0.0018619423499330878,-0.0015222028596326709,-0.0018175129080191255,-0.001363259507343173,0.0007257511606439948,0.0036683252546936274,-0.0028987322002649307,0.0003970563702750951,0.003568258136510849,-0.0036088486667722464,-0.0018544396152719855,-0.0012546915095299482,0.00015127184451557696,-0.00221320241689682,0.003087917808443308,-0.000665003783069551,0.0024828361347317696,0.0025915687438100576,0.0005664483178406954,0.003289450192824006,-0.0026914961636066437,0.0027614799328148365,0.0021877142135053873,-0.0003184746892657131,0.0032721185125410557,0.0033087534829974174,0.0037775414530187845,-0.002131457906216383,-0.003256063209846616,-0.00021231932623777539,-0.0012116150464862585,0.00036554751568473876,-0.0006136976880952716,0.0017638084245845675,-0.0038857765030115843,0.003274163231253624,0.0010799358133226633,0.003328080056235194,-0.0021801728289574385,0.002739943563938141,0.001961564412340522,-0.003010988235473633,0.002665785374119878,0.003315709764137864,0.0038846475072205067,-0.0030232444405555725,0.0033134124241769314,0.0023139810655266047,0.0007403864874504507,-0.0018411196069791913,0.0007401409675367177,-0.002770335180684924,-0.0016425801441073418,9.580556252331007e-06,-0.001097245723940432,0.0005796778714284301,0.002514260122552514,0.00031571046565659344,-0.003478808095678687,0.0031614513136446476,0.0004334031546022743,-0.0010891956044360995,0.0014004067052155733,-0.0012426759349182248,-6.924139597686008e-05,-0.0027938878629356623,0.0004826440999750048,0.002875485923141241,-0.002300900872796774,-0.002619630889967084,0.0013185342540964484,-0.003531645517796278,0.0015184759395197034,-0.00030702335061505437,0.0016556880436837673,1.8528185137256514e-06,-0.0015933975810185075,-0.0015031538205221295,0.001424294081516564,-0.0011372820008546114,-0.0018638622714206576,-0.0010570831364020705,0.0015677177580073476,0.0035816661547869444
