0,1,2,3,4,5,6,7,8,9,10,11,12,13,14,15,16,17,18,19,20,21,22,23,24,25,26,27,28,29,30,31,32,33,34,35,36,37,38,39,40,41,42,43,44,45,46,47,48,49,50,51,52,53,54,55,56,57,58,59,60,61,62,63,64,65,66,67,68,69,70,71,72,73,74,75,76,77,78,79,80,81,82,83,84,85,86,87,88,89,90,91,92,93,94,95,96,97,98,99,100,101,102,103,104,105,106,107,108,109,110,111,112,113,114,115,116,117,118,119,120,121,122,123,124,125,126,127
-0.5693418938734296,0.06545258166856693,0.23939287062287806,-0.36296989025825854,-0.3984106830114025,-0.3911417671484867,-0.6138601606029452,0.8558647159473773,0.423948093057001,0.34483366923923153,0.26511706326514584,-0.15597240320904016,-0.5031384348315224,0.3306376430649014,-0.994612242372555,-0.6571165846964906,0.528166981152915,0.13986763109408584,0.780667029189797,0.4877560596672297,0.6825834642841366,0.30925190337583675,0.8167405506213874,-0.471947784199797,-0.5923448534961337,-0.8396642176493949,0.6463945719220543,-0.48943090756360674,0.04032747079483889,-0.11951468327235926,0.8488675850963512,-0.04412614748227961,-0.9717043217946788,-0.2337777166183821,0.9259474071095974,0.8392097202063626,0.8312299023455667,0.21814115413624413,0.7750697601762213,-0.5841332122899323,-0.5895454551390749,0.4788914670922506,-0.882868349840281,0.11943402729267705,0.9331313836915083,-0.9249934818000338,-0.8701787856600147,0.5304037264565618,-0.3970705003447219,0.8247514813348829,0.299754753487786,0.2818462293211115,0.5452978721245849,-0.6875346157928575,-0.728489010674507,0.4321561651233028,-0.6139093470493924,-0.4207786944509262,0.4551474814609373,0.9437047311844113,0.8901226336199637,-0.5850180316646365,0.8326548069618485,-0.8001659356278223,0.07513438565406094,-0.06952101893220775,0.8087078513820285,0.4764544007865257,-0.17507285398896744,-0.8389970151483477,-0.8113378985462014,-0.8065164057461822,-0.2423693553444506,0.3216957535896807,-0.07704255707662089,-0.9027860901256795,0.8860170741495839,0.9220117233469094,-0.5590116899171145,-0.11440674203134171,-0.3400862173324182,0.7396991374455402,-0.3942414857897174,0.28410880792968163,-0.37578088561420375,-0.22961590280559063,0.4574131710168938,0.24403092508735713,0.4696343319809113,-0.8954698756994186,-0.12101294330781442,0.8705378744477665,-0.5534205315271687,0.4169191263295664,0.9600918130595715,-0.7627445819538685,-0.823749143119004,0.8325305923637574,-0.31610939891546797,-0.049530024318470645,-0.35898400676505293,-0.10236008195378354,0.9624684122260532,0.9620643689889419,0.9635059319461154,0.87798228496173,-0.2504822127404729,-0.7089766871094549,-0.6062326471254611,-0.5747583239646785,-0.9586979362409811,-0.5294073279202036,-0.9612145570036623,-0.5267773616869402,-0.0866369623272667,0.5566344727613703,0.03099095883217795,-0.8983987740710522,-0.08926742246278119,0.4037168110010887,-0.05603735184816583,-0.2614822616550445,-0.3850335219109584,0.49691215347473094,0.2209370419970953,0.9516639262888067,-0.4676069495857358,0.7151028574690077
-0.00043370065395720303,0.0019320406718179584,0.0037406289484351873,-0.001957775792106986,-0.003452068194746971,-0.0031296242959797382,-0.002743063261732459,0.0018598565366119146,-0.0005972972721792758,0.0037273066118359566,0.0015114368870854378,0.0034347104374319315,-0.0033577322028577328,-0.003058533649891615,-0.002369887428358197,-0.0011303552892059088,5.902958946535364e-05,0.0023268121294677258,-0.0017119619296863675,0.00018068519420921803,-0.00024444906739518046,0.0011276312870904803,-0.0010167573345825076,5.1931019697804e-06,0.0039982981979846954,-0.0019460225012153387,-0.0001998209481826052,-0.0032941079698503017,-0.0028126852121204138,0.0008040739921852946,-0.00025378132704645395,-0.0018448370974510908,-0.0028270126786082983,0.0030863566789776087,-0.0030639437027275562,-0.0005695042782463133,0.0010844699572771788,0.003941344562917948,-0.0016006727237254381,0.0016189212910830975,-0.0021475714165717363,0.0030695635359734297,-0.003332165302708745,-0.0037843568716198206,0.002396282972767949,0.0017356427852064371,-0.002843166934326291,0.0015101677272468805,0.0009084739722311497,-0.0014508467866107821,0.0025706004817038774,0.0003101280308328569,-0.0020012049935758114,-0.0033955362159758806,0.0036650504916906357,-0.0023991968482732773,0.0007922911318019032,-0.0030915820971131325,0.0011003264226019382,-0.0005030828178860247,-0.0024776554200798273,0.0007596164359711111,0.0005915624205954373,0.001192712690681219,-0.00028870682581327856,-8.141505531966686e-05,-0.0017256700666621327,0.0024200293701142073,-7.951986481202766e-05,-0.0037435011472553015,-0.0023618312552571297,-0.0028495099395513535,-0.0012938397703692317,-0.002408015774562955,0.0024256212636828423,0.0009559605969116092,-8.576208347221836e-05,-0.0014121108688414097,0.0025535591412335634,-0.003885601880028844,0.0014863801188766956,-0.0018439771374687552,0.0015318201621994376,0.000382288359105587,-0.0013930975692346692,-0.002436058595776558,-0.0025195153430104256,0.0009980032918974757,-0.0028292702045291662,0.003585145575925708,-0.0020623556338250637,-0.001392112928442657,0.0037215182092040777,-0.00333578372374177,-0.0023414520546793938,-0.002080242382362485,0.0023781671188771725,-0.00026059322408400476,-0.0035417082253843546,-0.0027348841540515423,-0.0019998722709715366,-0.002811659360304475,0.0031448365189135075,-0.0017247027717530727,-0.0002637147263158113,-0.0006711984751746058,-0.0015497131971642375,0.0018815587973222136,0.0015132607659325004,0.0016486875247210264,-0.00141990149859339,-4.864307993557304e-05,0.002256582025438547,-0.0005567000480368733,0.0024028008338063955,-0.002072342671453953,0.0004440256452653557,-0.0013461607741191983,0.002585278358310461,-0.003761009778827429,0.003507933346554637,-0.0038312815595418215,0.0029046591371297836,0.002888839691877365,-0.0024240168277174234,0.0034856023266911507,-0.0013634334318339825,0.00011352865112712607
0.0021450910717248917,-0.001727044815197587,0.0023721547331660986,-0.0020566380117088556,-0.0008064622525125742,0.0011298799654468894,0.003754418808966875,-0.0013805082999169827,-6.028533243807033e-05,-0.002964152256026864,-0.0012267149286344647,0.002684840699657798,0.0036131725646555424,-0.0018203435465693474,-0.0007935049361549318,-0.0012116209836676717,1.8026703401119448e-05,0.0021311696618795395,-0.0022994454484432936,-0.003665927331894636,0.00238411664031446,0.002036251360550523,-0.002553036203607917,0.0034977926407009363,0.001224079867824912,-0.0010057423496618867,0.002314641373232007,-0.0024281295482069254,1.4935027138562873e-05,-0.002931854920461774,0.000589683186262846,0.0008350363350473344,0.003736928105354309,0.002135074231773615,-0.00038792635314166546,-0.0007369341910816729,0.0014134704833850265,-0.0025109117850661278,0.0033586740028113127,-0.002203312935307622,-0.003041416872292757,-0.0021158570889383554,-0.0026791184209287167,0.0028179914224892855,0.002585544716566801,-0.0011237458093091846,0.002428230131044984,0.0034895860590040684,-0.0004349173395894468,-0.0015617664903402328,-0.001605399651452899,-0.0021626721136271954,-0.0010434326250106096,-0.0009221305372193456,0.00024117942666634917,0.0034675789065659046,0.0034527466632425785,-0.002573236357420683,0.0017710478277876973,0.0011432465398684144,0.0013823171611875296,0.00027200390468351543,-0.0033081474248319864,0.001533552655018866,0.0017103878781199455,-0.0018149821553379297,0.003087635152041912,-0.0018162111518904567,-0.0024393810890614986,-0.0037155121099203825,-0.0026175843086093664,0.0005931524210609496,0.0031365833710879087,0.003274112707003951,0.0022265370935201645,0.0024882392026484013,0.0004855781444348395,0.003213190473616123,0.0029049129225313663,0.0007060088100843132,-0.002634506905451417,-0.002716784132644534,0.0025819833390414715,0.0017019680235534906,-0.0009054100373759866,-0.0037368545308709145,-0.003912569023668766,5.541518112295307e-05,-0.00031394168036058545,-0.0001662339345784858,-0.003854946931824088,-0.0004732899251393974,-0.0029172273352742195,0.00017334881704300642,-0.002694174647331238,0.001597993541508913,-0.0014594749081879854,-0.003554712515324354,0.0027911646757274866,-0.0029041997622698545,-0.003072920488193631,-0.0006316485814750195,-0.001845065737143159,-0.002363575156778097,-0.001027163933031261,0.003230443922802806,-0.003341209376230836,0.0024115080013871193,-0.0027846163138747215,-0.0027671477291733027,-0.002640069928020239,-0.0036430303007364273,-0.0026707041542977095,0.002370285103097558,-0.0019319839775562286,-0.0014607144985347986,0.0029531503096222878,-0.00020709070668090135,-0.0016020042821764946,0.0006887420313432813,-0.002426310209557414,0.0029153130017220974,0.00343341170810163,0.0003600060590542853,-0.002259802306070924,0.0032895265612751245,-0.0005590818473137915,-0.0026806648820638657
0.0008044437854550779,0.0021157057490199804,-0.0014818878844380379,-0.00129561813082546,-0.002878997242078185,-0.0009136899607256055,0.0003812186187133193,0.001860783901065588,-0.0027429612819105387,-0.0019237981177866459,-0.0019065605010837317,0.00017718122398946434,-0.002421752782538533,-0.0008064993307925761,-0.0004873550496995449,-0.0015820383559912443,0.0034894184209406376,0.0010706632165238261,-0.000204014329938218,0.00044607746531255543,-0.0005727628013119102,-0.0011263309279456735,-0.00038697305717505515,-0.002756481058895588,0.003354911459609866,-0.00016823012265376747,-0.00388339813798666,-0.0014727921225130558,0.0017503548879176378,-0.0020911076571792364,0.00034291218616999686,-0.002211538143455982,-0.0030042994767427444,-0.001946322969160974,0.0038681847508996725,0.00018223121878691018,0.0031243027187883854,0.0016276780515909195,0.0035234433598816395,-0.0013489285483956337,-0.002696205163374543,0.001755068777129054,-0.0034330927301198244,-0.0003300965763628483,-0.00274676107801497,-0.002689363667741418,-0.000574069214053452,0.0025809146463871002,0.0013792637037113309,0.0013179079396650195,0.0031714250799268484,-0.0016597416251897812,-0.0019553087186068296,0.003688504220917821,0.003351313527673483,-0.002846991876140237,0.00107276882044971,0.0020150032360106707,-0.002412529895082116,-0.001517010503448546,0.0005124943563714623,0.0039029193576425314,7.5265561463311315e-06,0.0012027748161926866,0.0019094814779236913,0.003805023618042469,0.0008721871417947114,0.000674834125675261,0.0020446733105927706,0.0011449045268818736,-0.0007941073854453862,0.0016073420410975814,-0.0026983076240867376,0.00031016956199891865,0.0006176639581099153,0.00205449340865016,-0.00018637883476912975,0.0020353752188384533,0.0006828278419561684,-0.00017252714314963669,-0.0009783579735085368,-0.0025761197321116924,-0.0022426010109484196,0.0014843966346234083,-0.003579825395718217,-0.002879916690289974,0.0006068887305445969,0.0030402590055018663,0.0002814370673149824,-0.0036928446497768164,-0.0007417253218591213,0.0018665080424398184,-0.0006779434625059366,0.0035701580345630646,0.0038877830374985933,-0.0007598719676025212,0.0026750050019472837,-0.00022152996098157018,0.0034469307865947485,0.0031518815085291862,-0.0028106356039643288,-0.002880186541005969,0.0014538334216922522,0.0017861464293673635,0.0021073126699775457,0.003097093664109707,0.001307462458498776,0.0028991708531975746,0.0038222481962293386,8.17533873487264e-06,0.0019349524518474936,-0.003350907703861594,-0.00029604873270727694,0.003007434541359544,-0.0005740882479585707,0.003421054221689701,0.0029995020013302565,0.0022637892980128527,0.003730448428541422,0.0017595257377251983,-0.001046092133037746,-0.0009404153097420931,-0.001578464638441801,-0.0021662088111042976,0.000428077852120623,0.0017978048417717218,0.000363184604793787,0.0015044769970700145
-0.0002916434605140239,0.00252316752448678,0.0014152366202324629,-0.000299247883958742,0.0037903995253145695,-0.003723074682056904,-0.00035413287696428597,0.0010119011858478189,0.0017507242737337947,0.0021024541929364204,0.00037375299143604934,0.0025628318544477224,-0.0036355582997202873,0.003576985327526927,-0.0015892707742750645,-0.0010252529755234718,-0.0013576699420809746,-0.00027355700149200857,-3.36003940901719e-05,-0.0014915505889803171,0.0035984248388558626,-0.0008043154375627637,-0.00019237241940572858,0.00051844835979864,0.0035256396513432264,0.0003148820251226425,0.00029424071544781327,0.0012552818516269326,-0.0021954209078103304,0.0002964767045341432,-0.00341488653793931,0.0032837761100381613,0.0024525895714759827,-0.0020456749480217695,-3.3438328728152555e-07,-0.0001608082966413349,-0.003115232102572918,-0.0028376076370477676,0.004069839604198933,-0.0018675365718081594,0.00156024273019284,0.003699061693623662,-0.0033468480687588453,0.0032094272319227457,0.000917587080039084,-0.001919983304105699,-0.0010826614452525973,-0.0011912602931261063,0.00030374847119674087,-0.0025304853916168213,0.0010912887519225478,-0.0008385605178773403,0.0030887227039784193,0.002239781664684415,-0.003446124494075775,0.003813511924818158,0.0021289829164743423,-0.001953979255631566,-0.0018609839025884867,-3.896197449648753e-05,-0.0042407880537211895,-0.0006683656247332692,0.0010108908172696829,-0.0011604790342971683,-0.002422430319711566,-0.00035822545760311186,0.00369467050768435,-0.003697160864248872,0.0020717354491353035,-0.0029149737674742937,-0.0027025965973734856,0.0012637547915801406,0.004259269684553146,-2.725625381572172e-05,0.0004060801584273577,-0.0016756027471274137,0.002584093017503619,-0.0007116146734915674,0.0029456273186951876,0.0034341434948146343,0.0008925265865400434,0.0010377273429185152,-0.002863167319446802,-0.0009965936187654734,8.511960913892835e-05,0.0020374059677124023,0.0026690105441957712,-0.0013438635505735874,0.0021931559313088655,0.0001661269780015573,0.0036053801886737347,-6.984231731621549e-05,0.0012204552767798305,-0.0038423354271799326,-0.00170280656311661,0.0035534100607037544,-0.0017617866396903992,-0.0015876288525760174,-0.0006724988343194127,0.0026626670733094215,0.001788306050002575,0.0005778641789220273,-0.0027906333561986685,0.0007156181382015347,-0.0036196785513311625,-0.003156310645863414,-0.003544463310390711,0.003726913360878825,0.003304799785837531,-0.0027142935432493687,0.0008201885502785444,0.000722769123967737,0.0034420951269567013,-0.0003720158711075783,0.0014689459931105375,-0.001825860352255404,5.852887170476606e-06,0.0014378230553120375,0.00027499085990712047,0.0005713481223210692,0.0012839124538004398,-0.0012554032728075981,0.0036589941009879112,-0.0023916729260236025,-0.00231672334484756,-0.002946677152067423,-0.0011939555406570435,-0.0017020179657265544
-0.0004655133525375277,0.0011183151509612799,0.0016482359496876597,0.0011534967925399542,-0.001953833270817995,0.0018054865067824721,-0.0017292817356064916,0.0014349637785926461,-0.002785544842481613,0.0013779767323285341,0.0010689676273614168,0.0015145762590691447,-0.002885728608816862,0.0005623309407383204,0.0022824995685368776,0.0006206053658388555,0.0014671613462269306,0.000811278005130589,-0.003213711781427264,0.0021267663687467575,0.002824197756126523,-0.0018556530121713877,-0.0015043047023937106,-0.0006101863691583276,0.0031518603209406137,0.0035732993856072426,0.0024134840350598097,0.00048390644951723516,-0.003268396481871605,0.0018338448135182261,-0.0017193406820297241,0.00045385948033072054,-0.0002805540570989251,-0.003663652343675494,0.0010870600817725062,-0.0032948609441518784,-0.00033424905268475413,0.0009756858926266432,0.00047487058327533305,-0.002936078468337655,0.00014351897698361427,0.0006317062652669847,-0.0025395164266228676,0.002062467858195305,-0.0027051258366554976,0.001242128317244351,0.0019075649324804544,-0.0027149289380759,0.00038006051909178495,0.0005121362046338618,0.0025708505418151617,-0.003230978501960635,0.0014020466478541493,-0.002857703948393464,0.0028779623098671436,-0.0034494432620704174,0.002708469983190298,-0.002355499193072319,-0.0037616391200572252,-0.0017826184630393982,0.0016303625889122486,0.0035859334748238325,0.0008471880573779345,0.0022573068272322416,0.0003231140144634992,-0.000528709206264466,-0.000820275628939271,-0.0034312226343899965,-0.00034053699346259236,-0.000322040228638798,0.00260338606312871,-0.0024701443035155535,0.0018355477368459105,0.0038247837219387293,-0.003801036160439253,-0.0020001898519694805,0.002315889112651348,-0.0036088929045945406,-0.0035469038411974907,-0.002490346785634756,0.0010876276064664125,-0.0016194123309105635,3.733870107680559e-05,-0.0012695308541879058,0.0017164082964882255,0.0020151142962276936,0.0005225376808084548,0.0006846178439445794,0.00016028228856157511,4.639725011656992e-05,-0.0009493059478700161,-0.0015168311074376106,-0.0032745315693318844,-0.0030921269208192825,0.002754176501184702,0.0017719027819111943,0.0014722447376698256,0.0026910174638032913,-0.0007700336864218116,0.003936308436095715,-0.0027727866545319557,0.0015517883002758026,-0.0030896055977791548,0.003026016289368272,-0.0015018354170024395,0.0013752649538218975,-0.00020897385547868907,0.0018025205936282873,0.0023213608656078577,-0.0028107299003750086,0.0017102959100157022,-0.0005528114852495492,-0.00047801737673580647,0.0038542018737643957,-0.003716799197718501,-0.0033986330963671207,0.000897292688023299,-0.0015285786939784884,0.0005627781501971185,0.003955576103180647,0.00047911322326399386,0.003794441930949688,0.001793506438843906,0.0005163743626326323,-0.0014732168056070805,0.001769480761140585,-0.0026787673123180866,0.0025036490987986326
-0.0016958772903308272,0.0010875668376684189,0.0017032973701134324,-0.0014491754118353128,0.0034734588116407394,6.72477253829129e-05,-9.198213228955865e-05,0.000106553896330297,-0.0028359906282275915,-0.0014695260906592011,0.002482315059751272,-0.0010420391336083412,-0.002120551187545061,-0.0017082939157262444,-0.00016711342323105782,-0.0021627703681588173,-0.003609179984778166,0.0016955415485426784,-0.0010644986759871244,-0.0030374103225767612,0.004068051930516958,-0.0005719310138374567,-0.0017657267162576318,-0.0031232850160449743,-0.00020046616555191576,0.0018213264411315322,-0.0014564169105142355,-0.002549597295001149,-0.003169901203364134,-0.00017911478062160313,-0.0022570441942662,0.0001883288350654766,-0.0035766768269240856,-0.0005566978361457586,0.002052693860605359,0.0016483498038724065,0.0028614248149096966,0.0034692073240876198,-0.002436387352645397,0.000545938906725496,0.0021349701564759016,-0.001977873733267188,-0.0009595575393177569,0.0014399770880118012,-0.0024528319481760263,-0.001773724565282464,2.7837901143357158e-05,0.0019013849087059498,0.0021722535602748394,-0.0007650940679013729,0.0011353670852258801,0.003138073021546006,-0.0018599913455545902,0.0018769224407151341,-0.0014401349471881986,0.003280108328908682,-0.003505854867398739,0.0023480753879994154,0.002616845304146409,-0.0017045949352905154,0.002230140147730708,-0.002795138629153371,0.0021048225462436676,0.0006236680201254785,0.0032222869340330362,0.002765367738902569,0.0003268389846198261,0.0005250756512396038,-0.0006664660759270191,-0.0021518326830118895,-0.00291867321357131,0.0007894366863183677,0.0008204913465306163,0.001972159370779991,0.0027716406621038914,-0.0033128587529063225,0.002927227644249797,8.720046025700867e-05,0.0020404441747814417,-0.0009988149395212531,-0.0020355849992483854,0.0015152629930526018,-0.002877547638490796,-0.0022046249359846115,0.0031557034235447645,-0.0039900001138448715,0.0030134397093206644,0.0015344657003879547,-0.0008604900795035064,-0.0013578494545072317,0.0028198868967592716,0.0021360921673476696,0.0004108765278942883,-0.002151442226022482,-0.003079020883888006,0.0020634729880839586,-0.0010375858983024955,-0.001542358659207821,0.0015521591994911432,-0.0017506281146779656,-0.0029702854808419943,0.0020678038708865643,0.003772467141970992,-0.0010258023394271731,-0.0020816258620470762,-0.002858442720025778,-0.0029496734496206045,-0.0013321712613105774,0.0039061973802745342,0.0028537679463624954,-0.0008014771156013012,-0.00019436207367107272,-0.0030099372379481792,-0.0020032385364174843,-0.0035775366704910994,-0.0018349101301282644,0.001096320222131908,0.001708607655018568,-0.004106554202735424,0.0029321503825485706,-0.003174589481204748,-0.0011347481049597263,0.0023075533099472523,-0.0017151142237707973,-0.0035219979472458363,0.0033012654166668653,-0.001141242333687842,-0.001766463159583509
0.0015144922072067857,0.0024794016499072313,3.506834400468506e-05,0.003539574798196554,-0.003871953347697854,-0.0037261289544403553,-0.0022979904897511005,0.00395478680729866,-0.0029290299862623215,0.0013133090687915683,-0.0003903545148205012,0.0022581624798476696,-0.0015181852504611015,0.002158285118639469,-0.002304142341017723,-0.00026940740644931793,0.0035842875950038433,-0.00352704175747931,-0.00026630295906215906,0.001946401665918529,0.0020343423821032047,-0.0014407429844141006,-0.00220445916056633,0.0006313945050351322,0.001769498223438859,-0.0009973883861675858,-0.0008147974731400609,-0.0032094656489789486,0.0031203555408865213,-0.0007525893743149936,-0.0016057592583820224,-0.0023108399473130703,-0.0025420018937438726,-0.0006437858683057129,0.0024804589338600636,0.0004514943284448236,-0.00035896559711545706,-0.0013367236824706197,0.0036676174495369196,-0.00362593587487936,0.00243419804610312,0.001431552111171186,0.0029281137976795435,-0.0028151299338787794,-0.0005793271702714264,0.001193615491501987,0.00013823018525727093,0.0018031214131042361,-0.0018363879062235355,-0.0027841709088534117,0.003793540643528104,0.002670632442459464,-0.0010153921321034431,-0.002540305955335498,0.0017723878845572472,-0.0026564665604382753,0.0006190140848048031,-0.001447328832000494,-0.0018396786181256175,0.000792910810559988,-0.00045783663517795503,-0.0028498161118477583,0.0014616306871175766,0.003956462722271681,-0.00034263692214153707,-2.538483931857627e-05,0.003573573660105467,-0.0009449656354263425,-0.0006866984767839313,0.0006943239714019,-0.0011351276189088821,-0.0024581896141171455,0.0008098660036921501,-0.003688053460791707,0.003913599066436291,0.0018737382488325238,-0.0023521571420133114,-0.0021042379084974527,-0.002632745075970888,0.0025409108493477106,-0.003161193337291479,-0.001266218489035964,-0.0026291958056390285,-0.0007823143969289958,-0.0009357503149658442,-0.0026637460105121136,0.0036437315866351128,-0.0020812463480979204,-0.001069376477971673,-0.0019272143254056573,-0.0007215092773549259,0.0009546262444928288,0.003673599334433675,-0.0008624577894806862,0.0007186129805631936,-0.0035498300567269325,0.0038033686578273773,0.0010303655872121453,0.00035180849954485893,0.0017453787149861455,-0.002161625539883971,-0.001511674141511321,0.001828760839998722,0.00235764286480844,0.002187275094911456,0.002823823131620884,-0.00015634593728464097,-0.002552964258939028,0.000508627388626337,-0.0009437002590857446,0.0027738804928958416,0.0033343725372105837,0.00022026398801244795,0.003431093879044056,-0.0025822583120316267,0.0026839650236070156,0.003028661012649536,0.000642830622382462,-0.00024442197172902524,0.0012338449014350772,0.0016311642248183489,-0.0011789706768468022,-0.0021727511193603277,0.0019260022090747952,-0.0027732979506254196,-0.002383215818554163,-0.003158983075991273,0.003052135929465294
0.003619951894506812,-0.00371660478413105,0.003149957163259387,0.0030754022300243378,-0.0031091696582734585,0.0013615628704428673,-0.0025332472287118435,-0.0037915287539362907,-0.0006406405009329319,-0.003443107707425952,-0.0021399229299277067,-0.00034427217906340957,0.00034964916994795203,0.0003123735950794071,-0.0008855444029904902,-0.002077126409858465,0.003757464699447155,-0.0005213422700762749,-0.0009756032377481461,0.0008161395671777427,0.003340719034895301,0.0037344854790717363,0.0009084939956665039,-0.0022077979519963264,-0.003302421886473894,-0.0019172638421878219,0.0017195952823385596,0.0021041608415544033,0.00042941252468153834,-0.0022790408693253994,0.0007102449308149517,-0.0031677817460149527,-0.0018905835459008813,0.00038042443338781595,0.002798419212922454,-0.003094032173976302,-0.0031042140908539295,-0.0005895617068745196,-0.0030212115962058306,-0.003328536171466112,0.0029967459850013256,0.0017682991456240416,-0.0017441916279494762,-0.0016553718596696854,0.0021268962882459164,0.0025134305469691753,0.003607650985941291,0.0026138084940612316,0.0034265145659446716,-0.0017407876439392567,-0.0028617989737540483,0.002246708841994405,-0.0018852668581530452,0.0027902601286768913,0.0033758932258933783,0.0018547370564192533,0.000944621569942683,-0.0027024480514228344,0.0021929435897618532,-0.0015086981002241373,0.002704152138903737,0.0035531248431652784,-0.00042548979399725795,-0.001066432218067348,0.00040270565659739077,-0.0001774816046236083,-0.0012977463193237782,-0.00025290207122452557,0.0009906592313200235,-0.003046824363991618,-0.0033310994040220976,-0.00334876193664968,-0.0029086279682815075,-0.0023674906697124243,0.0027514526154845953,0.0003683771356008947,0.0027483580633997917,-0.0035226920153945684,0.0006636859616264701,0.003640210023149848,-0.002822491340339184,-0.00017367175314575434,-0.002577819162979722,1.5722831449238583e-05,-0.000980607932433486,0.0022256660740822554,0.001775836804881692,-0.00341613101772964,-0.0022697974927723408,-0.0015092103276401758,-0.0029171647038310766,-0.002251250669360161,0.0033859116956591606,0.0008055470534600317,0.0011669049272313714,-0.0010803763289004564,0.0033821845427155495,-0.002853300189599395,-0.0013521409127861261,-0.0035029712598770857,0.003433008212596178,0.0009661057265475392,-0.003626334946602583,0.0011216342682018876,-0.003188480157405138,0.0026673167012631893,-0.0033319571521133184,0.0009074460249394178,-0.0025463742204010487,0.0020681428723037243,-0.002135160844773054,-0.0009769555181264877,0.0003204490931238979,0.0010309841018170118,0.002561795525252819,0.0032594879157841206,-0.0009520146995782852,-0.0017873133765533566,-0.002153777051717043,0.003865995677188039,0.0013041871134191751,-0.0017547187162563205,-0.0029870588332414627,0.0010268258629366755,-0.00155590137001127,-0.0004396761651150882,0.00382007728330791,0.001666977652348578
0.0010199929820373654,0.0023365486413240433,0.00020037326612509787,0.0024663445074111223,-0.002484929049387574,-0.00338640995323658,0.0015148106031119823,0.003685814095661044,0.0007178965606726706,-6.23727755737491e-05,-0.0011342269135639071,-0.0007656721281819046,-7.938023918541148e-05,-0.002260377164930105,0.0019452566048130393,0.0015182021306827664,0.00036829328746534884,-0.003828030778095126,0.0011605843901634216,-0.0009024805622175336,-0.0033519885037094355,-0.003002423793077469,0.001075566979125142,-0.0005795306642539799,-0.0036408985033631325,0.0006061365711502731,-0.00011083196295658126,0.003281368175521493,-0.000727810722310096,0.000191369021194987,-0.0023380224592983723,0.00045416649663820863,0.0008262027986347675,-0.001250890432856977,0.0013011585688218474,0.0016412173863500357,0.002300306223332882,-0.0019059809856116772,-0.0010269710328429937,0.002300661988556385,0.0036248022224754095,-0.0032615973614156246,-0.0020792214199900627,0.0025140338111668825,0.00377541477791965,-0.0035790575202554464,0.001332595944404602,-0.0011011436581611633,0.0032259169965982437,0.0036748184356838465,-0.0014802239602431655,-0.00046510202810168266,0.0032841884531080723,0.0035144886933267117,-0.002246459946036339,-0.0018396478844806552,0.001543370890431106,0.000607985130045563,0.0020156577229499817,0.0013946091057732701,-0.00389314373023808,0.0032924748957157135,-0.000829370052088052,0.0037967406678944826,0.0004524039104580879,-0.0018432680517435074,0.0023003423120826483,-0.003110772231593728,-9.477007552050054e-05,0.002762540942057967,0.0015007503097876906,0.003599207615479827,0.003520093858242035,-0.00010332604870200157,-0.0030905657913535833,-0.00326294987462461,0.00084491545567289,0.003240469843149185,0.0005394932231865823,-0.0038416904862970114,-0.00035755892167799175,0.00357973319478333,-0.002701377496123314,0.0023041123058646917,-0.00025574624305590987,-0.0017047986621037126,0.0030742173548787832,-0.002198918955400586,-0.0008151837973855436,0.0036742696538567543,-0.0007312820525839925,0.0035972276236861944,-0.0009922554017975926,-0.0014402016531676054,0.0003270859888289124,0.0014556592795997858,-0.0014317792374640703,0.003060272429138422,0.0012213084846735,-0.0005590106593444943,0.0007159363012760878,0.003750388976186514,-0.002234331564977765,-0.0002588233910501003,0.0007891334826126695,-0.00055677630007267,-0.0026232050731778145,-0.00295585417188704,0.0027462320867925882,0.003593210130929947,-0.0013808064395561814,-0.0022809342481195927,-0.0035610643681138754,-0.0002883771376218647,0.0011852866737172008,0.0028132100123912096,-0.003393554827198386,-0.0010268362239003181,-0.0019280518172308803,0.00021054738317616284,-0.0005638610455207527,-0.0006006976473145187,0.0018253680318593979,0.003767331363633275,-0.003926049917936325,-0.0022534376475960016,-6.969922833377495e-05,-0.0008130631758831441
-0.0009015733958221972,0.002331842202693224,-0.001056219101883471,-0.0018573066918179393,-0.00013559240323957056,0.0022214839700609446,0.0031662702094763517,-0.00027379655512049794,-0.0018483140738680959,-0.00020382253569550812,0.0038108204025775194,-0.0013203031849116087,-0.001524384948424995,-0.0014097116654738784,0.0037995444145053625,-0.003281549783423543,-0.0014104410074651241,0.00011163546878378838,-0.0037147707771509886,-0.0004084916436113417,0.0027143009938299656,-0.0016167627181857824,0.0026543245185166597,3.335762244205398e-07,-0.0001097514686989598,0.0013507365947589278,0.00047103280667215586,0.0018503924366086721,-0.002148987026885152,0.0007442491478286684,-0.002864993643015623,-0.0006951824761927128,0.0037897557485848665,-0.0013491160934790969,-0.0017063720151782036,0.0033772673923522234,-0.0002803714305628091,0.0010143351973965764,-0.002951092319563031,0.001275648595765233,0.002796320477500558,0.0034137843176722527,0.0007451704586856067,-0.0037667567376047373,-0.0009702062816359103,0.0031949321273714304,0.002386942505836487,-0.0018424325389787555,-0.001067919423803687,0.00083785509923473,-0.0032122544944286346,0.003240726189687848,0.0038710846565663815,-0.0032254469115287066,0.0011960368137806654,0.0006923163309693336,0.0033665094524621964,0.0013135437620803714,0.0010888834949582815,0.0035860592033714056,-0.003116442821919918,-0.0009548735688440502,-0.0021547216456383467,0.0038134718779474497,0.0007551619200967252,-0.002363551175221801,0.001984940841794014,0.002152492059394717,-0.0032873416785150766,-0.002094952156767249,0.0005331643624231219,-0.001581451389938593,0.00014328447286970913,-0.0027395461220294237,-0.0014479137025773525,-0.0001571029279148206,-0.0013287474866956472,-0.0010312808444723487,-0.002525848336517811,-0.0036304136738181114,-0.0028573409654200077,0.0029311112593859434,0.0020083768758922815,-0.003867172170430422,-0.0010662931017577648,0.003759172745049,0.001099429908208549,-0.003654375672340393,0.0038967663422226906,-0.001844767015427351,0.003786277724429965,0.003633088432252407,-0.0020416846964508295,-0.000934560492169112,0.001982755260542035,0.003910141531378031,-0.002739986404776573,-0.002720487769693136,-0.0022273603826761246,0.002243241062387824,0.0033723649103194475,0.003145429538562894,-0.0013907111715525389,0.0034391663502901793,-0.0029209626372903585,-0.0029076056089252234,0.0008060120744630694,0.0037328831385821104,0.001811965019442141,0.0016119639622047544,0.0027108469512313604,0.0037488588131964207,0.0031133173033595085,-0.003202578751370311,0.0016336827538907528,0.0005327927647158504,0.0025148200802505016,-0.002557434607297182,-0.0019648182205855846,0.002026428235694766,-0.000462925061583519,0.0008284763316623867,0.0013318327255547047,0.001985768787562847,-0.00373236951418221,-0.0014632288366556168,0.0027149829547852278,-0.0036597379948943853
-0.0004803651536349207,-0.00018976039427798241,0.0015011990908533335,0.003575006267055869,0.0011886699358001351,0.0030310447327792645,0.001214232062920928,0.0013738877605646849,0.0016323928721249104,-0.0026613580994307995,0.0004661579441744834,0.002194443717598915,-0.00055879564024508,-0.003595965448766947,-0.003013595938682556,-0.0025083650834858418,-0.0006376150413416326,0.003913004882633686,-0.0010366480564698577,0.0002750449348241091,0.003140791319310665,0.002931788098067045,0.0008668082300573587,-0.001255506882444024,0.0019970275461673737,0.00018677974003367126,0.0036515695974230766,0.0006166541716083884,0.0016142126405611634,0.003144666086882353,-0.0034384101163595915,-0.0004925309331156313,0.0012239140924066305,-0.002902663080021739,-0.0031470695976167917,-0.0023219382856041193,-0.00247599626891315,-0.00332754198461771,-0.00010308963828720152,-0.00024090256192721426,0.0016163118416443467,0.001781682949513197,-0.0015177573077380657,-0.0018379162065684795,0.001731705735437572,0.002904297085478902,-0.0013610858004540205,-0.0008308013784699142,0.0021777304355055094,0.002015377627685666,0.0035821818746626377,-0.0016409644158557057,0.0020575188100337982,0.0006823306321166456,-0.0035138458479195833,-0.0005008459556847811,-0.003544947598129511,-0.002154663670808077,0.0031270163599401712,-0.001791893388144672,-0.004010680131614208,-0.0015054368413984776,-0.0029477858915925026,-0.0025446987710893154,-0.0013717027613893151,-0.003240989288315177,0.003661266528069973,0.0028141969814896584,-0.001493485877290368,-0.00029948100564070046,-0.0014243649784475565,0.0010495592141523957,-0.0006518628797493875,0.0012889949139207602,-0.0011704324278980494,-0.002507544355466962,-0.0011337739415466785,0.0006938572623766959,-0.003778240643441677,-0.0038472635205835104,0.0035835173912346363,0.00041223515290766954,0.0002747565449681133,-0.002576744183897972,-0.0005891664186492562,0.0003652159939520061,0.0001521739031886682,0.0023791419807821512,0.002530653029680252,-0.0017908778972923756,-0.0011962464777752757,0.0030070573557168245,0.00041725276969373226,-0.0010052904253825545,-0.0008254377753473818,0.0038069833535701036,-0.0007632883498445153,0.0010727118933573365,0.0022196155041456223,-0.002399181015789509,0.0006552691338583827,0.0034560593776404858,-0.0030473012011498213,-0.003296036971732974,0.0006179951597005129,-0.0038109533488750458,0.000627609551884234,-7.610660395585e-05,-0.0005026301951147616,0.0027793128974735737,0.0008174380636774004,0.002477583708241582,-0.003756097285076976,0.003624135395511985,-0.0020678204018622637,0.003570642089471221,0.0004175069625489414,-0.0034260677639395,0.0026049544103443623,0.0003696913190651685,-0.0032024860847741365,0.0022507053799927235,-0.003001230303198099,0.0034260826651006937,0.0007218261598609388,0.0035810472909361124,-0.0007637602975592017,-0.001197773264721036
-0.003481572726741433,0.0026018694043159485,-0.0027241597417742014,0.001066299737431109,0.0018824629951268435,0.000814568717032671,-0.0006928935181349516,0.003749778727069497,-0.0005101461429148912,-0.00036329380236566067,0.0006456628907471895,0.0008578365086577833,-0.002829114906489849,-0.0012980849714949727,0.003000154159963131,0.0025679199025034904,-0.0021041540894657373,-0.0005041870172135532,-0.0006123984348960221,-0.0036178443115204573,-0.0006420201389119029,-0.0012816621456295252,-0.0029848036356270313,-0.0003042012103833258,0.003263726131990552,0.0005120946443639696,-0.0008988918270915747,-0.00029198298580013216,0.001065783784724772,-0.0011381333461031318,-0.002781440271064639,-0.002146862680092454,-0.0013426957884803414,-0.0037306619342416525,0.0024337507784366608,-0.0037872272077947855,-0.003603156888857484,0.0022956044413149357,0.0006453546811826527,0.002026383765041828,-0.0035935407504439354,-0.003081085393205285,-0.0022223019041121006,0.003616645699366927,-0.00384613499045372,-0.0017028290312737226,0.001898404210805893,-0.002113532042130828,0.0017055629286915064,0.000469434802653268,-0.0008247310179285705,0.0028207392897456884,0.0016865235520526767,0.0010528811253607273,-0.003226205473765731,0.0013525841059163213,0.0005056213121861219,-0.002651332411915064,-0.003736532526090741,0.0014911137986928225,-0.0034755058586597443,-0.0017388504929840565,-0.0031344592571258545,-0.002070752438157797,0.003102237358689308,0.0032986165024340153,0.0019388371147215366,0.0028365817852318287,-9.159572800854221e-05,-0.0038063672836869955,0.002170414663851261,-0.0035473720636218786,0.00243043783120811,0.0038308314979076385,-0.002828602446243167,0.00017441099043935537,0.0005815060576424003,-0.0008672492695041001,0.0026203140150755644,0.0005705964285880327,0.0034166162367910147,0.002686774358153343,0.003492558840662241,0.0009820475243031979,-0.0011000641388818622,0.0007632646593265235,-0.0019571103621274233,-0.003102557733654976,0.0002767516707535833,-0.0005382930976338685,-0.001421978697180748,-0.00045620606397278607,-0.0031937002204358578,0.0015691642183810472,-0.003066275967285037,-9.628064435673878e-05,0.0007460475317202508,-0.0004568943986669183,0.00033832964254543185,0.0014621004229411483,-0.0017447932623326778,-0.001026662066578865,-0.003469065995886922,0.0025703152641654015,-0.0031205383129417896,0.0024051391519606113,-0.0022753931116312742,0.002702445024624467,-0.003677142783999443,0.0018446951871737838,-0.0019248640164732933,-0.0014159564161673188,-0.00048416786012239754,-0.00249697407707572,-0.0008940565166994929,-0.002505712676793337,-0.0018675962928682566,0.0016786493360996246,5.61175802431535e-05,-0.002282786415889859,-6.671225855825469e-05,-7.101833034539595e-05,0.0008531786734238267,4.7209519834723324e-05,0.0008348785922862589,0.00099342898465693,0.002427668310701847,0.0026688268408179283
-0.0031380578875541687,-0.00057079060934484,-0.0012055482948198915,0.0008726837113499641,-0.0018086191266775131,0.0018390543991699815,-0.0016127179842442274,-0.0008381207007914782,0.0002711977867875248,0.0005003032856620848,-0.0023090376053005457,0.00032892843591980636,-0.0011233823606744409,-0.0011552752694115043,-0.003123988164588809,0.0006506721256300807,0.003505572909489274,0.001096544903703034,0.00017963435675483197,-0.0025867093354463577,0.0034534987062215805,0.0008148487540893257,0.000657894357573241,0.0036784608382731676,-0.0012780774850398302,0.0038110509049147367,0.000532480189576745,0.003024477744475007,-0.0010046747047454119,-0.003849873086437583,0.0025825726334005594,0.002364872256293893,-0.001133302808739245,0.0014928069431334734,0.0009321093093603849,0.0010360140586271882,0.001375652034766972,0.001314471592195332,-0.0006076603312976658,-0.0007482717046514153,-0.002506336895748973,0.004225397016853094,0.00030834219069220126,-0.0030900149140506983,0.0026800232008099556,-0.003746140282601118,0.0032471930608153343,-0.0019728350453078747,-0.002830361481755972,0.00010366547940066084,-0.0005227505462244153,-0.0011326608946546912,0.0007661123527213931,-0.0029238674324005842,-0.002067896304652095,-0.0003327848680783063,-0.0006090421229600906,0.00037324748700484633,0.002764743287116289,-0.0011662016622722149,-0.003248075023293495,0.0026056584902107716,0.002739718882367015,0.0031228007283061743,-0.0007130260928533971,-0.000915796379558742,-0.00034351233625784516,-0.0003728213196154684,0.0013867424568161368,-0.003546728752553463,0.001415685866959393,-0.0035349279642105103,0.0030855759978294373,-0.0031636590138077736,-0.0035272061359137297,-0.0024317281786352396,-0.0006502707838080823,0.0009354764479212463,0.0029593901708722115,0.0032666113693267107,0.00022975701722316444,0.002766938414424658,-0.0006522128242067993,-0.004245784133672714,-0.0021394698414951563,0.000839295971672982,0.0009238958591595292,0.0008008535369299352,0.0023015534970909357,0.0033090775832533836,6.331736949505284e-05,0.0037731740158051252,0.0001461680803913623,0.001600782386958599,0.0019228955497965217,-0.0032749674282968044,0.002290447475388646,-0.002985612256452441,0.0020390807185322046,0.001225910964421928,0.002181610558182001,0.00018767303845379502,-0.0029422256629914045,-0.0007575024501420557,-0.003514117794111371,-0.0039186980575323105,-0.0025543319061398506,0.0016009616665542126,-0.0011399072827771306,0.0013316130498424172,0.0020934860222041607,-0.00199856492690742,0.0010738768614828587,0.0025899528991431,0.00047897599870339036,0.0005091553321108222,-0.0016057007014751434,-0.0009868855122476816,-0.00044836619053967297,-0.0023955972865223885,-0.0005976450629532337,0.0030141081660985947,-0.002052746247500181,-0.003148122690618038,0.000424084544647485,-0.0020843215752393007,-0.002979306038469076,0.0005191945238038898
-0.0017194128595292568,0.0021760498639196157,0.002645373111590743,0.0010548740392550826,-0.0012741369428113103,-0.0006557510350830853,-0.003611888736486435,-0.0019201593240723014,0.0024004988372325897,0.0021602672059088945,0.0037322265561670065,-0.0009222442167811096,-0.003597545437514782,-0.0005112431827001274,0.003855419810861349,-0.0035976222716271877,-0.000506472890265286,0.0008773491717875004,0.002003453439101577,-0.0028672264888882637,-0.0015595888253301382,-0.002362628001719713,0.0003495139244478196,-0.002112297574058175,0.0019436697475612164,-0.0023404359817504883,0.0014058164088055491,-0.0010369352530688047,0.00025508448015898466,0.0023067116271704435,0.00020460445375647396,-0.002221657196059823,0.0011672285618260503,0.001840344164520502,0.0024246331304311752,-0.0026649106293916702,-0.0019484689692035317,0.0021013824734836817,0.0022808413486927748,0.0038433752488344908,0.0028949084226042032,-0.0013952362351119518,-0.0033672365825623274,-0.0014782814541831613,0.003312739310786128,-0.002265831921249628,-0.002969517605379224,0.0026036985218524933,0.0011796143371611834,-0.001568129751831293,-0.0008532223873771727,0.001082402653992176,0.0008211593376472592,-0.00033014611108228564,0.00030113710090518,-0.0003142132190987468,-0.001690347446128726,0.002836803672835231,0.002128806198015809,-0.0018840687116608024,0.0024133643601089716,-0.0009138808236457407,-0.0006381709245033562,-0.0026065106503665447,0.0017620241269469261,0.0018683854723349214,0.0004705089668277651,0.0009867243934422731,0.002895945217460394,0.0009123251074925065,0.002402049256488681,0.0035955538041889668,0.0004884839872829616,-0.001981783425435424,0.0017935134237632155,0.0020703596528619528,-0.0017225391929969192,-0.003116405801847577,3.657411434687674e-05,-0.002111332258209586,0.0007212618947960436,-0.0014711185358464718,0.0037482406478375196,0.002048179507255554,0.0034843015018850565,-0.0014787553809583187,-0.0027818656526505947,-0.002142752520740032,-0.0004322835593484342,-0.00014623304014094174,-0.0032002844382077456,-0.00028282360290177166,0.00014948207535780966,-0.0026218199636787176,0.003691543824970722,-0.0018096104031428695,-0.002451280364766717,1.6955793398665264e-05,0.00022736324172001332,0.0037677311338484287,0.000514686107635498,0.002856945153325796,-0.00015238416381180286,-0.0006447667255997658,-0.002799665555357933,0.002914939308539033,-0.0013635087525472045,0.0026885049883276224,-0.0014754278818145394,0.0008585414616391063,-0.0016592738684266806,-0.0015253843739628792,-0.0022350221406668425,-0.002647410612553358,0.0026451926678419113,0.0026129598263651133,-0.003107379889115691,0.0025540029164403677,-0.0004491352883633226,-0.0020881323143839836,0.0027647572569549084,0.0012332773767411709,-0.0013845573412254453,0.003428072901442647,0.0028767019975930452,-0.0005344663513824344,-0.00029027072014287114,0.003107761964201927
-0.00019840826280415058,-0.0012058920692652464,0.0022970305290073156,0.002501176670193672,0.001494053052738309,0.0018041706643998623,-0.0012860893039032817,-0.002396172611042857,-0.0010575110791251063,-0.0020799185149371624,-0.0029582784045487642,0.0023085412103682756,0.0004489268467295915,-0.0023278554435819387,0.001977707725018263,0.002631927840411663,0.0026725365314632654,-0.0016429543029516935,-0.0009524400811642408,0.00011756465391954407,0.0036513330414891243,0.002024451969191432,0.00010436083539389074,0.0005197843420319259,-0.00015854390221647918,0.0029336579609662294,-0.002441390184685588,-0.002602571854367852,-0.0030110215302556753,-0.00171189708635211,0.0010468218242749572,0.0032287968788295984,0.0025184310507029295,0.0025542480871081352,-5.9926001995336264e-05,-0.0023213811218738556,-0.0025912094861268997,-0.003624752163887024,0.0009138591703958809,-0.0027634440921247005,-0.0013955930480733514,0.0001261059078387916,0.0035902648232877254,-4.04407583118882e-05,0.001525325234979391,0.0012636514147743583,0.000901850697118789,-0.0017687942599877715,-0.0030373758636415005,0.0023492907639592886,0.003204149892553687,-0.0010399637976661325,0.003603474237024784,-0.003462455468252301,-0.003542840015143156,-0.003614203305914998,0.0025708447210490704,-0.002044674940407276,0.003979076165705919,0.0010349474614486098,-0.000921352650038898,0.0024339070077985525,0.002018365077674389,0.004122056532651186,-0.0026960147079080343,0.0009163683280348778,0.0011618398129940033,-0.000585614878218621,-0.003427213290706277,-0.003297417424619198,-0.0027754236944019794,-0.0034603297244757414,0.0019762313459068537,-0.0008246383513323963,0.0019525800598785281,0.0006725324783474207,-0.0021284862887114286,0.00013299006968736649,-0.0035044678952544928,0.0017354588489979506,-0.0029235449619591236,-0.000985940103419125,-0.0007317326962947845,0.0017714514397084713,-0.0021442880388349295,0.001256110263057053,0.0012027869233861566,-0.004176693968474865,0.0025000551249831915,-0.0018682616064324975,0.0010774420807138085,9.647891420172527e-05,0.0037600838113576174,-0.0017113119829446077,-0.0014641815796494484,0.0015933370450511575,0.0024884133599698544,0.0033466932363808155,-0.0033909769263118505,-0.0002216619031969458,0.003937183413654566,-0.003181848209351301,-0.003983671311289072,-0.0005874596536159515,0.00023700912424828857,0.0032400060445070267,-0.0010548030259087682,0.0015897060511633754,-0.002937082666903734,-0.002014101715758443,-0.00029538912349380553,-0.0012213884619995952,-0.000960144039709121,0.001978858606889844,0.003155952086672187,0.0023668729700148106,-0.001500074751675129,-0.0010203230194747448,-0.0013486755779013038,-0.0018548436928540468,-0.0004853752034250647,0.00024080925504676998,-0.0012984774075448513,0.0027791443280875683,-0.0024296529591083527,-0.0010307241464033723,-0.002598338760435581,0.0019229874014854431
0.0007924219244159758,-0.0025306541938334703,-0.003440304659307003,0.0031237828079611063,0.0025704812724143267,0.00013024971121922135,0.0018521230667829514,-0.0026367846876382828,8.038159285206348e-05,-0.002106317086145282,-0.002309406641870737,-0.001454668934457004,-0.00025828270008787513,0.0003876435512211174,-0.0018499016296118498,-0.0008978875703178346,-0.003344043157994747,-0.0005188137292861938,-0.0034705607686191797,-0.0017659453442320228,0.001278337906114757,0.0026259319856762886,-0.0028034066781401634,-0.0034828598145395517,0.0016038701869547367,-0.0021686868276447058,0.002978838514536619,-0.0035978418309241533,0.0016226539155468345,-0.002046900801360607,0.0020384960807859898,-0.0035936881322413683,0.0029022039379924536,0.0030092638917267323,0.002037421800196171,-0.0025728645268827677,-0.0037343131843954325,-0.0007332931854762137,-6.042032691766508e-05,-0.0023365861270576715,0.0009269580477848649,0.0024044557940214872,-0.001788353780284524,0.0024500114377588034,-0.0029404591768980026,0.001318581635132432,0.0010741346050053835,-0.002854087855666876,0.0029636237304657698,-0.002660936675965786,0.0013752889353781939,0.0019100334029644728,-0.002985433442518115,-0.002031648065894842,0.002973040798678994,-0.0004327813221607357,0.0016594670014455914,0.003229236463084817,0.00020711024990305305,-0.0024274946190416813,0.0025981313083320856,-0.00045088009210303426,-0.00012746032734867185,0.002868610667064786,0.003853725967928767,0.0026791300624608994,0.0017901379615068436,0.0013690126361325383,0.00321459979750216,-0.003282471327111125,-0.0009282063110731542,-0.0018270733999088407,-0.003429507138207555,0.0025911990087479353,-0.0037181114312261343,0.0017176552210003138,-0.000541292130947113,-0.0026796343736350536,-0.0031700353138148785,0.0024399450048804283,0.003197653917595744,0.0037128387484699488,0.0003071925602853298,0.0034395342227071524,-0.003728867508471012,0.0013336631236597896,0.002751757390797138,-0.001026531565003097,-0.0029065380804240704,-0.0003237577620893717,0.0034519124310463667,0.003120441222563386,0.0033100289292633533,-0.00039618488517589867,0.00042917177779600024,0.0032066055573523045,0.003741859458386898,0.0008557123364880681,0.0028099939227104187,-0.001330050639808178,0.002326180227100849,0.001203399384394288,-0.0018263888778164983,0.00028691909392364323,-0.0009104938362725079,0.0006218270282261074,-0.0031781685538589954,0.002344610868021846,-0.0005018624942749739,0.003730948781594634,-0.0010356009006500244,-0.0003528485831338912,-0.00011163444287376478,0.0015568423550575972,-0.0011641281889751554,0.0005067245219834149,0.001735726254992187,0.0037688456941396,0.003868326311931014,-0.002550821751356125,0.003270348533987999,-0.000936760741751641,0.00010645130532793701,-0.002480669179931283,0.0016213437775149941,0.0006948838126845658,-0.0032076530624181032,0.002036934019997716
0.0006535198190249503,-0.0024895090609788895,0.003790156915783882,-0.0021272997837513685,-4.5543907617684454e-05,0.000596097728703171,-0.0018855597591027617,0.00017990844207815826,-0.0037950356490910053,-0.0016795496921986341,0.0008103435393422842,-0.0035430733114480972,0.003413691883906722,-0.0031839385628700256,0.002473030937835574,-0.0038854542654007673,0.0033910199999809265,-0.0015791095793247223,-0.003694110317155719,-0.00021311326418071985,0.002625101711601019,-0.0032176899258047342,0.0009430973441340029,0.0011305415537208319,-0.001626631012186408,0.0028235388454049826,0.0029141330160200596,0.00303875794634223,0.0020875995978713036,0.003233394818380475,0.0010331171797588468,0.003747049020603299,0.0025066386442631483,-0.0011107224272564054,-0.001469805953092873,-0.0021357142832130194,-0.0036675184965133667,-0.0005698134773410857,-0.002594322431832552,-0.002714082133024931,-0.002817867323756218,0.0009368376922793686,0.003863656660541892,-0.003687996184453368,-0.0026463130488991737,-0.0008903853013180196,-0.001158535247668624,0.0020723033230751753,-0.002911121118813753,0.002281586639583111,9.8040523880627e-05,-0.0006204296951182187,0.0029725332278758287,0.0006263387040235102,-0.002542098518460989,-0.0021163257770240307,0.0008516160305589437,0.000761384260840714,0.001694761449471116,-0.0021003002766519785,0.00194532610476017,-0.0031831995584070683,0.0033337429631501436,-0.0013080432545393705,-5.139841960044578e-05,0.0009982687188312411,-0.0030330854933708906,-2.855178536265157e-05,-0.003134986385703087,0.003809158457443118,0.0033112289384007454,0.0027960289735347033,0.00339187728241086,-0.0011486667208373547,-0.001851660548709333,0.0010643277782946825,-0.00032678587012924254,0.0006241585360839963,0.0004431605339050293,-0.000764764379709959,-0.0026060943491756916,-0.0002411134191788733,0.0034252768382430077,-0.0031156085897237062,0.0016191984759643674,0.0020947863813489676,-0.00037592212902382016,0.0022571806330233812,-0.0008825290715321898,-0.00370087125338614,-0.003551822854205966,0.003176245139911771,-0.003565962193533778,0.002623721258714795,0.00023745048383716494,0.0015722126699984074,-0.002615142147988081,-0.0012440757127478719,0.003765491768717766,-0.00040694844210520387,0.001661894959397614,-0.002673125360161066,-0.0006105514476075768,-0.0007937258342280984,-0.0022730561904609203,-0.0029258837457746267,-0.0013538304483518004,0.002678773133084178,0.002999577671289444,-0.002505510114133358,0.0023626904003322124,0.0008388350834138691,-0.003727314295247197,-0.0026404266245663166,0.0006745753926225007,0.0036666581872850657,0.0014370728749781847,-0.0032041091471910477,0.002932616276666522,0.0006629984127357602,-0.0030843440908938646,-0.0029593822546303272,8.422717655776069e-05,0.0006268754950724542,-0.001619549817405641,-0.003439505584537983,-0.0005786626134067774,-0.0012448441702872515
0.0006857807748019695,-0.0014382776571437716,-0.000820228538941592,0.004032752010971308,-0.0021294341422617435,-0.003418754553422332,0.0016868208767846227,0.00039481258136220276,0.0028585863765329123,4.118703873245977e-05,-0.0027725829277187586,0.001569319050759077,0.0012179017066955566,0.0032463667448610067,0.0004007604147773236,-0.0028155893087387085,-0.0021887090988457203,0.00023331344709731638,-0.0014450871385633945,0.0023906207643449306,0.0016273719957098365,0.003715584287419915,0.0037656459026038647,0.003521569073200226,-0.00047894471208564937,0.0024496782571077347,-0.00024225971719715744,-0.002135035814717412,-0.00010231703345198184,-0.0014066386502236128,-0.0022086352109909058,-0.003134851111099124,0.0011091014603152871,0.003606824902817607,0.002390114823356271,0.0021569160744547844,-0.0015751123428344727,8.923407585825771e-05,0.0024837099481374025,-0.004066834691911936,0.0005077142850495875,-0.0012208456173539162,-0.002107662847265601,0.0005677152657881379,-0.0028679990209639072,-0.002013318706303835,0.0009244515676982701,0.0035809476394206285,-0.0029057583305984735,0.0006653989548794925,-0.0029095816425979137,-0.002815613290295005,0.0031941584311425686,0.002315171528607607,-0.00351838581264019,-0.0009456634288653731,0.003450960386544466,-0.0029960204847157,-0.002629961119964719,0.0007551133166998625,0.0011435754131525755,0.0024614823050796986,0.0027494446840137243,-0.0007306158076971769,-0.002618535654619336,-0.003353125648573041,-0.0020293048582971096,-0.0007928141858428717,-0.0005114161176607013,-0.001247198786586523,0.0027274887543171644,0.0023270156234502792,-0.0018800762481987476,0.0022080866619944572,-0.0029633878730237484,0.0014790205750614405,1.8727083443081938e-05,0.003519889898598194,0.0021459762938320637,0.0036416177172213793,-0.00022986781550571322,-0.0026185675524175167,-0.0005199909792281687,-0.002276734448969364,0.0035888366401195526,-0.003190087852999568,-0.0024575439747422934,0.0010883398354053497,0.002492469036951661,0.003932012245059013,0.0005107179749757051,0.003118023043498397,0.0004039660270791501,0.0017640994628891349,0.0011932923225685954,0.0023856901098042727,0.0009109410457313061,0.00017264920461457223,0.0015005501918494701,0.0009646005928516388,-0.00017002841923385859,-0.00026912085013464093,0.003589869011193514,0.001018551760353148,0.0040158168412745,-0.0009213759331032634,-4.5702247007284313e-05,0.0015227519907057285,0.00024714291794225574,-0.001796986092813313,-0.001319988863542676,0.003397777210921049,-0.003251458052545786,0.0025091073475778103,0.0012015720130875707,0.003489413997158408,0.0015575094148516655,0.003299233503639698,-0.0023692247923463583,-0.0003055256383959204,0.0039074295200407505,0.0028147075790911913,0.003054650267586112,-0.0036664914805442095,0.0034072266425937414,-0.002203447511419654,0.0017229211516678333,0.0009168973774649203
0.003327271668240428,0.0023100259713828564,-0.000984485843218863,-0.0014632511883974075,-0.0010652493219822645,0.0005870798486284912,-0.0016661215340718627,-0.0006215040921233594,0.0017086832085624337,-0.002162163145840168,-0.0020402942318469286,0.0007706655887886882,0.0024932818487286568,0.0031850961968302727,-0.00040467301732860506,-0.0019341270672157407,0.0022057699970901012,0.002951736329123378,-0.0031314538791775703,-0.0016815382987260818,-0.0009488807409070432,-8.686767250765115e-05,0.0031161466613411903,-0.003517929231747985,0.00037440090090967715,0.002775136847048998,0.0007389138918370008,0.0028679384849965572,-0.0020255688577890396,0.001584362704306841,0.0010812381515279412,-3.96200230170507e-05,-0.0010775395203381777,0.001800880185328424,0.0014197129057720304,0.0015817297389730811,-0.002025410532951355,0.002467361046001315,0.00296561187133193,0.003628147765994072,0.0014649525983259082,0.0013070235727354884,0.0008450769237242639,0.0010161625687032938,0.003193487646058202,-0.0004132628091610968,-0.0026513098273426294,-0.003396830754354596,-3.839920100290328e-05,0.0014150837669149041,-0.003242349484935403,-0.0015802973648533225,0.0018927124328911304,-0.003156418213620782,0.0006697968929074705,0.0005872891051694751,0.00011895479838130996,-0.003898099297657609,-0.001878533512353897,0.0006024007452651858,-0.004094801843166351,0.0005199916195124388,0.0009825231973081827,-0.0027051453944295645,0.0024026399478316307,0.0016700946725904942,-0.0027971642557531595,-0.002641230821609497,0.0026216860860586166,0.0020315363071858883,0.002023527631536126,0.0035135000944137573,0.0007249373593367636,0.0005896476213820279,0.003024531528353691,0.0013720814604312181,-0.0026341108605265617,0.0032292280811816454,0.0018394769867882133,-0.0008201880264095962,0.0014689345844089985,0.0029735073912888765,0.0036031247582286596,0.0029392470605671406,0.0017276850994676352,0.0009428972261957824,0.0006430735811591148,-0.0017224295297637582,0.0009949503000825644,-0.002902273554354906,0.002039786195382476,0.0028764584567397833,0.0025411376263946295,-0.0010331341763958335,0.0034660175442695618,-0.003732929704710841,-0.0008266466902568936,-0.0014930973993614316,-0.00027566496282815933,-0.003684096271172166,0.0030588344670832157,0.0020863874815404415,-0.001769107999280095,-0.002801580587401986,0.001153480028733611,-0.003096377942711115,0.000881849555298686,0.0013528985437005758,-0.0019906030502170324,-0.0029400535859167576,-0.0016909590922296047,-0.000521367066539824,-0.003935371991246939,0.0031838284339755774,-0.0018619354814291,0.0031116430182009935,-0.0028195325285196304,-0.002502006944268942,0.0012174483854323626,0.0005977469263598323,-0.0018716446356847882,-8.998827979667112e-05,-0.0019027842208743095,-0.002070613205432892,-0.003025790210813284,0.0005548132467083633,-0.0024819225072860718,0.0033577019348740578
-0.0038163072895258665,-0.003339418675750494,-0.00018611269479151815,0.0019933718722313643,0.0009806057205423713,-0.0010880378540605307,-0.0009061440941877663,-0.0020621486473828554,-0.0026990436017513275,-0.002725876634940505,0.002006146125495434,-0.0028175709303468466,0.001358036999590695,-0.0006698627257719636,-0.002730840351432562,0.0016259650001302361,-0.0017516313819214702,-0.003053547814488411,-0.0005697907181456685,0.0015938689466565847,-0.0003178440092597157,0.0034329635091125965,-0.0014435750199481845,-0.001348542282357812,0.003039397532120347,-0.0017995809903368354,-0.00036142670433036983,-0.0025128659326583147,0.0038025802932679653,-0.001844801940023899,-0.0006247468409128487,-0.0021238226909190416,-0.0038807832170277834,-0.0038378816097974777,-0.0008200024603866041,0.002688042353838682,0.001725746551528573,0.0017434876644983888,0.003469893941655755,0.0035815925803035498,0.0027808467857539654,0.0018234903691336513,0.0022315089590847492,0.0005233089905232191,-0.0006218744674697518,0.0017789785051718354,0.0015772634651511908,-0.0013909577392041683,0.0003945773933082819,0.0014841128140687943,0.0029622772708535194,-0.000211958700674586,-0.0033381404355168343,0.0024749001022428274,-0.00010582125833025202,0.003871762892231345,0.003699652384966612,0.0031458367593586445,0.00019504800729919225,-0.0033215379808098078,0.0002439204981783405,-0.0021183269564062357,-6.739324817317538e-06,-0.0016375527484342456,0.0027703542727977037,0.0017994822701439261,0.0038313819095492363,0.0030820497777312994,7.852866838220507e-05,-0.0020628529600799084,-0.002514392137527466,0.0015839755069464445,-0.003621782409027219,-0.003375961910933256,-0.0030880302656441927,0.0029995611403137445,0.0013266996247693896,-0.0011012230534106493,0.0008091249037533998,0.0026125945150852203,-0.003846836043521762,-0.0015837450046092272,-5.0648945034481585e-05,-0.003075710264965892,0.0010329060023650527,0.001979072578251362,-0.0018221166683360934,0.0021569705568253994,-0.001535401912406087,-0.003323731943964958,0.00013585457054432482,0.0029633082449436188,0.0020639277063310146,0.0028736304957419634,0.0020060345996171236,0.002553968457505107,0.0006674574688076973,0.0038155526854097843,0.002049411879852414,0.0038423840887844563,-0.002572715515270829,0.0015516540734097362,0.001400262932293117,-0.0021427988540381193,-0.0025347063783556223,0.00034951508860103786,-0.0022907915990799665,0.0032491974998265505,-0.0013944146921858191,-0.0037651394959539175,0.0030711349099874496,-0.002653538715094328,0.003138680709525943,0.0030287776608020067,-0.0020743119530379772,0.002264640759676695,0.002819136017933488,0.0038841567002236843,0.003757762024179101,-0.0006602248176932335,0.0010298077249899507,-0.0037472634576261044,0.001470339484512806,0.0009794243378564715,-0.0007069938001222908,0.0024454982485622168,-0.0030551545787602663,0.0004552793106995523
0.001594952424056828,0.0031714625656604767,0.001147062866948545,-1.601828626007773e-05,-0.00219891220331192,0.0008660744060762227,-0.0017316335579380393,0.0011544852750375867,-0.0011153428349643946,0.002830666024237871,-0.0024893225636333227,0.000362429884262383,0.0019472141284495592,-0.002178522991016507,0.0016521969810128212,-0.0004668894980568439,0.0008314749575220048,-1.9675835574162193e-05,-0.0029778347816318274,0.0025443558115512133,-0.002057224279269576,0.003825054271146655,0.0027919900603592396,0.003385158721357584,0.0009278756333515048,0.0031085361260920763,0.0001108191572711803,0.00028417218709364533,-0.0029919876251369715,0.0008391178562305868,-0.0017976711969822645,0.0026111409533768892,0.0030891504138708115,-0.0002422379911877215,0.003556870622560382,-0.0031704488210380077,-0.0007346152560785413,-0.002362634753808379,-0.002572090597823262,-0.0035427676048129797,-0.0004766541242133826,0.0005102355498820543,-0.00015808342141099274,0.001453622942790389,0.0024065396282821894,0.0005984490853734314,0.0026941969990730286,0.00353323039598763,-0.0020179206039756536,0.003005584701895714,-0.0029575203079730272,-0.003920752089470625,0.001923833042383194,-0.0031253723427653313,-0.0006384221487678587,0.0009226061520166695,0.002476669382303953,0.002363544190302491,0.00010464810475241393,-0.001859877840615809,0.0024507595226168633,-0.0010686154710128903,0.0021098917350172997,0.002817153465002775,0.003336719935759902,0.003898640163242817,0.0017779070185497403,-0.0017803616356104612,0.0008307491079904139,0.0036660993937402964,0.0008961717830970883,-0.0003276418137829751,-0.0008051666081883013,-0.00047986875870265067,-0.00021198390459176153,-0.0008466563886031508,0.0026939574163407087,0.001851128414273262,-0.00158534268848598,-0.003417497966438532,-0.0035797900054603815,-4.085143154952675e-05,0.0024908713530749083,0.0034464492928236723,-0.0003694529877975583,-0.0030984459444880486,-0.002166016725823283,0.002587969647720456,0.0005554602830670774,-0.00235124584287405,-0.003458369290456176,-0.001979268155992031,-0.0038146325387060642,0.0011479093227535486,0.00023667162167839706,-0.0014341094065457582,-0.0007485534879378974,-0.001927239471115172,-0.0011549318442121148,0.0030204695649445057,0.0004777566937264055,-0.0017560358392074704,0.0038787350058555603,-0.00023729140229988843,-0.001949372817762196,0.0005313041619956493,0.0038647076580673456,-0.003468126058578491,-0.00021645837114192545,-0.002574068494141102,-0.0032756775617599487,-0.002404955215752125,0.002806686330586672,-0.0030807843431830406,-0.0022799160797148943,0.0005226936773397028,0.0018763720290735364,0.002979762852191925,0.0013710232451558113,0.002344000618904829,-0.0018153367564082146,-0.0023674697149544954,0.002492011757567525,-0.0012928023934364319,-0.000236335166846402,-0.003466743743047118,-0.00247230869717896,0.0025120293721556664
-0.0002990459033753723,0.0005055810324847698,-0.0036249959375709295,-0.00040448439540341496,-0.003564414568245411,-0.0025905536022037268,0.0007967562996782362,0.0020532903727144003,0.00042036548256874084,-0.0031965055968612432,0.002758471993729472,0.0008226557984016836,-0.0011187735944986343,-0.001540719997137785,-0.0036092614755034447,0.0026604507584124804,-0.0008517429232597351,0.003569990862160921,-0.0017674097325652838,-0.002217898378148675,-0.0023293092381209135,0.00015762512339279056,0.0017804604722186923,0.0007272274815477431,0.0013416988076642156,0.003314236644655466,-0.003828830784186721,-0.0008383215754292905,-0.00029765270301140845,-0.0024245718959718943,-0.0032560157123953104,0.003257068805396557,-0.0025332074146717787,-0.0031178072094917297,-0.0022070957347750664,0.0021956542041152716,-0.003696574131026864,-0.002411455614492297,0.0022830539382994175,-0.0037044715136289597,0.0002388868888374418,-0.0003057861758861691,-0.002298436127603054,-0.002126287901774049,-0.0033332041930407286,0.003676322754472494,-0.003904943587258458,0.0026184474118053913,-0.0023543788120150566,0.00034968595718964934,0.00042820331873372197,0.0011381559306755662,0.002935910364612937,-0.0017548918258398771,-0.0010234590154141188,-0.002300067339092493,-0.002736315131187439,0.003205455606803298,0.0029780936893075705,-0.0025192161556333303,-0.001257451600395143,-7.824810018064454e-05,-0.003343596588820219,-0.0007580330711789429,0.0005595123511739075,-0.00032899747020564973,-0.0021546476054936647,-0.0016299077542498708,-0.00021319101506378502,-2.602564745757263e-05,0.0008984149317257106,1.5333636838477105e-05,0.0005761423381045461,0.002450948115438223,8.561692084185779e-05,0.002020051470026374,-0.00148172362241894,0.00295939389616251,0.0022214700002223253,0.003065667347982526,0.00030875782249495387,-0.0037374969106167555,-0.0008541982970200479,0.001807179767638445,-0.002674094634130597,-0.0008189487853087485,-0.0010026663076132536,-0.0027736290358006954,-0.002863373374566436,-0.0018935006810352206,0.0027994296979159117,0.0007695219246670604,0.0008106260793283582,0.0037576002068817616,-0.0014839733485132456,-0.0012630232376977801,0.0018464474705979228,8.94043841981329e-05,0.0019767615012824535,0.00230145500972867,-0.0027981929015368223,-0.002631999086588621,-0.003466262249276042,0.0015062325401231647,0.002590038115158677,0.0034186081029474735,0.0008636911516077816,0.0013189485762268305,0.0032790545374155045,0.0029490110464394093,-0.0034808164928108454,-0.0007291975198313594,0.0027534787077456713,0.0010424281936138868,-0.003797743236646056,0.0005335145979188383,0.0036056647077202797,-0.0018238646443933249,-0.0034250239841639996,0.0007853927672840655,-0.0020139298867434263,0.0030646834056824446,0.0011158258421346545,-0.0014129929477348924,-0.0033977925777435303,-0.0013605933636426926,0.0031138183549046516,-0.0036675198934972286
0.00039398804074153304,3.139410910080187e-05,-0.001107273274101317,-0.0013702939031645656,0.0011630435474216938,-0.0005452499026432633,0.0032258694991469383,-0.0013863943750038743,-0.0035884829703718424,0.0006912336102686822,4.674975571106188e-05,-0.0017800305504351854,-0.0020736511796712875,0.0008499610121361911,-0.0005707263480871916,0.001421500463038683,-0.002303055953234434,0.0017973321955651045,-0.002159297466278076,0.0029027569107711315,0.0007812889525666833,0.0009400256094522774,-0.0021262329537421465,0.003193990793079138,-0.0014620063593611121,0.0005177582497708499,-0.0019992045126855373,-0.00024052242224570364,-0.0009391045896336436,-0.00039411758189089596,0.0024665757082402706,0.0016149794682860374,0.002109624445438385,0.000570621807128191,-0.003422645153477788,0.00399965513497591,0.0011991471983492374,0.002357018645852804,0.001871671760454774,-0.001956660533323884,-0.003729646559804678,0.0013852276606485248,-0.0012655943864956498,0.00228994432836771,-0.0030022026039659977,0.001770024886354804,-0.0038091372698545456,0.0026350512634962797,-0.0011845091357827187,0.0031421701423823833,-0.0015784538118168712,-0.003746613161638379,0.0017401903169229627,-0.0008675525896251202,-0.0015223495429381728,0.002195772249251604,-0.0015522842295467854,-0.0036196208093315363,-0.0017672753892838955,0.003473291639238596,-0.0021727390121668577,0.003414318896830082,-0.0031426118221133947,0.0016323348972946405,-0.0036687245592474937,-0.003165390808135271,-0.00011847375571960583,-9.929820225806907e-05,-0.0035678348504006863,-0.0003915861598215997,-0.0030163084156811237,0.0038527536671608686,-0.003673518542200327,-8.986242028186098e-05,3.402139918762259e-05,8.940099360188469e-05,0.0013490031706169248,-0.0025503491051495075,-0.0007478091865777969,-0.0021043838933110237,0.0011443208204582334,-0.0022931902203708887,0.0003820683341473341,0.00317821535281837,0.0011817264603450894,0.0023605136666446924,0.0035044655669480562,-0.003602321958169341,-0.0005340722855180502,0.0015945462509989738,-0.003095233580097556,0.0010204450227320194,0.0008437559590674937,-0.003590767038986087,0.0031181923113763332,0.003005554433912039,0.000298722559818998,-0.002264338778331876,-0.001002682838588953,-0.002496090717613697,-0.0008186884224414825,-0.0027537625283002853,-0.000749558093957603,-0.0010470814304426312,0.0025176294147968292,-0.002194548025727272,-0.0032445131801068783,0.001698455773293972,-0.0031170195434242487,-0.00022925443772692233,-0.0029018763452768326,-0.002423967933282256,-0.0003005318285431713,-0.0026273031253367662,-0.003169572912156582,0.0006997059681452811,-0.0005353973829187453,0.001795273507013917,-0.00026257196441292763,0.000316669320454821,0.00033725821413099766,-0.002289904747158289,-0.0037630340084433556,-3.4130749554606155e-05,-0.0029199104756116867,0.0014988582115620375,0.0018268006388098001,-0.0003979149041697383
0.001786225475370884,0.003644521115347743,0.003659739624708891,0.0038057295605540276,0.0018311982275918126,-0.0015748845180496573,0.0036178024020045996,-0.002754044020548463,-0.0007512113079428673,-0.0009074719855561852,-0.0017549822805449367,0.0026539063546806574,-0.00263040279969573,-0.000516141823027283,-0.0034084864892065525,0.0008825677214190364,0.003871709108352661,0.002059605438262224,0.0018074031686410308,-0.0032171709463000298,-0.003309411695227027,0.003722195280715823,-0.0035380690824240446,0.0019967223051935434,-0.0007234838558360934,0.0020696274004876614,-0.0030606796499341726,-0.002458802657201886,0.003388107754290104,0.0029306786600500345,-0.00011005792475771159,0.0016693328507244587,-0.0028524750377982855,-0.0015116848517209291,0.0030933425296097994,0.002406336832791567,0.002100891200825572,0.0012633653823286295,0.003092406550422311,-0.0007967179990373552,-0.0033230541739612818,0.002449338324368,-0.002732018008828163,0.00309304753318429,0.0030490225180983543,-0.001846219296567142,-0.0022557186894118786,7.777647260809317e-05,0.002048002788797021,-0.000564424553886056,0.003570541040971875,-0.0019727994222193956,-0.0007551790331490338,0.0002692671259865165,-0.0025155870243906975,0.0006073217373341322,0.0009796349331736565,-0.0024846873711794615,-0.003549484070390463,-0.0034079118631780148,0.003028074512258172,0.0030780592933297157,-0.0034561806824058294,-5.3140513045946136e-05,0.0033062449656426907,0.0025083706714212894,-0.002626792062073946,-0.0015178665053099394,0.0003841015277430415,0.0012147523229941726,-0.002778672380372882,0.0009177145548164845,-0.00347964302636683,-0.0014104327419772744,0.0018093505641445518,-0.0025645375717431307,-0.00216187653131783,0.0012514168629422784,0.003499366110190749,0.0011801677756011486,0.0010868103709071875,-0.0004210376937408,0.002184325596317649,0.0012742354301735759,-0.002425537211820483,0.001559896394610405,0.0036777725908905268,-0.00042749379645101726,0.0034814856480807066,0.0008587079355493188,0.00046044529881328344,0.0029164720326662064,-0.003465082496404648,-0.0016702011926099658,0.0030128033831715584,0.0035338338930159807,0.0010269167833030224,0.003698494518175721,0.002933584386482835,0.0021561444737017155,0.0011594730895012617,-0.0028068902902305126,0.0012244470417499542,0.0024942178279161453,0.0020804712548851967,-0.001977347070351243,-0.0011533594224601984,0.0037525633815675974,-0.0026038240175694227,0.001201541512273252,-0.0011045812861993909,-0.0005353011656552553,0.0011059567332267761,-0.0012672137236222625,0.0018498677527531981,0.001399601111188531,-0.00012266001431271434,0.0028586415573954582,-0.0017441397067159414,-0.002699353266507387,0.003924564458429813,0.0014254340203478932,-0.0014473185874521732,-0.0010241417912766337,-0.0004270022618584335,-0.002439944539219141,0.002233252627775073,-0.000910694885533303
0.0035481322556734085,0.0001006721067824401,-0.0003743843990378082,-0.00015520770102739334,-0.002525146584957838,-0.003773809876292944,-0.003904611337929964,0.0014959046384319663,0.0013409421080723405,-0.002328298520296812,-0.00035856370232068,-0.0017764937365427613,-5.859672819497064e-05,0.002650144277140498,0.0028006434440612793,0.0022078140173107386,-0.003017243230715394,0.00041954120388254523,-0.0024283488746732473,-0.000827616429887712,-0.002255386207252741,-0.0016090597491711378,-0.0024026234168559313,-0.0011643238831311464,0.0020554938819259405,0.0007648950559087098,-0.002220744965597987,-0.0014700328465551138,0.00381260272115469,-0.0004920426872558892,-0.0035110535100102425,0.003307380946353078,-0.002469349652528763,-0.0038242817390710115,-0.000349414418451488,0.0006930052768439054,0.00035456320620141923,0.004048733040690422,-0.0015287776477634907,-0.003671786980703473,2.4842405764502473e-05,-0.0017490338068455458,0.001932819839566946,0.00032167378230951726,0.0021689024288207293,0.0013960115611553192,0.0023644044995307922,-0.0016070291167125106,0.0026377004105597734,0.0005915281362831593,-0.001550937769934535,-0.0015902811428532004,0.003614641958847642,-0.0017291088588535786,0.0008665277273394167,0.0011694099521264434,-0.0005291835404932499,-0.003923066891729832,0.0019994224421679974,0.0021151939872652292,-0.0006445642793551087,0.0019003900233656168,0.003920287825167179,-0.0026577627286314964,0.0023442404344677925,0.002908462891355157,-0.0010606310097500682,-0.0006873645470477641,-0.002517651068046689,0.00046057606232352555,0.0031856377609074116,-0.0008078024839051068,-0.002343723550438881,-0.0013628174783661962,-0.0018013224471360445,0.003030946711078286,0.0013957942137494683,-0.0006380458944477141,0.0027649716939777136,-0.004205474629998207,0.003557416843250394,-0.001320758368819952,-0.001508670742623508,0.0014424821129068732,0.0027092418167740107,0.0034156290348619223,0.003619580529630184,0.0006306549767032266,0.0007492235745303333,-0.0026901366654783487,0.003285671817138791,-0.0024542168248444796,0.0021845349110662937,-0.0017736080335453153,0.00024990641395561397,-0.0027081307489424944,-0.0036479695700109005,-0.0004582454275805503,-0.0018185661174356937,-7.534476753789932e-05,-0.0019544728565961123,0.0017983178840950131,-0.00033518546842969954,-0.000535670667886734,-6.405452586477622e-05,0.0032887905836105347,-0.0034761347342282534,-0.002663952996954322,-0.0023654380347579718,-1.1196765626664273e-05,0.0008017632062546909,0.0010048106778413057,-0.003746332135051489,-2.8552216463140212e-05,-0.0020020839292556047,-0.0033877333626151085,-0.002203975571319461,-0.00034984591184183955,-0.0012086459901183844,-0.0013290203642100096,-0.002277250401675701,-0.00040340013219974935,-0.002372204093262553,0.003980735316872597,-8.393894677283242e-05,0.0029648200143128633,-0.0011033820919692516,0.003200477221980691
0.0001638482353882864,-0.0006604579393751919,-0.003628372447565198,-0.0033542714081704617,-0.0011218804866075516,0.0014213493559509516,0.0002255083672935143,-0.0005074033979326487,-7.156409265007824e-05,-0.0025779674760997295,-0.00014414454926736653,-0.003053426742553711,0.0034589297138154507,0.00142456975299865,0.0006603516521863639,0.003154626116156578,0.0023589134216308594,0.0037387993652373552,-0.0036053748335689306,-0.00041217630496248603,0.004016234073787928,0.0029669376090168953,0.00026098868693225086,-0.002922309096902609,0.0005560680292546749,0.0015466212062165141,-0.002733994508162141,0.0013853312702849507,0.0024670951534062624,-0.00010788560030050576,-0.001718461629934609,-0.002667691558599472,0.002099246485158801,-0.0001812084374250844,0.0006464726757258177,-0.0017639376455917954,0.004010761622339487,0.0008141988655552268,-6.416284304577857e-05,0.0010762510355561972,0.0005441600224003196,0.0009278124780394137,-0.0037280451506376266,-0.0028348546475172043,0.0023799510672688484,0.002406859304755926,-0.003795633791014552,-0.003648822195827961,-0.0010940551292151213,-0.0011379980714991689,-0.004018436186015606,-0.0020242230966687202,-0.0006967431399971247,-0.0031820021104067564,-0.0007290674839168787,-0.0022999215871095657,0.0027986299246549606,0.0021331622265279293,-0.0013265470042824745,-0.0024126770440489054,0.00031462335027754307,-0.0009342906414531171,0.001557959127239883,0.0033866751473397017,-0.0015146303921937943,-0.001711930730380118,0.0027516004629433155,-0.0018536116695031524,0.0007821337785571814,-0.0015183001523837447,-0.0008998268167488277,0.0013489521807059646,-0.0010382392210885882,0.004151974804699421,-0.00174442189745605,-0.001965678296983242,-0.0014077589148655534,0.0016247682506218553,-0.000848562631290406,-1.737125603540335e-05,8.910370524972677e-05,0.003225108375772834,-0.00042224739445373416,0.0017818581545725465,-0.0025789488572627306,-0.002650917274877429,0.0009115859866142273,-0.001976568950340152,-0.0025502087082713842,0.0002855232451111078,-0.0009199343621730804,-0.001305151148699224,-0.0004451390414033085,0.0033159146551042795,0.0030037073884159327,0.002608700655400753,-0.002539974870160222,0.0012555060675367713,0.0038249222561717033,-0.000723886420018971,-0.0001242540602106601,-0.002409655600786209,0.0027186728548258543,-0.0025068006943911314,-0.002888110699132085,0.002563073532655835,0.0030984533950686455,-0.00013126451813150197,0.0007099385256879032,0.002163237426429987,-0.002387929940596223,-0.0020473869517445564,0.002317866776138544,-0.000984086305834353,0.002160802483558655,-0.00022028385137673467,-0.0006229552673175931,0.0022834313567727804,-0.0009686097037047148,-0.00042620484600774944,0.0018585646757856011,0.000505408679600805,-0.0006767170270904899,-0.003646288765594363,0.0005405865958891809,0.00012913769751321524,0.0036478815600275993,0.0005171925877220929
0.000548622861970216,0.001315607107244432,0.0001535099872853607,-0.0032897363416850567,-0.0012079161824658513,-0.004194657318294048,-0.002102540573105216,0.003167201764881611,-0.0024869684129953384,0.0014349111588671803,-0.0007317281560972333,0.0005871416651643813,-0.003215374192222953,0.0008376243058592081,-0.0032157073728740215,0.0015956942224875093,-0.0033286854159086943,0.0026350170373916626,-0.0023708930239081383,0.0034283706918358803,0.004123553168028593,0.0034966885577887297,-0.0008832979947328568,-0.00028968503465875983,0.004337220918387175,0.001267137355171144,-0.0031659866217523813,-0.0003496463759802282,-0.002196140354499221,0.00018995165009982884,0.0028804882895201445,0.0036881042178720236,0.0009078452712856233,0.0011347150430083275,0.0026266800705343485,-0.00018811920017469674,-0.0027338946238160133,0.0040741367265582085,-0.0023146679159253836,-0.0014252223772928119,0.0031738742254674435,0.002456496236845851,0.0007619665702804923,-0.0036047978792339563,0.0008742878562770784,-0.00097529252525419,0.0008161971345543861,0.0024980520829558372,-0.0008515442023053765,0.0005681572365574539,-0.0009533229167573154,0.0015105226775631309,0.000963639875408262,-0.00011420108785387129,0.0021267286501824856,0.0032342022750526667,-0.0029367166571319103,0.0028182086534798145,-0.0020305763464421034,-0.0038339996244758368,0.0017522244015708566,-0.00361974211409688,0.004581310786306858,-0.001079730922356248,0.0026957616209983826,-0.0008392504532821476,-0.00011845149128930643,0.0006594670121558011,-0.0013207000447437167,-2.2486465240945108e-05,-0.00025053121498785913,0.001369215315207839,-0.00011265025386819616,0.0014466865686699748,0.0038190828636288643,-0.0022420063614845276,0.0032845165114849806,-0.002677422948181629,-2.0018007489852607e-05,0.003083659801632166,0.0036305522080510855,-0.003210298949852586,-0.003570996457710862,-0.0016901559429243207,-2.0228604626026936e-05,0.0030383076518774033,0.0023700958117842674,-0.0015203781658783555,0.0023847559932619333,0.0013047821121290326,-0.0025091201532632113,0.004419202916324139,-0.00025337666738778353,-0.003173476317897439,0.002631458919495344,-0.002998970216140151,-0.002764861797913909,0.0026830132119357586,-0.001949816127307713,-0.0004801981267519295,0.0037577066104859114,0.002409375039860606,0.0019701500423252583,-0.001784836989827454,0.001879488117992878,0.00024247767578344792,0.002222687005996704,0.0013029418187215924,-0.001494384603574872,0.0026796720921993256,-0.0007466539391316473,0.00047713323147036135,-0.0010189905297011137,0.0002822323003783822,0.003097859676927328,0.001660599373281002,-0.00170592509675771,0.0016423893393948674,3.116414518444799e-05,-0.0009482760797254741,0.004298610147088766,-0.0029950831085443497,0.0016451075207442045,-0.0009969283128157258,0.0020188887137919664,-0.0033849969040602446,0.001854121102951467,-0.004091342445462942
-0.002454474102705717,8.882197289494798e-05,0.003984115086495876,0.0015722769312560558,0.0009955946588888764,0.003358995309099555,0.0017794189043343067,-0.0012901787413284183,0.002551032928749919,-0.0012696575140580535,-0.0030609681271016598,0.0036076244432479143,0.003722324501723051,-0.0007712300284765661,-0.002968156710267067,0.0027843427378684282,-0.003520789323374629,0.003439659485593438,-0.0008335750899277627,0.0003755131911020726,-0.001546886982396245,0.0039552561938762665,0.0010967429261654615,-0.0009614371228963137,0.001419900101609528,0.003463971195742488,-0.0005004853592254221,-0.0039095571264624596,0.0027095105033367872,-0.0039020520634949207,0.00034746486926451325,-0.003580099670216441,-0.0028903926722705364,-0.0003780160623136908,0.0025310886558145285,-0.0019899054896086454,-0.0010383529588580132,0.0014356243191286922,0.0017842103261500597,-0.0022889089304953814,-0.002405066043138504,0.003978515509516001,-0.002569786738604307,0.003688923781737685,0.0004974858602508903,0.0036532655358314514,0.0014571944484487176,0.003889791201800108,-0.0027264978270977736,0.0009022065787576139,0.0006523848860524595,0.002672793110832572,-0.0021864997688680887,0.0031093715224415064,0.00027241537463851273,0.0031758134718984365,0.0033593601547181606,0.003198739606887102,-0.002530208323150873,-0.0012602144852280617,0.001511294743977487,-0.0002152288070647046,-0.0016463911160826683,0.001414963509887457,-0.002272245241329074,0.004089226480573416,0.0002197550202254206,-0.0018111687386408448,0.002804793184623122,-0.002899706596508622,-0.000165941019076854,0.002148272469639778,0.0013275942765176296,0.002783356001600623,-0.0023720271419733763,-0.0017765762750059366,-0.002693173475563526,0.00022151718439999968,0.003495709504932165,-0.0013242305722087622,-0.0011631256202235818,0.0012046229094266891,-0.0012152462732046843,-0.004279113374650478,0.0021964514162391424,-0.00040826055919751525,0.003337388625368476,-6.326063885353506e-05,-0.0032477977219969034,0.00261866906657815,-0.0031444933265447617,-0.0029660374857485294,-0.0031844698823988438,0.00025073045981116593,0.0006393659277819097,-0.0018923128955066204,-0.00291635375469923,-0.0032049252185970545,0.0005527703324332833,0.0011270854156464338,0.00074434356065467,-0.0010789221851155162,0.0002839956432580948,0.001595758367329836,0.0008811295847408473,-0.00023815399617888033,0.001671732752583921,-0.003775776131078601,0.0016222902340814471,0.0010647651506587863,-0.0027096273843199015,-0.00048646575305610895,0.001335261156782508,0.001158725586719811,0.0038657174445688725,0.0037315876688808203,-0.0034853031393140554,-0.0006300535751506686,-0.0017971076304093003,0.003920228686183691,0.0012860732385888696,0.003285245271399617,-0.002607268514111638,0.0008961171261034906,0.002428916748613119,-0.003886773716658354,0.002931388793513179,0.0012821642449125648
-0.0013836378930136561,-0.002794430358335376,0.0031083531212061644,0.004185189493000507,0.0035116577055305243,-0.002936392091214657,-0.002451190957799554,0.0037236539646983147,0.000144951933179982,-0.003426411421969533,-0.0038082366809248924,-0.003626977326348424,-0.0014996803365647793,0.002291913377121091,0.0007539777434431016,-0.0034360976424068213,0.0030526858754456043,-0.003196599194779992,0.00048408476868644357,-0.00026959326351061463,0.0015232007717713714,0.002337529556825757,-0.0002534348168410361,0.0016681848792359233,0.0032364537473767996,-0.0011245448840782046,0.0006968213128857315,-0.0015091293025761843,-0.0033822134137153625,0.0011677851434797049,0.002663745079189539,0.00420369254425168,-0.0016771986847743392,0.0004360480816103518,-0.0014866787241771817,-0.0017251917161047459,0.004389699082821608,0.003255019197240472,-0.001454286277294159,-0.0025110694114118814,-0.003188353730365634,-0.0012240713695064187,-0.0018742835381999612,0.0015822931891307235,0.002620883285999298,-0.0008617937564849854,0.0016055912710726261,0.0034606605768203735,-0.0010521080112084746,-0.003018156159669161,0.0006527529330924153,0.0016292233485728502,0.0017095216317102313,-7.17353104846552e-05,0.0007175977225415409,-0.0038306356873363256,-0.0010512553853914142,-0.0023039979860186577,-0.0031270261388272047,8.731436537345871e-05,0.0019292299402877688,0.0029127574525773525,0.0004102093807887286,0.0029612169601023197,0.0006941991159692407,0.0006907401257194579,-0.0006228889687918127,0.0014473848277702928,-0.0015444958116859198,0.0036356982309371233,-0.00345972110517323,-0.0013932569418102503,0.0025454233400523663,0.00019736103422474116,-0.0008918559178709984,0.0036686460953205824,0.0015829588519409299,-0.0004750567313749343,-0.0038938920479267836,-0.004028615076094866,0.0014350382843986154,-0.0021788745652884245,-0.0013057891046628356,-0.0005950939375907183,-0.0013359327567741275,-0.003759080311283469,-0.002862153109163046,-0.0030163221526890993,-0.0005978576955385506,-0.0007620225660502911,-0.0025893624406307936,-0.0026430441066622734,0.00348824099637568,-0.0032279822044074535,-0.0017463980475440621,0.0008125085150822997,-0.0020371354185044765,0.002346185501664877,-0.003428098978474736,-0.0031276813242584467,-0.0028510764241218567,-0.0021603761706501245,-0.001589536783285439,-0.0026461200322955847,-0.001260646153241396,-0.0004413284477777779,0.0033391949255019426,0.001092862687073648,-0.001378592336550355,0.0012567731318995357,0.001456479774788022,-0.0020292699337005615,-0.001376729691401124,-0.0029315422289073467,0.0018518794095143676,0.00013864798529539257,-0.001718213316053152,0.0025805551558732986,-0.003900151466950774,-0.0001822973572416231,0.002393412636592984,0.0035393093712627888,0.0025980279315263033,-0.0010961886728182435,0.0018163638887926936,0.0016716847894713283,0.002291532000526786,-0.0024127925280481577
-0.0007723942399024963,0.002670813584700227,0.001069169258698821,-0.001105107250623405,-0.003924632910639048,3.172149808960967e-05,0.0013430415419861674,0.0023080979008227587,0.001593419467099011,0.00018891370564233512,-0.003304340410977602,-0.0024409200996160507,-0.002015928504988551,-0.0024568296503275633,0.0004962591337971389,0.0039354413747787476,0.001810557791031897,-0.0010557568166404963,0.004082918632775545,0.0031005172058939934,0.0005237931036390364,0.003647399600595236,0.0018336719367653131,-0.0015622847713530064,-0.0016480577178299427,-0.002333825919777155,9.740923269419e-05,-0.00016865917132236063,-0.0032913072500377893,-6.519652379211038e-05,-0.002467040903866291,-0.00338525278493762,0.0011234960984438658,0.0029434345196932554,-0.002673156326636672,0.003984937909990549,-0.00039215580909512937,0.0009596672607585788,-0.00027567087090574205,-0.0019049711991101503,0.0017845707479864359,0.001955329207703471,0.0003604453522711992,-0.0014917737571522593,0.0029849684797227383,0.0015929897781461477,0.0009785674046725035,-0.0017619283171370625,0.003592210588976741,-0.0012398128164932132,0.0022816131822764874,-0.0005093500367365777,-0.0007487593684345484,0.0032972737681120634,-0.0023366303648799658,0.0035553521011024714,-0.0008748570107854903,0.003294063499197364,0.004291047807782888,0.00013702205615118146,-0.00011403243115637451,0.0008327880059368908,0.002945049200206995,0.0003398289845790714,0.003916469868272543,-0.0011916076764464378,0.0014134199591353536,0.0007691852515563369,-0.002582227112725377,0.003139103064313531,-0.0015186980599537492,-0.0026954314671456814,0.0016805973136797547,0.004313074517995119,-0.0009998721070587635,-0.0008703343919478357,-0.0009292328031733632,-0.0025108731351792812,-0.0010218446841463447,-0.0037171056028455496,-0.0001547877909615636,0.0012223931262269616,-0.002273085294291377,0.0019967632833868265,-0.00043747277231886983,0.0034062040504068136,-0.0012676494661718607,-0.004461309872567654,0.0021875896491110325,0.0011485841823741794,-0.0011514861835166812,-0.0019480071496218443,0.002736987778916955,-0.003648684360086918,-0.003427024930715561,-0.001181896892376244,0.0035808696411550045,0.0020320045296102762,0.0013415854191407561,0.00014547778118867427,0.0011057049268856645,-0.002824935596436262,-0.0031975670717656612,-0.00022715181694366038,0.0002961158752441406,-0.0002055183140328154,-0.003772900439798832,0.0009556554723531008,0.0034483650233596563,0.004099740646779537,-0.0010252046631649137,-0.0009616889874450862,0.0017399581847712398,-0.0026178297121077776,-0.0026922598481178284,0.0012379306135699153,-0.0004247648175805807,0.0027337223291397095,-0.003032619832083583,-0.0009419526904821396,-0.0004994768532924354,0.00039295200258493423,-0.004135014954954386,-0.002753269160166383,-0.003978080116212368,-0.003912065643817186,-0.0032831584103405476,-0.0014563034055754542
0.0027122762985527515,0.00322977383621037,0.0013226502342149615,0.0005407033022493124,0.0036415334325283766,-0.003199479542672634,0.0010201185941696167,-0.003029944607988,0.00010989396105287597,-0.0035867048427462578,-6.738997035427019e-05,0.0036522408481687307,-0.0015875629615038633,0.0015676456969231367,1.1219754924240988e-05,0.0005036609945818782,-0.0018206664826720953,0.0008902150439098477,-0.0009734118939377367,0.0015007705660536885,-0.0020714160054922104,-0.00023337836319115013,0.003116345265880227,0.00012449207133613527,-0.0031465310603380203,-0.0005728800315409899,0.003207265865057707,0.000794307270552963,0.00016625950229354203,-0.002454892499372363,-0.0001698360574664548,0.0035020033828914165,-0.0038162614218890667,-0.0022186278365552425,0.001940965186804533,9.169599798042327e-05,-0.0015781255206093192,0.0016371996607631445,0.0019250601762905717,-0.003450450487434864,0.0027527674101293087,0.002541349735110998,-0.00041522871470078826,-0.0022737476974725723,0.0001231725764228031,-0.0034426767379045486,0.000722718657925725,-0.001768317073583603,-0.0015350028406828642,-3.051926614716649e-05,-0.0016951562138274312,0.0006768282619304955,-0.0028726737946271896,0.0019754264503717422,-0.002163451863452792,-0.0022546914406120777,-0.0027396860532462597,-0.00040136766619980335,-0.0019906912930309772,0.001331815728917718,0.0008888313896022737,0.0020707701332867146,0.0010378938168287277,-0.0010775746777653694,0.002693307353183627,0.0001879636838566512,-0.002390012377873063,-0.003376882988959551,0.0011613116366788745,-0.0002086024614982307,0.0010821634205058217,0.0033222490455955267,0.0027630021795630455,-0.0032589787151664495,0.0014129129704087973,0.0029580940026789904,0.0012682060478255153,-0.001549257431179285,-0.003930734004825354,-0.000402200676035136,0.0036473835352808237,0.0008741275523789227,-0.0010443703504279256,0.0003580370103009045,-0.002538597909733653,0.0008038987289182842,-0.000983720296062529,0.0004071297007612884,0.002298735547810793,0.0037096459418535233,-0.0038569029420614243,-0.0019523149821907282,0.0022533051669597626,-0.001818941324017942,0.002690179506316781,0.002799142152070999,-0.0012566494988277555,0.002780074020847678,-0.0022875978611409664,0.0034807631745934486,-0.0006626428803429008,-0.0019483661744743586,0.00289386254735291,-0.0017331227427348495,0.002717468189075589,0.00043011389789171517,-0.0007639393443241715,-0.0031647211872041225,0.0039256601594388485,-0.0016540356446057558,-0.0031234535854309797,0.0032285875640809536,0.0036863319110125303,0.001346546458080411,-0.00047565478598698974,-0.0006475111586041749,0.0022586307022720575,-0.0032192268408834934,-0.0008965478627942502,8.841195813147351e-05,-0.0018499745056033134,-0.0008856080821715295,-0.0021864743903279305,0.0002402743266429752,-0.0008872865000739694,5.9831258113263175e-05,0.0022791228257119656,0.002748001366853714
-0.0012937351129949093,-0.0020249539520591497,-0.0008577366243116558,-0.0026658785063773394,0.0035501630045473576,-0.001630953629501164,-0.001620048307813704,-0.0016413448611274362,-0.002455362118780613,0.003261387348175049,-0.0033784927800297737,0.0026541841216385365,0.0011837584897875786,0.003786398796364665,-0.0033171602990478277,0.000713244138751179,0.0031241620890796185,-0.0006757155642844737,-0.00043012856622226536,0.001078086905181408,0.0006529332604259253,0.0012259912909939885,0.002360396785661578,-0.001323250588029623,-3.0364544727490284e-05,-0.0023207757622003555,0.001179679878987372,0.003775913966819644,0.0008832004969008267,-0.0012376555241644382,0.002062613610178232,0.0029726785141974688,-0.00211467407643795,0.0008325560484081507,-0.000817073043435812,-0.003048873506486416,0.0031858854927122593,-0.0026291916146874428,0.0018117835279554129,0.001424351241439581,-0.002331217983737588,-0.0017222444294020534,-0.001164107583463192,0.0010390453971922398,0.0005105913151055574,0.0009849474299699068,-0.0032323161140084267,-0.0004464763042051345,-0.0019540919456630945,-0.001563335652463138,0.0027807902079075575,-0.0038841678760945797,-0.002029223833233118,-0.002081089187413454,0.0008101228158921003,0.0010197407100349665,0.0009729043231345713,0.00324109080247581,-0.0006950458628125489,-0.0022767111659049988,-0.0002646966022439301,-0.003376798238605261,-0.0007990736048668623,0.0019432840636000037,-0.00019300811982247978,0.0035201231949031353,0.0028453459963202477,-0.0025846606586128473,0.00042236215085722506,0.002141075674444437,0.002845971379429102,0.0033674004953354597,0.003863006364554167,0.0024038648698478937,0.0009190524579025805,-0.0015110211679711938,0.0021516603883355856,-0.002193823456764221,0.0003482573083601892,-0.002304628025740385,0.0038949893787503242,0.00357137992978096,0.0010246343445032835,0.0015811835182830691,-0.003066261298954487,0.0001589647145010531,-0.002589954761788249,-0.0033099378924816847,-0.00018185609951615334,0.0010805726051330566,0.0037698291707783937,0.0009468186763115227,0.0016720534767955542,0.0036611466202884912,0.00031976826721802354,-0.0036100000143051147,-0.000301208405289799,0.0025019703898578882,0.0008164146565832198,0.0009796308586373925,0.0010545223485678434,0.0001649840414756909,-0.0038748029619455338,-0.0003596149035729468,-0.0036212042905390263,-0.0007627548766322434,0.0001327076752204448,-0.0017410671571269631,-3.257582284277305e-05,-0.0026293559931218624,-0.0004570581950247288,0.0015812957426533103,0.0008294600411318243,-0.0037663630209863186,0.0013345576589927077,0.0028466901276260614,-0.00395068759098649,0.0033592861145734787,-0.0015934699913486838,-0.0012016852851957083,0.00019095710013061762,0.0004417500167619437,0.0027986629866063595,0.002336784265935421,0.0011525986483320594,0.0017334292642772198,0.0021214953158050776,-0.0038883055094629526
-0.00018790698959492147,-0.001784291467629373,0.003066850593313575,0.003661273280158639,0.0034274288918823004,-0.003747106296941638,0.00016679245163686574,0.0025447318330407143,-0.0029117981903254986,-0.0014595416141673923,0.003086867043748498,-0.0007736891275271773,-0.001379051711410284,-0.0008783394587226212,-0.0036024623550474644,0.0011516824597492814,0.003269128268584609,-0.002907351590692997,0.002858051797375083,0.00391962006688118,0.0034527424722909927,0.001054506516084075,0.0033344044350087643,0.0012245123507454991,-0.0009944693883880973,0.0035932587925344706,-0.0010718577541410923,-0.003129625925794244,0.002787065226584673,0.003440552856773138,0.0018122232286259532,0.0010734671959653497,0.0038476253394037485,-0.000991890556178987,-0.00313443411141634,-0.0032992686610668898,0.000367358181392774,-0.0013601782266050577,0.0015531997196376324,-0.0020950420293956995,0.003512664930894971,0.0019741570577025414,0.002086545806378126,0.0012934415135532618,0.0021659713238477707,-0.000598904094658792,-0.0003508829395286739,0.0024130295496433973,0.0014889775775372982,-0.0028809858486056328,-0.0025644847191870213,0.0018545771017670631,0.001358326873742044,-0.0019181754905730486,0.0028289607726037502,0.000247177726123482,0.0008164676837623119,0.003281655954197049,0.0005438496009446681,0.002660654950886965,-0.0011169423814862967,-0.003705617506057024,-0.001348910853266716,0.0031804852187633514,-0.0035338348243385553,-0.001048196805641055,0.003093833802267909,-0.0011738694738596678,0.0014870773302391171,0.0008503920398652554,-0.0011913453927263618,0.00340231042355299,-0.00016831480024848133,-0.0020309065002948046,0.003712244099006057,0.0002317037433385849,0.0034003681503236294,0.0011923302663490176,-2.3031001546769403e-05,-0.003112628823146224,0.0021625629160553217,-0.003870713757351041,0.0005084860604256392,-0.0036920576822012663,0.0002971447538584471,-0.0029010099824517965,0.0035862834192812443,-0.0014394116587936878,0.001576918875798583,0.0030912980437278748,0.0006427919142879546,-0.0017026348505169153,0.003726438619196415,-0.0005266476655378938,-0.0014326618984341621,-0.0020096164662390947,0.0033851941116154194,0.0009969252860173583,-0.0032283577602356672,0.0010311853839084506,-0.0027801806572824717,0.0012534414418041706,0.002984908875077963,-0.001493155607022345,-0.0011512350756675005,-0.002983846701681614,-0.00031815629336051643,-0.001306335092522204,0.0012666455004364252,-0.0003013182431459427,-0.0029994414653629065,-0.00019445648649707437,-0.003166218986734748,-0.002485007280483842,-0.00102501199580729,-0.00033601748873479664,0.001955646090209484,-0.0018415446393191814,0.0030852623749524355,0.0031847809441387653,-0.0011711525730788708,-0.00255415728315711,0.0014242838369682431,0.0037954431027173996,-0.0007575053605251014,-0.0038003241643309593,-0.0037648179568350315,-0.002385854022577405
-0.0031523299403488636,-0.0012611784040927887,-0.000595595920458436,0.0014458202058449388,0.003005755366757512,-0.001784973661415279,0.0026657346170395613,0.0011673523113131523,0.0013623038539662957,-0.002823217073455453,0.0022429334931075573,-0.002637939527630806,0.0026345192454755306,-0.0029286083299666643,-2.6459871151018888e-05,-0.0023387877736240625,0.003994843922555447,0.000991501729004085,-0.0017294902354478836,0.0023961951956152916,0.003247132059186697,0.0007575619965791702,0.00019280289416201413,0.0016684243455529213,0.0021539481822401285,0.0006204746896401048,0.0022457002196460962,0.0018724648980423808,0.0019847252406179905,-0.002253770362585783,0.00018757543875835836,0.0028583104722201824,0.0030996082350611687,0.002560410415753722,-0.001921801595017314,-0.002527783624827862,0.004306868650019169,-0.002885224064812064,0.004508116748183966,0.0022981383372098207,-0.0010969917057082057,-0.00020990840857848525,-0.003043049480766058,0.002063821768388152,0.0015962126199156046,0.0007480438216589391,-0.0009704256081022322,-0.00017137653776444495,-0.0003776770317927003,0.00303220865316689,0.002239173511043191,0.0006511279498226941,0.0002087516477331519,0.0022414971608668566,0.003431727411225438,0.0006919995066709816,-0.002129733096808195,-0.0012529421364888549,0.0041527943685650826,0.000802270311396569,-0.004428992513567209,0.0037344300653785467,-4.989918579667574e-06,0.0015470613725483418,-0.0030442699790000916,-0.001756893121637404,-0.00045869016321375966,-0.0004185098223388195,-0.00364721124060452,-0.0008477479568682611,-0.0005994520615786314,0.0024096814449876547,0.003067202400416136,-0.0010756111005321145,-0.0032300944440066814,-0.0010516911279410124,-0.0017669879598543048,0.002023810287937522,-0.00147434847895056,0.00216842838563025,-0.002102416940033436,-0.00018899037968367338,-0.0032320839818567038,0.00030992060783319175,0.002069651149213314,-0.0006733263726346195,0.00300920894369483,0.0007227427558973432,0.0016675177030265331,0.0007065190584398806,-0.0017467018915340304,0.0003306310100015253,-0.00020242448954377323,-0.0003113017592113465,0.0008196209673769772,0.003157437779009342,0.0021054439712315798,-0.0006639870116487145,0.0007993806502781808,-0.002662989776581526,-0.0010258739348500967,-0.0004849187971558422,-0.0016959755448624492,0.0025667010340839624,4.007795359939337e-05,-6.764481076970696e-05,0.0006884217145852745,0.00012190280540380627,-0.0020533299539238214,-0.000658276432659477,-0.0018542817560955882,0.0030120201408863068,0.002724021440371871,0.002988548018038273,0.002516775159165263,0.0031314007937908173,-0.004113124217838049,-0.0009292574250139296,-0.0015712726162746549,0.0006608833209611475,0.002504112897440791,-0.0013176494976505637,-0.0032127767335623503,0.0016798368887975812,0.0006406072061508894,0.0023580952547490597,0.0011732870480045676,0.0021464335732162
