0,1,2,3,4,5,6,7,8,9,10,11,12,13,14,15,16,17,18,19,20,21,22,23,24,25,26,27,28,29,30,31,32,33,34,35,36,37,38,39,40,41,42,43,44,45,46,47,48,49,50,51,52,53,54,55,56,57,58,59,60,61,62,63,64,65,66,67,68,69,70,71,72,73,74,75,76,77,78,79,80,81,82,83,84,85,86,87,88,89,90,91,92,93,94,95,96,97,98,99,100,101,102,103,104,105,106,107,108,109,110,111,112,113,114,115,116,117,118,119,120,121,122,123,124,125,126,127
0.7302737216628457,-0.9824754438536667,-0.24338068874438945,0.3937916248170177,-0.07194772881603995,0.3742694709520975,-0.780117733638098,0.4251338305072758,-0.7043317052647309,-0.5371418190427177,-0.21246137576394464,0.5170548682151508,-0.5382619639397415,0.047183470461070076,-0.03546469726798285,-0.4177760545422833,0.22248336032448335,-0.5139154630355667,0.5493858607569984,0.03493355654611974,0.6140815380855327,0.5596595731607583,0.2083073567283229,0.38881183055106705,0.8187454037578861,0.6641060765968776,0.8252961906524774,-0.7541313124700098,-0.9008911658928092,-0.3216386142454979,-0.5054116327257347,-0.29067719784674173,-0.8127585651996623,-0.6750505399796227,-0.23848274672842895,0.8692753232715253,-0.5847555561692133,-0.4162440055200507,-0.002756239135543348,-0.7604362189015932,-0.8145668200064993,0.00185668212913348,0.5507379941370105,0.9376262967385787,0.9548713748311031,-0.5021225120398223,-0.7654799093709033,0.7676775787704944,0.8308595072550291,0.24168091199804498,0.1347368337029573,-0.2366697061996108,-0.06459811371130741,-0.8551378421294726,-0.17737152086274088,-0.5717753247973216,-0.30230229195368885,-0.02092517279499706,0.13694780830444486,0.05488379189274695,-0.18097939779788308,-0.5824957004436255,0.008137999028004383,0.8250461798204143,-0.6141196808659326,-0.35466552209633573,0.6069772582586557,-0.45523095708673766,-0.9185199086229461,-0.6339526153795989,-0.27604341610050653,-0.7875124945786003,0.7888598560814342,-0.6021578620495613,0.9146974999432165,-0.1778265850851879,-0.7724094583295797,-0.06784146098924815,-0.7893978308764065,0.21100793409661223,-0.3378147305434702,-0.15994631003193138,0.34971870882194,0.019224269851118914,0.40918695869285937,-0.6446633966780904,-0.8276208457583825,-0.495986613447694,0.41091030553279007,0.1669767055467366,-0.42899575307611215,-0.764946888672241,0.14302316802962922,-0.9311028290195955,-0.09911022954719373,0.15928077921626516,-0.5907719362220509,0.6834648867814539,-0.5361484599476376,-0.9482407989645516,0.030427783270464026,-0.7781241695123906,-0.9992362868104683,0.5678763204838042,0.7243584105952947,0.7342532390708272,0.7435111176352562,-0.4934169706722369,0.9791228767757361,-0.5202864660020978,-0.6230630163581301,0.9730144826724028,-0.8194771606581295,-0.44763104231141093,0.5634089709149213,0.4159084814437346,-0.42462384065070213,-0.2458134303613395,0.9484065208639256,0.9660796672096681,0.37870981033667284,-0.8160106679021693,-0.00022610831579683577,-0.13569958797398662,-0.8890940205156808,0.8988671424048678,-0.3476499319924031,-0.8814011205334011
0.0006142492638900876,-0.0022596241906285286,-0.0019003753550350666,0.0005577332922257483,-0.00012508282088674605,0.001780519261956215,-0.0005448004812933505,0.0005601415177807212,0.0008310351404361427,-0.003468160517513752,0.0006571119884029031,0.00013822061009705067,0.00015259967767633498,0.0002465934958308935,0.0015679626958444715,-0.003188641043379903,-0.003858676878735423,-0.0009650143911130726,-0.0016108463751152158,0.00309394346550107,0.00046538846800103784,0.0024601169861853123,0.0031115200836211443,-0.0026574530638754368,0.002689662855118513,-0.002625873312354088,0.0027053547091782093,0.0008475586073473096,-0.0029069308657199144,-0.0020766088273376226,-0.0024785606656223536,0.0007440243498422205,0.00010873950668610632,0.00024201524502132088,-0.00045594837865792215,-0.0003192041185684502,0.001945690019056201,-0.001342119532637298,-0.0021147108636796474,-0.0004721892182715237,0.0015300408704206347,0.00296187330968678,-0.0019767344929277897,-0.002134698210284114,-0.0033114291727542877,0.001455009332858026,-0.002733705099672079,0.000841899192892015,0.00019527258700691164,-0.00037910949322395027,0.001960904337465763,-0.0006715594208799303,0.0008533386862836778,-0.0033799426164478064,-0.0035369847901165485,-0.0011055386858060956,-8.264643111033365e-05,-0.0019361977465450764,0.002767042024061084,-0.002665138803422451,-0.001958976499736309,0.001785410800948739,-0.0006036603590473533,0.00354788638651371,-0.0026280495803803205,0.001408394193276763,-1.818159216782078e-05,0.002692566718906164,-0.003087957389652729,0.0015242842491716146,0.002860479522496462,-0.002637583063915372,0.0004005212103947997,-0.0006406615721061826,-0.0006152737187221646,0.003732403740286827,-0.003168427385389805,0.0011125135933980346,-0.002270814962685108,0.000621225219219923,-0.002173837274312973,-0.0028506810776889324,0.0008324997033923864,0.002528727287426591,-0.0035327724181115627,0.000994462170638144,-0.0011333988513797522,0.003919846843928099,0.002846804913133383,0.0038132616318762302,-0.002106287982314825,-0.0031293416395783424,0.0010101362131536007,0.002569592325016856,0.0023605795577168465,-0.0018582659540697932,0.002588437870144844,-0.002719926880672574,-0.003765466623008251,-0.0013588902074843645,-0.00026442084345035255,0.0007983010145835578,0.0007797431317158043,-0.003860303433611989,-0.0017885403940454125,0.000860657193697989,0.002533412305638194,-0.0016187757719308138,0.00015841877029743046,0.0019643655978143215,-0.0028361098375171423,0.001755983685143292,0.0011485519353300333,0.0007189910975284874,2.6499553769099293e-06,0.000387122156098485,0.0028462503105401993,0.0024511537048965693,-0.0033367339055985212,-0.000938576296903193,0.0021076316479593515,-0.002802131697535515,0.002506874268874526,0.0004286809707991779,0.0035327919758856297,0.0032203414011746645,0.003537335665896535,-0.00048467479064129293
-0.0033304612152278423,-0.0019065089290961623,-0.0031011905521154404,0.0012323926202952862,-0.002951843198388815,0.0015226133400574327,0.0015130077954381704,-0.0029605613090097904,-0.0014205892803147435,0.0009201436769217253,0.0009060606244020164,0.00012369660544209182,-9.527192742098123e-05,0.002266478259116411,0.0002743339282460511,0.0026158003602176905,-0.0022716252133250237,0.0020843029487878084,0.0033460487611591816,1.6053418221417814e-05,-0.0014901760732755065,-0.000570637290365994,0.001698118052445352,0.002651418326422572,0.0010050548007711768,-0.0029020372312515974,0.0019002048065885901,-0.002743991557508707,0.0037764094304293394,-0.003045423189178109,0.0015066510532051325,0.003215924371033907,0.0019111618166789412,0.0007386778015643358,-0.002770449500530958,-0.0007512560114264488,-0.0009102165349759161,-0.0034136055037379265,0.00020972469064872712,0.0004409149114508182,-0.0003405018651392311,0.003143707290291786,0.0032592015340924263,0.002632644260302186,0.001331889070570469,-0.00318758562207222,-0.0024755627382546663,-0.0015556421130895615,0.0026281368918716908,-0.0013630760367959738,-0.0017460101516917348,-0.0023902584798634052,-0.001361242262646556,-0.0010945789981633425,0.0036294027231633663,-0.0021846063900738955,-0.002141998615115881,0.0010786704951897264,0.002366554457694292,0.0023753654677420855,-0.001142831752076745,-0.0006307906587608159,-0.0009336353978142142,0.0032522918190807104,0.00024683328229002655,-0.0010203829733654857,0.0032014211174100637,0.00040347775211557746,-0.0018931026570498943,0.0006198470946401358,-0.0018147259252145886,-0.0004907055990770459,-0.0016233859350904822,-0.0027392420452088118,0.0038365863729268312,0.003736369078978896,0.0031896450091153383,0.002152135130017996,-0.003199016209691763,0.002727885264903307,-0.0036733662709593773,-0.003337187459692359,0.0026981020346283913,0.001008886145427823,-0.0012414579978212714,0.0016792207024991512,0.0018684047972783446,0.0036198257002979517,0.0007961492519825697,-0.0005020224489271641,0.001255950890481472,0.0009127200464718044,0.0005604323814623058,0.0015882434090599418,0.001168551156297326,-0.0015651487046852708,-0.003236855147406459,0.001176781370304525,0.0024252240546047688,0.0003279394004493952,0.00290762004442513,-0.0007866670493967831,0.0018956693820655346,0.0017379418713971972,-0.0031927505042403936,0.0015557504957541823,0.0025995001196861267,-0.000953697832301259,-0.0023303579073399305,-0.0007629644824191928,0.0035530913155525923,-0.0003737605584319681,0.001483549945987761,0.0019254956860095263,0.002514342311769724,-0.0024785567075014114,0.0008727465756237507,0.0003876597620546818,0.0034257431980222464,0.003503149840980768,-0.0011179839493706822,0.00035186560126021504,0.003598339157178998,-0.002632299205288291,0.001347951008938253,-0.0029139367397874594,-0.0005947488825768232,0.003567496780306101
0.0036031778436154127,0.002668857341632247,-0.002395604271441698,0.003783601336181164,0.003052895190194249,-0.0015541365137323737,-0.002937065437436104,-0.00232638418674469,-0.00142199476249516,-0.0018866430036723614,-0.0036736729089170694,0.003844598773866892,-0.0018369718454778194,0.0029530718456953764,-0.00035186216700822115,0.0004963044193573296,3.320834002806805e-05,-2.4270811991300434e-05,0.0031743603758513927,0.0017956156516447663,-0.0013704851735383272,0.0027379642706364393,-0.001995821250602603,0.0021464049350470304,0.0026518458034843206,9.133023922913708e-06,-0.0022799514699727297,-0.0010555303888395429,0.001395691535435617,0.0037767242174595594,-0.0005372639861889184,-0.0004005508089903742,-0.0036145143676549196,0.0018288008868694305,7.871872367104515e-05,0.0008435383788309991,0.0009810541523620486,-0.0021439525298774242,0.003585646627470851,-0.0020746036898344755,0.0025686807930469513,0.0006907281349413097,-0.0018743645632639527,0.0018306702841073275,0.002574762562289834,0.003293378045782447,-0.003701189300045371,-0.003641489427536726,0.001050119986757636,0.0029656558763235807,0.0005742214852944016,0.001259908895008266,-0.0012623444199562073,0.0014709752285853028,-0.001879685907624662,0.001132858102209866,0.0022617995273321867,-0.0016221195692196488,0.0004948487621732056,0.0004978207289241254,0.0006814132793806493,0.003812163369730115,-0.002209389116615057,0.002807732205837965,0.002227552467957139,0.0005366321420297027,-0.0033193472772836685,-0.0036969834472984076,8.212316606659442e-05,0.002629157854244113,0.0010288320481777191,-0.002091009868308902,-0.002666022162884474,-0.002455857815220952,-0.0014113869983702898,-0.00030066928593441844,-0.0006723718252032995,0.00021301832748577,-0.0006563900387845933,-0.001023243647068739,-0.0012986486544832587,-0.0022363229654729366,-0.00030233903089538217,-0.00289078988134861,0.0012573302956297994,-0.0005136425606906414,0.002075627213343978,0.0019907699897885323,-0.003315996378660202,0.0005342091317288578,-1.9751380023080856e-05,-0.0036028032191097736,-0.001881782547570765,-0.0007114753825590014,-0.0008028914453461766,-0.0027378620579838753,-0.0035410209093242884,0.0026019697543233633,0.0005078607355244458,-0.0022912335116416216,0.0026548129972070456,-0.003551747417077422,0.000761906208936125,0.0015796131920069456,0.0021354076452553272,0.0006122867343947291,-0.0018519858131185174,0.00039174160338006914,0.0037557666655629873,-0.00331520545296371,-0.002056512515991926,-0.0007253615185618401,-0.0010335528058931231,0.0005449874443002045,-0.001232112874276936,0.0007017462630756199,0.0016894505824893713,0.002503771334886551,0.0007126042619347572,-0.002055141609162092,1.0801001053550863e-06,0.0016543944366276264,-0.0030031988862901926,-0.0037731449119746685,-0.0030262451618909836,0.0006047760834917426,0.003981960471719503,0.0016521640354767442
0.0035060476511716843,-0.003277185373008251,-0.0021535984706133604,-0.002349698916077614,0.0033227282110601664,0.002421301556751132,-0.0026009310968220234,-0.002795115578919649,-0.0029959019739180803,0.003849897300824523,0.001196532160975039,0.0004979705554433167,-0.0009678093483671546,0.00345483492128551,0.0010301863076165318,-0.003532618982717395,0.0005307865212671459,-0.0016127347480505705,-0.000482030474813655,0.00011601513688219711,-0.00375227234326303,-0.003019011113792658,-0.0017061373218894005,-0.00023961432452779263,-0.0007815972785465419,-0.0017482684925198555,-0.0036673503927886486,0.000294113444397226,-0.001561664859764278,-0.0006326702423393726,-0.0006662147352471948,-0.0025143036618828773,-0.002238474553450942,-0.002579282969236374,0.0026222411543130875,-0.003573270281776786,0.0030536954291164875,-0.0006768287275917828,0.0032607517205178738,0.0023812183644622564,0.0036698742769658566,-0.0013915252638980746,0.0012407408794388175,0.002231624908745289,-0.0021270010620355606,0.002602394437417388,-0.0013203155249357224,-0.003276038682088256,0.0010178213706240058,0.0014844845281913877,-0.0012845535529777408,0.0033150934614241123,-0.000779220019467175,0.000974426744505763,-0.001507650245912373,0.0010840483009815216,-0.00041886765393428504,0.002318428363651037,-0.002776769921183586,-0.0011900289682671428,0.000739570299629122,0.002544170944020152,-0.0030669551342725754,-0.0008087695459835231,0.0013270874042063951,-0.00122233631554991,0.00022093775623943657,-0.003493780503049493,0.000751148909330368,0.0012160345213487744,-0.0015596888260915875,0.0025730973575264215,-0.0029129183385521173,-0.0018764472333714366,-0.0008559556445106864,0.003805352607741952,-0.0010612559271976352,0.002106594620272517,0.0015529632801190019,-0.0006563024362549186,0.00365957198664546,0.002069083508104086,0.0011917408555746078,-0.0010994598269462585,0.0003224602551199496,0.002487239660695195,-0.003225110238417983,0.0014215292176231742,0.0005554910167120397,-0.0002485875738784671,-0.0034690718166530132,-0.0035143583081662655,-0.0034783207811415195,0.00367171224206686,0.002761928364634514,-0.001212327042594552,0.00048630149103701115,-0.0027540987357497215,-0.0012772256741300225,0.001153753837570548,-0.0012780387187376618,-0.0004761583113577217,0.002173654967918992,0.0017798433545976877,0.0015795644139871001,-0.0025422784965485334,-0.0038102094549685717,-0.0007366540376096964,0.003760272404178977,-0.001489221234805882,0.0018059954745694995,-0.001581913442350924,-0.0038504740223288536,-0.002377996454015374,-0.001715379417873919,-0.0027063440065830946,-0.0003579692274797708,-0.0008887225994840264,0.003666304750367999,0.0017383218510076404,0.00242180866189301,0.0035642373841255903,0.0022188201546669006,0.0031620031222701073,0.0036765646655112505,0.0027200565673410892,-0.001644232659600675,0.00035623909207060933
0.003057218622416258,0.0020375922322273254,0.0024907952174544334,-0.0037941276095807552,0.0008231568499468267,0.0032867209520190954,-0.00018938921857625246,0.00202031503431499,-0.0028585034888237715,-0.0012527379440143704,0.00035730699892155826,-0.0008480210090056062,0.0017791360151022673,0.00041787768714129925,-0.0013424959033727646,-5.025461359764449e-05,-0.0028833013493567705,0.0025420356541872025,-0.0013177436776459217,-0.0012727645225822926,-0.0014045379357412457,0.0015874687815085053,0.002948978915810585,0.001655428670346737,0.0037474094424396753,0.000975021452177316,0.002599210711196065,-0.0013693730579689145,-0.00026202076696790755,-0.0026187824551016092,-0.002695517847314477,-0.0002782690862659365,0.00027681057690642774,0.0018633544677868485,0.003212617477402091,-0.0008262541377916932,-4.863622052653227e-06,0.0012591109843924642,0.000566349015571177,0.0016471811104565859,0.0018194522708654404,0.0031541497446596622,-0.002354012569412589,-0.0032755094580352306,-0.002496560802683234,-0.002884950954467058,0.0012646539835259318,-0.0031717978417873383,-0.0025287512689828873,9.57908050622791e-05,0.0033243526704609394,-0.0005342260119505227,-0.0037635392509400845,-0.0026192464865744114,-0.0012685602996498346,8.870014426065609e-05,0.0014110486954450607,0.00046737492084503174,0.00033731674193404615,-0.0022348219063133,0.002211353275924921,0.0002085863088723272,-0.0037231864407658577,-0.0006835091626271605,0.003066795878112316,0.001955313142389059,0.0016653244383633137,-0.0007596406503580511,0.001107218093238771,-0.0034904489293694496,0.0031755627132952213,-0.0020061954855918884,-0.0036172622349113226,-0.00012177298776805401,-0.0018566022627055645,0.00042226261575706303,0.0021863870788365602,-0.0011380556970834732,-0.0029835642781108618,-0.0021851055789738894,-0.0026712578255683184,-0.0015198043547570705,0.0007258233963511884,0.002235607011243701,0.003005936276167631,-0.0018369429744780064,-0.0021790906321257353,0.00020748091628775,-0.0025100463535636663,-0.0032516601495444775,0.002702282974496484,0.0018159758765250444,0.002590946387499571,0.001444439054466784,-0.0035336283035576344,0.0013028094545006752,0.0029644370079040527,0.0016629514284431934,-0.002514181425794959,-0.0034052017144858837,0.0024930431973189116,-0.0031595926266163588,0.0029910996090620756,-0.0034492777194827795,0.00265599531121552,-0.002787873148918152,0.001328844460658729,-0.0021198969334363937,-0.00029202649602666497,0.002338468562811613,-0.00041355416760779917,-0.003172383178025484,-0.0024020273704081774,0.0030430234037339687,-0.0013460189802572131,0.0006353481439873576,0.0030799144878983498,-0.0016705867601558566,0.003625299548730254,-0.0027219101320952177,-0.0008423186372965574,0.0038872126024216413,-0.0021654327865689993,-0.0025624767877161503,0.0039136684499681,0.0006946650100871921,-0.00331825646571815,0.0016887193778529763
0.00014819770876783878,-0.003236028365790844,-0.003223409876227379,0.0008379999781027436,0.0008145578904077411,-0.0007157507352530956,8.398712088819593e-05,-0.0025221421383321285,-0.0010309016797691584,-0.0037000367883592844,0.0012891152873635292,0.002474378328770399,-0.00035763796768151224,0.0011185016483068466,-0.0035877865739166737,0.0035483194515109062,0.0038346813526004553,0.00020708081137854606,-0.0013964991085231304,-0.0037983909714967012,0.0022330733481794596,-0.00340264942497015,0.00013557690544985235,0.001153978519141674,-0.0017219679430127144,-0.0003767283051274717,-0.0033492755610495806,-0.003299868432804942,-0.0005558634293265641,-0.0021371375769376755,0.0014377956977114081,-0.00362121919170022,-0.0017523214919492602,-0.0009172640857286751,0.0038479024078696966,0.0016420782776549459,0.003383111208677292,-0.0016254144720733166,0.004003479145467281,-0.0015311427414417267,0.0031839152798056602,0.00011666727368719876,0.002432602923363447,-0.0007633354398421943,-0.00047442252980545163,0.003414400154724717,-0.0038529320154339075,-0.000352474075043574,0.0022726457100361586,0.0013353219255805016,0.0029472936876118183,-0.002017212798818946,-0.0009994521969929338,-0.00010948483395623043,-0.00015879134298302233,-0.0019174868939444423,0.00156529585365206,0.002674312563613057,0.003485895926132798,0.0011646548518911004,0.0012842485448345542,0.0021407296881079674,0.001276469905860722,-0.002345586894080043,0.002016544807702303,0.0028267919551581144,0.003853887552395463,-0.0014519209507852793,-0.002967913867905736,-0.0014147714246064425,-0.002586517482995987,-0.0030015483498573303,-0.0019220242975279689,-0.00019586306007113308,0.0005162885063327849,-0.0009090326493605971,0.003683713963255286,-0.0005856493371538818,0.0017019824590533972,-0.0011785749811679125,0.0033225177321583033,0.001872132415883243,-0.0034728567115962505,0.0008971596835181117,0.0024910487700253725,0.0029286048375070095,-0.001158116734586656,0.0012937200954183936,0.001978512154892087,-0.003748770337551832,-0.0021679101046174765,0.0015346439322456717,0.003042769618332386,-0.0025080800987780094,-0.0029460880905389786,0.002622648375108838,0.0031958320178091526,-0.00038234482053667307,-0.0013111986918374896,-0.001927510485984385,-0.0011148849735036492,-0.0017316403100267053,-0.0012467599008232355,-0.001979886321350932,0.0031451003160327673,0.0030253056902438402,-0.0008288807002827525,-0.0010256824316456914,-0.00017116802337113768,0.002999256830662489,0.002058592392131686,0.0016881510382518172,-0.0039580813609063625,0.0035922308452427387,-0.0017912182956933975,0.001964551629498601,0.000773558160290122,-0.002140626311302185,0.0004217008245177567,-0.0017965995939448476,-0.00019694266666192561,-0.0016947247786447406,-0.0007559159421361983,-0.0020601628348231316,0.002074337098747492,-0.0017694164998829365,-0.0012101033935323358,-0.001040334114804864
-5.382794915931299e-05,0.0015735587803646922,0.0008890063618309796,0.0028421939350664616,-0.0026173752266913652,0.001194204669445753,-0.0009017614647746086,-0.0035302480682730675,0.0007389523088932037,0.0017812201986089349,-0.002737760543823242,-0.003593313740566373,0.002795909298583865,0.0012513924157246947,0.002167839789763093,0.003508400171995163,0.0001332377432845533,-0.00039393454790115356,0.0009935989510267973,-0.003453474026173353,-0.0030677092727273703,0.0029067888390272856,-0.0033622237388044596,-0.0028017666190862656,0.003451632335782051,0.001971257384866476,-0.0019709919579327106,-0.003058992326259613,-0.001745140296407044,0.0012983046472072601,-0.00030119044822640717,0.002197090769186616,-0.0019530287245288491,0.0009596648742444813,0.0023066101130098104,-0.0011285077780485153,-0.003533440874889493,-0.0032794505823403597,-0.0023711789399385452,0.0036343729589134455,-0.00017952419875655323,-0.0036097420379519463,-0.0006844578310847282,-0.0006768816965632141,0.0031155310571193695,-0.0014117495156824589,-0.0023827257100492716,-5.78745712118689e-05,0.003734294092282653,-2.726535421970766e-05,-0.0008714952855370939,-0.001064029522240162,0.0032928527798503637,0.002119733951985836,0.003557235235348344,0.002990579232573509,-0.0012678937055170536,0.0009656077600084245,0.003514228854328394,-0.0005844337865710258,-0.0028977668844163418,-0.0031685230787843466,-0.0015321290120482445,0.00022467858798336238,-0.0010243657743558288,-0.000262570712948218,0.0031592175364494324,0.0022247666493058205,-0.0036210911348462105,-0.0029007508419454098,0.0037157610058784485,-0.0009809300536289811,-0.00023379307822324336,-0.0014857860514894128,-0.000135879497975111,0.0013439763570204377,-0.0013487169053405523,0.0015440151328220963,0.00037443675682879984,0.00209094793535769,-0.0012481443118304014,0.0024098807480186224,-0.003100508125498891,0.002669302513822913,0.0033410098403692245,-0.003705226816236973,0.003073499072343111,0.0003374117659404874,-0.00022468771203421056,-0.0027867471799254417,0.002947567729279399,-0.0007040408672764897,-0.0038430269341915846,-0.002679710043594241,0.0023108203895390034,0.0038034161552786827,0.0010273396037518978,-0.0026310677640140057,0.000566406873986125,-0.0027081863954663277,-0.0008970716153271496,0.0012543596094474196,-0.0009358813986182213,-0.0035226470790803432,-0.0032412863802164793,0.0035579679533839226,-0.0033865985460579395,-0.0030566623900085688,-0.0010179838864132762,-0.00014326510427054018,0.00017469791055191308,0.00306167034432292,-0.0020902964752167463,-0.0022934312000870705,0.00012961476750206202,0.00048212966066785157,0.0004989468143321574,-0.0032765010837465525,0.0031256922520697117,-0.0031334436498582363,0.00012127704394515604,0.00033805822022259235,-0.0013453984865918756,-0.003398557659238577,-0.0018216301687061787,0.003090199315920472,0.0008203196339309216,-0.0019749102648347616
0.003030926687642932,-0.0017091329209506512,-0.001757279271259904,-0.0014862798852846026,0.002150840125977993,-0.0010591414757072926,-0.003959106747061014,-0.00016444164793938398,0.0033347418066114187,0.0019514032173901796,0.003099195659160614,0.0004161787801422179,0.0017704714555293322,0.00041086538112722337,-0.0007594965863972902,-0.0010113613680005074,-0.002675894647836685,0.002290801377967,0.0011752313002943993,-0.0014572135405614972,0.0017523450078442693,-0.0003822549479082227,-0.0014631461817771196,-0.002883605193346739,0.002215883694589138,0.0022263117134571075,0.0027568726800382137,0.0018550469540059566,-0.002147866878658533,-0.003078373149037361,-0.0034644778352230787,-0.0019054204458370805,0.0007372358231805265,-0.00103107956238091,-0.0023539625108242035,0.003543424652889371,-0.0006267156568355858,0.0015653795562684536,-0.0014159854035824537,0.0036669685505330563,-0.003059890354052186,-0.0028779199346899986,0.0009547993540763855,0.003846324747428298,-0.0028469266835600138,0.003651396604254842,-0.00021744670812040567,0.0037363783922046423,0.0028973077423870564,-0.0021370931062847376,-0.0002994398237206042,0.002843205351382494,0.0006473708781413734,-0.00020384203526191413,-0.000763346382882446,-0.0028609391301870346,0.0037850020453333855,1.968008109543007e-05,-0.0034853348042815924,0.0019751519430428743,-0.0009314191993325949,-0.00379543355666101,0.0008770133135840297,-0.0012427516048774123,0.003199419705197215,-0.002928811591118574,-0.0026642426382750273,0.0015362738631665707,0.0023659798316657543,0.0015535315033048391,0.0033486795146018267,0.0022862344048917294,-0.0013877465389668941,-0.001546729588881135,0.0019234564388170838,0.0018143359338864684,-0.00031873746775090694,0.0007212107884697616,0.003043864853680134,-0.0017260138411074877,0.003704966278746724,-0.0040725599974393845,-0.0033888090401887894,-0.0003415468381717801,0.0018830293556675315,0.00040725222788751125,-0.003317743306979537,-0.00019170681480318308,-0.00011115723464172333,0.0007233128417283297,-0.0007415430154651403,-0.0034984645899385214,-0.0039169760420918465,-0.003674999810755253,-0.0007794326520524919,0.003584593301638961,-0.0025167902931571007,0.002737831324338913,-0.0017801739741116762,0.002022858476266265,0.0014950181357562542,-0.0028708968311548233,-0.0004236595123074949,-0.0002668050001375377,0.0016257705865427852,0.002572474302724004,-0.0018260618671774864,-0.004035830497741699,-0.0012060626177117229,-0.0021057291887700558,0.00043130660196766257,-0.0029007236007601023,-0.0031155701726675034,-0.0008418739889748394,0.0010681354906409979,-0.003477274440228939,-0.001069157267920673,0.003880271688103676,0.0011945768492296338,0.0029930623713880777,0.0013746361946687102,0.002518832916393876,-0.0017763761570677161,0.0022017918527126312,-0.001464208704419434,-0.002527842065319419,0.004201260395348072,0.00099433574359864
0.0008255272405222058,0.001898746588267386,-3.369662590557709e-05,-0.00244755856692791,-0.0007754662656225264,-0.0038221068680286407,0.0012673020828515291,-0.0006371489143930376,0.003578050062060356,-0.0037511433474719524,-0.0015762023394927382,0.0036989403888583183,0.0006569494726136327,0.0026700724847614765,-0.0037720692344009876,-0.0019193863263353705,0.0014217746211215854,-0.0032705788034945726,-0.0015492988750338554,-0.0004778951115440577,0.003609615610912442,5.196744677959941e-05,0.0007380167953670025,0.0019631567411124706,0.00016613902698736638,-4.950438597006723e-05,-0.0028843211475759745,0.0036671138368546963,-0.0017741965129971504,0.003707397961989045,0.0003075769345741719,0.0021408251486718655,-0.0016284812008962035,-0.0010831139516085386,0.002843815367668867,0.0033883145079016685,0.0028661100659519434,-0.0032391746062785387,0.002570020267739892,-0.0021256301552057266,-0.0007117263157851994,0.0008235231507569551,0.0024652995634824038,0.00334984646178782,-0.0027769897133111954,0.0036105101462453604,0.0036803570110350847,-0.0026007001288235188,0.0021116952411830425,-0.0010183461708948016,0.0009166725212708116,0.0005839643417857587,-0.00028220241074450314,0.0007768419454805553,0.00035916632623411715,-0.0030330067966133356,-0.0007084970711730421,0.002723309677094221,0.0023490716703236103,-0.002474896376952529,0.0019365010084584355,-0.001054526655934751,0.0015485597541555762,0.0013275736710056663,-0.0030452776700258255,-0.0031436006538569927,0.003010015469044447,-0.002091658767312765,-0.0024487124755978584,-0.00035738907172344625,-0.003299442119896412,-0.0019115088507533073,-0.0024094886612147093,0.001923071569763124,-0.0017252954421564937,0.0029196005780249834,-0.00023059062368702143,-0.001965627074241638,-0.0005443408153951168,-0.0024222068022936583,0.0012633580481633544,-0.0018412292702123523,0.0005599755677394569,0.003752321470528841,-0.0033796897623687983,-0.000908442831132561,-0.0031862349715083838,0.0026306211948394775,0.001430096453987062,0.0024478407576680183,-0.0007838740712031722,0.002758186776190996,0.0032209439668804407,-0.0010053563164547086,0.0031336054671555758,-0.0008759709890000522,-0.0014354048762470484,-0.0018361981492489576,0.003851022571325302,0.0018435369711369276,-0.0009179262560792267,-0.0033820068929344416,-0.002893458353355527,0.0014221693854779005,-0.0009502719040028751,-0.003581235883757472,-0.0008950463379733264,-0.0014909900492057204,0.0023617481347173452,0.0017356348689645529,-0.0037649106234312057,0.0037696862127631903,-0.002948958892375231,-0.0033189263194799423,-0.0026457873173058033,-0.0015596449375152588,0.0035172756761312485,0.002721154596656561,-0.003594711422920227,0.002741163829341531,0.0029422701336443424,-0.0009748921147547662,-0.0016346583142876625,0.0034044692292809486,0.002030434086918831,0.0035948893055319786,-0.0024213306605815887,-0.0020067228469997644
-0.0033209265675395727,0.000489310419652611,0.0018585690995678306,0.0008442861726507545,-0.0020516205113381147,0.00044708585483022034,0.0001890107087092474,0.0013882232597097754,-0.0009795845253393054,0.003482142696157098,0.0021567277144640684,-0.002266115276142955,0.003264650236815214,-0.0037289070896804333,-0.0005136666004545987,-0.0009638065821491182,-0.0022214101627469063,0.003172174096107483,-0.002898392966017127,-0.0014331863494589925,-0.0024927696213126183,0.0025165844708681107,0.0008112031500786543,-0.001362345414236188,0.0033484166488051414,-0.0018692570738494396,-0.0034149924758821726,0.002277126768603921,0.0035432721488177776,0.0031781233847141266,0.0016082471702247858,0.0014061167603358626,-0.0009128509555011988,0.001592449494637549,-0.003099163994193077,-0.002616100711748004,0.00013907546235714108,0.00275021861307323,-0.0006524046184495091,0.0013978674542158842,0.0016227582236751914,0.0029865377582609653,0.0029563733842223883,-0.0010253017535433173,0.00025360166910104454,0.0015135337598621845,-0.002563644666224718,-0.003103971481323242,-0.0037377590779215097,0.0017241621389985085,0.0008541177376173437,0.0015693723689764738,0.0013255419908091426,-0.0004034276935271919,-0.003770402865484357,0.003889255691319704,0.0004511820152401924,0.004041057545691729,0.002049213508144021,-0.003552139038220048,0.0017669540829956532,0.0011584089370444417,-0.001388144213706255,-0.003411179641261697,-0.002671781461685896,0.0035958467051386833,0.0030690408311784267,0.0015933731338009238,0.002711708890274167,-0.0027528246864676476,-0.0006761894328519702,-0.001139146857894957,0.0013881772756576538,-0.0030942715238779783,-0.0021717925556004047,-0.003440744476392865,0.0034201443195343018,0.0037462343461811543,0.00017302233027294278,0.001365775242447853,0.0031298138201236725,0.00060244434280321,-0.002846337156370282,0.00019113988673780113,0.002602366730570793,0.0005519217229448259,-0.003495813114568591,-0.001740480656735599,0.0034956419840455055,-3.318426388432272e-05,0.0011852203169837594,-0.001819517812691629,0.00015325017739087343,0.0008663272019475698,-0.0018878816626966,-0.0007362149190157652,2.593839235487394e-05,0.0025151039008051157,-0.0037293138448148966,-0.0015917140990495682,-0.002343630651012063,0.0033846863079816103,-0.0022133446764200926,-3.7031160900369287e-05,0.0013721261639147997,0.0013274202356114984,0.0003250195295549929,-0.0009243908571079373,0.002680254867300391,0.003084220690652728,-0.000658953795209527,0.0011983365984633565,-0.0030756115447729826,0.0036620507016777992,0.0017734300345182419,0.0021869081538170576,-0.0010280009591951966,-0.001801464008167386,-0.001464150846004486,-0.0003698898945003748,-0.0013777760323137045,0.0015360874822363257,-0.000591917079873383,-7.721273868810385e-05,0.003975150641053915,0.001661123358644545,0.00221075676381588,-0.001157977618277073
0.0013095400063320994,0.003047004109248519,-0.0006423217710107565,0.0013381516328081489,-0.0024781583342701197,0.0023162569850683212,-0.00311819976195693,0.0029241833835840225,0.003802475519478321,-0.0009567446541041136,0.0016761537408456206,0.0006787724560126662,0.003009887645021081,0.003400102024897933,0.0004845029616262764,0.0016926113748922944,0.0013799902517348528,0.003761640749871731,-0.0030915294773876667,0.0026633625384420156,0.0037686917930841446,-0.0033172208350151777,-0.0015283840475603938,-0.002267208881676197,-0.002237240318208933,0.002079189755022526,0.0016813983675092459,-0.0030213487334549427,0.001379741239361465,0.003607322694733739,-0.0026530593167990446,0.002836548490449786,-0.0015695340698584914,-0.0007914996240288019,-0.0018572270637378097,0.0014786868123337626,-0.0011684892233461142,0.0010573237668722868,0.0027335050981491804,0.003825497580692172,0.002273248741403222,0.0027699724305421114,-0.002086328575387597,0.0007908249972388148,-0.0033698775805532932,-0.002536203246563673,-0.003168320981785655,0.0026420506183058023,0.0018626090604811907,0.00018588421517051756,0.003269077278673649,-0.00011411307059461251,-0.00014719407772645354,-0.0035669365897774696,-0.0001869406405603513,0.003315272042527795,0.00057522754650563,-0.0032391746062785387,-0.001012115739285946,-0.0027427859604358673,0.0028416875284165144,-0.0009951384272426367,-0.0014344581868499517,-0.0010477605974301696,-0.0029334379360079765,-0.0012338743545114994,0.0036057482939213514,-0.003402382368221879,-0.0012189424596726894,0.002168772043660283,0.0015518547734245658,-0.0013086136896163225,0.0006555402069352567,-0.0018723260145634413,0.0020004138350486755,0.000558342901058495,-0.003311737207695842,0.0026220015715807676,-0.003860633820295334,-0.0008876740466803312,0.0012865241151303053,-0.0001820138713810593,0.0008435876225121319,-0.0002781929506454617,0.0036897750105708838,-0.0024972129613161087,-0.003416734514757991,0.0035859267227351665,0.0011792811565101147,-0.0013345457846298814,0.0010893575381487608,0.0010392075637355447,-0.0038140746764838696,0.002943579573184252,0.003141357796266675,-0.002924608066678047,-0.0032061103265732527,0.003332220483571291,0.00048095881356857717,-0.0004982834798283875,-0.0017019823426380754,0.0014562133001163602,-0.0036533402744680643,0.0033546178601682186,0.0031495378352701664,0.003413827857002616,-0.0010769530199468136,0.0011057931696996093,-0.0037914407439529896,0.003888244042173028,0.00010006571392295882,0.0015773411141708493,-0.0004849261895287782,0.0029053324833512306,0.00025868602097034454,0.0009335188660770655,-0.0012419897830113769,0.001282543526031077,0.0017341214697808027,0.0012071059318259358,0.0024823311250656843,0.0016582896932959557,-0.0028379287105053663,-0.00021263357484713197,-0.0017984991427510977,0.0021214333828538656,0.00013724993914365768,-0.002228739205747843
-0.0020779273472726345,0.0025721697602421045,0.0007970611331984401,0.0038624268490821123,-0.0011539990082383156,0.0007292935624718666,0.0017920227255672216,0.0002644127525854856,0.001466549700126052,0.0006380719132721424,0.0009450098732486367,-0.003685879288241267,0.003584431018680334,0.0010774609399959445,-0.0015695813344791532,0.004078899044543505,0.002824096940457821,0.0012616096064448357,0.0007466869428753853,0.0017010662704706192,0.002100243465974927,0.0006322273402474821,-0.0021528867073357105,0.0029376589227467775,0.003403817070648074,-0.0028645689599215984,0.0011512702330946922,0.0014206382911652327,-0.003893675282597542,-0.0007677332032471895,0.0006310621974989772,-0.0019156807102262974,-0.0003365481970831752,-0.002440500073134899,-0.002654449548572302,-0.0013055294984951615,-0.003133355639874935,0.0009051784290932119,0.003662401344627142,-0.0001544221449876204,0.0027974327094852924,0.0018409721087664366,-0.002321915701031685,0.001624986412934959,6.7184264480602e-05,-0.0012448712950572371,0.0017640417208895087,0.002853251062333584,0.0023259809240698814,0.0025952556170523167,-0.0006210868014022708,-0.0033225163351744413,0.0016956886975094676,0.0005847428692504764,-0.0034096294548362494,0.0025654220953583717,0.003226492553949356,-0.002635963261127472,-0.003140250686556101,-0.002394250826910138,0.001011870801448822,0.003256469964981079,-0.00390663230791688,-0.0023591609206050634,0.003590106964111328,-0.00016081088688224554,8.428457658737898e-05,-0.0029521624092012644,-0.003195261349901557,0.001276957686059177,-0.002892863005399704,0.003553943010047078,0.0012043144088238478,0.0015313993208110332,-0.0023705160710960627,-0.0027826540172100067,0.0011895649367943406,-0.00227932445704937,0.0010064920643344522,0.002821282483637333,0.002859134692698717,-0.0015888613415881991,0.00046786334132775664,-0.0014150235801935196,-0.0014522215351462364,0.0007604862912558019,-0.0023871881421655416,0.002088266657665372,-0.002818554639816284,0.00378531776368618,0.003211013739928603,-0.0021522955503314734,0.0004976704949513078,-0.0034007164649665356,0.0013593100011348724,-0.00022862150217406452,0.0009867699118331075,-0.0020528167951852083,0.0028866345528513193,-0.0033753036987036467,0.0018460620194673538,-0.0004954710602760315,0.002133321948349476,0.0013160519301891327,-0.002697160467505455,-0.0026752001140266657,-0.0023797673638910055,0.003292850451543927,0.003501452738419175,-0.0006616091704927385,-0.0031779934652149677,-0.0019782937597483397,0.0005561531870625913,0.002611687872558832,-0.0026744797360152006,-0.003248572815209627,9.240702638635412e-05,0.0017430762527510524,0.002338053658604622,0.00046048234798945487,-0.002385085914283991,-0.002965047489851713,0.003927978686988354,0.0003774933866225183,-0.0030480436980724335,0.0010067304829135537,0.001679723267443478,0.002850697608664632
0.0023329351097345352,-0.0004236339882481843,-0.0034525012597441673,-0.0012282078387215734,0.0025412149261683226,0.002832496538758278,0.003264566883444786,-0.00026603825972415507,-0.0015558766899630427,-0.0016752060037106276,-0.0008483794517815113,-0.0025057336315512657,0.0010963266249746084,-0.0016175501514226198,0.0036565414629876614,0.0009571564150974154,-0.00032218574779108167,-0.0016518972115591168,0.0033730112481862307,-0.0013423132477328181,-0.0021509812213480473,-0.00231552473269403,-0.001196464872919023,-0.0002626985660754144,-0.0021910271607339382,-0.0024156898725777864,0.0027879236731678247,-0.002099547768011689,-0.0003746585571207106,0.001719185383990407,-0.0021418281830847263,-0.0016843664925545454,-0.0027062799781560898,0.0003535744035616517,-0.0013768132776021957,-0.003025274956598878,-0.0032520683016628027,-0.00019046715169679374,0.0033420606050640345,0.0038334846030920744,-0.0005743511137552559,-0.003301897319033742,0.003263636026531458,0.0021798673551529646,0.0017660449957475066,0.00035466215922497213,-0.0002908449387177825,0.0008233323460444808,-0.00036839497624896467,-0.0007225711015053093,-0.0010117832571268082,0.0007660792907699943,-0.000943603168707341,0.0012586847878992558,0.0027556305285543203,-0.0013005223590880632,-0.0027036380488425493,-0.0002180043957196176,0.0013070459244772792,0.0027137368451803923,0.0020290417596697807,-0.001494614640250802,-0.0032317261211574078,-0.0010095540201291442,0.0026965911965817213,-0.0034416343551129103,0.0033876344095915556,0.0029613792430609465,-0.0025251060724258423,0.0018396583618596196,0.0008277646265923977,-0.0031828272622078657,-0.0003512325056362897,0.002710918430238962,0.0028785266913473606,-0.0035996707156300545,-0.0019715982489287853,0.002883165841922164,-0.00352134695276618,-0.0005656907451339066,-0.0027387251611799,-0.00014894982450641692,-0.003306270344182849,-0.0016602631658315659,-0.00023946550209075212,-0.002382494742050767,0.0018220708006992936,0.0007700623827986419,0.001837655552662909,-0.0013448921963572502,-0.00038423333899118006,0.002526183845475316,-0.0022433169651776552,0.0028008653316646814,-0.0006224670214578509,0.0004639822000171989,-0.0011495772050693631,0.0002147980558220297,-0.0016698070103302598,0.0013356507988646626,0.0014630301157012582,-0.0003249500587116927,0.0037598549388349056,0.0034922994673252106,-0.0030139461159706116,-0.0024885544553399086,-0.00030516949482262135,0.0007292362279258668,0.00013792014215141535,0.001399184693582356,-0.001106373849324882,8.655220153741539e-05,-0.0005935964290983975,-0.0003360340488143265,0.0024358073715120554,0.0013118080096319318,-0.0037533740978688,0.0019137498456984758,-0.0009960423922166228,-0.0013669095933437347,0.0028488673269748688,0.0004789346130564809,-0.0018155105644837022,-0.0017643456812947989,0.0013241886626929045,0.0003762078413274139,-0.0008981938590295613,-0.0002756931644398719
-0.00024042218865361065,-0.00335809332318604,-0.0010488223051652312,0.002976287854835391,-0.0033132347743958235,-0.002664722502231598,0.0007321791490539908,-0.0013608946464955807,-0.0015991528052836657,0.0014136912068352103,0.0011418249923735857,-3.3476579119451344e-05,-4.851824269280769e-05,0.0024953451938927174,0.0012860127026215196,0.0030097379349172115,0.003232414135709405,0.0012470660731196404,0.0007786998176015913,-0.0036721054930239916,0.000259150197962299,-0.0014575811801478267,-0.000760592520236969,-0.001332677435129881,0.0033241307828575373,-0.0035604832228273153,-0.0030905050225555897,-0.00205903104506433,0.0004897525068372488,-0.0006725775892846286,0.0013552855234593153,0.0035850026179105043,0.002310859737917781,-0.00034202029928565025,0.0027609632816165686,0.0035660206340253353,0.0035604650620371103,0.002657088451087475,0.003757995320484042,-0.0011757519096136093,-0.000545791641343385,0.0019486496457830071,0.0018775974167510867,-0.003910528030246496,-0.00053392443805933,-0.00031045186915434897,-0.0007392534171231091,0.002285447670146823,-0.0005092240171507001,0.0015722201205790043,-0.000587799004279077,-0.0016894256696105003,0.00017627446504775435,3.459636718616821e-05,0.0020540279801934958,0.0019849883392453194,0.0028889295645058155,0.003060281975194812,-0.003139947075396776,0.0033675236627459526,0.00224518240429461,0.0004491576401051134,0.0033515100367367268,-0.0031526738312095404,-0.003917669877409935,0.0022803207393735647,0.00022547974367626011,-0.0003952522820327431,0.0015802736161276698,0.003000923665240407,0.003638526191934943,-6.731374014634639e-05,-0.0007775510312058032,-0.0028670511674135923,0.002661217702552676,0.0029778028838336468,-0.00012590165715664625,0.00040908518712967634,0.003919151145964861,-0.002798540750518441,-0.0024614399299025536,-0.0032412002328783274,-0.002251291647553444,-0.0004925837856717408,-0.0014969828771427274,-0.002579779364168644,-0.0032779842149466276,0.0015672853915020823,0.0031479387544095516,0.0019476651214063168,-0.0026345369406044483,0.003930170554667711,-0.0008727324311621487,0.0004311570373829454,0.0014839384239166975,0.0020921144168823957,-0.0012946040369570255,0.0031214102637022734,-0.0028210640884935856,0.0017186395125463605,0.0020806605461984873,0.002222686540335417,-0.002088881330564618,0.0029488170985132456,0.001975845079869032,0.0026547189336270094,-0.0034322345163673162,-0.0033816189970821142,-0.0013474917504936457,0.0020645838230848312,0.0007381635950878263,-0.002134992741048336,-0.0036638975143432617,0.0013642440317198634,0.003397960914298892,-0.002060346771031618,0.002356564160436392,-0.0018982498440891504,-0.0020142588764429092,-9.836362733040005e-05,0.002154635265469551,-0.0019905944354832172,-0.0004858282918576151,0.0031426132190972567,-0.003654035972431302,-0.0014934532810002565,-0.0013147309655323625,0.002553548663854599
0.0035473343450576067,-0.0030372890178114176,-0.00200423295609653,-0.0021467460319399834,0.0024732761085033417,0.0031429040245711803,0.0006255533080548048,-0.0022610295563936234,0.0002230598620371893,0.0015341833932325244,0.001848568324930966,0.002071165479719639,-0.0004040198109578341,0.0003151056880597025,0.002118392614647746,0.0014106836169958115,0.003159879008308053,-0.0034708594903349876,0.0007664528675377369,-0.0005546355969272554,-0.0013808945659548044,0.0036759923677891493,0.00201254989951849,-0.0024080751463770866,0.00136851379647851,0.0026723439805209637,0.0035803732462227345,0.0029303389601409435,0.0023046093992888927,0.0008134791278280318,0.001624134834855795,-0.002442167839035392,-0.0019661502446979284,0.003698784625157714,-0.0012591799022629857,-0.0014053441118448973,-0.002691172296181321,0.0027342019602656364,0.0025088139809668064,-0.0010740571888163686,-0.0003429317148402333,0.0033176662400364876,-3.421371366130188e-05,-0.001863928628154099,-0.0011636358685791492,0.0023207569029182196,0.0009596571908332407,0.0021297442726790905,-0.002755367197096348,0.001210178597830236,0.0009126888471655548,-0.0007418016903102398,0.003930178936570883,-0.0030600707978010178,-0.0008684691274538636,0.00234460411593318,0.0009926178026944399,-0.0006592069403268397,0.0038843827787786722,-0.00293537974357605,0.0008803760865703225,0.0035695231053978205,-0.0011258996091783047,-0.0030690841376781464,0.0002501716953702271,7.436943997163326e-05,0.002931722206994891,0.0002730337728280574,0.002627707552164793,0.0008513325592502952,-0.0025286790914833546,-0.0006814384832978249,0.0003599567571654916,0.002006244845688343,-0.0016586112324148417,0.002128777327015996,0.0007489564013667405,-0.0036700451746582985,-0.00242030736990273,0.001329862279817462,0.003254260402172804,-0.0012591866543516517,0.0034001560416072607,0.0016067870892584324,0.0003639831847976893,0.003366404213011265,-0.0020304450299590826,-0.0014686038484796882,-0.0006222628289833665,0.00310512725263834,0.0003936256980523467,-0.002379333134740591,0.0031310843769460917,-0.0024617419112473726,0.0017604765016585588,0.0003012953093275428,-0.0030441381968557835,0.0024530375376343727,-0.0034115263260900974,0.0005386832053773105,-0.0032940267119556665,0.0001137445360654965,-0.002715876093134284,0.0014624339528381824,0.0006212609587237239,-0.000654241070151329,0.00357171637006104,0.0010732176015153527,-0.0031097533646970987,-0.0009081286261789501,-0.0014151460491120815,0.00011306199303362519,0.0005774787277914584,-0.0027215161826461554,0.0023977935779839754,-0.0030014924705028534,-0.003082580864429474,-0.002431966131553054,0.0017478070221841335,-0.003985567018389702,0.0016434639692306519,-0.0008057311060838401,0.0010654046200215816,0.0017622251762077212,0.00127513671759516,-0.0010966798290610313,0.003265882609412074,-0.0014560404233634472
0.0001743636530591175,0.002908618189394474,5.2729330491274595e-05,0.003364727832376957,0.0034415049012750387,-0.0032192785292863846,0.003594091394916177,-0.0026896551717072725,-0.0038120041135698557,-0.0037605727557092905,0.002668019151315093,0.00199963734485209,0.00188149674795568,-0.00217915209941566,0.0013708716724067926,0.0012986557558178902,0.0009020028519444168,0.0004491403524298221,-4.8693513235775754e-05,-0.0016557264607399702,0.0004699745331890881,0.0003607999242376536,-0.001209415029734373,-0.00042412240873090923,-0.0002221786417067051,0.00265591056086123,0.0034607434645295143,0.00023855063773225993,0.0021629708353430033,-0.0031987593974918127,-0.0028566925320774317,-0.0006071359966881573,0.0023415363393723965,-0.0035310464445501566,-0.0032175593078136444,0.0003852769441436976,-0.0016265320591628551,-0.0027582210022956133,0.003095193300396204,0.0014797335024923086,0.0026416718028485775,-0.0023425472900271416,0.002445537829771638,0.0037472026888281107,-0.0005939417751505971,-0.0009151615086011589,0.0027515750844031572,0.003179765772074461,0.00361555814743042,0.0028830794617533684,-0.003700895933434367,-0.0036504336167126894,0.003474272321909666,0.003043521661311388,-0.0025139066856354475,-7.589400865981588e-06,0.0033590395469218493,-0.0019742187578231096,0.0010852210689336061,0.0009369726176373661,0.003657839260995388,0.0015868699410930276,0.0024575439747422934,0.002700778190046549,-0.0024489948991686106,-0.00143719173502177,0.002149365609511733,0.003049176186323166,-0.0004044528177473694,0.00018838740652427077,0.002384031191468239,0.0013102504890412092,-0.0005647107609547675,0.0033769921865314245,0.0023935865610837936,0.003324389224871993,0.002188930520787835,-0.0029120862018316984,0.0010310247307643294,-0.0034770795609802008,-0.0031156635377556086,0.003132153768092394,-0.0015456812689080834,-0.0005178556893952191,0.0020587879698723555,-0.002631510840728879,0.0008468104060739279,0.0009378413669764996,0.0017315215663984418,-0.0003740711254067719,-0.0021763865370303392,-0.00044987560249865055,-0.00013999312068335712,-0.0037653599865734577,-0.001183180371299386,0.0026323816273361444,-0.0038130078464746475,0.0033545594196766615,-0.003338434034958482,-0.0016066631069406867,0.0018188918475061655,0.0016491159331053495,0.0006223895470611751,0.0006291631143540144,0.003561282530426979,0.0004594610072672367,0.0016242442652583122,-0.00148033257573843,0.0020491452887654305,-0.003158543724566698,-0.0013066119281575084,0.0011175917461514473,0.003157789586111903,0.0010811997344717383,0.003360527101904154,0.0013517930638045073,0.003723835339769721,-0.002453225664794445,0.003483494510874152,0.001674347440712154,-0.0035016753245145082,-0.003421636763960123,-0.00021759100491181016,-0.0034208265133202076,-0.0019223187118768692,0.0024053151719272137,-0.0005992147489450872,-0.0014057047665119171
0.001537748728878796,0.0019437669543549418,0.0037203573156148195,-0.0013031039852648973,0.0030765642877668142,-0.0010015890002250671,0.0025373194366693497,0.0018204060615971684,-0.0025841861497610807,-0.0007383982301689684,0.0019035805016756058,0.00303523032926023,-0.000290369353024289,-0.001021553878672421,0.0018518876750022173,-0.00346951512619853,-0.0006268309662118554,0.0032835660967975855,0.003647982142865658,0.000645057181827724,-0.0002552018268033862,0.0035027603153139353,-0.0033315331675112247,-0.0025945231318473816,0.0008232379914261401,-0.0002644189808052033,-0.0013468731194734573,0.0012103542685508728,0.0005240715690888464,0.0001952771854121238,0.0021983948536217213,-0.0004136576899327338,-0.003945808857679367,0.00211118976585567,-0.0016730081988498569,0.002686642576009035,-0.0004605201829690486,-0.0019420783501118422,-0.0011591374641284347,-0.0007342014578171074,-0.0016996068879961967,-0.0021896192338317633,0.002953798044472933,0.0009315963834524155,-0.003691148478537798,0.0006086138309910893,0.00038937473436817527,0.0028944595251232386,0.0008982853032648563,-0.0010187337175011635,0.003012953558936715,0.0023311336990445852,0.002919856458902359,0.0012723980471491814,-0.0001356253633275628,-0.002617564518004656,-0.00014897588698659092,0.003119012340903282,0.0022337038535624743,0.0038322939071804285,-0.0018453261582180858,0.0036969489883631468,-0.0031323942821472883,-0.00010601140093058348,-0.0009870220674201846,0.0007980283698998392,-0.0014031562022864819,0.002428909298032522,0.0023121219128370285,0.0024700723588466644,0.0024760535452514887,0.0005500649567693472,0.002610699972137809,-1.4397859331438667e-06,-0.0032842345535755157,0.0007287634653039277,-0.001913278130814433,0.00018089773948304355,0.004056732170283794,0.003851791610941291,0.0009251628071069717,0.0025688032619655132,-0.0005247588851489127,-0.00039717418258078396,0.0017041012179106474,0.0018689132994040847,0.0011663947952911258,-0.0020224861800670624,-0.000834667356684804,0.002488179598003626,-0.0014025467680767179,0.0037861461751163006,-0.0020721671171486378,-0.003776496509090066,0.0004174366476945579,0.0006562062771990895,-0.0016213239869102836,-0.00224233977496624,0.0010770807275548577,-0.003444410627707839,-0.002375237876549363,0.0011933741625398397,0.00025504615041427314,-0.0006942643085494637,0.0032273430842906237,-0.0027727934066206217,-0.0029239391442388296,0.0026669532526284456,0.001567160477861762,0.00017095344082918018,0.002508109901100397,-0.0006601531058549881,-0.002227157587185502,-0.0007973359897732735,0.0031429105438292027,-0.0012643368681892753,-0.0026276237331330776,0.0004254510276950896,0.0035295169800519943,-0.0002960066485684365,-0.0009492717799730599,0.0023634680546820164,0.0035200610291212797,0.0005495965597219765,-0.00033992514363490045,-0.00022815741249360144,-0.002889444585889578,-0.0009638858609832823
-0.0013881304766982794,0.0017576479585841298,-0.0019274144433438778,0.003010032931342721,0.002873522462323308,-0.003737119724974036,-0.001059272326529026,0.0021705194376409054,0.001360418857075274,-0.001312202657572925,0.0019505993695929646,-0.0006829984486103058,-0.0016799700679257512,0.0015901959268376231,0.00022093391453381628,0.003661633934825659,0.0003187311813235283,-2.7261359718977474e-05,0.0004776713903993368,0.0011789790587499738,0.002757666865363717,0.003603682853281498,0.0008367226109839976,0.0028838524594902992,-0.002141507575288415,0.0004948459099978209,-0.0009776409715414047,0.0010129752336069942,-0.003427501069381833,-0.0008827475248835981,-0.0005125653115101159,-0.002209700644016266,0.0017269718227908015,-0.0008582983864471316,0.0019331487128511071,-0.002311162417754531,-0.0007688294281251729,-0.0019973348826169968,-0.0005383347161114216,-0.0006030511576682329,0.0028179504442960024,0.002007546368986368,-0.002196317305788398,0.0005218607257120311,0.0034215610940009356,-0.0010583201656118035,-0.0012470348738133907,0.0004118732758797705,-0.0028934588190168142,-0.001298848888836801,0.0039533087983727455,0.0022720349952578545,-0.0032093229237943888,0.0023795324377715588,-0.0026685523334890604,0.002269130665808916,0.003665786236524582,5.677400986314751e-05,-0.003421575063839555,-0.0005035222275182605,-0.002951935864984989,0.001223740866407752,-0.0002860624808818102,-0.003127227071672678,0.0007388991070911288,0.0020798095501959324,-0.002029594499617815,0.0027631514240056276,-0.0026192031800746918,-0.0004562327521853149,-0.001061836606822908,-0.0024750151205807924,0.002238175831735134,0.0007469916599802673,0.003624357283115387,-0.001526398817077279,0.0015212434809654951,-0.0034797030966728926,-0.001442976063117385,-0.0017157669644802809,-0.0026920842938125134,-0.003376550739631057,-0.0032769127283245325,-0.0031638164073228836,-0.002554807113483548,-0.0004007524694316089,-0.003600470954552293,-0.002203721087425947,0.0017535443184897304,-0.002771115629002452,-0.0037131691351532936,0.0035920024383813143,-0.0005558636039495468,-0.0027304757386446,-0.001330713159404695,0.003464123699814081,-0.0008786428370513022,-0.0015624205116182566,0.0022136494517326355,0.0008455489296466112,0.0027657030150294304,-0.0008321357308886945,-0.0034447580110281706,-0.002250020857900381,0.0009762306581251323,0.0031406194902956486,0.0008703962666913867,-0.003530713962391019,-0.0008177633280865848,-0.001865479745902121,0.0013709322083741426,0.001613105065189302,0.0009221293148584664,-0.00127826735842973,0.003507748944684863,0.0035013046581298113,-0.0028308751061558723,0.0026794839650392532,-0.0033422543201595545,-0.0012673026649281383,0.0003817932156380266,0.003759118029847741,-9.196744940709323e-06,-0.0013131333980709314,0.0032425664830952883,0.0009942521573975682,0.003046277677640319,0.0029813526198267937
0.00014183856546878815,0.002969692461192608,-0.0008501224801875651,-0.003500219201669097,-0.001191995688714087,0.0038048727437853813,-0.0014790947316214442,-0.0013751300284639,0.00014656181156169623,-0.0015139420283958316,-0.0018209991976618767,0.0024123666808009148,-0.0026186970062553883,-0.0025104733649641275,0.0005489211762323976,-0.0033912004437297583,-0.0006960558821447194,-0.002260654466226697,-0.0029235107358545065,0.0023677097633481026,-0.00032857153564691544,0.0013944891979917884,-0.0026233429089188576,-0.0015227352268993855,-0.003484159242361784,0.00033586309291422367,-0.0033904926385730505,0.0009149557445198298,0.0036168538499623537,0.0028446197975426912,-0.00334683945402503,-0.0033354447223246098,-0.0012078637955710292,0.0025596816558390856,0.003780639497563243,-0.003187517635524273,-0.0028778603300452232,-0.003593788016587496,-0.0013902726350352168,-0.003234206698834896,0.001441203523427248,-0.0005035720532760024,-0.0032852317672222853,0.0038986727595329285,0.0019571089651435614,-0.0022961487993597984,-0.0022306572645902634,0.0020893202163279057,0.0014857142232358456,-4.124598854104988e-05,-0.0035141976550221443,-0.0020050532184541225,-0.0009568688692525029,5.934109503868967e-05,0.0005777241312898695,-3.110892794211395e-05,-0.0017645707121118903,0.0021206270903348923,7.270333298947662e-05,0.0020143487490713596,0.0016711625503376126,-2.1719410142395645e-05,0.002927134046331048,-0.0013376548886299133,-0.002200249582529068,0.0020808912813663483,-0.002001766115427017,-0.003830036846920848,-0.002478645881637931,-0.0033963604364544153,0.002292765537276864,0.0028957820031791925,0.001228713896125555,-0.003188484348356724,-0.003567581530660391,-0.0011614799732342362,-0.0014426272828131914,0.0020609849598258734,-0.002426469000056386,0.0026121120899915695,-0.0033355304040014744,0.0008006058633327484,0.0004256049287505448,-0.00011162017472088337,0.0030468686018139124,0.0038457640912383795,0.002524243900552392,0.0019634491764009,0.003772712079808116,0.002622918225824833,-0.0015888996422290802,-0.002333517652004957,0.0026531906332820654,0.0016729135531932116,-0.0023790819104760885,-0.0032544564455747604,0.002037500962615013,0.002610952826216817,-0.0033286456018686295,0.001084676943719387,0.0004429700202308595,-0.0015119973104447126,0.001013004221022129,-0.0007010209956206381,0.00110574159771204,0.002262499649077654,-0.0010577270295470953,-0.002929365262389183,0.00357836508192122,0.0026488807052373886,-0.0023791145067662,0.0038116760551929474,0.0010356102138757706,-0.0012756807263940573,0.0038767207879573107,-0.0017103595891967416,0.0029385164380073547,-0.002458884846419096,-0.00046820120769552886,0.0029316882137209177,-0.001000607735477388,-0.0019056808669120073,-0.0017095720395445824,-0.0023677214048802853,0.000840880733449012,-0.0017229270888492465,-0.0027470176573842764,-0.0013181173708289862
0.0006392304785549641,0.0005142786540091038,0.0032028155401349068,-0.0009779969695955515,-0.003942303825169802,-0.0012404787121340632,-0.002851022407412529,0.003597899805754423,-0.0032221416477113962,0.000816456216853112,-0.0009647582774050534,-0.0022532267030328512,-0.0005333704175427556,0.001443015760742128,-0.0006780285621061921,0.0037455051206052303,0.0029099213425070047,0.003649618709459901,-0.0012391145573928952,7.778293365845457e-05,0.0008332813158631325,0.0015795036451891065,0.001647725934162736,0.0003071764949709177,0.002896704711019993,-0.0037744902074337006,-0.0015961619792506099,0.0035655670799314976,0.0033751619048416615,-0.0018767585279420018,0.002796453656628728,0.0006655377801507711,0.0037108599208295345,-0.00011945389996981248,-0.0023590675555169582,-0.0038673593662679195,-0.001451008371077478,0.0001361538452329114,-0.0030339364893734455,-0.002725866623222828,-0.0022103600203990936,0.001702300040051341,0.0021353948395699263,0.002798777772113681,0.0030233883298933506,-0.002297797240316868,0.002643668558448553,-0.0023492726031690836,0.00210242485627532,0.0020839034114032984,0.003373742802068591,0.00012573129788506776,-0.001811816357076168,0.0023590493947267532,-0.0015844553709030151,-0.000740746792871505,0.00013461326307151467,0.0009831043425947428,0.003998532425612211,-0.0029162662103772163,0.001788621419109404,0.0011554091470316052,-0.0028034758288413286,0.003457816084846854,-0.0021669394336640835,-0.00339122349396348,-0.0017553060315549374,-0.002796758897602558,0.0013543590903282166,-0.003125798422843218,0.0037795063108205795,-0.0003268537111580372,-0.003635111963376403,-0.0029515004716813564,0.002486888784915209,-0.001734111225232482,-0.0006167440442368388,-0.0011422232491895556,0.0007177699590101838,-0.0013435824075713754,-0.0020146204624325037,-2.4822034902172163e-05,0.0017580484272912145,-0.0017655979609116912,-0.0009956932626664639,0.002244366565719247,0.0024853709619492292,-0.0024408099707216024,-0.0011687127407640219,-0.0003813678049482405,0.0016413836274296045,0.003220444079488516,0.00255666789598763,-0.002115922747179866,0.0010133231990039349,0.00032668019412085414,0.003233329625800252,-0.0038759394083172083,-0.0021445408929139376,0.001757906866259873,0.0012124311178922653,-0.002296444261446595,-0.00115415349137038,-0.0027115861885249615,0.0015586960362270474,-0.0031686360016465187,-0.0029677334241569042,-0.0016047934768721461,-0.0011068797903135419,0.0018009929917752743,0.0036455641966313124,-0.0010635931976139545,-0.0016860624309629202,0.003268130822107196,0.0032182824797928333,0.0022944598458707333,0.003481784835457802,0.002068529836833477,-0.0017401358345523477,0.0016496328171342611,-0.0008847347344271839,-0.00063560955459252,0.0017636159900575876,-0.002248052740469575,-0.0017349739791825414,-0.002992982044816017,0.000721066608093679,0.0005871971370652318
-0.00364792556501925,0.00219966983422637,-0.0007994045154191554,-0.0009980128379538655,0.0019187527941539884,0.0013747474877163768,8.971218630904332e-05,0.0019170492887496948,0.0029168971814215183,0.0012629932025447488,-0.0008308453252539039,-0.0013285066233947873,-0.0020154647063463926,-0.0038635481614619493,-0.0036668439861387014,0.002016503596678376,-0.0020983705762773752,0.0016834513517096639,-0.002842966467142105,-0.0037482543848454952,-0.0036045261658728123,0.0015081899473443627,0.001733364537358284,-0.0007113363826647401,-0.0011450947495177388,0.0013535685138776898,-0.0037394764367491007,0.0034537739120423794,-0.0033538194838911295,0.0020525590516626835,-0.0037411656230688095,0.0033395353239029646,-0.0018890314968302846,0.002674736315384507,-0.001512861461378634,-0.0038272470701485872,0.0009404860902577639,-0.0005847091088071465,-0.001007255632430315,0.000922315230127424,-0.0010344255715608597,-0.00044166494626551867,-0.003443357767537236,-0.0032642593141645193,0.0011054374044761062,-0.0021222911309450865,-0.00327924988232553,0.002234850777313113,-0.0007583168335258961,-0.003312047803774476,0.003449052106589079,-0.0028260047547519207,-0.003471460659056902,0.0011448805453255773,-0.0009807886090129614,0.002108920831233263,-0.0011942003620788455,0.0025317480321973562,0.003763678018003702,0.0032546629663556814,0.002590108895674348,-0.0015903371386229992,0.0008690660470165312,0.0035887279082089663,-0.003573974594473839,0.002728310413658619,-0.0013570423470810056,0.0015270862495526671,0.003143614623695612,0.0025412424001842737,-0.0023222388699650764,0.002180878072977066,-0.00039723870577290654,-0.003042830154299736,-0.0021624418441206217,-0.0025973294395953417,0.0017668145010247827,0.0035222466103732586,0.0025915189180523157,-0.00204256153665483,0.003438478335738182,0.003219264792278409,-0.0015764225972816348,0.0021527751814574003,-0.002139499643817544,-0.0016195843927562237,0.0019128613639622927,0.00118256697896868,-0.001741953892633319,-0.0017205842304974794,0.002399860881268978,-0.003431865479797125,-0.0038000051863491535,-0.0013252485077828169,-0.003480846295133233,0.0003848171909339726,0.0023423328530043364,-0.0030872190836817026,0.0007522606756538153,-0.0010467695537954569,0.0006465212791226804,-0.001413640333339572,0.001879049581475556,-0.0017117738025262952,-0.001178740058094263,-0.0006759962998330593,0.0002690374094527215,-0.000830215634778142,-0.00015030772192403674,0.0038079863879829645,0.0016415975987911224,0.002869077492505312,0.002107424894347787,0.0007995861815288663,0.0008899464155547321,0.0020644403994083405,-0.002991147106513381,0.0014653924154117703,-0.002919764956459403,-0.003181783715263009,0.0031951728742569685,0.0009368343162350357,0.001567426952533424,-0.0002520908019505441,-0.0003233098250348121,0.0018187081441283226,-0.003034507390111685,-0.0035047251731157303
0.0009007169865071774,-0.001014784094877541,0.0012808730825781822,0.0006603319779969752,0.000486164033645764,-0.0010630442993715405,-0.003412207355722785,0.0007773885736241937,0.002382627921178937,-0.0007591923349536955,0.0013911055866628885,-0.0012784987920895219,0.0008081873529590666,4.460287163965404e-05,-0.0032246054615825415,0.002113352995365858,0.001384252100251615,0.001514997216872871,-0.002702736295759678,0.002968595363199711,-8.118194091366604e-05,0.0005937399691902101,0.00327030336484313,-0.0019089991692453623,5.237278855929617e-06,0.003308448474854231,0.003562746336683631,0.0016141036758199334,-0.0004957598866894841,0.002560721244663,-0.0021267859265208244,0.0016133394092321396,0.0033485302701592445,-0.0037048240192234516,-0.0018916382687166333,-0.003674047300592065,-0.0015837345272302628,-0.003323443466797471,0.000501787755638361,0.0024468686897307634,-0.0022435165010392666,-0.001503129955381155,0.0032057096250355244,0.00010782999743241817,0.0010509169660508633,0.0010782849276438355,-0.0008628798532299697,-0.0016130550066009164,-0.003147265175357461,-0.002574213547632098,-0.002135403687134385,0.0023046548012644053,0.002764360746368766,-0.003506261855363846,-0.0025954076554626226,0.00023691733076702803,-0.001205880893394351,0.0038018759805709124,-0.0026082962285727262,0.002432408044114709,-0.0034749878104776144,-0.001897574169561267,0.0008260587346740067,0.0026481165550649166,-0.00062669807812199,0.002511373721063137,-0.0034832435194402933,0.0011701553594321012,0.0037693127524107695,0.0020994707010686398,-0.0014890821184962988,0.0012406653258949518,-0.001337874447926879,-0.0037531855050474405,-0.0030450604390352964,-0.0027605840004980564,0.00018924506730400026,4.641593113774434e-05,-0.002026753267273307,-2.4724497052375227e-05,-0.0028652811888605356,0.0025616942439228296,0.0005331920692697167,0.0014446411514654756,-0.001871937420219183,0.002379871904850006,0.002370853442698717,-0.0034868207294493914,0.0023790241684764624,0.0030505573377013206,0.0009005175088532269,-0.003799017518758774,0.0030150110833346844,0.003640754148364067,-0.0023617721162736416,0.00395569484680891,-0.0011066505685448647,-0.002288494259119034,0.003594842040911317,0.0020755736622959375,0.003068704856559634,0.0010464484803378582,-0.0025532864965498447,-0.001427777810022235,0.0028504091314971447,-0.0008824775577522814,-0.002962270984426141,0.0008725312654860318,8.342263754457235e-05,0.002461691852658987,-0.0017528437310829759,0.003583835205063224,-0.00024061210569925606,-0.0021102018654346466,-0.0038250694051384926,-0.0002810338046401739,0.003981566987931728,-3.0496836188831367e-05,-0.0026039264630526304,0.0016249128384515643,-0.0003539118333719671,0.002216791035607457,-0.003361460752785206,-0.0022067653480917215,-0.003068305319175124,0.0022589960135519505,-0.0027276126202195883,-0.003433972131460905
-0.0016690666088834405,-0.0018396422965452075,0.00137621711473912,-9.588968532625586e-05,-0.004461146891117096,-0.001992142526432872,-0.0006487055215984583,0.0028259805403649807,0.0018370223697274923,-0.0018676315667107701,-0.0013713189400732517,-0.0037158990744501352,0.004351987969130278,0.002767739584669471,-0.0034306298475712538,-0.0007021668716333807,0.0014785411767661572,-0.0004447156679816544,-0.0017854745965451002,-0.004815864376723766,-0.0026135186199098825,7.33265551389195e-05,-0.0013362450990825891,-0.005716098938137293,-0.001912214094772935,0.00442119874060154,0.001854098867624998,0.0028555872850120068,-0.005062151234596968,0.0014093188801780343,-0.000956547970417887,-0.0006045235786587,-0.002279894892126322,0.003945876378566027,-0.0016968748532235622,0.002063435735180974,-0.0005305957747623324,0.0036439639516174793,0.004397416952997446,0.00418663676828146,-0.004030977841466665,0.0008133507217280567,0.0018609745893627405,-0.0008471225737594068,0.0011399973882362247,-0.001289268839173019,0.004219943191856146,-0.000813271792139858,-0.002402634359896183,0.000743760378099978,0.0020889730658382177,0.003224016400054097,0.003089647041633725,-0.0008679749444127083,-0.002235214225947857,-0.003630899591371417,-0.0008408918511122465,0.0008715707808732986,0.004676985554397106,0.0035382548812776804,0.0016828872030600905,-0.0009948858059942722,0.0014150701463222504,0.003424472874030471,1.08432777778944e-05,0.0018196712480857968,0.0011090915650129318,0.003123282687738538,-0.0014819225762039423,0.004290620796382427,-0.0042405808344483376,-0.003290683962404728,0.0034916778095066547,0.0029684442561119795,0.001982188317924738,0.003183594439178705,-0.002135016256943345,-0.004158574156463146,0.0021426917519420385,-0.0013905735686421394,0.002583456924185157,-0.0025967895053327084,0.0031015591230243444,0.0012189053231850266,-0.000452170439530164,-0.002172925276681781,-0.002099761040881276,0.003764048684388399,-0.004524361342191696,0.0025219374801963568,-0.0016515887109562755,0.0035827087704092264,0.0018668218981474638,-0.0016694583464413881,-0.004406164400279522,0.0016415562713518739,0.0021413913927972317,-0.0009307105210609734,0.0008753757574595511,0.0010793391847983003,0.0011597102275118232,-0.00477834977209568,0.004502745810896158,-0.001627792720682919,0.0008336727041751146,-0.00400652876123786,-0.003897602204233408,-0.004330961033701897,0.005660509690642357,-0.0034336147364228964,-0.0022025941871106625,0.0014328300021588802,-0.004862753674387932,0.00101277488283813,-0.0015980001771822572,-0.004120373632758856,0.0008270883117802441,0.0028843479230999947,-0.00021632888820022345,-0.0038578954990953207,0.0005646244972012937,-0.003005238017067313,0.0018291636370122433,-0.0024555085692554712,0.004414299037307501,0.005918904207646847,0.001155589590780437,-0.003677883418276906
-0.0015543436165899038,-0.0032546718139201403,-0.0021748968865722418,0.0031328529585152864,0.0006054270197637379,0.0007494629826396704,0.00039705648669041693,-0.002254975726827979,-0.0005661228206008673,0.0018767572473734617,0.0030825373250991106,0.0019340867875143886,0.0032234254758805037,0.0002965720777865499,-0.0017845707479864359,0.0018236524192616343,0.0006728667649440467,-0.0005935295484960079,-0.0021366700530052185,-0.0026243512984365225,0.0006262618699111044,-0.0015662572113797069,0.00040545870433561504,-0.0018900500144809484,0.0008514676010236144,0.002312595723196864,-0.0022397718857973814,0.0024544165935367346,-0.0008884207345545292,-0.0005784575478173792,0.001765601453371346,-0.0011448916047811508,0.0025431145913898945,-0.0023677765857428312,0.0017607769696041942,-0.0011961925774812698,0.0035146286245435476,-0.002460452727973461,0.0027686436660587788,0.0019450635882094502,-0.002154608489945531,-0.003290084656327963,0.0017693709814921021,-0.0005871316534467041,-0.0003170367854181677,-0.002071578288450837,-0.0011364843230694532,-0.0013131274608895183,0.00231448607519269,0.0016507338732481003,-0.0028733396902680397,-0.002020326443016529,0.0024328813888132572,0.0026529193855822086,0.0008585822070017457,0.002165902638807893,-0.0006918380386196077,0.001414632541127503,0.0020870273001492023,-0.0022106871474534273,0.0019966259133070707,-0.0022905152291059494,-0.0018821472767740488,0.0030290219001471996,-0.003571742447093129,-0.0016655849758535624,0.0031896468717604876,-0.0005401155212894082,-0.0017491518519818783,0.0005002827383577824,0.002983271609991789,-0.00274709053337574,0.003910134080797434,0.0024244661908596754,0.0035953798796981573,0.0014675551792606711,0.0036746086552739143,0.0013403253396973014,-0.003486261935904622,0.0030680305790156126,-0.0006050849333405495,0.0001428442628821358,0.0013890467816963792,0.001399290980771184,0.00025564871612004936,-0.0021255258470773697,-0.00041084064287133515,0.0018338932422921062,0.002476662164554,0.0016736551187932491,0.003241527359932661,0.0006352991913445294,-0.002073250710964203,0.0002461803378537297,-0.00155094382353127,0.003384883049875498,0.002238230546936393,-0.0020647523924708366,0.00044771580724045634,-0.00010174968338105828,0.001729993731714785,0.002762146294116974,0.0005924519500695169,-0.00398436700925231,0.0005150160868652165,0.0018734447658061981,-0.0004958359058946371,-0.00231606955640018,0.001872716355137527,-0.003856474068015814,-0.00042106735054403543,-0.0005484385183081031,-0.0024676790926605463,-0.0012809565523639321,-0.0011669037630781531,0.0023859585635364056,0.0021372362971305847,-0.0014112144708633423,0.003319237846881151,-0.0037152436561882496,-0.0004710514913313091,0.0032505521085113287,0.0010585353011265397,0.003002315293997526,-0.0007603903068229556,0.003946024924516678,-0.0022101623471826315,0.002412402769550681
0.0013978612842038274,0.0003402991860639304,-0.003756060963496566,0.0008792984881438315,-0.003683611052110791,-0.0018470445647835732,0.001104415045119822,-0.000643912993837148,0.003444522153586149,0.002810381818562746,-0.0017465549753978848,-0.0024964010808616877,0.0008356081089004874,-0.0013565975241363049,-0.002353995107114315,-3.698572254506871e-05,-0.00174520758446306,0.003960226662456989,-0.00038200494600459933,0.0012003268348053098,-0.0017492403276264668,0.001671020989306271,0.0003066863864660263,-0.0022343045566231012,-0.000720255309715867,0.002305048517882824,0.0027194758877158165,0.0020728602539747953,0.0006699503865092993,-0.00044137818622402847,-3.55769443558529e-05,-0.0009602374047972262,-0.0017633012030273676,-0.0006587124080397189,-0.0008056774386204779,-0.0035850941203534603,0.0008975087548606098,0.002711683511734009,0.0011862879619002342,-0.002299703424796462,0.0011245806235820055,0.00299928174354136,-0.001053845975548029,0.0007496419129893184,0.0024398239329457283,-0.00046097804442979395,-0.001986972987651825,0.0030295541509985924,0.0006652474985457957,-0.002538073342293501,-0.0016698746476322412,0.0009429462952539325,-0.0022035082802176476,-0.0025260080583393574,0.0037230493035167456,0.0038986275903880596,0.0015937451971694827,-0.0019911443814635277,-0.0008890260360203683,-0.0007794317789375782,0.0018854998052120209,0.0024104060139507055,-0.0006319600506685674,0.0029181649442762136,-0.0021501071751117706,-0.0014830544823780656,0.002708464628085494,6.760254473192617e-05,0.003258312586694956,0.001428992603905499,-0.0003398451372049749,-0.0008130019996315241,0.0021474179811775684,0.0006618598708882928,0.0004869292606599629,-0.0001736837439239025,0.00070180743932724,-0.003622042713686824,0.0020403596572577953,-0.001020461437292397,0.0003506910288706422,-0.0016985839465633035,0.003123765578493476,-0.003035151632502675,0.0010488164843991399,-0.0006458624266088009,-0.0012979641323909163,-0.0013552230084314942,-0.0030623367056250572,0.002479486633092165,-0.0008208883227780461,-0.0016428560484200716,-0.003820046316832304,-0.0025964968372136354,-0.002476566471159458,0.004012157674878836,0.003374032909050584,-0.003458300605416298,-0.00199102982878685,0.0008516843663528562,-0.002383851446211338,-0.0026248227804899216,-0.0036980262957513332,-0.003949802368879318,0.0003679730580188334,-0.0006560641922987998,0.0008087501628324389,-0.0011913294438272715,-0.0031469932291656733,0.003544646082445979,0.0007997795473784208,-0.00161062425468117,2.622107604111079e-05,-0.0010496025206521153,0.0021154871210455894,0.001934180036187172,0.002004871377721429,-0.0022314691450446844,-0.00027397138183005154,-0.0039375354535877705,-0.0021658821497112513,0.0034922959748655558,-0.0012317425571382046,0.0016947106923907995,-0.0007963936659507453,0.0014210926601663232,-0.0037006644997745752,-0.003529741894453764
-0.0019122797530144453,0.0035656802356243134,-0.0010858166497200727,0.0030288416892290115,0.0029569726902991533,3.2335592550225556e-05,0.0033223587088286877,0.002704121172428131,-0.0004014848673250526,-0.003102274611592293,-5.002381294616498e-05,-0.0012572056148201227,0.0031517946626991034,0.0033675290178507566,-0.001637194654904306,-0.0017508132150396705,-0.001777997356839478,0.0037612246815115213,0.0021229565609246492,0.0026474888436496258,-0.002521598245948553,0.0016780648147687316,-0.003664338728412986,0.0008204850018955767,0.0034259443636983633,-0.0012036263942718506,0.0028270583134144545,0.0006087184301577508,-0.004031832795590162,-0.002564180875197053,0.0035241825971752405,-0.0035163708962500095,-0.002738008741289377,0.0018224940868094563,0.0016088596312329173,-0.00372494338080287,-0.00013240416592452675,-0.000798125343862921,0.0035720181185752153,0.0009712344035506248,0.0033347290009260178,0.0020952639169991016,0.0014521204866468906,-0.003207239555194974,-0.0003619675408117473,-0.0010871238773688674,0.001449724193662405,0.0012469150824472308,0.0008019878878258169,0.003376006381586194,0.0012714177137240767,0.0016723086591809988,0.0024325386621057987,-0.0021580008324235678,-0.0031605244148522615,0.0029202259611338377,0.0038020696956664324,-0.002752219559624791,-0.002011066535487771,0.0005969888297840953,0.003040196606889367,-0.0024217723403126,-0.0010437375167384744,0.0024856263771653175,0.0031017796136438847,0.002824758877977729,0.0006488935905508697,-0.0039006166625767946,-0.0017373557202517986,2.563048474257812e-05,0.001392776845023036,0.0032990053296089172,-0.00118733337149024,0.001902557909488678,0.0018807711312547326,-0.00010218608804279938,0.0017153109656646848,0.0016105371760204434,0.003942068200558424,0.0008206238271668553,0.0031400779262185097,0.0007415525615215302,0.002198399743065238,0.002632021438330412,-0.002953282790258527,-0.00307262921705842,-0.002918347017839551,-0.00104979844763875,0.0007757088169455528,0.0021424908190965652,0.003301725024357438,0.00018381583504378796,0.00047524075489491224,0.0010859033791348338,-0.001490473747253418,-0.00289647257886827,0.00033502798760309815,-0.003753736848011613,0.00047064543468877673,0.002999003976583481,0.0023322459310293198,-0.002887425944209099,-0.00026792497374117374,0.0013250764459371567,-0.00233274232596159,0.002610686933621764,-0.00047872800496406853,-0.002680405043065548,-0.0019347984343767166,0.002573910867795348,-0.0038378091994673014,-0.00019062157662119716,0.001631876453757286,0.0033251680433750153,-0.001072317361831665,0.0016918608453124762,-0.0013022322673350573,-0.0030886735767126083,0.00035875284811481833,0.003222319297492504,-0.003341074800118804,-0.0007246015593409538,-0.0023699793964624405,-0.0019105772953480482,0.000995926558971405,0.004083582665771246,0.00306904804892838,-0.0016758349956944585
0.0015541765606030822,0.0033083565067499876,0.00019835941202472895,0.003913329914212227,0.002796773100271821,-0.0038726141210645437,-0.0022390757221728563,0.0026593704242259264,-3.630264836829156e-05,-0.002064046449959278,0.0010185390710830688,-0.002193412045016885,-0.002804459072649479,0.0004417806048877537,0.0031798735726624727,-0.0008015739149414003,0.000445457553723827,0.002310216659680009,0.00026555013027973473,0.001670011435635388,0.0008161620353348553,-0.00022497047029901296,-0.0035595926456153393,0.0015651923604309559,-0.0031918110325932503,-0.0029094817582517862,0.0019834779668599367,-0.002080668928101659,-0.0008600901928730309,0.0021134428679943085,0.0025150610599666834,-0.0023502525873482227,-0.003850151551887393,-0.00041916489135473967,0.00026623037410899997,0.0007476730970665812,0.0031817464623600245,0.0012581574264913797,0.0025951589923352003,-0.0005799647769890726,0.00351269100792706,0.0001940072834258899,0.0037659693043679,0.0019415410934016109,0.001339675742201507,0.0023883201647549868,0.002888964954763651,0.0019489661790430546,-0.002943430095911026,0.0004776940040756017,-0.001828083535656333,0.0035999934189021587,-0.001123319729231298,0.0001950839359778911,0.003161055501550436,0.00167734210845083,0.003387659788131714,0.0036264783702790737,-0.00040803069714456797,0.0015334788477048278,0.0015792758204042912,0.0017238642321899533,-0.0008705630898475647,-0.0035366732627153397,0.00204528053291142,-0.0008676256984472275,-0.0018388851312920451,0.0005745668313466012,0.0019623858388513327,-0.0007918209303170443,0.00035283391480334103,0.00025403639301657677,-0.002713677240535617,0.00011351901048328727,-0.0025326272007077932,0.0011876898352056742,-0.0028616911731660366,0.0015209303237497807,-0.003650967963039875,-0.001074142986908555,-5.76938464291743e-06,-0.0024177562445402145,0.0029973105993121862,-0.000860172207467258,-0.0038961709942668676,-0.00392330763861537,-0.001475707977078855,-0.0005297707975842059,-0.0007813276606611907,-0.003822211641818285,-0.003229544498026371,-0.0035887742415070534,0.001775390817783773,-0.00043330591870471835,0.00013165616837795824,-0.0020916881039738655,0.002131314715370536,-0.000488855002913624,0.0005603811587207019,0.0010641319677233696,0.0004281539877410978,-0.0023029318545013666,-0.0022184858098626137,-0.0021235698368400335,0.0014421980595216155,0.0010665107984095812,-0.002466637408360839,-0.0019183612894266844,0.0030846521258354187,-0.00027591310208663344,0.0034496751613914967,-0.002199780661612749,0.0004252796352375299,0.0008603122550994158,-0.002737683244049549,-0.003197462996467948,0.0034699137322604656,0.0023835343308746815,-0.002378075383603573,0.0007845814106985927,0.0014411056181415915,0.0006971973343752325,0.0002486880694050342,-0.002390064997598529,3.362960342201404e-05,-0.0033512450754642487,-0.0007184434798546135,0.0020765638910233974
-9.702411261969246e-06,-0.0034814125392585993,0.0036401234101504087,-0.0027717098128050566,-0.0005037930095568299,0.0008933452190831304,-0.003849954344332218,-0.0005537153338082135,-0.0026729463133960962,-0.0020553197246044874,-0.0009393179789185524,-0.002278013387694955,0.0007823435007594526,0.0032534680794924498,0.0006646354449912906,-0.0027363284025341272,0.0027781017124652863,0.002511659637093544,0.00047846059896983206,-0.0022485314402729273,-0.0015407807659357786,-0.00023738683375995606,6.535899046866689e-06,-3.945133357774466e-05,0.0038957262877374887,0.0017815203173086047,0.0008931641932576895,-0.0017716123256832361,-0.0004753198300022632,0.0007104116375558078,0.0017077798256650567,0.0015276784542948008,0.0002686895022634417,-0.000375910458387807,-0.0009268168359994888,-0.003812608541920781,0.0010056785540655255,0.00038064830005168915,0.0022219792008399963,-0.002109206048771739,-5.535107629839331e-05,0.0034483664203435183,0.001289769890718162,0.0001645674929022789,0.0029721383471041918,-0.0038621798157691956,0.0012230612337589264,0.0005866825231350958,-6.146888335933909e-05,0.0007398652960546315,0.0037329066544771194,0.003698719199746847,-0.0031411447562277317,-0.0008135642274282873,-0.0005686737713404,0.0005293328431434929,0.001973743550479412,-0.0030978622380644083,-0.00329017941839993,7.377360452665016e-05,0.0010733588133007288,0.0017463306430727243,0.0010332801612094045,0.0007593663176521659,0.0012879003770649433,0.0036452601198107004,-0.00012369123578537256,-0.001690782606601715,-0.0030234912410378456,-0.0003908490762114525,-0.0029142405837774277,0.0021039864514023066,-0.0028843465261161327,0.001586326165124774,0.00015572996926493943,0.0013136313064023852,0.00041725789196789265,-0.0022523971274495125,0.0008180688600987196,0.002173322020098567,0.003422750625759363,-0.0014883046969771385,0.0031915430445224047,0.0024393065832555294,-0.0033016998786479235,-0.0036719630006700754,0.00036621501203626394,0.0037913459818810225,-0.003319184761494398,0.002403689781203866,0.00048110896022990346,0.0019583292305469513,0.0006799189141020179,0.0016043336363509297,-0.003661399008706212,-0.001472575357183814,0.0035673570819199085,-0.003284820821136236,-0.00151825079228729,0.0035996888764202595,0.0012746850261464715,0.0011358818737789989,-0.003286748891696334,-0.0025708088651299477,-0.002544136717915535,-0.0023718462325632572,-0.0034965327940881252,0.003312142100185156,-0.000341590988682583,0.001566667458973825,6.741533434251323e-05,-0.0035443881060928106,8.733325375942513e-05,-0.003796071046963334,0.0012592807179316878,0.0013087450060993433,0.0009826123714447021,9.107721416512504e-05,-0.000564513320568949,-0.00011067126615671441,0.0029968200251460075,0.0015428878832608461,0.001388708595186472,-0.0011559594422578812,-0.0028745802119374275,0.0010740741854533553,-0.0011944782454520464,-0.0012746258871629834
0.0009075666894204915,0.0010185771388933063,8.496255031786859e-05,-0.000668655673507601,-0.0038609348703175783,-0.0008864178089424968,-0.0008394617470912635,-0.0030216637533158064,-0.0029430147260427475,0.001335512613877654,-0.0020657936111092567,-0.0036148992367088795,-0.0014465526910498738,0.002813488943502307,0.0009869436034932733,-0.0029766361694782972,0.0030826798174530268,-0.003022287040948868,0.00020002754172310233,-0.0037981909699738026,0.0006543667404912412,-0.0010063520167022943,0.003625181969255209,0.0012897851411253214,-0.002608133014291525,-0.0005858367076143622,0.0022383611649274826,-0.0007447722600772977,0.0011263960041105747,-0.0026751956902444363,-0.0017003726679831743,-0.002294368576258421,0.0006485175108537078,-0.001690937438979745,0.001093643018975854,0.0008570487261749804,0.0029160541016608477,-0.0008284858777187765,0.0010358898434787989,0.00392196886241436,-0.0003738865489140153,0.0014590134378522635,-0.0007352263783104718,0.002682924037799239,-0.0018072923412546515,0.0006333699566312134,-0.0022954854648560286,-0.0008216439746320248,-0.0025634889025241137,-0.0015002917498350143,0.0033412580378353596,0.0025456086732447147,0.00046723170089535415,0.00022507135872729123,-0.002996936207637191,0.0005933966021984816,-0.00273596728220582,0.002281398279592395,-0.002468226943165064,0.002571309683844447,0.0007700643036514521,0.0021655934397131205,0.000853525591082871,0.0028050532564520836,0.003436146304011345,0.0022489894181489944,0.002858763560652733,-0.001889389124698937,-0.0004709730565082282,0.003985950257629156,0.0007371343090198934,0.0022031604312360287,0.003179344814270735,0.0024846731685101986,0.003813104936853051,0.0032253593672066927,0.0021625112276524305,-0.002476002322509885,0.001662694034166634,-0.002682841382920742,-0.0006582369678653777,-0.0013510029530152678,-0.002578819403424859,0.0030631080735474825,-0.0017634928226470947,-0.0009444351890124381,-0.00013354187831282616,-0.0034706033766269684,-0.0032232701778411865,-0.003650141879916191,-0.0018235370516777039,0.002387161133810878,-0.0022335913963615894,-0.0036472550127655268,-0.002589989686384797,-0.0003487319918349385,0.0019313233206048608,-0.000197113273316063,0.0013238750398159027,-0.0018247021362185478,0.0014659224543720484,0.0018788253655657172,0.0016857834998518229,0.0022944144438952208,-0.0005386872799135745,-0.003844592720270157,-0.0015193801373243332,-0.0006544954958371818,0.002672037575393915,-0.0012914387043565512,0.0038235073443502188,0.0028096172027289867,-0.0009860378922894597,0.0020151776261627674,0.001990495016798377,-0.0013939428608864546,0.0008306786185130477,0.0008005440467968583,0.00040798375266604125,0.0022683124989271164,0.0004442127246875316,-0.00012953125406056643,-0.001248080050572753,-0.0012314926134422421,0.0015260555082932115,0.0027117489371448755,-0.0011095430236309767,0.002322609070688486
-0.0028270892798900604,0.003857092000544071,0.0027065183967351913,0.003779498627409339,-0.003166611772030592,0.0006508213118650019,-0.0024991347454488277,-0.0022939927875995636,-0.0009789307368919253,-0.002044153166934848,0.0027943269815295935,0.0004482261720113456,0.0001797419972717762,-0.002345022512599826,0.0006749004242010415,-0.001626916229724884,0.00239545083604753,0.0022609662264585495,-0.0025523980148136616,-0.003905119840055704,0.0025702195707708597,-0.0017421049997210503,-0.001166385249234736,-0.0024188044480979443,-0.0021162950433790684,-0.003675308311358094,-0.002924736589193344,-0.0016950970748439431,0.001406458904966712,0.00018343796546105295,-0.0006896905251778662,-0.0005645873607136309,0.000762387877330184,-0.0027822174597531557,0.0013500015484169126,0.002663151826709509,-0.00045843367115594447,0.0031711962074041367,-0.0035883549135178328,-0.0035418737679719925,-0.0015074992552399635,0.0004433996509760618,-0.0035543700214475393,-0.0035737089347094297,-0.0004441109485924244,0.0013326832558959723,-0.001174389966763556,-0.0034579515922814608,0.0019355937838554382,0.001980662113055587,-0.0018396882805973291,0.003413717495277524,-0.0015114116249606013,0.0013529155403375626,0.0014346633106470108,0.002785168820992112,-0.0015021282015368342,0.004083655308932066,0.003564245067536831,-0.0019319235580042005,-0.00127248780336231,-0.0028810088988393545,0.00036038190592080355,0.000430431857239455,0.003135230392217636,0.003312773071229458,-0.0033389884047210217,-0.0007979896618053317,-0.0030040275305509567,2.900119034165982e-05,-0.0015995315043255687,0.0029672414530068636,0.0014473706251010299,-0.0024298634380102158,0.0028739715926349163,0.0025061292108148336,-0.0003228624118492007,0.0035779140889644623,0.0003539808967616409,0.001823821454308927,-0.0015671068103983998,0.0018609295366331935,-0.002423015423119068,-0.002569242613390088,-0.000752086634747684,0.0018049976788461208,0.0014757042517885566,-0.0034100885968655348,-0.003575337352231145,-0.003483047941699624,-0.0038040929939597845,-9.826055611483753e-05,0.0009439516579732299,0.000757899135351181,0.002754141576588154,0.0036291396245360374,-0.003668190212920308,0.001701652305200696,0.00023745623184368014,0.0023958261590451,0.0005578595446422696,-0.0018591850530356169,0.0005957406829111278,-1.7879261577036232e-05,-4.8119709390448406e-05,-0.003857820061966777,0.00029593874933198094,0.0026431106962263584,-0.00011861006350954995,-0.00227992027066648,-0.001131465076468885,0.0034082108177244663,-0.003697217907756567,-0.0009418500703759491,0.0025168934371322393,0.0006235719192773104,0.0006525209173560143,0.0010671359486877918,0.00029615528183057904,-0.003518513636663556,-0.0018076928099617362,0.0025242059491574764,0.001605176948942244,0.0001568319567013532,-0.0037808953784406185,-0.002717177849262953,-0.0030493817757815123,-0.003874860005453229
0.00032710094819776714,-0.0009665177785791457,0.0003778865502681583,-0.0029057946521788836,-0.0015780190005898476,0.0003096159780398011,-0.003773940959945321,0.002982121193781495,0.0035444421228021383,0.0024943097960203886,0.0011638486757874489,-0.003279196796938777,0.002561932895332575,0.0006230446160770953,-0.003861083649098873,-0.0007327877101488411,0.001255622017197311,0.00018173910211771727,0.0007083641830831766,-0.0025707525201141834,0.0037387581542134285,-0.0026024936232715845,0.0017268271185457706,0.0006666698609478772,0.0017170821083709598,0.0004324879264459014,-0.003029902232810855,-0.00320404302328825,-0.0008582138107158244,0.0038727824576199055,-0.0006463131285272539,0.0007798390579409897,-0.0037677332293242216,0.00016251008491963148,0.0025052770506590605,0.0022036745212972164,0.0007793509867042303,0.001079208217561245,-0.0034358175471425056,-0.003111083758994937,-0.001391239813528955,-0.0015186209930106997,0.00024789429153315723,-0.0030008472967892885,-0.001616105786524713,-0.0018182196654379368,-0.0019936433527618647,0.001984959002584219,0.0026575142983347178,-0.00032059650402516127,-0.0020493166521191597,-0.003160411026328802,0.0032249458599835634,0.0019322517327964306,0.0032315903808921576,-0.002849265467375517,-0.0017679501324892044,-0.002759814728051424,-0.0024560578167438507,-0.0035803320351988077,-0.00010137983917957172,0.0029791148845106363,0.00017901758837979287,0.0017536248778924346,0.0030237578321248293,-0.0015922642778605223,-0.00021489769278559834,0.0022738194093108177,-0.002238823100924492,-0.0006565978401340544,-0.0026306193321943283,0.003363238414749503,-0.0012364719295874238,0.00041653114021755755,0.002200373914092779,0.001254888018593192,-0.0014409524155780673,0.00010896907042479143,-0.0033551871310919523,0.0012199922930449247,-0.00025369261857122183,0.0002871458127629012,0.0006955054705031216,0.002027353970333934,0.002428250852972269,-0.0013486999087035656,-0.0019474453292787075,-0.0008935562800616026,0.0017570339841768146,0.0016091525321826339,0.0008062325650826097,0.00036585409543477,0.0004755925911013037,0.0008565796306356788,-0.0003168131806887686,0.0036788180004805326,-0.00237922347150743,-0.0037292763590812683,0.0006592460558749735,0.0021433646325021982,0.0033997329883277416,-0.0006975553114898503,0.0021385701838880777,-0.002881208434700966,-0.001463796361349523,-0.0010658346582204103,0.0036795716732740402,-0.0025151618756353855,-0.0017555697122588754,0.0030268297996371984,-0.001378196175210178,-0.0021881796419620514,4.03027115680743e-05,-0.0006100902101024985,0.00020027143182232976,0.000559325038921088,0.0036352716851979494,0.00272671808488667,0.0019825859926640987,-0.0019780537113547325,-0.003460146952420473,-0.0028396027628332376,0.003438799176365137,-0.002024637535214424,0.0003073590632993728,-0.0004984965198673308,0.00010339171421946958,-0.00027217905153520405
-0.003151428187265992,0.0012173744617030025,0.0026296288706362247,0.0010392986005172133,-4.943230305798352e-05,-0.0033431081101298332,0.0009295672061853111,0.0031326571479439735,0.003034608904272318,7.316016126424074e-05,-0.0023175980895757675,0.0013279467821121216,-0.002707861363887787,0.002279309555888176,-0.00397816626355052,-0.0034781352151185274,0.002460597548633814,-0.0008296024170704186,-0.0005715847946703434,-0.002256715903058648,-0.0038298936560750008,0.003619902301579714,-0.0030314757023006678,-0.0034904240164905787,0.0029597277753055096,-0.0023363532964140177,0.0030253431759774685,0.002526277443394065,-0.0038533047772943974,-0.0018990664975717664,-0.0012914068065583706,-0.004001670517027378,0.0024380916729569435,-0.0018501805607229471,0.0016984469257295132,-0.0004146263236179948,-0.0032864378299564123,0.003155820770189166,-0.0019080817000940442,0.0023564144503325224,-0.0038456404581665993,-0.0021884154994040728,-0.0006947697256691754,-0.0038778106682002544,-0.0006066845380701125,0.00034286739537492394,0.0026008684653788805,0.002274147467687726,0.0024963924661278725,0.0008621327579021454,0.0006049470975995064,0.003465606365352869,-0.002256370848044753,0.0034329574555158615,0.0027706949040293694,-0.0010210381587967277,0.00303935119882226,-0.00013157528883311898,-0.0034371980000287294,0.0002457878435961902,0.0016191120957955718,-0.002238031942397356,-0.0010703312000259757,0.0008855938795022666,0.0023937849327921867,-0.00392411183565855,-0.001048907171934843,0.003016014816239476,-0.0009446382173337042,-0.00019442201300989836,-0.0021908506751060486,-0.0014943616697564721,0.0020189082715660334,0.002076302655041218,0.0023928540758788586,-0.001988006755709648,0.0024258645717054605,0.0026490886230021715,0.003803497413173318,0.0006592184654437006,-0.000733755761757493,-0.003117800923064351,0.0032269891817122698,0.002969803288578987,-0.002296161139383912,-0.0022342661395668983,-0.0003956680011469871,0.0003318372182548046,9.879573553916998e-06,-0.0021854310762137175,0.00032056160853244364,-0.0011973567306995392,0.0022758846171200275,0.00042711925925686955,-0.001146485679782927,0.002851220779120922,-0.0021582073532044888,0.0030414860229939222,0.0016549767460674047,-0.0012829022016376257,0.003462132764980197,-0.0025945398956537247,-0.0029488091822713614,-0.0030036524403840303,0.00036682968493551016,0.001769517781212926,0.002808273769915104,-0.0004311137890908867,-0.003574018133804202,0.0038650112692266703,-0.0017987263854593039,-0.000479102018289268,-0.0030257783364504576,-0.0009077540598809719,0.001309793209657073,-8.389950380660594e-05,-0.0015549673698842525,-0.0036107460036873817,0.000633929914329201,-0.0035954334307461977,-0.002723084297031164,0.003164028050377965,-0.0018921630689874291,0.0011147985933348536,0.0021977992728352547,-0.0027909199707210064,-0.0027954874094575644,0.0010485061211511493
0.0006220369250513613,-0.002365292515605688,-0.0035657226108014584,-0.00367802195250988,-0.001212128670886159,-0.003944583237171173,-0.0006482095341198146,0.0033702123910188675,0.0019063916988670826,0.0006100195460021496,-0.003395280335098505,-0.0006156631861813366,0.0008912498597055674,0.0018979660235345364,0.0030024691950529814,-0.002132090274244547,-0.0015770613681524992,0.003707906464114785,-2.518718429200817e-05,0.0022580167278647423,-0.002666067099198699,-0.0020552808418869972,0.0019286882597953081,-0.002403584308922291,0.0025397739373147488,-0.003633122658357024,-0.001150172553025186,-2.5492185159237124e-05,-0.0020932736806571484,0.002723299665376544,0.0037547911051660776,0.0035888946149498224,-0.004002328496426344,-0.0033429802861064672,0.002291971817612648,-0.0024500733707100153,0.001961569534614682,0.0019948421977460384,-0.00042559942812658846,0.0007556849159300327,-0.002048239577561617,9.448484343010932e-05,0.001990100834518671,0.003747673239558935,-0.0012545353965833783,-0.0007977596833370626,0.0010079905623570085,-0.0010306969052180648,-0.0004387747321743518,0.001393113168887794,0.001389515702612698,0.0008393701282329857,0.0012353149941191077,0.0009233210003003478,0.00034130256972275674,0.0032579246908426285,-0.00383333140052855,0.0034215550404042006,-0.0007968347053974867,-0.0030233950819820166,-0.001233539660461247,-0.002718328032642603,0.0004130954621359706,-0.002176338341087103,0.000366371386917308,0.0028047964442521334,-0.0012389388866722584,0.0010103234089910984,-0.0015718111535534263,0.002059618942439556,-0.00015730722225271165,-0.0035595253575593233,-0.002389353234320879,-0.0019679702818393707,0.003911842592060566,0.0030472942162305117,0.0008651864482089877,0.00014068256132304668,-0.0033153691329061985,0.0024608459789305925,-0.002719719661399722,0.0007010498084127903,0.001067116274498403,-0.001468141796067357,-0.0039409976452589035,0.0007331574452109635,-0.003338540904223919,0.00015891739167273045,0.0004037892213091254,-0.00187008420471102,-0.0006472207605838776,0.0037814469542354345,0.0031602750532329082,0.002711947076022625,-0.000870538642629981,-0.0015827430179342628,0.0036621561739593744,-0.0035897414200007915,0.0011786489048972726,-0.0031908340752124786,0.0033797058276832104,0.00262531079351902,0.002676862059161067,0.0017118063988164067,-0.00035130060859955847,0.0014593485975638032,-0.002984730526804924,0.002456445712596178,-0.0012267393758520484,0.0031114760786294937,0.0029962626285851,-0.0018991115503013134,0.002414209535345435,0.002513193292543292,0.002505582058802247,-0.0013792025856673717,0.001143719768151641,-0.0030116464477032423,-0.0023136551026254892,-0.0010924326488748193,0.0027225869707763195,-0.003102511167526245,0.0004741131269838661,0.002622971311211586,0.003631300525739789,0.00031701987609267235,0.002204910386353731,0.0013428954407572746
0.00012046426854794845,0.0022436631843447685,-0.003058369504287839,0.0030219072941690683,-0.0005406687268987298,-0.0006116959266364574,-0.0018549580127000809,-0.00182403065264225,-0.003769066883251071,0.0010440058540552855,-0.0007703317096456885,-0.0027994452975690365,-0.00021426913735922426,0.0024740593507885933,-0.000182936288183555,-0.0014739788603037596,-7.15081041562371e-05,-0.0016905877273529768,-0.0021268005948513746,0.0026176595129072666,0.003190179355442524,-0.0014979607658460736,0.0010998909128829837,-0.0016546760452911258,-0.0017782285576686263,-0.0020255879499018192,0.00037113812868483365,-0.003690517507493496,4.415199509821832e-05,0.0033290761057287455,-0.00115756515879184,0.0004839611647184938,-0.002927671652287245,-0.0007899113115854561,-0.00040178236667998135,-0.0033827912993729115,0.0019910987466573715,-0.0023832242004573345,0.0007373836124315858,0.0007187576848082244,-0.0032817679457366467,-0.0010272926883772016,-0.002646251115947962,0.002976007293909788,-0.0011963254073634744,-0.0018076574197039008,-0.0033200778998434544,0.0038886775728315115,0.0020154807716608047,-0.0008394959149882197,-0.0016161027597263455,0.0008165968465618789,0.0016952120931819081,0.00017705072241369635,-0.003894522087648511,0.0016636853106319904,0.0007205608999356627,-0.003560609184205532,0.0013904598308727145,0.002216615714132786,-0.00036181695759296417,-0.003547298489138484,4.4092474126955494e-05,-0.0003655784821603447,0.0033726308029145002,-0.0024810442700982094,-0.002074587857350707,0.002027324168011546,-0.0029718466103076935,0.0033900411799550056,0.0015974025009199977,0.0012824669247493148,-0.001785687985830009,-0.003383451607078314,0.004008766729384661,0.0029167034663259983,0.0014377636834979057,4.8195928684435785e-05,-0.001613141968846321,-0.0012807041639462113,0.002538766711950302,-0.001800411264412105,0.0019478517351672053,-0.00245562382042408,0.0017035399796441197,-0.0028641903772950172,0.0012896659318357706,0.0007771608652547002,-0.0011451705358922482,-0.002831697463989258,-0.0035656385589390993,-0.0003326663572806865,0.0003088666999246925,0.0009443459566682577,0.0011617385316640139,-0.002528488403186202,-0.0003108696255367249,0.0034855182748287916,-0.002322180662304163,0.0012545805657282472,-0.0010197170777246356,0.0024047757033258677,0.0017252500401809812,0.0017128640320152044,-0.0010077321203425527,0.0012420694110915065,0.0029028519056737423,-4.71315324830357e-05,-0.0024875220842659473,-0.001367367571219802,0.0009985258802771568,0.0005657185683958232,-0.0019167084246873856,-0.0015535694546997547,-0.0008494356297887862,0.0011167466873303056,0.0034711183980107307,-0.0032486433628946543,-0.0035828726831823587,-0.0017034342745319009,-0.002118038712069392,-0.0030772557947784662,0.004040155094116926,-0.0037727635353803635,0.000903720676433295,0.0037274714559316635,-0.0011037257499992847,0.0014409064315259457
